1 1 0.0 -1 0.6897896436947635 -1 0.9941339086138039 -1 0.05555930394568431 -1 -0.13526887339736704 -1 -0.6552203507153547 1 0.9780171809080105 -1 0.32623258246481934 -1 0.6770688327531431 1 -0.018525071340485644 1 -0.18833402611066008 1 0.11729328093267921 -1 0.4144560777954356 -1 0.30137640047516756 -1 -0.9682401010112256 -1 0.2988107241159852 -1 0.32863407364361263 -1 0.719321334606527 1 -0.7511273126609059 1 0.9621869689240918 -1 -0.8646820204641785 1 -0.3771677892455989 -1 0.4860401852719818 1 -0.04979822682229407 -1 -0.7381137840622269 1 0.050444150228285745 -1 -0.28402333962246007 -1 0.48371665485491033 -1 -0.28660663541593245 1 0.25374529768318266 -1 0.6420607200875965 1 0.8432602657971349 1 -0.5182481983891312 -1 0.9846987251782808 1 0.7278159145714118 1 -0.18427271351260543 1 0.5665946262812207 1 0.7780002252148353 1 0.33631359078141143 -1 0.10678509439856065 1 0.8979402764172713 -1 -0.5517779364264703 -1 0.5856962679896172 1 -0.8715906568552989 1 0.6344578961084122 -1 0.7080203103444227 1 0.8030732910691305 1 0.7095407362362289 -1 0.9301749520631597 1 -0.38778192935631295 -1 0.02183669064123306 1 0.20998018012746122 1 0.5516506975751319 1 -0.24862489705532953 -1 -0.5746569639680952 -1 -0.009772984160738574 -1 0.7268565522490744 -1 -0.8518181292779452 -1 0.014839511142007655 -1 -0.11917390633393166 -1 -0.45712883428284834 -1 -0.9453144610991064 -1 0.5734641090114785 1 -0.555382420623596 -1 -0.756600454868553 1 0.9345050101650478 1 -0.8496974398343211 -1 0.4093946440224736 -1 -0.980795397026367 -1 -0.3656533641004571 1 0.11619511947209116 1 0.3858620118369698 -1 -0.775151129289013 1 -0.33902627572351385 -1 0.7554235464054053 1 0.3828366853559926 -1 0.5023669488266149 -1 0.6780696987794732 1 0.5723689814185899 -1 0.8753178193290385 -1 -0.08467497110717503 1 -0.4047986599079876 1 0.5237397868113969 -1 -0.49278856158679063 -1 -0.456457839039037 1 -0.8322103092175099 1 0.668525200491872 1 -0.9496302215969643 -1 -0.43108546567308004 -1 0.4983502168184919 1 -0.9795913042964299 1 0.39406250690342914 1 -0.6064309426459356 1 0.28448496341081797 1 -0.19288473039151932 1 0.40055544452879 1 -0.42100246650058315 -1 -0.9696289330517858 1 0.9408649331557801 -1 0.687907888471871
2 1 0.0 -1 0.6897506653238477 -1 0.9940923531605135 -1 0.0554977761039908 -1 -0.13529119277150417 -1 -0.6552416576642732 1 0.978053674235208 -1 0.32615550009022204 -1 0.6770349165083203 1 -0.01855788312143364 1 -0.18830287102552432 1 0.11721619855808188 -1 0.4143894878276491 -1 0.30131487263347406 -1 -0.9682452091566467 -1 0.2987647508071955 -1 0.32854143673611147 -1 0.719240846801649 1 -0.7511290153760463 1 0.9621934576493565 -1 -0.8646871286095996 1 -0.37712347263262147 -1 0.4860159330860637 1 -0.049765415041346066 -1 -0.7381540509743301 1 0.05050567806997926 -1 -0.28408321076834137 -1 0.4837079572018961 -1 -0.2866509520289099 1 0.25380682552487616 -1 0.6419721328809698 1 0.8433251990691091 1 -0.5182153866081831 -1 0.9846832166647052 1 0.7279119569091936 1 -0.18423888930643884 1 0.5666097666401715 1 0.7780962675526171 1 0.3364062276889126 -1 0.10670801202396332 1 0.8979591903611277 -1 -0.5518107482074184 -1 0.5856181731898012 1 -0.8715855487098778 1 0.6344625440605521 -1 0.7080132693872206 1 0.8031537788740085 1 0.709621224041107 -1 0.9301560381193033 1 -0.3877450678744906 -1 0.021775162799539546 1 0.21005726250205856 1 0.5517338545010407 1 -0.24856502590944826 -1 -0.5746488185470183 -1 -0.009758396033725228 -1 0.7267605099112926 -1 -0.8518387919562701 -1 0.014793537833217964 -1 -0.11921178024097262 -1 -0.45717720059670014 -1 -0.9453195692445275 -1 0.5734015687445664 1 -0.5553905660446729 -1 -0.7566211175468779 1 0.934569943437022 1 -0.8497082543764288 -1 0.40934360858759095 -1 -0.9807538415730765 -1 -0.36569768071343456 1 0.11627220184668849 1 0.3859235396786633 -1 -0.7751352526208123 1 -0.3389819591105364 -1 0.7553275040676235 1 0.3829137677305899 -1 0.5022682373678022 -1 0.6780691005282077 1 0.572431521685502 -1 0.8752528860570643 -1 -0.08468955923418837 1 -0.40483552138980994 1 0.5238384982702096 -1 -0.4928213733677386 -1 -0.4565217598857927 1 -0.832194708665278 1 0.6686137876984988 1 -0.9496251134515432 -1 -0.4310445544903833 -1 0.49833995450832164 1 -0.9795653033760434 1 0.3940629210773822 1 -0.6063866260329581 1 0.28453093671960766 1 -0.19286342344260077 1 0.4006179847957021 1 -0.42094259535470185 -1 -0.9696184866643031 1 0.9408869764139486 -1 0.6879924259776234
3 1 0.0 -1 0.6897116869529318 -1 0.994050797707223 -1 0.05543624826229729 -1 -0.1353135121456413 -1 -0.6552629646131918 1 0.9780901675624054 -1 0.32607841771562474 -1 0.6770010002634974 1 -0.01859069490238164 1 -0.18827171594038855 1 0.11713911618348455 -1 0.41432289785986265 -1 0.30125334479178056 -1 -0.9682503173020678 -1 0.2987187774984058 -1 0.3284487998286103 -1 0.719160358996771 1 -0.7511307180911866 1 0.9621999463746211 -1 -0.8646922367550207 1 -0.37707915601964404 -1 0.48599168090014566 1 -0.049732603260398064 -1 -0.7381943178864332 1 0.05056720591167277 -1 -0.28414308191422266 -1 0.4836992595488818 -1 -0.2866952686418873 1 0.25386835336656965 -1 0.641883545674343 1 0.8433901323410833 1 -0.5181825748272351 -1 0.9846677081511295 1 0.7280079992469755 1 -0.18420506510027224 1 0.5666249069991223 1 0.7781923098903989 1 0.33649886459641376 -1 0.10663092964936599 1 0.8979781043049841 -1 -0.5518435599883664 -1 0.5855400783899853 1 -0.8715804405644567 1 0.6344671920126921 -1 0.7080062284300186 1 0.8032342666788865 1 0.709701711845985 -1 0.9301371241754468 1 -0.38770820639266823 -1 0.021713634957846034 1 0.2101343448766559 1 0.5518170114269496 1 -0.248505154763567 -1 -0.5746406731259415 -1 -0.009743807906711883 -1 0.7266644675735108 -1 -0.851859454634595 -1 0.014747564524428273 -1 -0.11924965414801358 -1 -0.45722556691055194 -1 -0.9453246773899486 -1 0.5733390284776543 1 -0.5553987114657497 -1 -0.7566417802252028 1 0.9346348767089963 1 -0.8497190689185365 -1 0.4092925731527083 -1 -0.9807122861197861 -1 -0.365741997326412 1 0.11634928422128582 1 0.3859850675203568 -1 -0.7751193759526116 1 -0.338937642497559 -1 0.7552314617298417 1 0.3829908501051872 -1 0.5021695259089896 -1 0.6780685022769422 1 0.5724940619524141 -1 0.8751879527850901 -1 -0.08470414736120171 1 -0.4048723828716323 1 0.5239372097290222 -1 -0.4928541851486866 -1 -0.45658568073254835 1 -0.8321791081130461 1 0.6687023749051255 1 -0.9496200053061221 -1 -0.4310036433076866 -1 0.4983296921981514 1 -0.9795393024556569 1 0.3940633352513353 1 -0.6063423094199807 1 0.28457691002839736 1 -0.19284211649368221 1 0.4006805250626142 1 -0.42088272420882056 -1 -0.9696080402768203 1 0.940909019672117 -1 0.6880769634833759
4 1 0.0 -1 0.689672708582016 -1 0.9940092422539326 -1 0.055374720420603776 -1 -0.13533583151977843 -1 -0.6552842715621103 1 0.9781266608896029 -1 0.32600133534102743 -1 0.6769670840186746 1 -0.018623506683329637 1 -0.1882405608552528 1 0.11706203380888722 -1 0.4142563078920762 -1 0.30119181695008707 -1 -0.9682554254474889 -1 0.2986728041896161 -1 0.32835616292110914 -1 0.719079871191893 1 -0.7511324208063269 1 0.9622064350998858 -1 -0.8646973449004418 1 -0.3770348394066666 -1 0.4859674287142276 1 -0.04969979147945006 -1 -0.7382345847985363 1 0.05062873375336628 -1 -0.28420295306010396 -1 0.48369056189586757 -1 -0.28673958525486476 1 0.25392988120826315 -1 0.6417949584677163 1 0.8434550656130575 1 -0.518149763046287 -1 0.9846521996375538 1 0.7281040415847573 1 -0.18417124089410564 1 0.566640047358073 1 0.7782883522281807 1 0.3365915015039149 -1 0.10655384727476866 1 0.8979970182488406 -1 -0.5518763717693145 -1 0.5854619835901694 1 -0.8715753324190356 1 0.634471839964832 -1 0.7079991874728165 1 0.8033147544837645 1 0.709782199650863 -1 0.9301182102315904 1 -0.38767134491084587 -1 0.021652107116152522 1 0.21021142725125322 1 0.5519001683528585 1 -0.24844528361768572 -1 -0.5746325277048646 -1 -0.009729219779698537 -1 0.726568425235729 -1 -0.8518801173129199 -1 0.014701591215638582 -1 -0.11928752805505455 -1 -0.45727393322440374 -1 -0.9453297855353697 -1 0.5732764882107422 1 -0.5554068568868266 -1 -0.7566624429035277 1 0.9346998099809705 1 -0.8497298834606443 -1 0.4092415377178256 -1 -0.9806707306664957 -1 -0.36578631393938943 1 0.11642636659588315 1 0.38604659536205027 -1 -0.7751034992844109 1 -0.33889332588458154 -1 0.7551354193920599 1 0.3830679324797845 -1 0.5020708144501769 -1 0.6780679040256766 1 0.5725566022193262 -1 0.8751230195131159 -1 -0.08471873548821506 1 -0.40490924435345466 1 0.5240359211878349 -1 -0.4928869969296346 -1 -0.456649601579304 1 -0.8321635075608141 1 0.6687909621117523 1 -0.949614897160701 -1 -0.43096273212498987 -1 0.4983194298879811 1 -0.9795133015352704 1 0.3940637494252884 1 -0.6062979928070032 1 0.28462288333718705 1 -0.19282080954476366 1 0.4007430653295263 1 -0.42082285306293926 -1 -0.9695975938893376 1 0.9409310629302855 -1 0.6881615009891283
5 1 0.0 -1 0.6896337302111002 -1 0.9939676868006422 -1 0.055313192578910264 -1 -0.13535815089391556 -1 -0.6553055785110289 1 0.9781631542168003 -1 0.32592425296643013 -1 0.6769331677738517 1 -0.018656318464277635 1 -0.18820940577011702 1 0.11698495143428989 -1 0.4141897179242897 -1 0.30113028910839357 -1 -0.96826053359291 -1 0.2986268308808264 -1 0.328263526013608 -1 0.718999383387015 1 -0.7511341235214672 1 0.9622129238251504 -1 -0.8647024530458629 1 -0.37699052279368916 -1 0.48594317652830954 1 -0.04966697969850206 -1 -0.7382748517106394 1 0.05069026159505979 -1 -0.28426282420598525 -1 0.4836818642428533 -1 -0.2867839018678422 1 0.25399140904995665 -1 0.6417063712610895 1 0.8435199988850317 1 -0.518116951265339 -1 0.9846366911239781 1 0.7282000839225391 1 -0.18413741668793904 1 0.5666551877170238 1 0.7783843945659625 1 0.3366841384114161 -1 0.10647676490017133 1 0.898015932192697 -1 -0.5519091835502625 -1 0.5853838887903535 1 -0.8715702242736145 1 0.634476487916972 -1 0.7079921465156145 1 0.8033952422886426 1 0.709862687455741 -1 0.9300992962877339 1 -0.3876344834290235 -1 0.02159057927445901 1 0.21028850962585055 1 0.5519833252787674 1 -0.24838541247180446 -1 -0.5746243822837878 -1 -0.009714631652685192 -1 0.7264723828979471 -1 -0.8519007799912448 -1 0.01465561790684889 -1 -0.11932540196209551 -1 -0.45732229953825554 -1 -0.9453348936807908 -1 0.5732139479438301 1 -0.5554150023079034 -1 -0.7566831055818526 1 0.9347647432529447 1 -0.849740698002752 -1 0.40919050228294296 -1 -0.9806291752132053 -1 -0.36583063055236686 1 0.11650344897048048 1 0.38610812320374377 -1 -0.7750876226162102 1 -0.3388490092716041 -1 0.755039377054278 1 0.3831450148543818 -1 0.5019721029913642 -1 0.6780673057744111 1 0.5726191424862384 -1 0.8750580862411417 -1 -0.0847333236152284 1 -0.404946105835277 1 0.5241346326466476 -1 -0.4929198087105826 -1 -0.45671352242605967 1 -0.8321479070085822 1 0.668879549318379 1 -0.9496097890152799 -1 -0.43092182094229314 -1 0.49830916757781085 1 -0.9794873006148839 1 0.39406416359924146 1 -0.6062536761940258 1 0.28466885664597674 1 -0.1927995025958451 1 0.4008056055964384 1 -0.42076298191705797 -1 -0.9695871475018549 1 0.940953106188454 -1 0.6882460384948808
6 1 0.0 -1 0.6895947518401844 -1 0.9939261313473517 -1 0.05525166473721675 -1 -0.1353804702680527 -1 -0.6553268854599474 1 0.9781996475439978 -1 0.3258471705918328 -1 0.6768992515290289 1 -0.018689130245225633 1 -0.18817825068498126 1 0.11690786905969255 -1 0.41412312795650325 -1 0.30106876126670007 -1 -0.9682656417383311 -1 0.29858085757203673 -1 0.3281708891061068 -1 0.718918895582137 1 -0.7511358262366076 1 0.9622194125504151 -1 -0.864707561191284 1 -0.37694620618071173 -1 0.4859189243423915 1 -0.04963416791755406 -1 -0.7383151186227426 1 0.050751789436753306 -1 -0.28432269535186655 -1 0.48367316658983905 -1 -0.28682821848081963 1 0.25405293689165015 -1 0.6416177840544628 1 0.8435849321570059 1 -0.5180841394843909 -1 0.9846211826104024 1 0.7282961262603209 1 -0.18410359248177244 1 0.5666703280759746 1 0.7784804369037444 1 0.33677677531891725 -1 0.106399682525574 1 0.8980348461365535 -1 -0.5519419953312106 -1 0.5853057939905376 1 -0.8715651161281934 1 0.6344811358691119 -1 0.7079851055584124 1 0.8034757300935206 1 0.709943175260619 -1 0.9300803823438775 1 -0.38759762194720115 -1 0.021529051432765497 1 0.21036559200044788 1 0.5520664822046762 1 -0.2483255413259232 -1 -0.5746162368627109 -1 -0.009700043525671847 -1 0.7263763405601653 -1 -0.8519214426695697 -1 0.0146096445980592 -1 -0.11936327586913648 -1 -0.45737066585210734 -1 -0.9453400018262119 -1 0.573151407676918 1 -0.5554231477289803 -1 -0.7567037682601775 1 0.9348296765249189 1 -0.8497515125448597 -1 0.4091394668480603 -1 -0.9805876197599148 -1 -0.3658749471653443 1 0.11658053134507781 1 0.38616965104543727 -1 -0.7750717459480095 1 -0.33880469265862667 -1 0.7549433347164962 1 0.3832220972289791 -1 0.5018733915325515 -1 0.6780667075231456 1 0.5726816827531505 -1 0.8749931529691675 -1 -0.08474791174224174 1 -0.4049829673170994 1 0.5242333441054603 -1 -0.4929526204915306 -1 -0.45677744327281533 1 -0.8321323064563503 1 0.6689681365250058 1 -0.9496046808698588 -1 -0.4308809097595964 -1 0.4982989052676406 1 -0.9794612996944974 1 0.39406457777319454 1 -0.6062093595810484 1 0.28471482995476644 1 -0.19277819564692655 1 0.4008681458633505 1 -0.42070311077117667 -1 -0.9695767011143722 1 0.9409751494466224 -1 0.6883305760006332
7 1 0.0 -1 0.6895557734692686 -1 0.9938845758940613 -1 0.05519013689552324 -1 -0.13540278964218982 -1 -0.655348192408866 1 0.9782361408711953 -1 0.3257700882172355 -1 0.676865335284206 1 -0.01872194202617363 1 -0.1881470955998455 1 0.11683078668509522 -1 0.4140565379887168 -1 0.30100723342500657 -1 -0.9682707498837522 -1 0.29853488426324704 -1 0.32807825219860565 -1 0.7188384077772589 1 -0.7511375289517479 1 0.9622259012756798 -1 -0.8647126693367051 1 -0.3769018895677343 -1 0.4858946721564734 1 -0.04960135613660606 -1 -0.7383553855348457 1 0.05081331727844682 -1 -0.28438256649774785 -1 0.4836644689368248 -1 -0.28687253509379707 1 0.25411446473334365 -1 0.641529196847836 1 0.8436498654289801 1 -0.5180513277034429 -1 0.9846056740968268 1 0.7283921685981027 1 -0.18406976827560584 1 0.5666854684349254 1 0.7785764792415262 1 0.3368694122264184 -1 0.10632260015097666 1 0.8980537600804099 -1 -0.5519748071121586 -1 0.5852276991907217 1 -0.8715600079827723 1 0.6344857838212519 -1 0.7079780646012104 1 0.8035562178983986 1 0.710023663065497 -1 0.930061468400021 1 -0.3875607604653788 -1 0.021467523591071985 1 0.2104426743750452 1 0.5521496391305851 1 -0.24826567018004192 -1 -0.574608091441634 -1 -0.009685455398658501 -1 0.7262802982223835 -1 -0.8519421053478946 -1 0.014563671289269508 -1 -0.11940114977617744 -1 -0.45741903216595914 -1 -0.945345109971633 -1 0.5730888674100059 1 -0.5554312931500571 -1 -0.7567244309385024 1 0.9348946097968931 1 -0.8497623270869674 -1 0.40908843141317763 -1 -0.9805460643066244 -1 -0.36591926377832174 1 0.11665761371967515 1 0.38623117888713077 -1 -0.7750558692798089 1 -0.33876037604564924 -1 0.7548472923787144 1 0.3832991796035764 -1 0.5017746800737388 -1 0.67806610927188 1 0.5727442230200626 -1 0.8749282196971933 -1 -0.08476249986925508 1 -0.40501982879892173 1 0.524332055564273 -1 -0.4929854322724786 -1 -0.456841364119571 1 -0.8321167059041183 1 0.6690567237316325 1 -0.9495995727244377 -1 -0.4308399985768997 -1 0.49828864295747033 1 -0.9794352987741108 1 0.3940649919471476 1 -0.6061650429680709 1 0.28476080326355613 1 -0.192756888698008 1 0.4009306861302626 1 -0.4206432396252954 -1 -0.9695662547268895 1 0.9409971927047909 -1 0.6884151135063856
8 1 0.0 -1 0.6895167950983527 -1 0.9938430204407709 -1 0.05512860905382973 -1 -0.13542510901632696 -1 -0.6553694993577845 1 0.9782726341983927 -1 0.3256930058426382 -1 0.6768314190393832 1 -0.01875475380712163 1 -0.18811594051470973 1 0.11675370431049789 -1 0.4139899480209303 -1 0.3009457055833131 -1 -0.9682758580291733 -1 0.29848891095445734 -1 0.3279856152911045 -1 0.7187579199723809 1 -0.7511392316668882 1 0.9622323900009444 -1 -0.8647177774821262 1 -0.37685757295475686 -1 0.48587041997055536 1 -0.04956854435565806 -1 -0.7383956524469488 1 0.05087484512014033 -1 -0.28444243764362914 -1 0.48365577128381054 -1 -0.2869168517067745 1 0.25417599257503715 -1 0.6414406096412093 1 0.8437147987009543 1 -0.5180185159224948 -1 0.9845901655832511 1 0.7284882109358846 1 -0.18403594406943924 1 0.5667006087938762 1 0.778672521579308 1 0.3369620491339196 -1 0.10624551777637933 1 0.8980726740242664 -1 -0.5520076188931067 -1 0.5851496043909058 1 -0.8715548998373512 1 0.6344904317733918 -1 0.7079710236440083 1 0.8036367057032766 1 0.710104150870375 -1 0.9300425544561646 1 -0.38752389898355644 -1 0.021405995749378473 1 0.21051975674964254 1 0.552232796056494 1 -0.24820579903416065 -1 -0.5745999460205572 -1 -0.009670867271645156 -1 0.7261842558846017 -1 -0.8519627680262195 -1 0.014517697980479817 -1 -0.1194390236832184 -1 -0.45746739847981094 -1 -0.9453502181170541 -1 0.5730263271430938 1 -0.555439438571134 -1 -0.7567450936168273 1 0.9349595430688673 1 -0.8497731416290751 -1 0.40903739597829497 -1 -0.980504508853334 -1 -0.36596358039129917 1 0.11673469609427248 1 0.38629270672882426 -1 -0.7750399926116082 1 -0.3387160594326718 -1 0.7547512500409326 1 0.3833762619781737 -1 0.5016759686149261 -1 0.6780655110206145 1 0.5728067632869747 -1 0.874863286425219 -1 -0.08477708799626842 1 -0.4050566902807441 1 0.5244307670230857 -1 -0.4930182440534266 -1 -0.45690528496632665 1 -0.8321011053518864 1 0.6691453109382592 1 -0.9495944645790166 -1 -0.430799087394203 -1 0.49827838064730007 1 -0.9794092978537243 1 0.3940654061211007 1 -0.6061207263550935 1 0.2848067765723458 1 -0.19273558174908945 1 0.4009932263971747 1 -0.4205833684794141 -1 -0.9695558083394068 1 0.9410192359629593 -1 0.6884996510121381
9 1 0.0 -1 0.6894778167274369 -1 0.9938014649874805 -1 0.055067081212136215 -1 -0.1354474283904641 -1 -0.6553908063067031 1 0.9783091275255902 -1 0.3256159234680409 -1 0.6767975027945603 1 -0.018787565588069627 1 -0.18808478542957396 1 0.11667662193590056 -1 0.41392335805314384 -1 0.3008841777416196 -1 -0.9682809661745944 -1 0.29844293764566765 -1 0.3278929783836033 -1 0.7186774321675029 1 -0.7511409343820286 1 0.9622388787262091 -1 -0.8647228856275473 1 -0.3768132563417794 -1 0.4858461677846373 1 -0.049535732574710056 -1 -0.738435919359052 1 0.05093637296183384 -1 -0.28450230878951044 -1 0.4836470736307963 -1 -0.28696116831975194 1 0.25423752041673064 -1 0.6413520224345826 1 0.8437797319729285 1 -0.5179857041415468 -1 0.9845746570696754 1 0.7285842532736664 1 -0.18400211986327264 1 0.566715749152827 1 0.7787685639170898 1 0.33705468604142075 -1 0.106168435401782 1 0.8980915879681228 -1 -0.5520404306740547 -1 0.5850715095910899 1 -0.8715497916919301 1 0.6344950797255318 -1 0.7079639826868063 1 0.8037171935081546 1 0.710184638675253 -1 0.9300236405123081 1 -0.3874870375017341 -1 0.02134446790768496 1 0.21059683912423988 1 0.5523159529824029 1 -0.24814592788827938 -1 -0.5745918005994803 -1 -0.00965627914463181 -1 0.7260882135468198 -1 -0.8519834307045444 -1 0.014471724671690125 -1 -0.11947689759025937 -1 -0.45751576479366274 -1 -0.9453553262624752 -1 0.5729637868761817 1 -0.5554475839922108 -1 -0.7567657562951522 1 0.9350244763408415 1 -0.8497839561711829 -1 0.4089863605434123 -1 -0.9804629534000435 -1 -0.3660078970042766 1 0.11681177846886981 1 0.38635423457051776 -1 -0.7750241159434075 1 -0.33867174281969437 -1 0.7546552077031508 1 0.383453344352771 -1 0.5015772571561135 -1 0.678064912769349 1 0.5728693035538868 -1 0.8747983531532448 -1 -0.08479167612328176 1 -0.40509355176256645 1 0.5245294784818983 -1 -0.4930510558343746 -1 -0.4569692058130823 1 -0.8320855047996545 1 0.669233898144886 1 -0.9495893564335955 -1 -0.43075817621150625 -1 0.4982681183371298 1 -0.9793832969333378 1 0.39406582029505377 1 -0.6060764097421161 1 0.2848527498811355 1 -0.1927142748001709 1 0.4010557666640868 1 -0.4205234973335328 -1 -0.9695453619519241 1 0.9410412792211278 -1 0.6885841885178905
10 1 0.0 -1 0.6894388383565211 -1 0.99375990953419 -1 0.0550055533704427 -1 -0.13546974776460122 -1 -0.6554121132556217 1 0.9783456208527876 -1 0.3255388410934436 -1 0.6767635865497375 1 -0.018820377369017625 1 -0.1880536303444382 1 0.11659548986042886 -1 0.4138567680853574 -1 0.3008226498999261 -1 -0.9682860743200155 -1 0.29839696433687796 -1 0.32780034147610215 -1 0.7185969443626249 1 -0.7511426370971689 1 0.9622453674514737 -1 -0.8647279937729684 1 -0.376768939728802 -1 0.48582191559871923 1 -0.049502920793762055 -1 -0.7384761862711551 1 0.050997900803527355 -1 -0.28456217993539173 -1 0.48363837597778203 -1 -0.28700548493272937 1 0.25429904825842414 -1 0.6412634352279558 1 0.8438446652449028 1 -0.5179528923605987 -1 0.9845591485560997 1 0.7286802956114482 1 -0.18396829565710604 1 0.5667308895117777 1 0.7788646062548716 1 0.3371473229489219 -1 0.10609135302718467 1 0.8981105019119793 -1 -0.5520732424550028 -1 0.584993414791274 1 -0.871544683546509 1 0.6344997276776717 -1 0.7079569417296042 1 0.8037976813130326 1 0.7102651264801311 -1 0.9300047265684517 1 -0.3874501760199117 -1 0.02128294006599145 1 0.2106739214988372 1 0.5523991099083118 1 -0.24808605674239811 -1 -0.5745836551784035 -1 -0.009641691017618465 -1 0.725992171209038 -1 -0.8520040933828693 -1 0.014425751362900434 -1 -0.11951477149730033 -1 -0.45756413110751454 -1 -0.9453604344078963 -1 0.5729012466092696 1 -0.5554557294132877 -1 -0.7567864189734771 1 0.9350894096128157 1 -0.8497947707132906 -1 0.40893532510852965 -1 -0.9804213979467531 -1 -0.36605221361725404 1 0.1168929105443415 1 0.38641576241221126 -1 -0.7750082392752068 1 -0.33862742620671693 -1 0.7545591653653689 1 0.3835304267273683 -1 0.5014785456973008 -1 0.6780643145180835 1 0.5729318438207989 -1 0.8747334198812706 -1 -0.0848062642502951 1 -0.4051304132443888 1 0.524628189940711 -1 -0.4930838676153226 -1 -0.457033126659838 1 -0.8320699042474226 1 0.6693224853515127 1 -0.9495842482881744 -1 -0.4307172650288095 -1 0.49825785602695954 1 -0.9793572960129513 1 0.39406623446900685 1 -0.6060320931291386 1 0.2848987231899252 1 -0.19269296785125234 1 0.4011183069309989 1 -0.4204636261876515 -1 -0.9695349155644414 1 0.9410633224792962 -1 0.6886687260236429
11 1 0.0 -1 0.6893998599856053 -1 0.9937183540808996 -1 0.05494402552874919 -1 -0.13549206713873835 -1 -0.6554334202045402 1 0.9783821141799851 -1 0.3254617587188463 -1 0.6767296703049146 1 -0.018853189149965623 1 -0.18802247525930244 1 0.11651435778495717 -1 0.4137901781175709 -1 0.3007611220582326 -1 -0.9682911824654366 -1 0.29835099102808826 -1 0.327707704568601 -1 0.7185164565577469 1 -0.7511443398123092 1 0.9622518561767384 -1 -0.8647331019183895 1 -0.37672462311582455 -1 0.4857976634128012 1 -0.049470109012814054 -1 -0.7385164531832582 1 0.05105942864522087 -1 -0.28462205108127303 -1 0.4836296783247678 -1 -0.2870498015457068 1 0.25436057610011764 -1 0.6411748480213291 1 0.843909598516877 1 -0.5179200805796507 -1 0.984543640042524 1 0.72877633794923 1 -0.18393447145093944 1 0.5667460298707285 1 0.7789606485926535 1 0.3372399598564231 -1 0.10601427065258734 1 0.8981294158558357 -1 -0.5521060542359508 -1 0.5849153199914581 1 -0.871539575401088 1 0.6345043756298117 -1 0.7079499007724022 1 0.8038781691179107 1 0.7103456142850091 -1 0.9299858126245952 1 -0.38741331453808936 -1 0.021221412224297936 1 0.21075100387343454 1 0.5524822668342206 1 -0.24802618559651685 -1 -0.5745755097573266 -1 -0.00962710289060512 -1 0.7258961288712562 -1 -0.8520247560611942 -1 0.014379778054110743 -1 -0.1195526454043413 -1 -0.45761249742136634 -1 -0.9453655425533174 -1 0.5728231518094536 1 -0.5554638748343645 -1 -0.756807081651802 1 0.9351543428847899 1 -0.8498055852553983 -1 0.408884289673647 -1 -0.9803798424934627 -1 -0.3660965302302315 1 0.1169740426198132 1 0.38647729025390476 -1 -0.7749923626070061 1 -0.3385831095937395 -1 0.7544631230275871 1 0.3836075091019656 -1 0.5013798342384881 -1 0.6780637162668179 1 0.5730099386206148 -1 0.8746684866092964 -1 -0.08482085237730844 1 -0.40516727472621117 1 0.5247269013995237 -1 -0.4931166793962706 -1 -0.45709704750659363 1 -0.8320543036951906 1 0.6694110725581395 1 -0.9495791401427534 -1 -0.4306763538461128 -1 0.4982475937167893 1 -0.9793312950925648 1 0.3940666486429599 1 -0.6059877765161612 1 0.2849446964987149 1 -0.19267166090233379 1 0.40118084719791103 1 -0.4204037550417702 -1 -0.9695244691769587 1 0.9410853657374647 -1 0.6887532635293954
12 1 0.0 -1 0.6893608816146894 -1 0.9936767986276092 -1 0.05488249768705568 -1 -0.13551438651287548 -1 -0.6554547271534588 1 0.9784186075071826 -1 0.325384676344249 -1 0.6766957540600917 1 -0.01888600093091362 1 -0.18799132017416667 1 0.11643322570948547 -1 0.41372358814978444 -1 0.3006995942165391 -1 -0.9682962906108576 -1 0.29830501771929857 -1 0.3276150676610998 -1 0.7184359687528689 1 -0.7511460425274495 1 0.962258344902003 -1 -0.8647382100638106 1 -0.3766803065028471 -1 0.4857734112268831 1 -0.04943729723186605 -1 -0.7385567200953613 1 0.05112095648691438 -1 -0.2846819222271543 -1 0.4836209806717535 -1 -0.28709411815868424 1 0.25442210394181114 -1 0.6410862608147023 1 0.8439745317888512 1 -0.5178872687987026 -1 0.9845281315289484 1 0.7288723802870118 1 -0.18390064724477284 1 0.5667611702296793 1 0.7790566909304353 1 0.33733259676392424 -1 0.10593718827799001 1 0.8981483297996922 -1 -0.5521388660168989 -1 0.5848372251916422 1 -0.8715344672556669 1 0.6345090235819516 -1 0.7079428598152001 1 0.8039586569227887 1 0.7104261020898871 -1 0.9299668986807388 1 -0.387376453056267 -1 0.021159884382604424 1 0.21082808624803187 1 0.5525654237601295 1 -0.24796631445063558 -1 -0.5745673643362498 -1 -0.009612514763591774 -1 0.7258000865334744 -1 -0.8520454187395191 -1 0.014333804745321052 -1 -0.11959051931138226 -1 -0.45766086373521814 -1 -0.9453706506987385 -1 0.5727450570096377 1 -0.5554720202554414 -1 -0.7568277443301269 1 0.9352192761567641 1 -0.849816399797506 -1 0.4088332542387643 -1 -0.9803382870401722 -1 -0.3661408468432089 1 0.1170551746952849 1 0.38653881809559826 -1 -0.7749764859388054 1 -0.33853879298076206 -1 0.7543670806898053 1 0.3836845914765629 -1 0.5012811227796754 -1 0.6780631180155524 1 0.5730880334204307 -1 0.8746035533373222 -1 -0.08483544050432178 1 -0.4052041362080335 1 0.5248256128583364 -1 -0.49314949117721857 -1 -0.4571609683533493 1 -0.8320387031429587 1 0.6694996597647662 1 -0.9495740319973323 -1 -0.4306354426634161 -1 0.498237331406619 1 -0.9793052941721783 1 0.394067062816913 1 -0.6059434599031838 1 0.2849906698075046 1 -0.19265035395341523 1 0.40124338746482313 1 -0.4203438838958889 -1 -0.969514022789476 1 0.9411074089956332 -1 0.6888378010351478
13 1 0.0 -1 0.6893219032437736 -1 0.9936352431743187 -1 0.054820969845362166 -1 -0.1355367058870126 -1 -0.6554760341023773 1 0.97845510083438 -1 0.3253075939696517 -1 0.6766618378152689 1 -0.01891881271186162 1 -0.1879601650890309 1 0.11635209363401378 -1 0.41365699818199797 -1 0.3006380663748456 -1 -0.9683013987562787 -1 0.2982590444105089 -1 0.32752243075359866 -1 0.7183554809479908 1 -0.7511477452425899 1 0.9622648336272677 -1 -0.8647433182092317 1 -0.3766359898898697 -1 0.48574915904096505 1 -0.04940448545091805 -1 -0.7385969870074645 1 0.05118248432860789 -1 -0.2847417933730356 -1 0.48361228301873926 -1 -0.2871384347716617 1 0.25448363178350464 -1 0.6409976736080756 1 0.8440394650608254 1 -0.5178544570177546 -1 0.9845126230153727 1 0.7289684226247937 1 -0.18386682303860624 1 0.5667763105886301 1 0.7791527332682171 1 0.3374252336714254 -1 0.10586010590339268 1 0.8981672437435486 -1 -0.5521716777978469 -1 0.5847591303918263 1 -0.8715293591102458 1 0.6345136715340916 -1 0.7079358188579981 1 0.8040391447276667 1 0.7105065898947651 -1 0.9299479847368823 1 -0.38733959157444464 -1 0.021098356540910912 1 0.2109051686226292 1 0.5526485806860384 1 -0.2479064433047543 -1 -0.5745592189151729 -1 -0.009597926636578429 -1 0.7257040441956926 -1 -0.852066081417844 -1 0.01428783143653136 -1 -0.11962839321842322 -1 -0.45770923004906994 -1 -0.9453757588441596 -1 0.5726669622098218 1 -0.5554801656765183 -1 -0.7568484070084518 1 0.9352842094287384 1 -0.8498272143396137 -1 0.40878221880388166 -1 -0.9802967315868818 -1 -0.36618516345618635 1 0.11713630677075659 1 0.38660034593729176 -1 -0.7749606092706047 1 -0.3384944763677846 -1 0.7542710383520235 1 0.3837616738511602 -1 0.5011824113208627 -1 0.6780625197642869 1 0.5731661282202466 -1 0.874538620065348 -1 -0.08485002863133512 1 -0.4052409976898559 1 0.5249243243171491 -1 -0.49318230295816656 -1 -0.45722488920010496 1 -0.8320231025907268 1 0.669588246971393 1 -0.9495689238519112 -1 -0.43059453148071936 -1 0.49822706909644876 1 -0.9792792932517917 1 0.3940674769908661 1 -0.6058991432902063 1 0.2850366431162943 1 -0.19262904700449668 1 0.40130592773173523 1 -0.4202840127500076 -1 -0.9695035764019933 1 0.9411294522538016 -1 0.6889223385409002
14 1 0.0 -1 0.6892829248728578 -1 0.9935936877210283 -1 0.054759442003668654 -1 -0.13555902526114974 -1 -0.6554973410512959 1 0.9784915941615775 -1 0.3252305115950544 -1 0.676627921570446 1 -0.018951624492809616 1 -0.18792901000389514 1 0.11627096155854208 -1 0.4135904082142115 -1 0.3005765385331521 -1 -0.9683065069016998 -1 0.2982130711017192 -1 0.3274297938460975 -1 0.7182749931431128 1 -0.7511494479577302 1 0.9622713223525323 -1 -0.8647484263546528 1 -0.37659167327689225 -1 0.485724906855047 1 -0.04937167366997005 -1 -0.7386372539195676 1 0.0512440121703014 -1 -0.2848016645189169 -1 0.483603585365725 -1 -0.2871827513846391 1 0.25454515962519814 -1 0.6409090864014488 1 0.8441043983327996 1 -0.5178216452368065 -1 0.984497114501797 1 0.7290644649625755 1 -0.18383299883243964 1 0.5667914509475809 1 0.7792487756059989 1 0.33751787057892657 -1 0.10578302352879534 1 0.8981861576874051 -1 -0.552204489578795 -1 0.5846810355920103 1 -0.8715242509648247 1 0.6345183194862315 -1 0.707928777900796 1 0.8041196325325447 1 0.7105870776996431 -1 0.9299290707930259 1 -0.3873027300926223 -1 0.0210368286992174 1 0.21098225099722653 1 0.5527317376119473 1 -0.24784657215887304 -1 -0.5745510734940961 -1 -0.009583338509565083 -1 0.7256080018579107 -1 -0.8520867440961689 -1 0.01424185812774167 -1 -0.11966626712546419 -1 -0.45775759636292174 -1 -0.9453808669895807 -1 0.5725888674100059 1 -0.5554883110975951 -1 -0.7568690696867767 1 0.9353491427007126 1 -0.8498380288817214 -1 0.408731183368999 -1 -0.9802551761335914 -1 -0.3662294800691638 1 0.11721743884622829 1 0.38666187377898525 -1 -0.774944732602404 1 -0.3384501597548072 -1 0.7541749960142416 1 0.3838387562257575 -1 0.50108369986205 -1 0.6780619215130214 1 0.5732442230200625 -1 0.8744736867933738 -1 -0.08486461675834846 1 -0.40527785917167825 1 0.5250230357759618 -1 -0.49321511473911456 -1 -0.4572888100468606 1 -0.8320075020384948 1 0.6696768341780197 1 -0.9495638157064901 -1 -0.43055362029802263 -1 0.4982168067862785 1 -0.9792532923314052 1 0.39406789116481916 1 -0.6058548266772289 1 0.285082616425084 1 -0.19260774005557812 1 0.40136846799864734 1 -0.4202241416041263 -1 -0.9694931300145105 1 0.9411514955119701 -1 0.6890068760466527
15 1 0.0 -1 0.689243946501942 -1 0.9935521322677379 -1 0.05469791416197514 -1 -0.13558134463528687 -1 -0.6555186480002144 1 0.978528087488775 -1 0.3251534292204571 -1 0.6765940053256232 1 -0.018984436273757614 1 -0.18789785491875938 1 0.11618982948307038 -1 0.41352381824642503 -1 0.3005150106914586 -1 -0.9683116150471209 -1 0.2981670977929295 -1 0.32733715693859633 -1 0.7181945053382348 1 -0.7511511506728705 1 0.962277811077797 -1 -0.8647535345000739 1 -0.3765473566639148 -1 0.48570065466912893 1 -0.04933886188902205 -1 -0.7386775208316707 1 0.051305540011994916 -1 -0.2848615356647982 -1 0.48359488771271075 -1 -0.28722706799761655 1 0.25460668746689163 -1 0.6408204991948221 1 0.8441693316047738 1 -0.5177888334558585 -1 0.9844816059882213 1 0.7291605073003573 1 -0.18379917462627304 1 0.5668065913065317 1 0.7793448179437807 1 0.33761050748642774 -1 0.10570594115419801 1 0.8982050716312615 -1 -0.552237301359743 -1 0.5846029407921944 1 -0.8715191428194036 1 0.6345229674383714 -1 0.707921736943594 1 0.8042001203374227 1 0.7106675655045211 -1 0.9299101568491694 1 -0.3872658686107999 -1 0.020975300857523888 1 0.21105933337182387 1 0.5528148945378561 1 -0.24778670101299177 -1 -0.5745429280730192 -1 -0.009568750382551738 -1 0.7255119595201289 -1 -0.8521074067744938 -1 0.014195884818951978 -1 -0.11970414103250515 -1 -0.45780596267677354 -1 -0.9453859751350018 -1 0.57251077261019 1 -0.555496456518672 -1 -0.7568897323651016 1 0.9354140759726868 1 -0.8498488434238292 -1 0.40868014793411633 -1 -0.9802136206803009 -1 -0.3662737966821412 1 0.11729857092169999 1 0.38672340162067875 -1 -0.7749288559342034 1 -0.33840584314182975 -1 0.7540789536764598 1 0.38391583860035483 -1 0.5009849884032374 -1 0.6780613232617558 1 0.5733223178198784 -1 0.8744087535213996 -1 -0.0848792048853618 1 -0.4053147206535006 1 0.5251217472347744 -1 -0.49324792652006255 -1 -0.4573527308936163 1 -0.8319919014862629 1 0.6697654213846465 1 -0.949558707561069 -1 -0.4305127091153259 -1 0.49820654447610824 1 -0.9792272914110187 1 0.39406830533877224 1 -0.6058105100642515 1 0.28512858973387367 1 -0.19258643310665957 1 0.40143100826555944 1 -0.420164270458245 -1 -0.9694826836270278 1 0.9411735387701385 -1 0.6890914135524051
16 1 0.0 -1 0.6892049681310262 -1 0.9935105768144474 -1 0.05463638632028163 -1 -0.135603664009424 -1 -0.655539954949133 1 0.9785645808159724 -1 0.3250763468458598 -1 0.6765600890808003 1 -0.019017248054705612 1 -0.1878666998336236 1 0.11610869740759869 -1 0.41345722827863857 -1 0.3004534828497651 -1 -0.968316723192542 -1 0.2981211244841398 -1 0.32724452003109517 -1 0.7181140175333568 1 -0.7511528533880109 1 0.9622842998030616 -1 -0.864758642645495 1 -0.3765030400509374 -1 0.48567640248321087 1 -0.04930605010807405 -1 -0.7387177877437738 1 0.05136706785368843 -1 -0.2849214068106795 -1 0.4835861900596965 -1 -0.287271384610594 1 0.25466821530858513 -1 0.6407319119881953 1 0.844234264876748 1 -0.5177560216749104 -1 0.9844660974746456 1 0.7292565496381391 1 -0.18376535042010644 1 0.5668217316654824 1 0.7794408602815626 1 0.3377031443939289 -1 0.10562885877960068 1 0.898223985575118 -1 -0.5522701131406911 -1 0.5845248459923785 1 -0.8715140346739825 1 0.6345276153905114 -1 0.7079146959863919 1 0.8042806081423007 1 0.7107480533093992 -1 0.929891242905313 1 -0.38722900712897756 -1 0.020913773015830375 1 0.2111364157464212 1 0.552898051463765 1 -0.2477268298671105 -1 -0.5745347826519424 -1 -0.009554162255538392 -1 0.7254159171823471 -1 -0.8521280694528187 -1 0.014149911510162287 -1 -0.11974201493954612 -1 -0.45785432899062534 -1 -0.9453910832804229 -1 0.5724326778103741 1 -0.5555046019397488 -1 -0.7569103950434265 1 0.935479009244661 1 -0.8498596579659369 -1 0.40862911249923367 -1 -0.9801720652270105 -1 -0.36631811329511865 1 0.11737970299717168 1 0.38678492946237225 -1 -0.7749129792660027 1 -0.3383615265288523 -1 0.753982911338678 1 0.38399292097495213 -1 0.5008862769444247 -1 0.6780607250104903 1 0.5734004126196943 -1 0.8743438202494254 -1 -0.08489379301237514 1 -0.40535158213532296 1 0.5252204586935871 -1 -0.49328073830101055 -1 -0.45741665174037194 1 -0.831976300934031 1 0.6698540085912732 1 -0.9495535994156479 -1 -0.4304717979326292 -1 0.498196282165938 1 -0.9792012904906322 1 0.3940687195127253 1 -0.605766193451274 1 0.28517456304266336 1 -0.19256512615774102 1 0.40149354853247154 1 -0.4201043993123637 -1 -0.9694722372395451 1 0.941195582028307 -1 0.6891759510581575
17 1 0.0 -1 0.6891659897601103 -1 0.993469021361157 -1 0.05457485847858812 -1 -0.13562598338356113 -1 -0.6555612618980515 1 0.9786010741431699 -1 0.3249992644712625 -1 0.6765261728359775 1 -0.01905005983565361 1 -0.18783554474848785 1 0.11602756533212699 -1 0.4133906383108521 -1 0.3003919550080716 -1 -0.9683218313379631 -1 0.2980751511753501 -1 0.327151883123594 -1 0.7180335297284788 1 -0.7511545561031512 1 0.9622907885283263 -1 -0.864763750790916 1 -0.37645872343795994 -1 0.4856521502972928 1 -0.049273238327126045 -1 -0.738758054655877 1 0.05142859569538194 -1 -0.2849812779565608 -1 0.48357749240668224 -1 -0.2873157012235714 1 0.25472974315027863 -1 0.6406433247815686 1 0.8442991981487222 1 -0.5177232098939624 -1 0.98445058896107 1 0.729352591975921 1 -0.18373152621393984 1 0.5668368720244332 1 0.7795369026193444 1 0.33779578130143006 -1 0.10555177640500335 1 0.8982428995189744 -1 -0.5523029249216391 -1 0.5844467511925626 1 -0.8715089265285614 1 0.6345322633426513 -1 0.7079076550291898 1 0.8043610959471788 1 0.7108285411142772 -1 0.9298723289614566 1 -0.3871921456471552 -1 0.020852245174136863 1 0.21121349812101853 1 0.5529812083896739 1 -0.24766695872122924 -1 -0.5745266372308655 -1 -0.009539574128525047 -1 0.7253198748445653 -1 -0.8521487321311436 -1 0.014103938201372596 -1 -0.11977988884658708 -1 -0.45790269530447714 -1 -0.945396191425844 -1 0.5723545830105582 1 -0.5555127473608257 -1 -0.7569310577217514 1 0.9355439425166352 1 -0.8498704725080446 -1 0.408578077064351 -1 -0.9801305097737201 -1 -0.3663624299080961 1 0.11746083507264338 1 0.38684645730406575 -1 -0.774897102597802 1 -0.3383172099158749 -1 0.7538868690008962 1 0.38407000334954944 -1 0.500787565485612 -1 0.6780601267592248 1 0.5734785074195102 -1 0.8742788869774512 -1 -0.08490838113938848 1 -0.4053884436171453 1 0.5253191701523998 -1 -0.49331355008195854 -1 -0.4574805725871276 1 -0.831960700381799 1 0.6699425957978999 1 -0.9495484912702268 -1 -0.43043088674993246 -1 0.4981860198557677 1 -0.9791752895702457 1 0.3940691336866784 1 -0.6057218768382966 1 0.28522053635145306 1 -0.19254381920882246 1 0.40155608879938365 1 -0.4200445281664824 -1 -0.9694617908520624 1 0.9412176252864755 -1 0.68926048856391
18 1 0.0 -1 0.6891205686832581 -1 0.9934274659078666 -1 0.054513330636894605 -1 -0.13564830275769826 -1 -0.6555825688469701 1 0.9786375674703673 -1 0.3249221820966652 -1 0.6764922565911546 1 -0.019082871616601608 1 -0.18780438966335208 1 0.1159464332566553 -1 0.41332404834306563 -1 0.3003304271663781 -1 -0.9683269394833842 -1 0.2980291778665604 -1 0.32705924621609284 -1 0.7179530419236008 1 -0.7511562588182915 1 0.9622972772535909 -1 -0.8647688589363371 1 -0.3764144068249825 -1 0.48562789811137475 1 -0.049240426546178044 -1 -0.7387983215679801 1 0.05149012353707545 -1 -0.2850411491024421 -1 0.483568794753668 -1 -0.28736001783654885 1 0.25479127099197213 -1 0.6405547375749419 1 0.8443641314206964 1 -0.5176903981130143 -1 0.9844350804474943 1 0.7294486343137028 1 -0.18369770200777324 1 0.566852012383384 1 0.7796329449571262 1 0.33788841820893123 -1 0.10547469403040602 1 0.8982618134628308 -1 -0.5523357367025872 -1 0.5843686563927467 1 -0.8715038183831403 1 0.6345369112947913 -1 0.7079006140719878 1 0.8044415837520568 1 0.7109090289191552 -1 0.9298534150176001 1 -0.38715528416533285 -1 0.02079071733244335 1 0.21129058049561586 1 0.5530643653155828 1 -0.24760708757534797 -1 -0.5745184918097886 -1 -0.009524986001511701 -1 0.7252238325067835 -1 -0.8521693948094685 -1 0.014057964892582904 -1 -0.11981776275362804 -1 -0.45795106161832894 -1 -0.9454012995712651 -1 0.5722764882107423 1 -0.5555208927819025 -1 -0.7569517204000763 1 0.9356088757886094 1 -0.8498812870501523 -1 0.40852704162946835 -1 -0.9800889543204296 -1 -0.3664067465210735 1 0.11754196714811507 1 0.38690798514575925 -1 -0.7748812259296013 1 -0.33827289330289745 -1 0.7537908266631144 1 0.38414708572414674 -1 0.5006888540267993 -1 0.6780595285079593 1 0.5735566022193261 -1 0.8742139537054769 -1 -0.08492296926640182 1 -0.4054253050989677 1 0.5254178816112125 -1 -0.49334636186290654 -1 -0.45754449343388326 1 -0.8319450998295671 1 0.6700311830045267 1 -0.9495433831248057 -1 -0.43038997556723574 -1 0.49817575754559745 1 -0.9791492886498592 1 0.3940695478606315 1 -0.6056775602253192 1 0.28526650966024275 1 -0.1925225122599039 1 0.40161862906629575 1 -0.4199846570206011 -1 -0.9694513444645797 1 0.9412396685446439 -1 0.6893514687755989
19 1 0.0 -1 0.6890751476064059 -1 0.9933859104545761 -1 0.05445180279520109 -1 -0.1356706221318354 -1 -0.6556038757958886 1 0.9786740607975648 -1 0.3248450997220679 -1 0.6764583403463318 1 -0.019115683397549606 1 -0.18777323457821632 1 0.1158653011811836 -1 0.41325745837527916 -1 0.3002688993246846 -1 -0.9683320476288053 -1 0.2979832045577707 -1 0.32696660930859167 -1 0.7178725541187227 1 -0.7511579615334318 1 0.9623037659788556 -1 -0.8647739670817582 1 -0.37637009021200507 -1 0.4856036459254567 1 -0.04920761476523004 -1 -0.7388385884800832 1 0.051551651378768965 -1 -0.2851010202483234 -1 0.48356009710065373 -1 -0.2874043344495263 1 0.25485279883366563 -1 0.6404661503683151 1 0.8444290646926707 1 -0.5176575863320663 -1 0.9844195719339186 1 0.7295446766514846 1 -0.18366387780160665 1 0.5668671527423348 1 0.779728987294908 1 0.3379810551164324 -1 0.10539761165580869 1 0.8982807274066873 -1 -0.5523685484835352 -1 0.5842905615929308 1 -0.8714987102377192 1 0.6345415592469312 -1 0.7078935731147857 1 0.8045220715569348 1 0.7109895167240332 -1 0.9298345010737437 1 -0.3871184226835105 -1 0.02072918949074984 1 0.2113676628702132 1 0.5531475222414917 1 -0.2475472164294667 -1 -0.5745103463887118 -1 -0.009510397874498356 -1 0.7251277901690016 -1 -0.8521900574877934 -1 0.014011991583793213 -1 -0.11985563666066901 -1 -0.45799942793218074 -1 -0.9454064077166862 -1 0.5721983934109264 1 -0.5555290382029794 -1 -0.7569723830784012 1 0.9356738090605836 1 -0.84989210159226 -1 0.4084760061945857 -1 -0.9800473988671392 -1 -0.36645106313405096 1 0.11762309922358677 1 0.38696951298745275 -1 -0.7748653492614006 1 -0.33822857668992 -1 0.7536947843253325 1 0.38422416809874405 -1 0.5005901425679866 -1 0.6780589302566937 1 0.573634697019142 -1 0.8741490204335027 -1 -0.08493755739341516 1 -0.40546216658079004 1 0.5255165930700252 -1 -0.49337917364385453 -1 -0.4576084142806389 1 -0.8319294992773352 1 0.6701197702111534 1 -0.9495382749793846 -1 -0.430349064384539 -1 0.4981654952354272 1 -0.9791232877294727 1 0.39406996203458455 1 -0.6056332436123417 1 0.28531248296903244 1 -0.19250120531098536 1 0.40168116933320785 1 -0.4199247858747198 -1 -0.969440898077097 1 0.9412617118028124 -1 0.6894424489872879
20 1 0.0 -1 0.6890297265295536 -1 0.9933443550012857 -1 0.05439027495350758 -1 -0.13569294150597253 -1 -0.6556251827448072 1 0.9787105541247623 -1 0.3247680173474706 -1 0.6764244241015089 1 -0.019148495178497604 1 -0.18774207949308055 1 0.1157841691057119 -1 0.4131908684074927 -1 0.3002073714829911 -1 -0.9683371557742264 -1 0.297937231248981 -1 0.3268739724010905 -1 0.7177920663138447 1 -0.7511596642485722 1 0.9623102547041202 -1 -0.8647790752271793 1 -0.37632577359902764 -1 0.4855793937395386 1 -0.04917480298428204 -1 -0.7388788553921863 1 0.05161317922046248 -1 -0.2851608913942047 -1 0.4835513994476395 -1 -0.2874486510625037 1 0.2549143266753591 -1 0.6403775631616884 1 0.8444939979646449 1 -0.5176247745511182 -1 0.9844040634203429 1 0.7296407189892664 1 -0.18363005359544005 1 0.5668822931012856 1 0.7798250296326898 1 0.33807369202393356 -1 0.10532052928121136 1 0.8982996413505437 -1 -0.5524013602644833 -1 0.5842124667931149 1 -0.8714936020922981 1 0.6345462071990712 -1 0.7078865321575837 1 0.8046025593618128 1 0.7110700045289112 -1 0.9298155871298872 1 -0.38708156120168813 -1 0.020667661649056326 1 0.21144474524481052 1 0.5532306791674005 1 -0.24748734528358543 -1 -0.5745022009676349 -1 -0.00949580974748501 -1 0.7250317478312198 -1 -0.8522107201661183 -1 0.013966018275003522 -1 -0.11989351056770997 -1 -0.45804779424603254 -1 -0.9454115158621073 -1 0.5721202986111105 1 -0.5555371836240562 -1 -0.7569930457567261 1 0.9357387423325578 1 -0.8499029161343677 -1 0.408424970759703 -1 -0.9800058434138488 -1 -0.3664953797470284 1 0.11770423129905846 1 0.38703104082914624 -1 -0.7748494725931999 1 -0.3381842600769426 -1 0.7535987419875507 1 0.38430125047334135 -1 0.5004914311091739 -1 0.6780583320054282 1 0.573712791818958 -1 0.8740840871615285 -1 -0.0849521455204285 1 -0.4054990280626124 1 0.5256153045288379 -1 -0.4934119854248025 -1 -0.4576723351273946 1 -0.8319138987251032 1 0.6702083574177802 1 -0.9495331668339635 -1 -0.4303081532018423 -1 0.49815523292525693 1 -0.9790972868090861 1 0.39407037620853763 1 -0.6055889269993643 1 0.28535845627782214 1 -0.1924798983620668 1 0.40174370960011996 1 -0.4198649147288385 -1 -0.9694304516896143 1 0.9412837550609808 -1 0.6895334291989769
21 1 0.0 -1 0.6889843054527014 -1 0.9933027995479953 -1 0.05432874711181407 -1 -0.13571526088010966 -1 -0.6556464896937257 1 0.9787470474519597 -1 0.32469093497287327 -1 0.6763905078566861 1 -0.0191813069594456 1 -0.1877109244079448 1 0.11570303703024021 -1 0.4131242784397062 -1 0.3001458436412976 -1 -0.9683422639196475 -1 0.29789125794019133 -1 0.32678133549358934 -1 0.7177115785089667 1 -0.7511613669637125 1 0.9623167434293849 -1 -0.8647841833726004 1 -0.3762814569860502 -1 0.48555514155362056 1 -0.04914199120333404 -1 -0.7389191223042895 1 0.05167470706215599 -1 -0.285220762540086 -1 0.4835427017946252 -1 -0.28749296767548116 1 0.2549758545170526 -1 0.6402889759550616 1 0.8445589312366191 1 -0.5175919627701702 -1 0.9843885549067672 1 0.7297367613270482 1 -0.18359622938927345 1 0.5668974334602364 1 0.7799210719704717 1 0.3381663289314347 -1 0.10524344690661402 1 0.8983185552944002 -1 -0.5524341720454313 -1 0.584134371993299 1 -0.871488493946877 1 0.6345508551512111 -1 0.7078794912003816 1 0.8046830471666908 1 0.7111504923337892 -1 0.9297966731860308 1 -0.38704469971986577 -1 0.020606133807362814 1 0.21152182761940785 1 0.5533138360933094 1 -0.24742747413770416 -1 -0.5744940555465581 -1 -0.009481221620471665 -1 0.724935705493438 -1 -0.8522313828444432 -1 0.01392004496621383 -1 -0.11993138447475093 -1 -0.45809616055988434 -1 -0.9454166240075284 -1 0.5720422038112946 1 -0.5555453290451331 -1 -0.757013708435051 1 0.935803675604532 1 -0.8499137306764755 -1 0.40837393532482036 -1 -0.9799642879605583 -1 -0.36653969636000583 1 0.11778536337453016 1 0.38709256867083974 -1 -0.7748335959249992 1 -0.33813994346396514 -1 0.7535026996497689 1 0.38437833284793865 -1 0.5003927196503613 -1 0.6780577337541627 1 0.5737908866187739 -1 0.8740191538895543 -1 -0.08496673364744184 1 -0.40553588954443476 1 0.5257140159876506 -1 -0.4934447972057505 -1 -0.45773625597415024 1 -0.8318982981728713 1 0.6702969446244069 1 -0.9495280586885424 -1 -0.43026724201914557 -1 0.49814497061508667 1 -0.9790712858886996 1 0.3940707903824907 1 -0.6055446103863869 1 0.28540442958661183 1 -0.19245859141314825 1 0.40180624986703206 1 -0.4198050435829572 -1 -0.9694200053021316 1 0.9413057983191493 -1 0.6896244094106658
22 1 0.0 -1 0.6889388843758492 -1 0.9932612440947048 -1 0.054267219270120556 -1 -0.1357375802542468 -1 -0.6556677966426443 1 0.9787835407791572 -1 0.32461385259827596 -1 0.6763565916118632 1 -0.0192141187403936 1 -0.18767976932280903 1 0.11562190495476851 -1 0.41305768847191976 -1 0.3000843157996041 -1 -0.9683473720650686 -1 0.29784528463140164 -1 0.3266886985860882 -1 0.7176310907040887 1 -0.7511630696788528 1 0.9623232321546495 -1 -0.8647892915180215 1 -0.37623714037307276 -1 0.4855308893677025 1 -0.04910917942238604 -1 -0.7389593892163926 1 0.0517362349038495 -1 -0.2852806336859673 -1 0.48353400414161096 -1 -0.2875372842884586 1 0.2550373823587461 -1 0.6402003887484349 1 0.8446238645085933 1 -0.5175591509892221 -1 0.9843730463931916 1 0.72983280366483 1 -0.18356240518310685 1 0.5669125738191871 1 0.7800171143082535 1 0.3382589658389359 -1 0.10516636453201669 1 0.8983374692382566 -1 -0.5524669838263794 -1 0.5840562771934831 1 -0.8714833858014559 1 0.6345555031033511 -1 0.7078724502431796 1 0.8047635349715688 1 0.7112309801386673 -1 0.9297777592421743 1 -0.3870078382380434 -1 0.020544605965669302 1 0.21159890999400519 1 0.5533969930192183 1 -0.2473676029918229 -1 -0.5744859101254812 -1 -0.00946663349345832 -1 0.7248396631556562 -1 -0.8522520455227681 -1 0.01387407165742414 -1 -0.1199692583817919 -1 -0.45814452687373614 -1 -0.9454217321529494 -1 0.5719641090114786 1 -0.55555347446621 -1 -0.7570343711133759 1 0.9358686088765062 1 -0.8499245452185832 -1 0.4083228998899377 -1 -0.9799227325072679 -1 -0.36658401297298326 1 0.11786649545000186 1 0.38715409651253324 -1 -0.7748177192567985 1 -0.3380956268509877 -1 0.7534066573119871 1 0.38445541522253596 -1 0.5002940081915486 -1 0.6780571355028971 1 0.5738689814185898 -1 0.8739542206175801 -1 -0.08498132177445518 1 -0.4055727510262571 1 0.5258127274464632 -1 -0.4934776089866985 -1 -0.4578001768209059 1 -0.8318826976206394 1 0.6703855318310337 1 -0.9495229505431213 -1 -0.43022633083644884 -1 0.4981347083049164 1 -0.9790452849683131 1 0.3940712045564438 1 -0.6055002937734094 1 0.2854504028954015 1 -0.1924372844642297 1 0.40186879013394416 1 -0.41974517243707593 -1 -0.9694095589146489 1 0.9413278415773177 -1 0.6897153896223548
23 1 0.0 -1 0.6888934632989969 -1 0.9932196886414144 -1 0.054205691428427044 -1 -0.13575989962838392 -1 -0.6556891035915628 1 0.9788200341063547 -1 0.32453677022367866 -1 0.6763226753670404 1 -0.019246930521341597 1 -0.18764861423767326 1 0.11554077287929682 -1 0.4129910985041333 -1 0.3000227879579106 -1 -0.9683524802104897 -1 0.29779931132261195 -1 0.326596061678587 -1 0.7175506028992107 1 -0.7511647723939932 1 0.9623297208799142 -1 -0.8647943996634426 1 -0.37619282376009533 -1 0.48550663718178444 1 -0.04907636764143804 -1 -0.7389996561284957 1 0.05179776274554301 -1 -0.2853405048318486 -1 0.4835253064885967 -1 -0.28758160090143603 1 0.2550989102004396 -1 0.6401118015418081 1 0.8446887977805675 1 -0.5175263392082741 -1 0.9843575378796159 1 0.7299288460026119 1 -0.18352858097694025 1 0.5669277141781379 1 0.7801131566460353 1 0.33835160274643705 -1 0.10508928215741936 1 0.8983563831821131 -1 -0.5524997956073274 -1 0.5839781823936672 1 -0.8714782776560348 1 0.634560151055491 -1 0.7078654092859775 1 0.8048440227764468 1 0.7113114679435453 -1 0.9297588452983179 1 -0.38697097675622105 -1 0.02048307812397579 1 0.21167599236860252 1 0.5534801499451272 1 -0.24730773184594163 -1 -0.5744777647044044 -1 -0.009452045366444974 -1 0.7247436208178744 -1 -0.852272708201093 -1 0.013828098348634448 -1 -0.12000713228883286 -1 -0.45819289318758794 -1 -0.9454268402983705 -1 0.5718860142116627 1 -0.5555616198872868 -1 -0.7570550337917008 1 0.9359335421484805 1 -0.8499353597606909 -1 0.40827186445505503 -1 -0.9798811770539775 -1 -0.3666283295859607 1 0.11794762752547355 1 0.38721562435422674 -1 -0.7748018425885979 1 -0.33805131023801027 -1 0.7533106149742053 1 0.38453249759713326 -1 0.5001952967327359 -1 0.6780565372516316 1 0.5739470762184057 -1 0.8738892873456059 -1 -0.08499590990146852 1 -0.4056096125080795 1 0.5259114389052759 -1 -0.4935104207676465 -1 -0.45786409766766156 1 -0.8318670970684074 1 0.6704741190376604 1 -0.9495178423977002 -1 -0.4301854196537521 -1 0.49812444599474615 1 -0.9790192840479266 1 0.39407161873039687 1 -0.605455977160432 1 0.2854963762041912 1 -0.19241597751531114 1 0.40193133040085627 1 -0.41968530129119463 -1 -0.9693991125271662 1 0.9413498848354862 -1 0.6898063698340438
24 1 0.0 -1 0.6888480422221447 -1 0.993178133188124 -1 0.05414416358673353 -1 -0.13578221900252105 -1 -0.6557104105404814 1 0.9788565274335521 -1 0.32445968784908136 -1 0.6762887591222175 1 -0.019279742302289595 1 -0.1876174591525375 1 0.11545964080382512 -1 0.4129245085363468 -1 0.2999612601162171 -1 -0.9683575883559108 -1 0.29775333801382226 -1 0.32650342477108585 -1 0.7174701150943327 1 -0.7511664751091335 1 0.9623362096051788 -1 -0.8647995078088637 1 -0.3761485071471179 -1 0.4854823849958664 1 -0.049043555860490036 -1 -0.7390399230405988 1 0.051859290587236526 -1 -0.2854003759777299 -1 0.48351660883558245 -1 -0.28762591751441346 1 0.2551604380421331 -1 0.6400232143351814 1 0.8447537310525417 1 -0.517493527427326 -1 0.9843420293660402 1 0.7300248883403937 1 -0.18349475677077365 1 0.5669428545370887 1 0.7802091989838171 1 0.3384442396539382 -1 0.10501219978282203 1 0.8983752971259695 -1 -0.5525326073882755 -1 0.5839000875938513 1 -0.8714731695106137 1 0.634564799007631 -1 0.7078583683287755 1 0.8049245105813249 1 0.7113919557484233 -1 0.9297399313544614 1 -0.3869341152743987 -1 0.020421550282282278 1 0.21175307474319985 1 0.553563306871036 1 -0.24724786070006036 -1 -0.5744696192833275 -1 -0.009437457239431629 -1 0.7246475784800925 -1 -0.8522933708794179 -1 0.013782125039844757 -1 -0.12004500619587383 -1 -0.45824125950143973 -1 -0.9454319484437916 -1 0.5718079194118468 1 -0.5555697653083637 -1 -0.7570756964700257 1 0.9359984754204547 1 -0.8499461743027986 -1 0.40822082902017237 -1 -0.979839621600687 -1 -0.36667264619893813 1 0.11802875960094525 1 0.38727715219592024 -1 -0.7747859659203972 1 -0.33800699362503284 -1 0.7532145726364234 1 0.38460957997173056 -1 0.5000965852739232 -1 0.6780559390003661 1 0.5740251710182216 -1 0.8738243540736317 -1 -0.08501049802848186 1 -0.40564647398990183 1 0.5260101503640886 -1 -0.4935432325485945 -1 -0.4579280185144172 1 -0.8318514965161755 1 0.6705627062442872 1 -0.9495127342522791 -1 -0.4301445084710554 -1 0.4981141836845759 1 -0.9789932831275401 1 0.39407203290434994 1 -0.6054116605474545 1 0.2855423495129809 1 -0.1923946705663926 1 0.40199387066776837 1 -0.41962543014531334 -1 -0.9693886661396834 1 0.9413719280936547 -1 0.6898973500457327
25 1 0.0 -1 0.6888026211452924 -1 0.9931365777348335 -1 0.05408263574504002 -1 -0.13580453837665818 -1 -0.6557317174894 1 0.9788930207607496 -1 0.32438260547448405 -1 0.6762548428773947 1 -0.019312554083237593 1 -0.18758630406740173 1 0.11537850872835342 -1 0.41285791856856036 -1 0.2998997322745236 -1 -0.9683626965013319 -1 0.29770736470503256 -1 0.3264107878635847 -1 0.7173896272894547 1 -0.7511681778242738 1 0.9623426983304435 -1 -0.8648046159542848 1 -0.37610419053414046 -1 0.4854581328099483 1 -0.049010744079542035 -1 -0.739080189952702 1 0.05192081842893004 -1 -0.2854602471236112 -1 0.4835079111825682 -1 -0.2876702341273909 1 0.2552219658838266 -1 0.6399346271285546 1 0.8448186643245159 1 -0.517460715646378 -1 0.9843265208524645 1 0.7301209306781755 1 -0.18346093256460705 1 0.5669579948960395 1 0.780305241321599 1 0.3385368765614394 -1 0.1049351174082247 1 0.898394211069826 -1 -0.5525654191692235 -1 0.5838219927940353 1 -0.8714680613651926 1 0.6345694469597709 -1 0.7078513273715734 1 0.8050049983862029 1 0.7114724435533013 -1 0.929721017410605 1 -0.38689725379257633 -1 0.020360022440588765 1 0.21183015711779718 1 0.5536464637969449 1 -0.2471879895541791 -1 -0.5744614738622507 -1 -0.009422869112418283 -1 0.7245515361423107 -1 -0.8523140335577428 -1 0.013736151731055066 -1 -0.12008288010291479 -1 -0.45828962581529153 -1 -0.9454370565892127 -1 0.5717298246120309 1 -0.5555779107294405 -1 -0.7570963591483506 1 0.9360634086924289 1 -0.8499569888449063 -1 0.4081697935852897 -1 -0.9797980661473966 -1 -0.36671696281191557 1 0.11810989167641694 1 0.38733868003761374 -1 -0.7747700892521965 1 -0.3379626770120554 -1 0.7531185302986416 1 0.38468666234632787 -1 0.4999978738151105 -1 0.6780553407491006 1 0.5741032658180375 -1 0.8737594208016575 -1 -0.0850250861554952 1 -0.4056833354717242 1 0.5261088618229013 -1 -0.4935760443295425 -1 -0.4579919393611729 1 -0.8318358959639436 1 0.6706512934509139 1 -0.949507626106858 -1 -0.4301035972883587 -1 0.4981039213744056 1 -0.9789672822071536 1 0.394072447078303 1 -0.6053673439344771 1 0.2855883228217706 1 -0.19237336361747404 1 0.4020564109346805 1 -0.41956555899943204 -1 -0.9693782197522007 1 0.9413939713518231 -1 0.6899883302574217
26 1 0.0 -1 0.6887572000684402 -1 0.9930950222815431 -1 0.05402110790334651 -1 -0.1358268577507953 -1 -0.6557530244383185 1 0.978929514087947 -1 0.32430552309988675 -1 0.6762209266325718 1 -0.01934536586418559 1 -0.18755514898226597 1 0.11529737665288173 -1 0.4127913286007739 -1 0.2998382044328301 -1 -0.968367804646753 -1 0.29766139139624287 -1 0.3263181509560835 -1 0.7173091394845766 1 -0.7511698805394141 1 0.9623491870557082 -1 -0.8648097240997059 1 -0.376059873921163 -1 0.48543388062403026 1 -0.04897793229859403 -1 -0.7391204568648051 1 0.05198234627062355 -1 -0.2855201182694925 -1 0.48349921352955394 -1 -0.28771455074036834 1 0.2552834937255201 -1 0.6398460399219279 1 0.8448835975964901 1 -0.5174279038654299 -1 0.9843110123388888 1 0.7302169730159573 1 -0.18342710835844045 1 0.5669731352549903 1 0.7804012836593808 1 0.33862951346894055 -1 0.10485803503362737 1 0.8984131250136824 -1 -0.5525982309501716 -1 0.5837438979942194 1 -0.8714629532197715 1 0.6345740949119109 -1 0.7078442864143714 1 0.8050854861910809 1 0.7115529313581793 -1 0.9297021034667485 1 -0.386860392310754 -1 0.020298494598895253 1 0.2119072394923945 1 0.5537296207228538 1 -0.24712811840829782 -1 -0.5744533284411738 -1 -0.009408280985404938 -1 0.7244554938045289 -1 -0.8523346962360677 -1 0.013690178422265374 -1 -0.12012075400995575 -1 -0.45833799212914333 -1 -0.9454421647346338 -1 0.571651729812215 1 -0.5555860561505174 -1 -0.7571170218266755 1 0.9361283419644031 1 -0.849967803387014 -1 0.40811875815040705 -1 -0.9797565106941062 -1 -0.366761279424893 1 0.11819102375188864 1 0.38740020787930723 -1 -0.7747542125839958 1 -0.33791836039907797 -1 0.7530224879608598 1 0.38476374472092517 -1 0.49989916235629783 -1 0.678054742497835 1 0.5741813606178534 -1 0.8736944875296833 -1 -0.08503967428250854 1 -0.40572019695354655 1 0.526207573281714 -1 -0.4936088561104905 -1 -0.45805586020792854 1 -0.8318202954117117 1 0.6707398806575406 1 -0.9495025179614369 -1 -0.43006268610566195 -1 0.49809365906423536 1 -0.978941281286767 1 0.3940728612522561 1 -0.6053230273214997 1 0.2856342961305603 1 -0.19235205666855548 1 0.4021189512015926 1 -0.41950568785355075 -1 -0.969367773364718 1 0.9414160146099916 -1 0.6900793104691106
27 1 0.0 -1 0.688711778991588 -1 0.9930534668282527 -1 0.053959580061652995 -1 -0.13584917712493244 -1 -0.6557743313872371 1 0.9789660074151445 -1 0.32422844072528945 -1 0.676187010387749 1 -0.01937817764513359 1 -0.1875239938971302 1 0.11521624457741003 -1 0.4127247386329874 -1 0.2997766765911366 -1 -0.9683729127921741 -1 0.2976154180874532 -1 0.32622551404858235 -1 0.7172286516796986 1 -0.7511715832545545 1 0.9623556757809728 -1 -0.864814832245127 1 -0.3760155573081856 -1 0.4854096284381122 1 -0.04894512051764603 -1 -0.7391607237769082 1 0.05204387411231706 -1 -0.28557998941537377 -1 0.4834905158765397 -1 -0.28775886735334577 1 0.2553450215672136 -1 0.6397574527153012 1 0.8449485308684643 1 -0.5173950920844819 -1 0.9842955038253132 1 0.7303130153537392 1 -0.18339328415227385 1 0.566988275613941 1 0.7804973259971626 1 0.3387221503764417 -1 0.10478095265903004 1 0.8984320389575389 -1 -0.5526310427311196 -1 0.5836658031944035 1 -0.8714578450743504 1 0.6345787428640508 -1 0.7078372454571693 1 0.8051659739959589 1 0.7116334191630573 -1 0.9296831895228921 1 -0.3868235308289316 -1 0.02023696675720174 1 0.21198432186699184 1 0.5538127776487627 1 -0.24706824726241655 -1 -0.574445183020097 -1 -0.009393692858391593 -1 0.7243594514667471 -1 -0.8523553589143926 -1 0.013644205113475683 -1 -0.12015862791699672 -1 -0.45838635844299513 -1 -0.9454472728800549 -1 0.5715736350123991 1 -0.5555942015715942 -1 -0.7571376845050004 1 0.9361932752363773 1 -0.8499786179291218 -1 0.4080677227155244 -1 -0.9797149552408158 -1 -0.36680559603787044 1 0.11827215582736034 1 0.38746173572100073 -1 -0.7747383359157951 1 -0.33787404378610053 -1 0.752926445623078 1 0.3848408270955225 -1 0.49980045089748515 -1 0.6780541442465695 1 0.5742594554176693 -1 0.873629554257709 -1 -0.08505426240952188 1 -0.4057570584353689 1 0.5263062847405267 -1 -0.4936416678914385 -1 -0.4581197810546842 1 -0.8318046948594797 1 0.6708284678641674 1 -0.9494974098160158 -1 -0.4300217749229652 -1 0.4980833967540651 1 -0.9789152803663805 1 0.3940732754262092 1 -0.6052787107085222 1 0.28568026943935 1 -0.19233074971963693 1 0.4021814914685047 1 -0.41944581670766945 -1 -0.9693573269772353 1 0.94143805786816 -1 0.6901702906807996
28 1 0.0 -1 0.6886663579147357 -1 0.9930119113749623 -1 0.05389805221995948 -1 -0.13587149649906957 -1 -0.6557956383361556 1 0.979002500742342 -1 0.32415135835069214 -1 0.6761530941429261 1 -0.019410989426081587 1 -0.18749283881199444 1 0.11513511250193834 -1 0.41265814866520095 -1 0.2997151487494431 -1 -0.9683780209375952 -1 0.2975694447786635 -1 0.3261328771410812 -1 0.7171481638748206 1 -0.7511732859696948 1 0.9623621645062375 -1 -0.8648199403905481 1 -0.37597124069520815 -1 0.48538537625219413 1 -0.04891230873669803 -1 -0.7392009906890114 1 0.052105401954010575 -1 -0.28563986056125507 -1 0.48348181822352543 -1 -0.2878031839663232 1 0.2554065494089071 -1 0.6396688655086744 1 0.8450134641404385 1 -0.5173622803035338 -1 0.9842799953117375 1 0.730409057691521 1 -0.18335945994610725 1 0.5670034159728918 1 0.7805933683349444 1 0.3388147872839429 -1 0.1047038702844327 1 0.8984509529013953 -1 -0.5526638545120677 -1 0.5835877083945876 1 -0.8714527369289293 1 0.6345833908161908 -1 0.7078302044999673 1 0.8052464618008369 1 0.7117139069679354 -1 0.9296642755790356 1 -0.38678666934710926 -1 0.02017543891550823 1 0.21206140424158917 1 0.5538959345746716 1 -0.24700837611653528 -1 -0.5744370375990201 -1 -0.009379104731378247 -1 0.7242634091289653 -1 -0.8523760215927175 -1 0.013598231804685992 -1 -0.12019650182403768 -1 -0.45843472475684693 -1 -0.945452381025476 -1 0.5714955402125832 1 -0.5556023469926711 -1 -0.7571583471833253 1 0.9362582085083515 1 -0.8499894324712295 -1 0.4080166872806417 -1 -0.9796733997875253 -1 -0.3668499126508479 1 0.11835328790283203 1 0.38752326356269423 -1 -0.7747224592475944 1 -0.3378297271731231 -1 0.7528304032852962 1 0.3849179094701198 -1 0.49970173943867247 -1 0.678053545995304 1 0.5743375502174852 -1 0.8735646209857348 -1 -0.08506885053653522 1 -0.40579391991719127 1 0.5264049961993393 -1 -0.4936744796723865 -1 -0.45818370190143987 1 -0.8317890943072478 1 0.6709170550707941 1 -0.9494923016705947 -1 -0.4299808637402685 -1 0.49807313444389484 1 -0.978889279445994 1 0.39407368960016226 1 -0.6052343940955448 1 0.2857262427481397 1 -0.19230944277071838 1 0.4022440317354168 1 -0.41938594556178815 -1 -0.9693468805897526 1 0.9414601011263285 -1 0.6902612708924886
29 1 0.0 -1 0.6886209368378835 -1 0.9929703559216718 -1 0.05383652437826597 -1 -0.1358938158732067 -1 -0.6558169452850742 1 0.9790389940695394 -1 0.32407427597609484 -1 0.6761191778981033 1 -0.019443801207029585 1 -0.18746168372685867 1 0.11505398042646664 -1 0.4125915586974145 -1 0.2996536209077496 -1 -0.9683831290830163 -1 0.2975234714698738 -1 0.32604024023358 -1 0.7170676760699426 1 -0.7511749886848351 1 0.9623686532315021 -1 -0.8648250485359692 1 -0.3759269240822307 -1 0.4853611240662761 1 -0.04887949695575003 -1 -0.7392412576011145 1 0.05216692979570409 -1 -0.28569973170713636 -1 0.4834731205705112 -1 -0.28784750057930064 1 0.2554680772506006 -1 0.6395802783020477 1 0.8450783974124128 1 -0.5173294685225858 -1 0.9842644867981618 1 0.7305051000293028 1 -0.18332563573994065 1 0.5670185563318426 1 0.7806894106727262 1 0.33890742419144404 -1 0.10462678790983537 1 0.8984698668452518 -1 -0.5526966662930157 -1 0.5835096135947717 1 -0.8714476287835082 1 0.6345880387683307 -1 0.7078231635427652 1 0.8053269496057149 1 0.7117943947728134 -1 0.9296453616351792 1 -0.3867498078652869 -1 0.020113911073814716 1 0.2121384866161865 1 0.5539790915005804 1 -0.24694850497065401 -1 -0.5744288921779432 -1 -0.009364516604364902 -1 0.7241673667911834 -1 -0.8523966842710424 -1 0.0135522584958963 -1 -0.12023437573107865 -1 -0.45848309107069873 -1 -0.9454574891708971 -1 0.5714174454127673 1 -0.5556104924137479 -1 -0.7571790098616502 1 0.9363231417803257 1 -0.8500002470133372 -1 0.40796565184575906 -1 -0.9796318443342349 -1 -0.3668942292638253 1 0.11843441997830373 1 0.38758479140438773 -1 -0.7747065825793937 1 -0.33778541056014566 -1 0.7527343609475143 1 0.3849949918447171 -1 0.4996030279798598 -1 0.6780529477440385 1 0.5744156450173011 -1 0.8734996877137606 -1 -0.08508343866354856 1 -0.40583078139901363 1 0.526503707658152 -1 -0.4937072914533345 -1 -0.4582476227481955 1 -0.8317734937550159 1 0.6710056422774209 1 -0.9494871935251736 -1 -0.4299399525575718 -1 0.4980628721337246 1 -0.9788632785256075 1 0.39407410377411534 1 -0.6051900774825674 1 0.2857722160569294 1 -0.19228813582179982 1 0.4023065720023289 1 -0.41932607441590686 -1 -0.9693364342022699 1 0.941482144384497 -1 0.6903522511041775
30 1 0.0 -1 0.6885755157610313 -1 0.9929288004683814 -1 0.05377499653657246 -1 -0.13591613524734383 -1 -0.6558382522339927 1 0.9790754873967369 -1 0.32399719360149754 -1 0.6760852616532804 1 -0.019476612987977582 1 -0.1874305286417229 1 0.11497284835099494 -1 0.412524968729628 -1 0.2995920930660561 -1 -0.9683882372284374 -1 0.2974774981610841 -1 0.32594760332607886 -1 0.7169871882650646 1 -0.7511766913999754 1 0.9623751419567668 -1 -0.8648301566813903 1 -0.3758826074692533 -1 0.485336871880358 1 -0.04884668517480203 -1 -0.7392815245132176 1 0.0522284576373976 -1 -0.28575960285301766 -1 0.4834644229174969 -1 -0.2878918171922781 1 0.2555296050922941 -1 0.6394916910954209 1 0.845143330684387 1 -0.5172966567416377 -1 0.9842489782845861 1 0.7306011423670846 1 -0.18329181153377405 1 0.5670336966907934 1 0.7807854530105081 1 0.3390000610989452 -1 0.10454970553523804 1 0.8984887807891082 -1 -0.5527294780739638 -1 0.5834315187949558 1 -0.8714425206380871 1 0.6345926867204706 -1 0.7078161225855631 1 0.805407437410593 1 0.7118748825776914 -1 0.9296264476913227 1 -0.38671294638346454 -1 0.020052383232121204 1 0.21221556899078384 1 0.5540622484264893 1 -0.24688863382477275 -1 -0.5744207467568664 -1 -0.009349928477351556 -1 0.7240713244534016 -1 -0.8524173469493673 -1 0.01350628518710661 -1 -0.12027224963811961 -1 -0.45853145738455053 -1 -0.9454625973163182 -1 0.5713393506129514 1 -0.5556186378348248 -1 -0.7571996725399751 1 0.9363880750522999 1 -0.8500110615554449 -1 0.4079146164108764 -1 -0.9795902888809445 -1 -0.36693854587680275 1 0.11851555205377542 1 0.38764631924608123 -1 -0.774690705911193 1 -0.3377410939471682 -1 0.7526383186097325 1 0.3850720742193144 -1 0.4995043165210471 -1 0.6780523494927729 1 0.574493739817117 -1 0.8734347544417864 -1 -0.0850980267905619 1 -0.405867642880836 1 0.5266024191169647 -1 -0.49374010323428247 -1 -0.4583115435949512 1 -0.8317578932027839 1 0.6710942294840476 1 -0.9494820853797525 -1 -0.42989904137487506 -1 0.4980526098235543 1 -0.978837277605221 1 0.3940745179480684 1 -0.6051457608695899 1 0.28581818936571907 1 -0.19226682887288127 1 0.402369112269241 1 -0.41926620327002556 -1 -0.9693259878147872 1 0.9415041876426654 -1 0.6904432313158665
31 1 0.0 -1 0.688530094684179 -1 0.992887245015091 -1 0.053713468694878946 -1 -0.13593845462148096 -1 -0.6558595591829113 1 0.9791119807239343 -1 0.32392011122690023 -1 0.6760513454084576 1 -0.01950942476892558 1 -0.18739937355658715 1 0.11489171627552325 -1 0.41245837876184155 -1 0.2995305652243626 -1 -0.9683933453738585 -1 0.2974315248522944 -1 0.3258549664185777 -1 0.7169067004601866 1 -0.7511783941151158 1 0.9623816306820314 -1 -0.8648352648268114 1 -0.37583829085627585 -1 0.48531261969443995 1 -0.048813873393854026 -1 -0.7393217914253207 1 0.05228998547909111 -1 -0.28581947399889895 -1 0.48345572526448266 -1 -0.2879361338052555 1 0.2555911329339876 -1 0.6394031038887942 1 0.8452082639563612 1 -0.5172638449606897 -1 0.9842334697710104 1 0.7306971847048664 1 -0.18325798732760745 1 0.5670488370497442 1 0.7808814953482899 1 0.33909269800644637 -1 0.10447262316064071 1 0.8985076947329647 -1 -0.5527622898549118 -1 0.5833534239951399 1 -0.871437412492666 1 0.6345973346726106 -1 0.7078090816283611 1 0.805487925215471 1 0.7119553703825694 -1 0.9296075337474663 1 -0.3866760849016422 -1 0.019990855390427692 1 0.21229265136538117 1 0.5541454053523982 1 -0.24682876267889148 -1 -0.5744126013357895 -1 -0.00933534035033821 -1 0.7239752821156198 -1 -0.8524380096276922 -1 0.013460311878316918 -1 -0.12031012354516057 -1 -0.45857982369840233 -1 -0.9454677054617393 -1 0.5712612558131355 1 -0.5556267832559016 -1 -0.7572203352183 1 0.9364530083242741 1 -0.8500218760975526 -1 0.40786358097599373 -1 -0.979548733427654 -1 -0.3669828624897802 1 0.11859668412924712 1 0.3877078470877747 -1 -0.7746748292429924 1 -0.3376967773341908 -1 0.7525422762719507 1 0.3851491565939117 -1 0.4994056050622344 -1 0.6780517512415074 1 0.574571834616933 -1 0.8733698211698122 -1 -0.08511261491757524 1 -0.40590450436265835 1 0.5267011305757774 -1 -0.49377291501523046 -1 -0.45837546444170685 1 -0.831742292650552 1 0.6711828166906744 1 -0.9494769772343314 -1 -0.42985813019217833 -1 0.49804234751338405 1 -0.9788112766848345 1 0.3940749321220215 1 -0.6051014442566125 1 0.28586416267450876 1 -0.19224552192396271 1 0.4024316525361531 1 -0.41920633212414427 -1 -0.9693155414273045 1 0.9415262309008339 -1 0.6905342115275555
32 1 0.0 -1 0.6884846736073268 -1 0.9928456895618005 -1 0.053651940853185434 -1 -0.1359607739956181 -1 -0.6558808661318298 1 0.9791484740511318 -1 0.3238430288523029 -1 0.6760174291636347 1 -0.019542236549873578 1 -0.18736821847145138 1 0.11481058420005155 -1 0.4123917887940551 -1 0.2994690373826691 -1 -0.9683984535192796 -1 0.2973855515435047 -1 0.32576232951107653 -1 0.7168262126553085 1 -0.7511800968302561 1 0.9623881194072961 -1 -0.8648403729722325 1 -0.3757939742432984 -1 0.4852883675085219 1 -0.048781061612906025 -1 -0.7393620583374239 1 0.05235151332078462 -1 -0.28587934514478025 -1 0.4834470276114684 -1 -0.28798045041823295 1 0.2556526607756811 -1 0.6393145166821674 1 0.8452731972283354 1 -0.5172310331797416 -1 0.9842179612574348 1 0.7307932270426483 1 -0.18322416312144085 1 0.567063977408695 1 0.7809775376860717 1 0.33918533491394753 -1 0.10439554078604338 1 0.8985266086768211 -1 -0.5527951016358599 -1 0.583275329195324 1 -0.871432304347245 1 0.6346019826247505 -1 0.707802040671159 1 0.805568413020349 1 0.7120358581874474 -1 0.9295886198036099 1 -0.3866392234198198 -1 0.01992932754873418 1 0.2123697337399785 1 0.5542285622783071 1 -0.2467688915330102 -1 -0.5744044559147127 -1 -0.009320752223324865 -1 0.723879239777838 -1 -0.8524586723060171 -1 0.013414338569527227 -1 -0.12034799745220154 -1 -0.45862819001225413 -1 -0.9454728136071604 -1 0.5711831610133196 1 -0.5556349286769785 -1 -0.7572409978966249 1 0.9365179415962483 1 -0.8500326906396604 -1 0.40781254554111107 -1 -0.9795071779743636 -1 -0.3670271791027576 1 0.11867781620471882 1 0.3877693749294682 -1 -0.7746589525747917 1 -0.33765246072121335 -1 0.7524462339341689 1 0.385226238968509 -1 0.49930689360342173 -1 0.6780511529902419 1 0.5746499294167489 -1 0.873304887897838 -1 -0.08512720304458858 1 -0.4059413658444807 1 0.5267998420345901 -1 -0.49380572679617846 -1 -0.4584393852884625 1 -0.8317266920983201 1 0.6712714038973011 1 -0.9494718690889103 -1 -0.4298172190094816 -1 0.4980320852032138 1 -0.978785275764448 1 0.39407534629597457 1 -0.6050571276436351 1 0.28591013598329845 1 -0.19222421497504416 1 0.4024941928030652 1 -0.41914646097826297 -1 -0.9693050950398218 1 0.9415482741590023 -1 0.6906251917392444
33 1 0.0 -1 0.6884392525304746 -1 0.9928041341085101 -1 0.05359041301149192 -1 -0.13598309336975523 -1 -0.6559021730807484 1 0.9791849673783293 -1 0.3237659464777056 -1 0.6759835129188119 1 -0.019575048330821576 1 -0.18733706338631562 1 0.11472945212457986 -1 0.4123251988262686 -1 0.2994075095409756 -1 -0.9684035616647007 -1 0.297339578234715 -1 0.32566969260357537 -1 0.7167457248504305 1 -0.7511817995453964 1 0.9623946081325607 -1 -0.8648454811176536 1 -0.375749657630321 -1 0.48526411532260383 1 -0.048748249831958024 -1 -0.739402325249527 1 0.052413041162478136 -1 -0.28593921629066155 -1 0.48343832995845415 -1 -0.2880247670312104 1 0.2557141886173746 -1 0.6392259294755407 1 0.8453381305003096 1 -0.5171982213987936 -1 0.9842024527438591 1 0.7308892693804301 1 -0.18319033891527425 1 0.5670791177676457 1 0.7810735800238535 1 0.3392779718214487 -1 0.10431845841144605 1 0.8985455226206776 -1 -0.5528279134168079 -1 0.5831972343955081 1 -0.8714271962018239 1 0.6346066305768905 -1 0.707794999713957 1 0.805648900825227 1 0.7121163459923254 -1 0.9295697058597534 1 -0.38660236193799746 -1 0.019867799707040668 1 0.21244681611457583 1 0.554311719204216 1 -0.24670902038712894 -1 -0.5743963104936358 -1 -0.00930616409631152 -1 0.7237831974400561 -1 -0.852479334984342 -1 0.013368365260737536 -1 -0.1203858713592425 -1 -0.45867655632610593 -1 -0.9454779217525815 -1 0.5711050662135037 1 -0.5556430740980554 -1 -0.7572616605749498 1 0.9365828748682226 1 -0.8500435051817681 -1 0.4077615101062284 -1 -0.9794656225210732 -1 -0.36707149571573505 1 0.11875894828019051 1 0.3878309027711617 -1 -0.774643075906591 1 -0.3376081441082359 -1 0.752350191596387 1 0.3853033213431063 -1 0.49920818214460905 -1 0.6780505547389764 1 0.5747280242165648 -1 0.8732399546258638 -1 -0.08514179117160192 1 -0.40597822732630306 1 0.5268985534934028 -1 -0.49383853857712645 -1 -0.45850330613521817 1 -0.8317110915460881 1 0.6713599911039279 1 -0.9494667609434893 -1 -0.4297763078267849 -1 0.49802182289304353 1 -0.9787592748440614 1 0.39407576046992765 1 -0.6050128110306576 1 0.28595610929208815 1 -0.1922029080261256 1 0.4025567330699773 1 -0.4190865898323817 -1 -0.969294648652339 1 0.9415703174171708 -1 0.6907161719509334
34 1 0.0 -1 0.6883938314536223 -1 0.9927625786552197 -1 0.05352888516979841 -1 -0.13600541274389236 -1 -0.6559234800296669 1 0.9792214607055267 -1 0.3236888641031083 -1 0.675949596673989 1 -0.019607860111769574 1 -0.18730590830117985 1 0.11464832004910816 -1 0.41225860885848215 -1 0.2993459816992821 -1 -0.9684086698101217 -1 0.2972936049259253 -1 0.3255770556960742 -1 0.7166652370455525 1 -0.7511835022605368 1 0.9624010968578254 -1 -0.8648505892630747 1 -0.37570534101734354 -1 0.48523986313668577 1 -0.04871543805101002 -1 -0.7394425921616301 1 0.05247456900417165 -1 -0.28599908743654284 -1 0.4834296323054399 -1 -0.2880690836441878 1 0.2557757164590681 -1 0.6391373422689139 1 0.8454030637722838 1 -0.5171654096178455 -1 0.9841869442302834 1 0.7309853117182119 1 -0.18315651470910765 1 0.5670942581265965 1 0.7811696223616353 1 0.33937060872894986 -1 0.10424137603684872 1 0.898564436564534 -1 -0.552860725197756 -1 0.5831191395956922 1 -0.8714220880564028 1 0.6346112785290304 -1 0.7077879587567549 1 0.805729388630105 1 0.7121968337972034 -1 0.929550791915897 1 -0.3865655004561751 -1 0.019806271865347155 1 0.21252389848917316 1 0.5543948761301248 1 -0.24664914924124767 -1 -0.574388165072559 -1 -0.009291575969298175 -1 0.7236871551022743 -1 -0.8524999976626669 -1 0.013322391951947845 -1 -0.12042374526628347 -1 -0.45872492263995773 -1 -0.9454830298980026 -1 0.5710269714136877 1 -0.5556512195191322 -1 -0.7572823232532747 1 0.9366478081401968 1 -0.8500543197238758 -1 0.40771047467134575 -1 -0.9794240670677827 -1 -0.3671158123287125 1 0.11884008035566221 1 0.3878924306128552 -1 -0.7746271992383903 1 -0.3375638274952585 -1 0.7522541492586052 1 0.3853804037177036 -1 0.49910947068579636 -1 0.6780499564877108 1 0.5748061190163807 -1 0.8731750213538896 -1 -0.08515637929861526 1 -0.4060150888081254 1 0.5269972649522154 -1 -0.49387135035807445 -1 -0.45856722698197383 1 -0.8316954909938562 1 0.6714485783105546 1 -0.9494616527980682 -1 -0.42973539664408816 -1 0.49801156058287327 1 -0.9787332739236749 1 0.39407617464388073 1 -0.6049684944176802 1 0.28600208260087784 1 -0.19218160107720705 1 0.4026192733368894 1 -0.4190267186865004 -1 -0.9692842022648563 1 0.9415923606753392 -1 0.6908071521626223
35 1 0.0 -1 0.6883484103767701 -1 0.9927210232019292 -1 0.0534673573281049 -1 -0.1360277321180295 -1 -0.6559447869785855 1 0.9792579540327242 -1 0.323611781728511 -1 0.6759156804291662 1 -0.019640671892717572 1 -0.1872747532160441 1 0.11456718797363646 -1 0.4121920188906957 -1 0.2992844538575886 -1 -0.9684137779555428 -1 0.29724763161713563 -1 0.32548441878857304 -1 0.7165847492406745 1 -0.7511852049756771 1 0.96240758558309 -1 -0.8648556974084958 1 -0.3756610244043661 -1 0.4852156109507677 1 -0.04868262627006202 -1 -0.7394828590737332 1 0.05253609684586516 -1 -0.28605895858242414 -1 0.48342093465242564 -1 -0.28811340025716525 1 0.2558372443007616 -1 0.6390487550622872 1 0.845467997044258 1 -0.5171325978368975 -1 0.9841714357167077 1 0.7310813540559937 1 -0.18312269050294105 1 0.5671093984855473 1 0.7812656646994172 1 0.339463245636451 -1 0.10416429366225138 1 0.8985833505083904 -1 -0.552893536978704 -1 0.5830410447958763 1 -0.8714169799109817 1 0.6346159264811704 -1 0.7077809177995529 1 0.805809876434983 1 0.7122773216020815 -1 0.9295318779720405 1 -0.38652863897435275 -1 0.019744744023653643 1 0.2126009808637705 1 0.5544780330560337 1 -0.2465892780953664 -1 -0.5743800196514821 -1 -0.009276987842284829 -1 0.7235911127644925 -1 -0.8525206603409918 -1 0.013276418643158153 -1 -0.12046161917332443 -1 -0.45877328895380953 -1 -0.9454881380434237 -1 0.5709488766138718 1 -0.5556593649402091 -1 -0.7573029859315996 1 0.936712741412171 1 -0.8500651342659835 -1 0.4076594392364631 -1 -0.9793825116144923 -1 -0.3671601289416899 1 0.1189212124311339 1 0.3879539584545487 -1 -0.7746113225701896 1 -0.33751951088228105 -1 0.7521581069208234 1 0.3854574860923009 -1 0.4990107592269837 -1 0.6780493582364453 1 0.5748842138161966 -1 0.8731100880819154 -1 -0.0851709674256286 1 -0.4060519502899478 1 0.5270959764110281 -1 -0.49390416213902244 -1 -0.4586311478287295 1 -0.8316798904416243 1 0.6715371655171813 1 -0.9494565446526471 -1 -0.42969448546139144 -1 0.498001298272703 1 -0.9787072730032884 1 0.3940765888178338 1 -0.6049241778047028 1 0.28604805590966753 1 -0.1921602941282885 1 0.4026818136038015 1 -0.4189668475406191 -1 -0.9692737558773736 1 0.9416144039335077 -1 0.6908981323743113
36 1 0.0 -1 0.6883029892999178 -1 0.9926794677486388 -1 0.053405829486411385 -1 -0.13605005149216662 -1 -0.655966093927504 1 0.9792944473599217 -1 0.3235346993539137 -1 0.6758817641843433 1 -0.01967348367366557 1 -0.18724359813090832 1 0.11448605589816477 -1 0.4121254289229092 -1 0.2992229260158951 -1 -0.9684188861009639 -1 0.29720165830834594 -1 0.3253917818810719 -1 0.7165042614357965 1 -0.7511869076908174 1 0.9624140743083547 -1 -0.8648608055539169 1 -0.37561670779138867 -1 0.48519135876484965 1 -0.04864981448911402 -1 -0.7395231259858364 1 0.05259762468755867 -1 -0.28611882972830543 -1 0.4834122369994114 -1 -0.2881577168701427 1 0.2558987721424551 -1 0.6389601678556605 1 0.8455329303162322 1 -0.5170997860559494 -1 0.984155927203132 1 0.7311773963937755 1 -0.18308886629677446 1 0.5671245388444981 1 0.781361707037199 1 0.3395558825439522 -1 0.10408721128765405 1 0.8986022644522469 -1 -0.5529263487596521 -1 0.5829629499960604 1 -0.8714118717655606 1 0.6346205744333103 -1 0.7077738768423508 1 0.805890364239861 1 0.7123578094069595 -1 0.9295129640281841 1 -0.3864917774925304 -1 0.01968321618196013 1 0.21267806323836783 1 0.5545611899819426 1 -0.24652940694948514 -1 -0.5743718742304053 -1 -0.009262399715271484 -1 0.7234950704267107 -1 -0.8525413230193167 -1 0.013230445334368462 -1 -0.1204994930803654 -1 -0.45882165526766133 -1 -0.9454932461888448 -1 0.5708707818140559 1 -0.5556675103612859 -1 -0.7573236486099245 1 0.9367776746841452 1 -0.8500759488080912 -1 0.4076084038015804 -1 -0.9793409561612019 -1 -0.36720444555466736 1 0.1190023445066056 1 0.3880154862962422 -1 -0.7745954459019889 1 -0.3374751942693036 -1 0.7520620645830416 1 0.3855345684668982 -1 0.498912047768171 -1 0.6780487599851798 1 0.5749623086160125 -1 0.8730451548099412 -1 -0.08518555555264194 1 -0.40608881177177014 1 0.5271946878698408 -1 -0.49393697391997043 -1 -0.45869506867548515 1 -0.8316642898893923 1 0.6716257527238081 1 -0.949451436507226 -1 -0.4296535742786947 -1 0.49799103596253275 1 -0.9786812720829019 1 0.3940770029917869 1 -0.6048798611917253 1 0.2860940292184572 1 -0.19213898717936995 1 0.4027443538707136 1 -0.4189069763947378 -1 -0.9692633094898909 1 0.9416364471916762 -1 0.6909891125860003
37 1 0.0 -1 0.6882575682230656 -1 0.9926379122953484 -1 0.05334430164471787 -1 -0.13607237086630375 -1 -0.6559874008764226 1 0.9793309406871191 -1 0.3234576169793164 -1 0.6758478479395205 1 -0.019706295454613568 1 -0.18721244304577256 1 0.11440492382269307 -1 0.41205883895512274 -1 0.2991613981742016 -1 -0.968423994246385 -1 0.29715568499955625 -1 0.3252991449735707 -1 0.7164237736309185 1 -0.7511886104059577 1 0.9624205630336193 -1 -0.864865913699338 1 -0.37557239117841124 -1 0.4851671065789316 1 -0.04861700270816602 -1 -0.7395633928979395 1 0.052659152529252184 -1 -0.28617870087418673 -1 0.4834035393463971 -1 -0.2882020334831201 1 0.2559602999841486 -1 0.6388715806490337 1 0.8455978635882064 1 -0.5170669742750014 -1 0.9841404186895564 1 0.7312734387315574 1 -0.18305504209060786 1 0.5671396792034489 1 0.7814577493749808 1 0.33964851945145336 -1 0.10401012891305672 1 0.8986211783961033 -1 -0.5529591605406001 -1 0.5828848551962444 1 -0.8714067636201395 1 0.6346252223854503 -1 0.7077668358851488 1 0.8059708520447391 1 0.7124382972118375 -1 0.9294940500843276 1 -0.386454916010708 -1 0.01962168834026662 1 0.21275514561296516 1 0.5546443469078515 1 -0.24646953580360387 -1 -0.5743637288093284 -1 -0.009247811588258138 -1 0.7233990280889289 -1 -0.8525619856976416 -1 0.013184472025578771 -1 -0.12053736698740636 -1 -0.45887002158151313 -1 -0.9454983543342659 -1 0.57079268701424 1 -0.5556756557823628 -1 -0.7573443112882494 1 0.9368426079561194 1 -0.850086763350199 -1 0.40755736836669776 -1 -0.9792994007079114 -1 -0.3672487621676448 1 0.1190834765820773 1 0.3880770141379357 -1 -0.7745795692337882 1 -0.3374308776563262 -1 0.7519660222452598 1 0.3856116508414955 -1 0.4988133363093583 -1 0.6780481617339142 1 0.5750404034158284 -1 0.872980221537967 -1 -0.08520014367965528 1 -0.4061256732535925 1 0.5272933993286535 -1 -0.49396978570091843 -1 -0.4587589895222408 1 -0.8316486893371604 1 0.6717143399304348 1 -0.9494463283618049 -1 -0.429612663095998 -1 0.4979807736523625 1 -0.9786552711625154 1 0.39407741716573996 1 -0.6048355445787479 1 0.2861400025272469 1 -0.1921176802304514 1 0.4028068941376257 1 -0.4188471052488565 -1 -0.9692528631024082 1 0.9416584904498446 -1 0.6910800927976892
38 1 0.0 -1 0.6882121471462134 -1 0.9925963568420579 -1 0.05328277380302436 -1 -0.13609469024044088 -1 -0.6560087078253412 1 0.9793674340143166 -1 0.3233805346047191 -1 0.6758139316946976 1 -0.019739107235561566 1 -0.1871812879606368 1 0.11432379174722138 -1 0.4119922489873363 -1 0.2990998703325081 -1 -0.9684291023918061 -1 0.29710971169076655 -1 0.32520650806606954 -1 0.7163432858260405 1 -0.7511903131210981 1 0.962427051758884 -1 -0.8648710218447591 1 -0.3755280745654338 -1 0.4851428543930135 1 -0.04858419092721802 -1 -0.7396036598100426 1 0.0527206803709457 -1 -0.286238572020068 -1 0.48339484169338287 -1 -0.28824635009609756 1 0.2560218278258421 -1 0.638782993442407 1 0.8456627968601806 1 -0.5170341624940533 -1 0.9841249101759807 1 0.7313694810693392 1 -0.18302121788444126 1 0.5671548195623997 1 0.7815537917127626 1 0.3397411563589545 -1 0.10393304653845939 1 0.8986400923399598 -1 -0.5529919723215482 -1 0.5828067603964285 1 -0.8714016554747184 1 0.6346298703375902 -1 0.7077597949279467 1 0.8060513398496171 1 0.7125187850167155 -1 0.9294751361404712 1 -0.38641805452888567 -1 0.019560160498573106 1 0.2128322279875625 1 0.5547275038337603 1 -0.2464096646577226 -1 -0.5743555833882515 -1 -0.009233223461244793 -1 0.723302985751147 -1 -0.8525826483759665 -1 0.01313849871678908 -1 -0.12057524089444732 -1 -0.45891838789536493 -1 -0.945503462479687 -1 0.5707145922144241 1 -0.5556838012034396 -1 -0.7573649739665743 1 0.9369075412280936 1 -0.8500975778923067 -1 0.4075063329318151 -1 -0.979257845254621 -1 -0.36729307878062223 1 0.11916460865754899 1 0.3881385419796292 -1 -0.7745636925655875 1 -0.33738656104334874 -1 0.751869979907478 1 0.3856887332160928 -1 0.49871462485054563 -1 0.6780475634826487 1 0.5751184982156443 -1 0.8729152882659927 -1 -0.08521473180666862 1 -0.40616253473541486 1 0.5273921107874662 -1 -0.4940025974818664 -1 -0.4588229103689965 1 -0.8316330887849285 1 0.6718029271370616 1 -0.9494412202163838 -1 -0.42957175191330127 -1 0.4979705113421922 1 -0.9786292702421289 1 0.39407783133969304 1 -0.6047912279657705 1 0.2861859758360366 1 -0.19209637328153284 1 0.4028694344045378 1 -0.4187872341029752 -1 -0.9692424167149255 1 0.9416805337080131 -1 0.6911710730093782
39 1 0.0 -1 0.6881667260693611 -1 0.9925548013887675 -1 0.05322124596133085 -1 -0.136117009614578 -1 -0.6560300147742597 1 0.979403927341514 -1 0.3233034522301218 -1 0.6757800154498748 1 -0.019771919016509563 1 -0.18715013287550103 1 0.11424265967174968 -1 0.4119256590195498 -1 0.2990383424908146 -1 -0.9684342105372272 -1 0.29706373838197686 -1 0.3251138711585684 -1 0.7162627980211624 1 -0.7511920158362384 1 0.9624335404841486 -1 -0.8648761299901802 1 -0.37548375795245637 -1 0.48511860220709546 1 -0.048551379146270016 -1 -0.7396439267221457 1 0.05278220821263921 -1 -0.2862984431659493 -1 0.4833861440403686 -1 -0.288290666709075 1 0.2560833556675356 -1 0.6386944062357802 1 0.8457277301321549 1 -0.5170013507131053 -1 0.984109401662405 1 0.731465523407121 1 -0.18298739367827466 1 0.5671699599213504 1 0.7816498340505444 1 0.3398337932664557 -1 0.10385596416386206 1 0.8986590062838162 -1 -0.5530247841024962 -1 0.5827286655966126 1 -0.8713965473292973 1 0.6346345182897302 -1 0.7077527539707447 1 0.8061318276544951 1 0.7125992728215935 -1 0.9294562221966147 1 -0.3863811930470633 -1 0.019498632656879594 1 0.21290931036215982 1 0.5548106607596692 1 -0.24634979351184133 -1 -0.5743474379671747 -1 -0.009218635334231447 -1 0.7232069434133652 -1 -0.8526033110542914 -1 0.013092525407999388 -1 -0.12061311480148829 -1 -0.45896675420921673 -1 -0.9455085706251081 -1 0.5706364974146082 1 -0.5556919466245165 -1 -0.7573856366448992 1 0.9369724745000678 1 -0.8501083924344144 -1 0.40745529749693243 -1 -0.9792162898013306 -1 -0.36733739539359966 1 0.11924574073302069 1 0.3882000698213227 -1 -0.7745478158973869 1 -0.3373422444303713 -1 0.7517739375696961 1 0.3857658155906901 -1 0.49861591339173295 -1 0.6780469652313832 1 0.5751965930154602 -1 0.8728503549940185 -1 -0.08522931993368196 1 -0.4061993962172372 1 0.5274908222462789 -1 -0.4940354092628144 -1 -0.45888683121575213 1 -0.8316174882326965 1 0.6718915143436883 1 -0.9494361120709627 -1 -0.42953084073060455 -1 0.49796024903202196 1 -0.9786032693217424 1 0.3940782455136461 1 -0.604746911352793 1 0.2862319491448263 1 -0.19207506633261429 1 0.4029319746714499 1 -0.4187273629570939 -1 -0.9692319703274428 1 0.9417025769661815 -1 0.6912620532210672
40 1 0.0 -1 0.6881213049925089 -1 0.9925132459354771 -1 0.053159718119637336 -1 -0.13613932898871514 -1 -0.6560513217231783 1 0.9794404206687115 -1 0.3232263698555245 -1 0.6757460992050519 1 -0.01980473079745756 1 -0.18711897779036527 1 0.11416152759627798 -1 0.41185906905176334 -1 0.2989768146491211 -1 -0.9684393186826483 -1 0.29701776507318717 -1 0.3250212342510672 -1 0.7161823102162844 1 -0.7511937185513787 1 0.9624400292094133 -1 -0.8648812381356012 1 -0.37543944133947893 -1 0.4850943500211774 1 -0.048518567365322014 -1 -0.7396841936342489 1 0.05284373605433272 -1 -0.2863583143118306 -1 0.48337744638735436 -1 -0.28833498332205243 1 0.2561448835092291 -1 0.6386058190291535 1 0.8457926634041291 1 -0.5169685389321572 -1 0.9840938931488293 1 0.7315615657449028 1 -0.18295356947210806 1 0.5671851002803012 1 0.7817458763883263 1 0.33992643017395685 -1 0.10377888178926473 1 0.8986779202276727 -1 -0.5530575958834443 -1 0.5826505707967967 1 -0.8713914391838762 1 0.6346391662418701 -1 0.7077457130135426 1 0.8062123154593731 1 0.7126797606264715 -1 0.9294373082527583 1 -0.38634433156524095 -1 0.019437104815186082 1 0.21298639273675715 1 0.5548938176855781 1 -0.24628992236596006 -1 -0.5743392925460978 -1 -0.009204047207218102 -1 0.7231109010755834 -1 -0.8526239737326163 -1 0.013046552099209697 -1 -0.12065098870852925 -1 -0.45901512052306853 -1 -0.9455136787705292 -1 0.5705584026147923 1 -0.5557000920455933 -1 -0.7574062993232241 1 0.937037407772042 1 -0.8501192069765221 -1 0.40740426206204977 -1 -0.9791747343480401 -1 -0.3673817120065771 1 0.11932687280849238 1 0.3882615976630162 -1 -0.7745319392291862 1 -0.33729792781739387 -1 0.7516778952319143 1 0.3858428979652874 -1 0.49851720193292026 -1 0.6780463669801177 1 0.5752746878152761 -1 0.8727854217220443 -1 -0.0852439080606953 1 -0.4062362576990596 1 0.5275895337050915 -1 -0.4940682210437624 -1 -0.4589507520625078 1 -0.8316018876804646 1 0.6719801015503151 1 -0.9494310039255416 -1 -0.4294899295479078 -1 0.4979499867218517 1 -0.9785772684013558 1 0.3940786596875992 1 -0.6047025947398156 1 0.286277922453616 1 -0.19205375938369573 1 0.402994514938362 1 -0.4186674918112126 -1 -0.9692215239399601 1 0.94172462022435 -1 0.6913530334327561
41 1 0.0 -1 0.6880758839156567 -1 0.9924716904821866 -1 0.053098190277943824 -1 -0.13616164836285227 -1 -0.6560726286720968 1 0.979476913995909 -1 0.3231492874809272 -1 0.6757121829602291 1 -0.01983754257840556 1 -0.1870878227052295 1 0.11408039552080629 -1 0.41179247908397687 -1 0.2989152868074276 -1 -0.9684444268280694 -1 0.2969717917643975 -1 0.32492859734356605 -1 0.7161018224114064 1 -0.7511954212665191 1 0.962446517934678 -1 -0.8648863462810223 1 -0.3753951247265015 -1 0.48507009783525934 1 -0.04848575558437401 -1 -0.739724460546352 1 0.05290526389602623 -1 -0.2864181854577119 -1 0.4833687487343401 -1 -0.28837929993502986 1 0.2562064113509226 -1 0.6385172318225267 1 0.8458575966761033 1 -0.5169357271512092 -1 0.9840783846352537 1 0.7316576080826847 1 -0.18291974526594146 1 0.567200240639252 1 0.7818419187261081 1 0.340019067081458 -1 0.1037017994146674 1 0.8986968341715291 -1 -0.5530904076643923 -1 0.5825724759969808 1 -0.8713863310384551 1 0.6346438141940101 -1 0.7077386720563406 1 0.8062928032642511 1 0.7127602484313496 -1 0.9294183943089018 1 -0.3863074700834186 -1 0.01937557697349257 1 0.21306347511135448 1 0.554976974611487 1 -0.2462300512200788 -1 -0.574331147125021 -1 -0.009189459080204757 -1 0.7230148587378016 -1 -0.8526446364109412 -1 0.013000578790420006 -1 -0.12068886261557021 -1 -0.45906348683692033 -1 -0.9455187869159503 -1 0.5704803078149764 1 -0.5557082374666702 -1 -0.757426962001549 1 0.9371023410440162 1 -0.8501300215186298 -1 0.4073532266271671 -1 -0.9791331788947497 -1 -0.36742602861955453 1 0.11940800488396408 1 0.3883231255047097 -1 -0.7745160625609855 1 -0.33725361120441644 -1 0.7515818528941325 1 0.3859199803398847 -1 0.4984184904741076 -1 0.6780457687288521 1 0.575352782615092 -1 0.8727204884500701 -1 -0.08525849618770864 1 -0.40627311918088194 1 0.5276882451639042 -1 -0.4941010328247104 -1 -0.45901467290926345 1 -0.8315862871282327 1 0.6720686887569418 1 -0.9494258957801205 -1 -0.4294490183652111 -1 0.49793972441168144 1 -0.9785512674809693 1 0.3940790738615523 1 -0.6046582781268381 1 0.2863238957624057 1 -0.19203245243477718 1 0.40305705520527413 1 -0.4186076206653313 -1 -0.9692110775524774 1 0.9417466634825185 -1 0.6914440136444451
42 1 0.0 -1 0.6880304628388044 -1 0.9924301350288962 -1 0.05303666243625031 -1 -0.1361839677369894 -1 -0.6560939356210154 1 0.9795134073231064 -1 0.3230722051063299 -1 0.6756782667154062 1 -0.019870354359353557 1 -0.18705666762009374 1 0.11399926344533459 -1 0.4117258891161904 -1 0.29885375896573413 -1 -0.9684495349734905 -1 0.2969258184556078 -1 0.3248359604360649 -1 0.7160213346065284 1 -0.7511971239816594 1 0.9624530066599426 -1 -0.8648914544264434 1 -0.37535080811352406 -1 0.4850458456493413 1 -0.04845294380342601 -1 -0.7397647274584551 1 0.052966791737719746 -1 -0.2864780566035932 -1 0.48336005108132585 -1 -0.2884236165480073 1 0.2562679391926161 -1 0.6384286446159 1 0.8459225299480775 1 -0.5169029153702611 -1 0.984062876121678 1 0.7317536504204665 1 -0.18288592105977486 1 0.5672153809982028 1 0.7819379610638899 1 0.3401117039889592 -1 0.10362471704007006 1 0.8987157481153856 -1 -0.5531232194453404 -1 0.5824943811971649 1 -0.871381222893034 1 0.63464846214615 -1 0.7077316310991385 1 0.8063732910691291 1 0.7128407362362276 -1 0.9293994803650454 1 -0.38627060860159623 -1 0.019314049131799058 1 0.21314055748595181 1 0.5550601315373959 1 -0.24617018007419753 -1 -0.5743230017039441 -1 -0.009174870953191411 -1 0.7229188164000198 -1 -0.8526652990892661 -1 0.012954605481630315 -1 -0.12072673652261118 -1 -0.45911185315077213 -1 -0.9455238950613714 -1 0.5704022130151605 1 -0.555716382887747 -1 -0.7574476246798739 1 0.9371672743159905 1 -0.8501408360607375 -1 0.40730219119228445 -1 -0.9790916234414593 -1 -0.36747034523253197 1 0.11948913695943578 1 0.3883846533464032 -1 -0.7745001858927848 1 -0.337209294591439 -1 0.7514858105563507 1 0.38599706271448203 -1 0.4983197790152949 -1 0.6780451704775866 1 0.575430877414908 -1 0.8726555551780959 -1 -0.08527308431472198 1 -0.4063099806627043 1 0.5277869566227169 -1 -0.4941338446056584 -1 -0.4590785937560191 1 -0.8315706865760008 1 0.6721572759635686 1 -0.9494207876346994 -1 -0.4294081071825144 -1 0.4979294621015112 1 -0.9785252665605828 1 0.39407948803550535 1 -0.6046139615138607 1 0.2863698690711954 1 -0.19201114548585863 1 0.40311959547218623 1 -0.41854774951945 -1 -0.9692006311649947 1 0.9417687067406869 -1 0.691534993856134
43 1 0.0 -1 0.6879850417619522 -1 0.9923885795756058 -1 0.0529751345945568 -1 -0.13620628711112653 -1 -0.6561152425699339 1 0.9795499006503039 -1 0.3229951227317326 -1 0.6756443504705834 1 -0.019903166140301555 1 -0.18702551253495797 1 0.1139181313698629 -1 0.41165929914840393 -1 0.29879223112404063 -1 -0.9684546431189116 -1 0.2968798451468181 -1 0.3247433235285637 -1 0.7159408468016504 1 -0.7511988266967997 1 0.9624594953852073 -1 -0.8648965625718645 1 -0.3753064915005466 -1 0.4850215934634232 1 -0.04842013202247801 -1 -0.7398049943705582 1 0.05302831957941326 -1 -0.2865379277494745 -1 0.4833513534283116 -1 -0.28846793316098474 1 0.2563294670343096 -1 0.6383400574092732 1 0.8459874632200517 1 -0.5168701035893131 -1 0.9840473676081023 1 0.7318496927582483 1 -0.18285209685360826 1 0.5672305213571536 1 0.7820340034016717 1 0.34020434089646034 -1 0.10354763466547273 1 0.898734662059242 -1 -0.5531560312262884 -1 0.582416286397349 1 -0.8713761147476129 1 0.63465311009829 -1 0.7077245901419364 1 0.8064537788740072 1 0.7129212240411056 -1 0.9293805664211889 1 -0.3862337471197739 -1 0.019252521290105545 1 0.21321763986054915 1 0.5551432884633047 1 -0.24611030892831626 -1 -0.5743148562828673 -1 -0.009160282826178066 -1 0.7228227740622379 -1 -0.852685961767591 -1 0.012908632172840624 -1 -0.12076461042965214 -1 -0.45916021946462393 -1 -0.9455290032067925 -1 0.5703241182153446 1 -0.5557245283088239 -1 -0.7574682873581988 1 0.9372322075879647 1 -0.8501516506028453 -1 0.4072511557574018 -1 -0.9790500679881688 -1 -0.3675146618455094 1 0.11957026903490747 1 0.3884461811880967 -1 -0.7744843092245841 1 -0.33716497797846157 -1 0.7513897682185688 1 0.38607414508907933 -1 0.4982210675564822 -1 0.6780445722263211 1 0.5755089722147239 -1 0.8725906219061217 -1 -0.08528767244173532 1 -0.40634684214452665 1 0.5278856680815296 -1 -0.4941666563866064 -1 -0.4591425146027748 1 -0.8315550860237688 1 0.6722458631701953 1 -0.9494156794892783 -1 -0.42936719599981765 -1 0.4979191997913409 1 -0.9784992656401963 1 0.39407990220945843 1 -0.6045696449008833 1 0.2864158423799851 1 -0.19198983853694007 1 0.40318213573909834 1 -0.4184878783735687 -1 -0.969190184777512 1 0.9417907499988554 -1 0.691625974067823
44 1 0.0 -1 0.6879396206851 -1 0.9923470241223153 -1 0.05289805221995947 -1 -0.13622860648526366 -1 -0.6561365495188525 1 0.9795863939775014 -1 0.3229180403571353 -1 0.6756104342257605 1 -0.019935977921249553 1 -0.1869943574498222 1 0.1138369992943912 -1 0.41159270918061747 -1 0.29873070328234713 -1 -0.9684597512643327 -1 0.2968338718380284 -1 0.32465068662106256 -1 0.7158603589967724 1 -0.75120052941194 1 0.9624659841104719 -1 -0.8649016707172856 1 -0.3752621748875692 -1 0.48499734127750516 1 -0.04838732024153001 -1 -0.7398452612826614 1 0.05310540195401059 -1 -0.2865977988953558 -1 0.48334265577529734 -1 -0.28851224977396217 1 0.2563909948760031 -1 0.6382514702026465 1 0.8460523964920259 1 -0.516837291808365 -1 0.9840318590945266 1 0.7319457350960301 1 -0.18281827264744166 1 0.5672456617161044 1 0.7821300457394535 1 0.3402969778039615 -1 0.1034705522908754 1 0.8987535760030985 -1 -0.5531888430072365 -1 0.5823381915975331 1 -0.8713710066021918 1 0.6346577580504299 -1 0.7077175491847344 1 0.8065342666788852 1 0.7130017118459836 -1 0.9293616524773325 1 -0.3861968856379515 -1 0.019190993448412033 1 0.21329472223514648 1 0.5552264453892136 1 -0.246050437782435 -1 -0.5743067108617904 -1 -0.00914569469916472 -1 0.7227267317244561 -1 -0.8527066244459159 -1 0.012862658864050932 -1 -0.1208024843366931 -1 -0.45920858577847573 -1 -0.9455341113522135 -1 0.5702460234155287 1 -0.5557326737299008 -1 -0.7574889500365237 1 0.9372971408599389 1 -0.850162465144953 -1 0.4072001203225191 -1 -0.9790085125348784 -1 -0.36755897845848684 1 0.11965140111037917 1 0.3885077090297902 -1 -0.7744684325563834 1 -0.33712066136548413 -1 0.751293725880787 1 0.38615122746367664 -1 0.4981223560976695 -1 0.6780439739750556 1 0.5755870670145398 -1 0.8725256886341475 -1 -0.08530226056874866 1 -0.406383703626349 1 0.5279843795403423 -1 -0.4941994681675544 -1 -0.45920643544953044 1 -0.8315394854715369 1 0.672334450376822 1 -0.9494105713438572 -1 -0.42932628481712093 -1 0.49790893748117065 1 -0.9784732647198098 1 0.3940803163834115 1 -0.6045253282879058 1 0.28646181568877477 1 -0.19196853158802152 1 0.40324467600601044 1 -0.4184280072276874 -1 -0.9691797383900292 1 0.9418127932570238 -1 0.691716954279512
45 1 0.0 -1 0.6878941996082477 -1 0.9923054686690249 -1 0.05282096984536214 -1 -0.1362509258594008 -1 -0.656157856467771 1 0.9796228873046988 -1 0.322840957982538 -1 0.6755765179809377 1 -0.01996878970219755 1 -0.18696320236468644 1 0.1137558672189195 -1 0.411526119212831 -1 0.29866917544065363 -1 -0.9684648594097538 -1 0.2967878985292387 -1 0.3245580497135614 -1 0.7157798711918943 1 -0.7512022321270804 1 0.9624724728357366 -1 -0.8649067788627067 1 -0.37521785827459175 -1 0.4849730890915871 1 -0.04835450846058201 -1 -0.7398855281947645 1 0.05318248432860792 -1 -0.2866576700412371 -1 0.4833339581222831 -1 -0.2885565663869396 1 0.2564525227176966 -1 0.6381628829960198 1 0.8461173297640001 1 -0.516804480027417 -1 0.9840163505809509 1 0.7320417774338119 1 -0.18278444844127506 1 0.5672608020750551 1 0.7822260880772354 1 0.3403896147114627 -1 0.10339346991627807 1 0.8987724899469549 -1 -0.5532216547881845 -1 0.5822600967977172 1 -0.8713658984567707 1 0.6346624060025698 -1 0.7077105082275323 1 0.8066147544837632 1 0.7130821996508616 -1 0.929342738533476 1 -0.38616002415612916 -1 0.01912946560671852 1 0.2133718046097438 1 0.5553096023151225 1 -0.24599056663655372 -1 -0.5742985654407136 -1 -0.009131106572151375 -1 0.7226306893866743 -1 -0.8527272871242408 -1 0.012816685555261241 -1 -0.12084035824373407 -1 -0.45925695209232753 -1 -0.9455392194976346 -1 0.5701679286157127 1 -0.5557408191509776 -1 -0.7575096127148486 1 0.9373620741319131 1 -0.8501732796870607 -1 0.40714908488763646 -1 -0.978966957081588 -1 -0.3676032950714643 1 0.11973253318585086 1 0.3885692368714837 -1 -0.7744525558881827 1 -0.3370763447525067 -1 0.7511976835430052 1 0.38622830983827394 -1 0.49802364463885684 -1 0.67804337572379 1 0.5756651618143557 -1 0.8724607553621733 -1 -0.085316848695762 1 -0.40642056510817137 1 0.528083090999155 -1 -0.4942322799485024 -1 -0.4592703562962861 1 -0.831523884919305 1 0.6724230375834488 1 -0.9494054631984361 -1 -0.4292853736344242 -1 0.4978986751710004 1 -0.9784472637994233 1 0.3940807305573646 1 -0.6044810116749284 1 0.28650778899756446 1 -0.19194722463910296 1 0.40330721627292254 1 -0.4183681360818061 -1 -0.9691692920025465 1 0.9418348365151923 -1 0.6918079344912009
