1 1 0.0 -1 -0.7854798721940701 -1 -0.9040600586858736 1 -0.6343094073796292 -1 0.6920229123027699 1 -0.08937492111564738 1 -0.9126072280070197 1 0.5295014043447586 1 -0.9410361551201003 -1 0.38182089789312146 1 -0.35728372691859445 -1 -0.40356669602808815 1 -0.8398756746058409 1 0.6241431929258672 1 -0.7352783658519555 -1 0.7090077250244606 1 0.0758780190207422 1 -0.8630823922508686 1 -0.8005711365564938 1 -0.2959173461508058 -1 0.27783875460207885 1 0.6576656610578269 -1 0.9709786121149995 -1 0.9900086537763881 -1 0.15913116197749555 -1 0.07755608398537994 -1 -0.7769029778928223 -1 -0.4473089387380609 1 -0.8101445564715892 1 -0.3092257035164667 -1 -0.017540598734278934 -1 0.4171252820956426 -1 0.3117610507121409 -1 0.08363222346663735 -1 -0.06032970742029553 1 0.36243190707317474 1 -0.4516626125435379 -1 0.28629221937380733 1 -0.3516776753589963 -1 0.20783106207972346 -1 -0.06591374630726254 -1 -0.561341371856964 -1 0.8786639172698754 -1 -0.4795282719929861 1 0.9770860284132057 -1 0.3711352680709077 -1 0.3864779523259916 1 -0.8571272301993824 -1 -0.19645897244938637 1 -0.2982478645596651 1 0.5487312394543273 1 0.5352871376815522 -1 0.0882964630605294 1 0.48560732507623205 1 0.44715784183510454 1 0.5214791588677119 1 0.030104211483978238 1 -0.4468291391021819 1 0.8144061148877473 -1 0.7079851378371098 -1 -0.7645204660916682 1 -0.3273197533676535 1 -0.5998806388311106 1 0.24499548386067937 1 -0.5672657874909723 1 0.6642480111403157 -1 -0.8448861339324307 -1 -0.6028251891132823 1 0.07010226800045749 -1 0.39723942931316425 -1 0.6806093716835062 1 0.303994052534702 -1 -0.9457632776230871 -1 -0.616153603582531 1 -0.4182000887809081 1 0.2997206168579347 -1 0.10023826117405821 1 -0.20410032140750922 -1 -0.4189504338490275 -1 -0.8702039574151998 -1 -0.5105529556283752 1 -0.6529755305516627 1 0.758440092992001 -1 0.8502957700138316 -1 -0.2930540357205107 1 -0.07400936219972332 -1 -0.9720658146142942 -1 -0.9715643224368611 1 0.1944331657047762 1 -0.9329065452114318 -1 0.7628458991928151 -1 -0.8736204919858532 -1 0.27120785043716755 -1 0.28469264417941287 1 0.07054539270336568 1 -0.9194523240704959 1 -0.06491227224939466 1 0.852370813846316 1 0.9471331700307859 -1 -0.2799574994959162
2 1 0.0 1 2080.55891991515 1 -4462.368515135775 -1 3163.416293463433 1 3379.450274905922 -1 -5105.676777366621 -1 4460.551847849082 -1 7116.561254727051 -1 2209.0505087677916 1 5973.967777304062 -1 354.15796560854386 1 -354.9188160314857 -1 2948.5030780734014 -1 355.13939252838674 -1 5388.467324504962 1 355.22425706048585 -1 -19255.51452708466 -1 9125.613021807645 -1 5233.433976444518 -1 -4864.85476051468 1 -4675.894265445289 -1 -3378.100586332564 1 -2080.373421175233 1 2795.364907112042 1 6746.515180072137 1 19255.667961187664 1 -1652.7060045196238 1 -724.6382626867503 -1 -784.7406921375475 -1 -8044.07912681994 1 14006.177861846776 1 -13447.715833782231 1 -8413.133844478261 1 879.2426412612133 1 17743.40857406716 -1 8413.808037436047 -1 723.7392911354688 1 -12150.43281463868 -1 -569.5745761336277 1 1497.168877314078 1 6617.642990028279 1 -939.4599442426695 1 5604.788915910889 1 -5604.389780265612 -1 2082.321485815759 1 -5973.2148211381 1 -5973.199478453844 -1 5388.345475640616 1 5105.390943473056 -1 -7331.037650310066 -1 -353.96651809600473 -1 3379.293539131301 1 14220.991348031386 -1 12151.20471418313 -1 8568.86081866055 -1 3534.2477864422294 -1 -10268.89179690495 -1 5603.4634228545165 -1 -1152.7918458787333 1 -353.8072641976243 1 -5389.967123336905 -1 -4306.823719540711 -1 6900.724223561066 -1 3379.0032474774807 -1 3163.4833370833258 -1 -7115.367505311563 1 -7829.9071381275535 1 -6901.92692938901 -1 -14006.125300177513 1 -9710.462218305935 1 7116.712362694387 -1 8413.74959958151 1 -2950.2887170256317 1 -3164.6667564743993 -1 5603.492051904837 -1 12151.018827474913 1 10483.729788500415 -1 414.0507428471242 1 -5604.329202427468 1 -9127.34630815731 1 938.3880499151834 -1 1281.600421598634 -1 -353.7568092424671 1 5604.760547763633 1 10483.336496203514 -1 -15518.390913136784 1 -2795.3469642728815 1 -6532.619964109785 -1 3009.276980746777 -1 -1524.2148629513802 1 -4091.025904765348 1 224.99448370790887 1 -938.6273950203704 1 -8413.160912884794 -1 -6617.638358381886 -1 1522.362504082097 -1 -17743.53381604683 -1 -5603.057881179773 -1 -2793.4277652882347 1 -10483.909507738728
3 1 0.0 -1 1095.0736758960143 -1 -23073.835972871017 1 14670.01245295307 -1 13991.726970280728 1 -11551.264673166726 1 5897.773300268009 1 -1854.9467941831035 1 4702.657254116006 -1 -772.3882716060934 1 -4837.48994082421 -1 -7916.631598593955 1 16680.25123756304 1 8279.430105978681 1 2375.3847769238873 -1 -7569.066456389808 1 -16457.139628626395 1 -8617.855881966947 1 8955.547022696512 1 1580.7331352854271 -1 -19550.08822185145 1 7758.8198687445165 -1 -25941.235881568657 -1 -10936.383252377595 -1 11980.749727653216 -1 25787.316360975008 -1 -21931.263018873688 -1 -31132.3095779446 1 22303.351675751866 1 -5245.70422836168 -1 31749.646765621368 -1 -5030.27022825325 -1 -11207.508742936521 -1 -22826.651763842467 -1 28012.330475183586 1 -4294.973512803186 1 24429.63369623915 -1 -7470.260710438779 1 20078.658142632976 -1 -11306.841134381835 -1 11138.847038938431 -1 4182.393189196989 -1 12351.144964821044 -1 -15443.896383136422 1 24061.38674046755 -1 -13217.89371959637 -1 -12075.432579995573 1 6112.536429388624 -1 12564.777491054132 1 -11422.826400974605 1 -11652.95280198755 1 -7232.983156243505 -1 28227.186750476896 1 -5592.264189591462 1 6757.963661829077 1 16028.321687558659 1 -18682.33740243393 1 -1142.8926260556382 1 -6274.644979318392 -1 10945.17901969392 -1 -18966.74722753679 1 14304.643738194538 1 1662.4896759799885 1 19610.35064992299 1 10932.805995243878 1 -8268.973757305188 -1 -8184.422387463013 -1 -5744.320677395385 1 -22419.570905706496 -1 -1293.0166127769553 -1 16088.220411604538 1 -557.7584493286413 -1 -20264.34232255461 -1 -14301.58721155148 1 -4880.137498334398 1 -1855.1765749705974 -1 24489.925190945927 1 27857.218649279883 -1 -19181.10930662736 -1 -4447.174203957412 -1 4617.914455018854 1 12237.23191123181 1 15045.080906865987 -1 16088.390098002868 -1 28226.805399978104 1 -20194.56301733668 -1 -18966.954772885318 -1 -7600.165712116161 1 11525.048821257145 1 -3717.9406768801427 -1 10783.168051640816 -1 5416.6423901406615 -1 -24026.719762909786 -1 -7470.262310013976 1 -14446.700610375507 1 -7921.147484221998 1 -18682.432418917648 1 7973.722223020117 1 -665.4967243525634 -1 -15160.081611938629
4 1 0.0 1 753.7113792452988 1 -32200.312077070907 -1 7146.886311538928 1 22223.88361036579 -1 -20780.067012348016 -1 11510.85150973106 -1 17195.103919267192 -1 1887.1294029729943 1 14540.388940515124 -1 5757.633801865849 1 -27772.87108822713 -1 7859.71124394262 -1 -2349.999542080868 -1 9285.876838593213 1 -31498.836468085712 -1 -994.5623186848752 -1 17038.743280180846 -1 39611.34467075606 -1 1918.0954319361426 1 -31271.39203046389 -1 4599.93722334313 1 -30033.0246322332 1 -36592.98241452539 1 24036.2403730546 1 42233.37141254333 1 -32355.15297527985 1 -31486.82482728006 -1 4710.850827267008 -1 23134.369783334205 1 34544.021664079635 1 -33410.34423994913 1 -33126.83440375524 1 -33250.54172024864 1 42018.525877629094 -1 23157.36235109898 -1 23761.18233632421 1 -38874.57772479283 -1 6223.430795477203 1 -29488.893293871464 1 37344.34068699798 1 30645.18112752766 1 19157.240607564265 1 -30902.47369307794 -1 27130.208881881692 1 -33341.482678660715 1 -31056.57574214336 -1 7988.341137522595 1 24534.20763246827 -1 -24388.902241484975 -1 -17144.48163983976 -1 -24778.01014188944 1 34758.83515026424 -1 26525.083323433493 -1 36614.67030723046 -1 27869.10468383724 -1 513.5134088366722 -1 17907.15808739466 -1 -27556.945466293408 1 40887.94616908255 1 -41899.871540136475 -1 10518.791098109476 -1 12310.255238978401 -1 29011.27399707876 -1 -5659.049154144748 -1 13650.351903513527 1 -37423.326995650146 1 -37861.668190420336 -1 -11991.680949300335 1 -20343.06732622725 1 28642.03390655404 -1 10090.00711366977 1 -34425.50578028987 1 -28248.043020163917 -1 23499.936513361485 -1 20932.14763980876 1 44673.25374384333 -1 26046.321492448413 1 -34639.68661656888 1 -31899.510067859574 1 7429.442306161865 -1 29456.05705530411 -1 3784.6812641227607 1 24904.930091623286 1 38495.72730109453 -1 -8469.259208724246 1 -38162.80558415592 1 -27792.662222482977 -1 33993.268967987606 -1 3139.909564480832 1 -2071.41359641873 1 8228.170241283673 1 -29415.9223657806 1 -35137.30582303895 -1 -18297.460801763067 -1 -24040.113472526093 -1 4250.691893682037 -1 1077.5660762896532 -1 -324.1344277018477 1 298.495698002891
5 1 0.0 -1 -14480.103102413368 -1 -81294.35089897417 1 24341.46072940176 -1 63593.178912864474 1 -16442.3624807159 1 8137.26121520687 1 -4860.853881902403 1 16193.205736837936 -1 -41.021857996311155 1 5140.937040568663 -1 -4748.799049949608 1 22244.750308270108 1 63402.80948290588 1 17124.107048056263 -1 -88067.42229264714 1 57283.699703643695 1 -1279.9410196596655 1 49966.32707585973 1 12486.898264472014 -1 -92874.66520856068 1 33934.0702929869 -1 -71129.9428757207 -1 -59371.13867183533 -1 60826.584530417706 -1 52502.29331365976 -1 -77711.918295854 -1 -64954.22801281966 1 30307.710395581715 1 -4884.0135191644695 -1 63000.988222293345 -1 -68697.7348534526 -1 -74746.32622300032 -1 -56493.60214342781 -1 56024.721280074606 1 -8598.29445272878 1 40643.75045966286 -1 -49143.49962590925 1 27155.27871466911 -1 -103601.40082816177 -1 52948.71809475981 -1 57676.08668839955 -1 44950.47191006293 -1 -99980.29387383291 1 36907.90570697473 -1 -52847.2696005108 -1 -96397.12242156925 1 18636.106700521006 -1 64262.73428850231 1 -12576.650707194704 1 -18769.202609536726 1 -9228.48510627009 -1 59478.52820714888 1 -6313.279683477733 1 36289.57374157389 1 33909.5280076012 1 46652.21677938425 1 -7886.07321510401 1 -8270.14692934497 -1 47505.65507285714 -1 -48431.51993992382 1 10882.474304914365 1 5199.3914431251305 1 32611.837671719906 1 63831.033372171085 1 2802.214606331174 -1 -44264.91150601697 -1 -55605.13709419493 1 64972.94857967367 -1 -100331.93985785943 -1 64075.224617877815 1 14190.96382180374 -1 -48896.6053486046 -1 -109835.0975571124 1 -11992.993791795358 1 -4861.083662689907 -1 51204.90214363067 1 40858.7056710768 -1 -64892.38987653698 -1 -84730.82239109192 -1 9897.615363046507 1 60224.236117505076 1 40593.36133642469 -1 56445.87924632824 -1 59263.43920752728 1 64758.09681892068 -1 -52169.00098660143 -1 -113116.99026076055 1 57286.90102753042 1 9971.438895687632 -1 59944.12192723893 -1 8814.546092426686 -1 -107265.70340140001 -1 -61652.735581677975 1 -16184.908270130949 1 -15965.1354395649 1 37322.0984646549 1 44406.73409330187 1 17692.894497338 -1 50174.47256987955
6 1 0.0 1 -35683.440858925824 1 -121461.46081072322 -1 35916.96444019389 1 64875.43230999366 -1 2840.4360562325346 -1 43991.88222956092 -1 48382.72078689079 -1 26788.329479527987 1 44215.88430680962 -1 23184.28687576269 1 -19767.905882485495 -1 37557.52752039133 -1 68792.0120857767 -1 40839.16941062937 1 -120759.98520173805 -1 50661.990799869105 -1 46714.238646475336 -1 75983.43398495064 -1 27747.033656284875 1 -121829.9546163225 -1 31702.925795379244 1 -88350.83820373772 1 -124556.71729597145 1 59170.65542887597 1 68106.67072142159 1 -121616.30170893215 1 -87209.81069437203 -1 34408.667103715685 -1 55834.108152286906 1 57607.78561942253 1 -121374.07912139519 1 -122387.98313740754 1 -86378.69988292808 1 66379.70368517828 -1 64843.76922403896 -1 53884.27354312909 1 -128135.72645844519 -1 34993.50892413216 1 -117607.59623060728 1 73716.43000119257 1 69457.13009084505 1 63579.092320482916 1 -121461.03627893658 -1 56480.52999618259 1 -87767.05469354642 1 -121615.13832800201 -1 37686.157413971305 1 61807.714184302415 -1 -5799.0865264397835 -1 4250.869428740796 -1 -7700.315928173324 1 59334.72060693622 -1 58142.115489302734 -1 59599.47153211084 -1 62254.113151673504 -1 28019.596368964263 -1 60306.59545900555 -1 -11991.37275390637 1 77260.03548327714 1 -132458.43412599515 -1 43927.55996573307 -1 44791.28595880826 -1 64693.696317121285 -1 66995.0839750419 -1 47059.1207711371 1 -90551.4851583296 1 -125825.40307186641 -1 65911.84718254449 1 -118075.40876163401 1 60907.174015006996 -1 42571.03783349964 1 -90148.49164738183 1 -116366.74595689974 -1 66698.46488763054 -1 52119.76450743238 1 70546.55305272157 -1 50361.955253213964 1 -122603.42149801494 1 -121160.6588015119 1 -10027.53167788916 -1 66755.88451729242 -1 28292.84213174633 1 63063.58815010282 1 62856.9051086437 -1 69434.26892312057 1 -127423.95431780828 1 -115911.36515921881 -1 72805.21793130501 -1 29896.585936623298 1 60083.92952745158 1 -7373.327447179898 1 -117534.62530251643 1 -123101.04070448501 -1 -635.3832345115952 -1 -4152.883905274628 -1 28758.852761305614 -1 25774.113682881874 -1 23623.006590905246 1 30828.821660788642
7 1 0.0 -1 -52624.86135440691 -1 -169103.11772513046 1 77390.65616161868 -1 86356.17471509735 1 -451.37447008324943 1 63041.93294301121 1 48746.40399369569 1 52253.58449707183 -1 59528.66151893082 1 57051.827043758414 -1 3466.873804914834 1 75293.94574048702 1 58433.02968067303 1 71101.0406280669 -1 -183350.7361214616 1 45990.98665313864 1 54552.46885593839 1 81802.05188606707 1 49475.01517249964 -1 -158259.7910267425 1 84388.43802079128 -1 -124723.00520426934 -1 -146037.45970107513 -1 73907.03428267714 -1 78461.65312652526 -1 -161783.4116206812 -1 -131056.52469756184 1 83356.90582779862 1 42391.14315069201 -1 72344.1644732237 -1 -176490.2830384606 -1 -155080.54604649846 -1 -133962.687387447 -1 74509.53409028194 1 58935.0908189353 1 78336.61713058258 -1 -138404.64835956163 1 80204.47414688602 -1 -187672.89415298903 -1 83272.32140363808 -1 87999.6899972778 -1 68186.35687338031 -1 -172839.96669467288 1 75898.18623010072 -1 -127876.49519540713 -1 -165519.52174108016 1 71685.30213273791 -1 91905.44938898078 1 3629.0449525607546 1 -2778.2145989040746 1 6762.502904362562 -1 70333.8259594083 1 43401.73663550157 1 77874.68196911243 1 74566.89808734601 1 96581.94074748637 1 44268.80275299811 1 7506.133432164872 -1 79341.37988306448 -1 -138990.0825257825 1 66714.88418051244 1 56366.789669600395 1 77161.44930808354 1 56636.101569938226 1 51160.07747927107 -1 -119449.10515620306 -1 -143568.871975641 1 57778.016777440826 -1 -184403.43318268668 -1 76940.96672101444 1 69095.6355496081 -1 -122783.38514658438 -1 -193906.5908819397 1 58564.634482526875 1 43711.48685937284 -1 83126.68745782525 1 81146.40004640908 -1 -151558.71090577677 -1 -180014.1362199064 -1 -33301.05337911187 1 86011.4749223961 1 93117.91300893934 -1 71408.1262043293 -1 74938.71666419925 1 55338.01301668782 -1 -141430.1497202538 -1 -197188.48358558782 1 86098.38283507961 1 45104.079508127805 -1 47783.41032277323 -1 -35681.53650193798 -1 -191337.19672622727 -1 -148319.05661091776 1 1318.2012418307804 1 1537.974072396828 1 89846.65013716955 1 99929.20785832051 1 53753.273257571884 -1 87251.60738752976
8 1 0.0 1 -68638.54370209428 1 -205532.95413555045 -1 92548.46531845017 1 86839.33710956838 -1 14939.182510246366 -1 74617.43665380335 -1 105142.86881028264 -1 72152.41062785333 1 74841.43873105204 -1 65765.15358070684 1 9157.731782586288 -1 93046.58260173105 -1 84957.62739678148 -1 78939.27083752996 1 -204831.47852656528 -1 109861.99847238377 -1 100691.17222648594 -1 95722.18678452534 -1 74038.85295240392 1 -205901.44794114973 -1 96453.0966236621 1 -163535.03185392378 1 -208628.2106207987 1 62327.530571885 1 65894.67167410631 1 -205687.79503375935 1 -162394.0043445581 -1 99158.83793199853 -1 122138.9871230472 1 64501.934263760646 1 -205445.57244622242 1 -206459.47646223477 1 -161562.8935331142 1 59192.756878160726 -1 77985.1415323856 -1 100659.03717949272 1 -215944.49328460154 -1 94279.57710063404 1 -201679.08955543453 1 91943.0612994382 1 86257.70039174883 1 60344.12666391725 1 -205532.52960376377 -1 109432.42678299811 1 -162951.2483437325 1 -205686.6316528292 -1 79523.53234220097 1 87938.3077834518 -1 5582.629428903134 -1 16349.615882754622 -1 4978.813879375859 1 62491.595749945256 -1 119412.30710652767 -1 103934.37551935166 -1 111838.41214157248 -1 101258.11285168627 -1 112804.82622136603 -1 1985.1709058490833 1 96414.40492931649 1 -212792.6539494933 -1 74553.1143899755 -1 95030.94603748978 -1 108255.83021185812 -1 91562.98443649853 -1 102891.53064673519 1 -165735.6788085157 1 -209896.89639669366 -1 88039.88799487833 1 -202146.90208646128 1 60481.743711976684 -1 76933.86575907115 1 -165332.6852975679 1 -200438.23928172703 -1 81351.95869730625 -1 115984.78382906987 1 68832.87685495442 -1 98803.80844619642 1 -206674.91482284217 1 -205232.15212633915 1 -56789.282729457394 -1 93969.18431952529 -1 101531.35861446832 1 63565.89599486624 1 57182.079802955224 -1 97739.44288590629 1 -211495.44764263555 1 -199982.8584840461 -1 90318.81873087972 -1 76188.40523274234 1 107917.14864068927 1 -55432.492350954424 1 -201606.1186273437 1 -207172.53402931226 -1 14483.606222160393 -1 10966.105551397359 -1 100485.24774269853 -1 100868.10646119133 -1 69914.82588702429 1 100115.35699305874
9 1 0.0 -1 -85579.96419757536 -1 -253174.6110499577 1 167743.67905582397 -1 82131.95687352373 1 11643.371983930581 1 180552.51604561633 1 128660.37647641767 1 107822.78527112817 -1 177039.24462153594 1 107054.5989310524 -1 17073.741760257744 1 164504.52283777576 1 163804.0541314971 1 168997.51807623287 -1 -267422.22944628884 1 123310.1314314481 1 144192.46125147265 1 81401.16804980977 1 105971.95409434967 -1 -242331.28435156972 1 161235.5808597068 -1 -199907.1988544554 -1 -230108.95302590236 -1 -32369.40740578655 -1 -42823.62216108784 -1 -245854.9049455084 -1 -206240.71834774793 1 155169.3613131788 1 119340.61222458894 -1 -41406.824217898145 -1 -260561.77636328782 -1 -239152.0393713257 -1 -209146.8810376331 -1 -24292.36059552357 1 171780.66227241763 1 133258.44181107165 -1 -222476.1416843889 1 163512.36533667875 -1 -271744.3874778163 -1 79048.10356206445 -1 85287.59365703326 -1 -26878.26431109612 -1 -256911.46001950008 1 121738.1139451459 -1 -203060.6888455932 -1 -249591.01506590733 1 165844.50607957478 -1 79493.65404607807 1 17235.912907903665 1 9316.531855109752 1 20369.370859705472 -1 -35942.61572905536 1 120351.20570939849 1 126309.43738857016 1 119109.41195018492 1 137284.85487401483 1 121218.27182689501 1 21113.00138750778 -1 78356.11269327183 -1 -223061.57585060975 1 184225.46728311758 1 160526.46077220538 1 124298.79087533499 1 168983.35017387234 1 131443.72566640557 -1 -194633.29880638915 -1 -227640.36530046826 1 167685.40573225217 -1 -268474.92650751397 -1 -30477.920764365786 1 174466.66000043225 -1 -197967.57879677042 -1 -277978.084206767 1 163935.658933351 1 120660.95593326977 -1 -43622.69048156882 1 139032.72813572327 -1 -235630.204230604 -1 -264085.6295447336 -1 -77467.97672626756 1 80361.19608348064 1 133820.82713546779 -1 -38605.58898546347 -1 -22565.764169399976 1 158784.6536206219 -1 -225501.64304508106 -1 -281259.9769104151 1 79649.01299350598 1 101601.01842997783 -1 127697.38280549522 -1 -79848.45984909369 -1 -275408.6900510545 -1 -232390.54993574502 1 14925.069197173692 1 15144.842027739738 1 149021.22412122058 1 140632.121984849 1 109322.47403162821 -1 152388.6068729099
10 1 0.0 1 -101593.64654526273 1 -289604.4474603777 -1 194843.49216799834 1 50104.06337857418 -1 43667.26547888013 -1 185228.68814981624 -1 225625.94031692814 -1 130304.31374321746 1 185452.69022706492 -1 133273.40090447076 1 37885.81475122002 -1 202816.15645393738 -1 209590.2347503169 -1 188622.78418574907 1 -288902.97185139253 -1 230345.0699790293 -1 219876.82988092513 -1 53110.54805618932 -1 135928.0295690971 1 -289972.941265977 -1 214496.30848118474 1 -238719.22550410984 1 -292699.7039456259 1 -142900.59089541982 1 -138405.7116454048 1 -289759.28835858655 1 -237578.1979947442 -1 219641.909438644 -1 242622.05862969276 1 -140726.18720354416 1 -289517.06577104965 1 -290530.96978706203 1 -236747.08718330032 1 -146035.36458914413 -1 187668.65488060476 -1 171512.4060173449 1 -300015.98660942883 -1 213035.8194568276 1 -285750.5828802618 1 65706.57757376035 1 49522.426660754616 1 -144883.99480338756 1 -289604.022928591 -1 176393.55406423158 1 -238135.44199391856 1 -289758.1249776564 -1 200418.8661944073 1 62414.85455644489 -1 34310.712397536845 -1 45077.69885138839 -1 33706.896848009565 1 -142736.52571735953 -1 239895.37861317323 -1 172192.91665279132 -1 182691.7809794248 -1 221741.18435833172 -1 233287.8977280116 -1 30713.25387448279 1 68751.86020629681 1 -296864.1472743206 -1 185164.3658859884 -1 217524.4618950124 -1 173919.54364088527 -1 192345.88978471764 -1 224672.01600558695 1 -240919.87245870178 1 -293968.38972152094 -1 198522.49234575563 1 -286218.39541128854 1 -144746.37775532814 -1 186617.3791072903 1 -240516.87894775395 1 -284509.73260655435 -1 205984.56605084168 -1 236467.8553357154 1 -135467.50646455667 -1 170954.5911362549 1 -290746.4081476694 1 -289303.6454511664 1 -100956.20607661309 -1 55807.849591189275 -1 222014.4301211138 1 -141662.22547243856 1 -148046.0416643496 -1 219519.92824475802 1 -295566.94096746284 1 -284054.35180887335 -1 58832.940002543706 -1 135294.36740605434 1 228400.22014733477 1 -99599.41569811013 1 -285677.61195217096 1 -291244.0273541395 -1 43211.68919079415 -1 39694.18852003112 -1 220968.31924934397 -1 220053.76411563053 -1 128066.72900238843 1 220598.42849970423
11 1 0.0 -1 -127812.44851868108 -1 -337246.1043747849 1 281739.6813014381 -1 38274.65889159917 1 55492.66996585514 1 294548.5182912305 1 245251.20642644435 1 159332.65107017115 -1 291035.24686715007 1 158564.4647300954 -1 60923.039742182285 1 278500.52508338983 1 277800.0563771112 1 282993.520321847 -1 -351493.7227711161 1 242495.78908588737 1 265663.0104997449 1 37543.870067885226 1 153744.54639206358 -1 -326402.777676397 1 275231.58310532087 -1 -275091.39250464144 -1 -314180.4463507296 -1 -250648.55994167193 -1 -261102.77469697327 -1 -329926.39827033563 -1 -281424.911997934 1 269165.36355879286 1 239823.68373123452 -1 -259685.97675378356 -1 -344633.26968811505 -1 -323223.5326961529 -1 -284331.07468781923 -1 -242571.513131409 1 285776.66451803176 1 230060.08769304943 -1 -306547.63500921614 1 277508.3675822928 -1 -355815.8808026436 -1 35190.80558013989 -1 41430.29567510868 -1 -245157.4168469815 -1 -340982.9533443273 1 223729.41523594878 -1 -278244.88249577925 -1 -333662.50839073455 1 279840.5083251889 -1 35636.356064153515 1 61085.21088982819 1 53165.829837034325 1 64218.66884163003 -1 -254221.76826494077 1 240834.27721604405 1 227003.32482716674 1 226290.36864981288 1 252578.27097183518 1 241701.34333354057 1 64962.299369432345 -1 34498.81471134726 -1 -307133.06917543703 1 298221.4695287317 1 274522.46301781945 1 224992.6783139316 1 282979.35241948644 1 248034.55561643225 -1 -269817.4924565753 -1 -311711.8586252955 1 281681.4079778663 -1 -352546.4198323412 -1 -248757.07330025116 1 288462.66224604635 -1 -273151.7724469565 -1 -362049.57753159426 1 277931.66117896506 1 241144.0274399153 -1 -261901.84301745426 1 233239.5463132885 -1 -319701.6975554312 -1 -348157.12286956084 -1 -130912.28155136053 1 36503.898101556086 1 249114.24323328817 -1 -256884.74152134886 -1 -240844.91670528537 1 272780.65586623596 -1 -309573.13636990834 -1 -365331.4702352424 1 35791.715011581415 1 156848.1577303499 -1 244288.2127555219 -1 -133292.76467418665 -1 -359480.1833758818 -1 -316462.04326057225 1 58774.36717909825 1 58994.1400096643 1 255542.6793641765 1 262102.67123312122 1 160832.3398306712 -1 258910.06211586585
12 1 0.0 1 -160578.05934696386 1 -373675.9407852049 -1 308839.49441361247 1 -23647.42261398294 -1 117414.75147143725 -1 299224.69039543037 -1 339621.9425625423 -1 181814.17954226045 1 299448.6924726791 -1 184783.26670351377 1 111633.30074377716 -1 316812.1586995515 -1 323586.23699593096 -1 302618.7864313632 1 -372974.4651762198 -1 344341.07222464343 -1 333872.8321265392 -1 -20640.937936367824 -1 187437.89536814007 1 -374044.4345908043 -1 328492.31072679884 1 -313903.4191542959 1 -376771.1972704532 1 -358396.52898792404 1 -353901.649737909 1 -373830.7816834138 1 -312762.3916449303 -1 333637.9116842581 -1 356618.06087530695 1 -356222.1252960484 1 -373588.5590958769 1 -374602.4631118892 1 -311931.2808334864 1 -361531.3026816484 -1 301664.6571262189 -1 278693.3627169729 1 -384087.47993425606 -1 327031.82170244167 1 -369822.0762050891 1 -8044.908418796898 1 -24229.059331802484 1 -360379.93289589183 1 -373675.5162534182 -1 287311.7842651887 1 -313319.6356441046 1 -373829.61830248364 -1 314414.8684400214 1 -11336.631436112359 -1 108058.19839009401 -1 118825.18484394549 -1 107454.3828405668 1 -358232.4638098638 -1 353891.3808587874 -1 279373.87335241935 -1 282398.19067639456 -1 335737.1866039458 -1 347283.8999736257 -1 104460.73986704007 1 -4999.625786260469 1 -380935.6405991479 -1 299160.36813160253 -1 331520.4641406265 -1 284837.77384184237 -1 306341.8920303318 -1 338668.018251201 1 -316104.0661088879 1 -378039.8830463482 -1 312518.49459136976 1 -370289.88873611577 1 -360242.31584783236 -1 300613.3813529044 1 -315701.07259794 1 -368581.22593138163 -1 319980.5682964558 -1 350463.85758132953 1 -350963.44455706095 -1 278135.54783588287 1 -374817.9014724966 1 -373375.1387759936 1 -159940.61887831424 -1 -17943.636401367905 -1 336010.4323667279 1 -357158.1635649428 1 -363541.97975685383 -1 333515.9304903721 1 -379638.4342922901 1 -368125.84513370064 -1 -14918.545990013503 -1 186804.23320509732 1 342396.22239294887 1 -158583.82849981126 1 -369749.10527699825 1 -375315.5206789667 -1 116959.17518335128 -1 113441.67451258824 -1 334964.321494958 -1 334049.7663612446 -1 179576.5948014314 1 334594.4307453183
13 1 0.0 -1 -186796.86132038222 -1 -421317.5976996121 1 395735.6835470522 -1 -66883.13661291974 1 159138.34396904497 1 408544.5205368446 1 359247.2086720585 1 210842.51686921416 -1 405031.24911276426 1 210074.33052913842 -1 164568.71374537208 1 392496.52732900396 1 391796.05862272525 1 396989.5225674611 -1 -435565.2160959434 1 356491.7913315015 1 379659.012745359 1 -67613.9254366337 1 205254.41219110656 -1 -410474.2710012243 1 389227.585350935 -1 -363249.7246768903 -1 -398251.9396755569 -1 -458360.01492093847 -1 -468814.22967623983 -1 -413997.89159516286 -1 -369583.2441701829 1 383161.36580440693 1 353819.6859768487 -1 -467397.4317330501 -1 -428704.7630129423 -1 -407295.0260209801 -1 -372489.4068600681 -1 -450282.9681106756 1 399772.6667636459 1 337241.0443926774 -1 -390619.12833404343 1 391504.3698279069 -1 -439887.3741274709 -1 -69966.98992437901 -1 -63727.49982941021 -1 -452868.8718262481 -1 -425054.44666915445 1 330910.3719355768 -1 -366403.2146680281 -1 -417734.0017155618 1 393836.51057080296 -1 -69521.43944036543 1 164730.884893018 1 156811.50384022415 1 167864.34284481985 -1 -461933.22324420733 1 354830.2794616582 1 334184.2815267948 1 333471.32534944086 1 366574.27321744926 1 355697.34557915473 1 168607.97337262216 -1 -70658.98079317164 -1 -391204.5625002643 1 412217.47177434585 1 388518.4652634335 1 332173.63501355954 1 396975.3546651006 1 362030.5578620463 -1 -357975.82462882414 -1 -395783.35195012274 1 395677.41022348043 -1 -436617.9131571684 -1 -456468.5282795177 1 402458.6644916605 -1 -361310.1046192053 -1 -446121.07085642155 1 391927.6634245792 1 355140.0296855294 -1 -469613.2979967208 1 340420.5030129165 -1 -403773.19088025845 -1 -432228.6161943881 -1 -189896.6943530617 1 -68653.89740296283 1 363110.2454789023 -1 -464596.1965006154 -1 -448556.37168455194 1 386776.6581118501 -1 -393644.62969473563 -1 -449402.9635600697 1 -69366.0804929375 1 208358.02352939287 -1 358284.215001136 -1 -192277.1774758878 -1 -443551.6767007091 -1 -400533.5365853995 1 162420.04118228806 1 162639.8140128541 1 369538.68160979054 1 376098.6734787353 1 212342.20562971418 -1 372906.0643614799
14 1 0.0 1 -219562.472148665 1 -495120.16912332294 -1 422835.4966592266 1 -127293.09661717278 -1 221060.4254746271 -1 413220.6926410445 -1 453617.94480815635 -1 233324.04534130346 1 413444.69471829326 -1 236293.13250255678 1 215278.97474696697 -1 430808.16094516555 -1 437582.23924154503 -1 416614.78867697733 1 -494418.6935143379 -1 458337.07447025756 -1 447868.8343721533 -1 -124286.61193955768 -1 238947.76116718305 1 -495488.6629289224 -1 442488.31297241297 1 -415035.88984860753 1 -498215.4256085713 1 -479840.75732604216 1 -475345.8780760272 1 -495275.0100215319 1 -413894.86233924195 -1 447633.91392987216 -1 470614.06312092114 1 -477666.35363416653 1 -495032.78743399493 1 -496046.69145000726 1 -413063.751527798 1 -482975.53101976647 -1 415660.659371833 -1 385874.31941660086 1 -505531.70827237424 -1 441027.82394805574 1 -491266.30454320717 1 -111690.58242198674 1 -127874.73333499231 1 -481824.16123400995 1 -495119.74459153623 -1 394492.74096481665 1 -414452.1063384162 1 -495273.8466406017 -1 428410.8706856355 1 -114982.30543930222 -1 211703.87239328382 -1 222470.85884713533 -1 211100.05684375664 1 -479676.6921479819 -1 467887.3831044015 -1 386554.8300520474 -1 389579.14737602253 -1 449733.18884955987 -1 461279.9022192399 -1 208106.41387022988 1 -108645.29978945028 1 -502379.86893726606 -1 413156.37037721666 -1 445516.46638624056 -1 392018.73054147034 -1 420337.89427594584 -1 452664.0204968151 1 -417236.53680319956 1 -499484.1113844663 -1 426514.4968369839 1 -491734.1170742338 1 -481686.5441859505 -1 414609.38359851856 1 -416833.54329225165 1 -490025.4542694997 -1 433976.57054206985 -1 464459.85982694366 1 -472407.6728951791 -1 385316.50453551085 1 -496262.12981061474 1 -494819.36711411166 1 -218925.0316800154 -1 -121589.31040455775 -1 450006.43461234204 1 -478602.3919030609 1 -488723.481596301 -1 447511.9327359862 1 -501082.66263040825 1 -485832.7999704897 -1 -118564.21999320334 -1 238314.0990041403 1 456392.224638563 1 -217568.2413015124 1 -491193.3336151163 1 -496759.74901708483 -1 220604.8491865411 -1 217087.34851577805 -1 448960.3237405721 -1 448045.7686068587 -1 231086.46060047438 1 448590.4329909324
15 1 0.0 -1 -245781.27412208333 -1 -542761.8260377302 1 509731.68579266634 -1 -170528.81061610958 1 262784.0179722348 1 522540.52278245875 1 473243.21091767255 1 262352.38266825717 -1 519027.25135837845 1 261584.19632818142 -1 268214.3877485619 1 506492.52957461803 1 505792.0608683393 1 510985.52481307526 -1 -557009.4444340614 1 470487.79357711563 1 493655.01499097305 1 -171259.59943982356 1 256764.27799014954 -1 -531918.4993393424 1 503223.58759654907 -1 -464382.19537120196 -1 -519696.168013675 -1 -579804.2432590566 -1 -590258.4580143581 -1 -535442.119933281 -1 -470715.71486449457 1 497157.368050021 1 467815.6882224629 -1 -588841.6600711682 -1 -550148.9913510603 -1 -528739.2543590982 -1 -473621.8775543797 -1 -571727.1964487936 1 513768.66900926 1 444422.0010923054 -1 -512063.3566721616 1 505500.37207352096 -1 -561331.602465589 -1 -173612.66392756885 -1 -167373.17383260003 -1 -574313.1001643662 -1 -546498.6750072725 1 438091.32863520476 -1 -467535.6853623397 -1 -539178.2300536798 1 507832.51281641703 -1 -173167.11344355528 1 268376.55889620783 1 260457.17784341399 1 271510.01684800966 -1 -583377.4515823254 1 468826.28170727234 1 441365.2382264228 1 440652.28204906883 1 480570.2754630633 1 469693.3478247689 1 272253.647375812 -1 -174304.65479636146 -1 -512648.7908383825 1 526213.47401996 1 502514.4675090476 1 439354.5917131875 1 510971.35691071465 1 476026.56010766036 -1 -459108.2953231358 -1 -517227.58028824086 1 509673.41246909456 -1 -558062.1414952865 -1 -577912.7566176358 1 516454.6667372746 -1 -462442.57531351695 -1 -567565.2991945397 1 505923.66567019327 1 469136.03193114355 -1 -591057.5263348389 1 447601.45971254446 -1 -525217.4192183766 -1 -553672.8445325062 -1 -248881.10715476287 1 -172299.57140615268 1 477106.24772451643 -1 -586040.4248387335 -1 -570000.60002267 1 500772.66035746416 -1 -515088.85803285375 -1 -570847.1918981877 1 -173011.75449612734 1 259867.88932843585 -1 472280.21724675014 -1 -251261.59027758893 -1 -564995.9050388271 -1 -521977.7649235176 1 266065.71518547786 1 266285.4880160439 1 483534.6838554046 1 490094.6757243494 1 263852.07142875716 -1 486902.06660709396
16 1 0.0 1 -278546.8849503661 1 -616564.397461441 -1 536831.4989048407 1 -230938.7706203626 -1 329895.754886642 -1 527216.6948866587 -1 567613.9470537704 -1 275752.0141749026 1 527440.6969639075 -1 278721.1013361559 1 325411.71801118815 -1 544804.1631907796 -1 551578.241487159 -1 530610.7909225915 1 -615862.9218524559 -1 572333.0767158717 -1 561864.8366177673 -1 -227932.28594274755 -1 280078.31614857586 1 -616932.8912670404 -1 556484.315218027 1 -516168.3605429192 1 -619659.6539466894 1 -601284.9856641602 1 -596790.1064141454 1 -616719.23835965 1 -515027.3330335536 -1 561629.9161754862 -1 584610.0653665353 1 -599110.5819722846 1 -616477.015772113 1 -617490.9197881253 1 -514196.2222221096 1 -604419.7593578845 -1 529656.6616174472 -1 493055.2761162289 1 -626975.9366104924 -1 555023.8261936698 1 -612710.5328813252 1 -215336.25642517657 1 -231520.40733818212 1 -603268.3895721281 1 -616563.9729296543 -1 501673.6976644446 1 -515584.5770327279 1 -616718.0749787197 -1 542406.8729312496 1 -218627.97944249207 -1 321836.615657505 -1 328711.36055473774 -1 321232.8001079778 1 -601120.9204861 -1 581883.3853500157 -1 493735.7867516754 -1 496760.1040756505 -1 563729.1910951739 -1 575275.904464854 -1 318239.1571344511 1 -212290.97379264008 1 -623824.0972753842 -1 527152.3726228308 -1 559512.4686318546 -1 499199.6872410983 -1 534333.8965215599 -1 566660.0227424292 1 -518369.0074975112 1 -620928.3397225845 -1 540510.499082598 1 -613178.3454123519 1 -603130.7725240686 -1 528605.3858441326 1 -517966.0139865633 1 -611469.6826076178 -1 547972.5727876839 -1 578455.8620725578 1 -593851.9012332972 -1 492497.4612351388 1 -617706.3581487329 1 -616263.5954522297 1 -277909.44448171655 -1 -225234.9844077476 -1 564002.4368579562 1 -600046.620241179 1 -610167.709934419 -1 561507.9349816003 1 -622526.8909685264 1 -607277.0283086078 -1 -222209.8939963932 -1 279444.6539855331 1 570388.2268841771 1 -276552.6541032136 1 -612637.5619532344 1 -618203.9773552029 -1 330737.5924507623 -1 327220.0917799992 -1 562956.3259861862 -1 562041.7708524727 -1 274811.84328627976 1 562586.4352365464
17 1 0.0 -1 -304765.68692378444 -1 -664206.0543758483 1 623727.6880382805 -1 -274174.4846192994 1 378106.4166452811 1 636536.5250280729 1 587239.2131632867 1 294401.0406842061 -1 633023.2536039926 1 293632.8543441304 -1 384834.20027381444 1 620488.531820232 1 619788.0631139533 1 624981.5270586894 -1 -678453.6727721795 1 584483.7958227297 1 607651.0172365871 1 -274905.27344301343 1 287515.52215389215 -1 -653362.7276774604 1 617219.5898421631 -1 -565514.6660655136 -1 -641140.3963517931 -1 -701248.4715971746 -1 -711702.6863524762 -1 -656886.348271399 -1 -571848.1855588062 1 611153.3702956351 1 581811.6904680771 -1 -710285.8884092863 -1 -671593.2196891784 -1 -650183.4826972162 -1 -574754.3482486913 -1 -693171.4247869117 1 627764.6712548742 1 551602.9577919334 -1 -633507.5850102798 1 619496.374319135 -1 -682775.830803707 -1 -277258.3379307587 -1 -271018.84783578984 -1 -695757.3285024844 -1 -667942.9033453906 1 545272.2853348327 -1 -568668.1560566514 -1 -660622.4583917978 1 621828.5150620311 -1 -276812.78744674515 1 384996.37142146035 1 380659.2958147059 1 388129.82937326224 -1 -704821.6799204436 1 582822.2839528866 1 548546.1949260508 1 547833.2387486969 1 594566.2777086773 1 583689.350070383 1 388873.4599010646 -1 -277950.32879955124 -1 -634093.0191765006 1 640209.4762655741 1 616510.4697546617 1 546535.5484128156 1 624967.3591563287 1 590022.5623532744 -1 -560240.7660174475 -1 -638671.8086263591 1 623669.4147147087 -1 -679506.3698334045 -1 -699356.984955754 1 630450.6689828887 -1 -563575.0460078287 -1 -689009.5275326577 1 619919.6679158073 1 583132.0341767577 -1 -712501.7546729571 1 554782.4164121724 -1 -646661.6475564948 -1 -675117.0728706243 -1 -307865.519956464 1 -275945.2454093425 1 591102.2499701306 -1 -707484.6531768516 -1 -691444.8283607881 1 614768.6626030782 -1 -636533.0863709719 -1 -692291.4202363058 1 -276657.4284993172 1 290619.1334921785 -1 586276.2194923642 -1 -310246.0030792901 -1 -686440.1333769452 -1 -643421.9932616357 1 375210.9807080723 1 382905.3005412964 1 597530.6861010187 1 604090.6779699634 1 297198.14329691237 -1 600898.0688527081
18 1 0.0 1 -337531.2977520672 1 -738008.625799559 -1 650827.5011504549 1 -334584.44462355244 -1 446515.56741189456 -1 641212.6971322728 -1 681609.9492993846 -1 306503.2583386452 1 641436.6992095216 -1 309472.34549989854 1 442031.53053644067 -1 658800.1654363937 -1 665574.2437327731 -1 644606.7931682057 1 -737307.150190574 -1 686329.0789614858 -1 675860.8388633814 -1 -331577.9599459374 -1 310829.5603123185 1 -738377.1196051585 -1 670480.317463641 1 -617300.8312372308 1 -741103.8822848075 1 -722729.2140022783 1 -718234.3347522636 1 -738163.4666977681 1 -616159.8037278652 -1 675625.9184211002 -1 698606.0676121495 1 -720554.8103104027 1 -737921.244110231 1 -738935.1481262434 1 -615328.6929164212 1 -725863.9876960026 -1 643652.6638630613 -1 600236.2328158569 1 -748420.1649486106 -1 669019.8284392839 1 -734154.7612194433 1 -318981.9304283664 1 -335166.08134137193 1 -724712.6179102462 1 -738008.2012677724 -1 608854.6543640726 1 -616717.0477270395 1 -738162.3033168378 -1 656402.8751768636 1 -322273.6534456819 -1 438456.4281827575 -1 445331.17307999026 -1 437852.6126332304 1 -722565.1488242182 -1 695879.3875956299 -1 600916.7434513035 -1 603941.0607752786 -1 677725.193340788 -1 689271.9067104682 -1 434858.96965970367 1 -315936.64779582986 1 -745268.3256135023 -1 641148.3748684449 -1 673508.4708774687 -1 606380.6439407263 -1 648329.898767174 -1 680656.0249880432 1 -619501.4781918229 1 -742372.5680607026 -1 654506.5013282121 1 -734622.57375047 1 -724575.0008621868 -1 642601.3880897467 1 -619098.484680875 1 -732913.9109457359 -1 661968.575033298 -1 692451.8643181719 1 -715296.1295714154 -1 599678.4179347667 1 -739150.5864868511 1 -737707.8237903478 1 -336893.8572834177 -1 -328880.6584109374 -1 677998.4391035703 1 -721490.8485792971 1 -731611.9382725371 -1 675503.9372272143 1 -743971.1193066445 1 -728721.2566467258 -1 -325855.567999583 -1 310195.8981492758 1 684384.2291297911 1 -335537.06690491474 1 -734081.7902913524 1 -739648.205693321 -1 447357.40497601486 -1 443839.9043052517 -1 676952.3282318002 -1 676037.7730980868 -1 305563.0874500224 1 676582.4374821605
19 1 0.0 -1 -363750.09972548555 -1 -785650.2827139663 1 737723.6902838945 -1 -377820.15862248925 1 494726.22917053365 1 750532.527273687 1 701235.2154089009 1 325152.28484794876 -1 747019.2558496068 1 324384.098507873 -1 501454.01279906696 1 734484.5340658461 1 733784.0653595674 1 738977.5293043036 -1 -799897.9011102975 1 698479.7980683438 1 721647.0194822012 1 -378550.94744620327 1 318266.7663176348 -1 -774806.9560155785 1 731215.5920877772 -1 -666647.1367598252 -1 -762584.6246899111 -1 -822692.6999352927 -1 -833146.9146905944 -1 -778330.5766095171 -1 -672980.6562531178 1 725149.3725412491 1 695807.6927136913 -1 -831730.1167474043 -1 -793037.4480272965 -1 -771627.7110353343 -1 -675886.818943003 -1 -814615.6531250298 1 741760.6735004883 1 658783.9144915615 -1 -754951.813348398 1 733492.376564749 -1 -804220.0591418251 -1 -380904.01193394855 -1 -374664.5218389797 -1 -817201.5568406025 -1 -789387.1316835086 1 652453.2420344607 -1 -669800.626750963 -1 -782066.6867299159 1 735824.5173076452 -1 -380458.461449935 1 501616.1839467129 1 497279.1083399584 1 504749.6418985148 -1 -826265.9082585617 1 696818.2861985008 1 655727.1516256789 1 655014.1954483249 1 708562.2799542914 1 697685.3523159972 1 505493.27242631715 -1 -381596.002802741 -1 -755537.2475146187 1 754205.4785111882 1 730506.4720002757 1 653716.5051124435 1 738963.3614019428 1 704018.5645988885 -1 -661373.2367117591 -1 -760116.0369644773 1 737665.4169603228 -1 -800950.5981715226 -1 -820801.2132938722 1 744446.6712285028 -1 -664707.5167021403 -1 -810453.7558707758 1 733915.6701614214 1 697128.0364223717 -1 -833945.9830110753 1 661963.3731118003 -1 -768105.875894613 -1 -796561.3012087423 -1 -366849.9327581652 1 -379590.91941253236 1 705098.2522157447 -1 -828928.8815149697 -1 -812889.0566989061 1 728764.6648486922 -1 -757977.31470909 -1 -813735.6485744239 1 -380303.10250250704 1 321370.3776559212 -1 700272.2217379783 -1 -369230.41588099126 -1 -807884.3617150632 -1 -764866.2215997537 1 491830.7932333249 1 499525.11306654895 1 711526.6883466328 1 718086.6802155775 1 327949.387460655 -1 714894.0710983222
20 1 0.0 1 -386136.39973611815 1 -859452.8541376771 -1 764823.5033960689 1 -442122.3601833611 -1 563135.3799371471 -1 755208.6993778868 -1 795605.9515449988 -1 337254.50250238786 1 755432.7014551358 -1 340223.5896636412 1 558651.3430616932 -1 772796.1676820078 -1 779570.2459783872 -1 758602.7954138198 1 -858751.3785286921 -1 800325.0812070998 -1 789856.8411089955 -1 -439115.87550574605 -1 341580.80447606114 1 -859821.3479432765 -1 784476.3197092551 1 -718433.3019315423 1 -862548.1106229256 1 -844173.4423403963 1 -839678.5630903818 1 -859607.6950358861 1 -717292.2744221769 -1 789621.9206667143 -1 812602.0698577637 1 -841999.0386485207 1 -859365.4724483491 1 -860379.3764643614 1 -716461.1636107329 1 -847308.2160341206 -1 757648.6661086754 -1 707417.189515485 1 -869864.3932867288 -1 783015.830684898 1 -855598.9895575613 1 -426519.8459881751 1 -442703.9969011806 1 -846156.8462483644 1 -859452.4296058904 -1 716035.6110637005 1 -717849.5184213512 1 -859606.5316549558 -1 770398.8774224777 1 -429811.5690054906 -1 555076.24070801 -1 561950.9856052428 -1 554472.425158483 1 -844009.3771623364 -1 809875.3898412441 -1 708097.7001509315 -1 711122.0174749066 -1 791721.1955864021 -1 803267.9089560824 -1 551478.7821849562 1 -423474.5633556385 1 -866712.5539516204 -1 755144.3771140589 -1 787504.4731230828 -1 713561.6006403542 -1 762325.9010127881 -1 794652.0272336573 1 -720633.9488861345 1 -863816.7963988208 -1 768502.5035738262 1 -856066.802088588 1 -846019.229200305 -1 756597.3903353608 1 -720230.9553751866 1 -854358.1392838539 -1 775964.5772789121 -1 806447.8665637859 1 -836740.3579095335 -1 706859.3746343947 1 -860594.8148249693 1 -859152.0521284658 1 -385498.9592674687 -1 -436418.5739707461 -1 791994.4413491844 1 -842935.0769174153 1 -853056.1666106551 -1 789499.9394728284 1 -865415.3476447627 1 -850165.4849848439 -1 -433393.4835593917 -1 340947.1423130185 1 798380.2313754052 1 -384142.16888896574 1 -855526.0186294705 1 -861092.434031439 -1 563977.2175012674 -1 560459.7168305042 -1 790948.3304774143 -1 790033.7753437009 -1 336314.33161376504 1 790578.4397277746
21 1 0.0 -1 -401975.8908918863 -1 -907094.5110520844 1 851719.6925295086 -1 -489250.31573891675 1 611346.0416957862 1 864528.529519301 1 815231.217654515 1 355903.5290116914 -1 861015.258095221 1 355135.34267161565 -1 618073.8253243195 1 848480.5363114602 1 847780.0676051815 1 852973.5315499178 -1 -921342.1294484156 1 812475.8003139579 1 835643.0217278153 1 -489981.1045626307 1 349018.0104813774 -1 -896251.1843536965 1 845211.5943333913 -1 -767779.6074541367 -1 -884028.8530280292 -1 -944136.9282734108 -1 -954591.1430287126 -1 -899774.8049476352 -1 -774113.1269474295 1 839145.3747868632 1 809803.6949593055 -1 -953174.3450855224 -1 -914481.6763654145 -1 -893071.9393734523 -1 -777019.2896373146 -1 -936059.8814631478 1 855756.6757461024 1 765964.8711911895 -1 -876396.0416865161 1 847488.3788103631 -1 -925664.2874799431 -1 -492334.16905037605 -1 -486094.6789554071 -1 -938645.7851787207 -1 -910831.3600216267 1 759634.1987340886 -1 -770933.0974452747 -1 -903510.915068034 1 849820.5195532592 -1 -491888.6185663625 1 618235.9964719655 1 613898.9208652109 1 621369.4544237674 -1 -947710.1365966799 1 810814.288444115 1 762908.1083253069 1 762195.1521479529 1 822558.2821999055 1 811681.3545616114 1 622113.0849515697 -1 -493026.15991916845 -1 -876981.4758527367 1 868201.4807568023 1 844502.4742458898 1 760897.4618120714 1 852959.3636475569 1 818014.5668445026 -1 -762505.7074060708 -1 -881560.2653025954 1 851661.4192059368 -1 -922394.8265096407 -1 -942245.4416319904 1 858442.6734741168 -1 -765839.987396452 -1 -931897.9842088938 1 847911.6724070355 1 811124.0386679858 -1 -955390.2113491935 1 769144.3298114282 -1 -889550.1042327312 -1 -918005.5295468604 -1 -405075.72392456594 1 -491021.0765289598 1 819094.2544613588 -1 -950373.1098530879 -1 -934333.2850370242 1 842760.6670943063 -1 -879421.5430472082 -1 -935179.8769125419 1 -491733.25961893453 1 352121.6218196639 -1 814268.2239835924 -1 -407456.20704739203 -1 -929328.5900531813 -1 -886310.4499378718 1 608450.6057585775 1 616144.9255918015 1 825522.6905922468 1 832082.6824611916 1 358700.63162439765 -1 828890.0733439362
22 1 0.0 1 -424362.1909025189 1 -980897.0824757952 -1 878819.505641683 1 -553552.5172997887 -1 679755.1924623996 -1 869204.7016235009 -1 909601.953790613 -1 368005.7466661305 1 869428.70370075 -1 370974.8338273838 1 675271.1555869458 -1 886792.1699276218 -1 893566.2482240013 -1 872598.797659434 1 -980195.6068668101 -1 914321.0834527139 -1 903852.8433546096 -1 -550546.0326221735 -1 372332.0486398038 1 -981265.5762813946 -1 898472.3219548692 1 -819565.7726258539 1 -983992.3389610436 1 -965617.6706785144 1 -961122.7914285 1 -981051.9233740042 1 -818424.7451164885 -1 903617.9229123284 -1 926598.0721033779 1 -963443.2669866388 1 -980809.7007864672 1 -981823.6048024795 1 -817593.6343050445 1 -968752.4443722387 -1 871644.6683542895 -1 814598.146215113 1 -991308.621624847 -1 897011.832930512 1 -977043.2178956794 1 -537950.0031046026 1 -554134.154017608 1 -967601.0745864826 1 -980896.6579440085 -1 823216.5677633284 1 -818981.9891156629 1 -981050.7599930739 -1 884394.8796680918 1 -541241.7261219181 -1 671696.0532332626 -1 678570.7981304954 -1 671092.2376837356 1 -965453.6055004545 -1 923871.3920868583 -1 815278.6568505595 -1 818302.9741745347 -1 905717.1978320162 -1 917263.9112016966 -1 668098.5947102087 1 -534904.720472066 1 -988156.7822897384 -1 869140.379359673 -1 901500.4753686968 -1 820742.5573399821 -1 876321.9032584021 -1 908648.0294792714 1 -821766.4195804462 1 -985261.024736939 -1 882498.5058194402 1 -977511.0304267061 1 -967463.4575384231 -1 870593.3925809748 1 -821363.4260694983 1 -975802.367621972 -1 889960.5795245261 -1 920443.8688094 1 -958184.5862476517 -1 814040.3313340226 1 -982039.0431630875 1 -980596.2804665839 1 -423724.7504338695 -1 -547848.7310871736 -1 905990.4435947984 1 -964379.3052555334 1 -974500.3949487732 -1 903495.9417184425 1 -986859.5759828809 1 -971609.7133229619 -1 -544823.6406758192 -1 371698.3864767612 1 912376.2336210193 1 -422367.9600553665 1 -976970.2469675886 1 -982536.6623695571 -1 680597.03002652 -1 677079.5293557568 -1 904944.3327230284 -1 904029.777589315 -1 367065.5757775077 1 904574.4419733887
23 1 0.0 -1 -440201.6820582871 -1 -1.0285387393902024e6 1 965715.6947751227 -1 -600680.4728553443 1 727965.8542210386 1 978524.5317649151 1 929227.2199001292 1 386654.77317543403 -1 975011.2603408352 1 385886.5868353583 -1 734693.6378495721 1 962476.5385570743 1 961776.0698507956 1 966969.533795532 -1 -1.0427863577865337e6 1 926471.8025595719 1 949639.0239734293 1 -601411.2616790582 1 379769.25464512006 -1 -1.0176954126918146e6 1 959207.5965790054 -1 -868912.0781484483 -1 -1.0054730813661473e6 -1 -1.065581156611529e6 -1 -1.0760353713668308e6 -1 -1.0212190332857532e6 -1 -875245.5976417412 1 953141.3770324773 1 923799.6972049196 -1 -1.0746185734236406e6 -1 -1.0359259047035326e6 -1 -1.0145161677115704e6 -1 -878151.7603316263 -1 -1.0575041098012659e6 1 969752.6779917164 1 873145.8278908175 -1 -997840.2700246343 1 961484.3810559772 -1 -1.0471085158180612e6 -1 -603764.3261668035 -1 -597524.8360718346 -1 -1.060090013516839e6 -1 -1.0322755883597448e6 1 866815.1554337165 -1 -872065.5681395864 -1 -1.024955143406152e6 1 963816.5217988733 -1 -603318.77568279 1 734855.808997218 1 730518.7333904635 1 737989.26694902 -1 -1.069154364934798e6 1 924810.2906897292 1 870089.065024935 1 869376.108847581 1 936554.2844455196 1 925677.3568072256 1 738732.8974768221 -1 -604456.317035596 -1 -998425.7041908548 1 982197.4830024163 1 958498.4764915039 1 868078.4185116993 1 966955.3658931709 1 932010.5690901167 -1 -863638.1781003824 -1 -1.0030044936407136e6 1 965657.4214515509 -1 -1.0438390548477587e6 -1 -1.0636896699701084e6 1 972438.6757197309 -1 -866972.4580907637 -1 -1.053342212547012e6 1 961907.6746526496 1 925120.0409135999 -1 -1.0768344396873116e6 1 876325.2865110561 -1 -1.0109943325708493e6 -1 -1.0394497578849784e6 -1 -443301.5150909667 1 -602451.2336453873 1 933090.2567069728 -1 -1.071817338191206e6 -1 -1.0557775133751421e6 1 956756.6693399204 -1 -1.0008657713853264e6 -1 -1.05662410525066e6 1 -603163.416735362 1 382872.8659834066 -1 928264.2262292064 -1 -445681.9982137928 -1 -1.0507728183912993e6 -1 -1.0077546782759898e6 1 725070.41828383 1 732764.7381170541 1 939518.6928378609 1 946078.6847068056 1 389451.8757881403 -1 942886.0755895503
24 1 0.0 1 -462587.9820689197 1 -1.1023413108139134e6 -1 992815.5078872971 1 -664982.6744162162 -1 796375.0049876521 -1 983200.703869115 -1 1.0235979560362272e6 -1 398756.99082987313 1 983424.7059463642 -1 401726.07799112645 1 791890.9681121984 -1 1.0007881721732359e6 -1 1.0075622504696153e6 -1 986594.7999050482 1 -1.1016398352049282e6 -1 1.028317085698328e6 -1 1.0178488456002236e6 -1 -661976.189738601 -1 403083.2928035464 1 -1.1027098046195128e6 -1 1.0124683242004833e6 1 -920698.2433201654 1 -1.1054365672991618e6 1 -1.0870618990166327e6 1 -1.082567019766618e6 1 -1.1024961517121221e6 1 -919557.2158108002 -1 1.0176139251579425e6 -1 1.0405940743489921e6 1 -1.084887495324757e6 1 -1.1022539291245854e6 1 -1.1032678331405974e6 1 -918726.1049993562 1 -1.0901966727103568e6 -1 985640.6705999036 -1 921779.102914741 1 -1.1127528499629651e6 -1 1.0110078351761261e6 1 -1.0984874462337976e6 1 -649380.16022103 1 -665564.3111340355 1 -1.0890453029246007e6 1 -1.1023408862821264e6 -1 930397.5244629564 1 -920114.4598099745 1 -1.102494988331192e6 -1 998390.8819137058 1 -652671.8832383456 -1 788315.8657585152 -1 795190.6106557479 -1 787712.0502089881 1 -1.0868978338385727e6 -1 1.0378673943324725e6 -1 922459.6135501876 -1 925483.9308741627 -1 1.0197132000776302e6 -1 1.0312599134473108e6 -1 784718.4072354612 1 -646334.8775884935 1 -1.1096010106278565e6 -1 983136.3816052871 -1 1.0154964776143109e6 -1 927923.51403961 -1 990317.9055040162 -1 1.0226440317248855e6 1 -922898.8902747579 1 -1.1067052530750572e6 -1 996494.5080650543 1 -1.0989552587648241e6 1 -1.088907685876541e6 -1 984589.3948265889 1 -922495.89676381 1 -1.09724659596009e6 -1 1.0039565817701402e6 -1 1.0344398710550141e6 1 -1.07962881458577e6 -1 921221.2880336505 1 -1.1034832715012056e6 1 -1.102040508804702e6 1 -461950.54160027026 -1 -659278.8882036011 -1 1.0199864458404125e6 1 -1.0858235335936516e6 1 -1.0959446232868913e6 -1 1.0174919439640566e6 1 -1.108303804320999e6 1 -1.09305394166108e6 -1 -656253.7977922467 -1 402449.6306405039 1 1.0263722358666334e6 1 -460593.7512217673 1 -1.0984144753057065e6 1 -1.1039808907076751e6 -1 797216.8425517726 -1 793699.3418810094 -1 1.0189403349686424e6 -1 1.018025779834929e6 -1 397816.8199412503 1 1.0185704442190027e6
25 1 0.0 -1 -478427.47322468786 -1 -1.1499829677283205e6 1 1.0797116970207368e6 -1 -712110.6299717719 1 844585.6667462911 1 1.0925205340105293e6 1 1.0432232221457434e6 1 417406.0173391767 -1 1.0890072625864493e6 1 416637.83099910093 -1 851313.4503748247 1 1.0764725408026883e6 1 1.0757720720964097e6 1 1.0809655360411461e6 -1 -1.1642305861246518e6 1 1.040467804805186e6 1 1.0636350262190434e6 1 -712841.4187954856 1 410520.4988088627 -1 -1.1391396410299328e6 1 1.0732035988246193e6 -1 -970044.5488427598 -1 -1.1269173097042656e6 -1 -1.1870253849496471e6 -1 -1.1974795997049487e6 -1 -1.1426632616238713e6 -1 -976378.0683360528 1 1.0671373792780912e6 1 1.0377956994505338e6 -1 -1.1960628017617587e6 -1 -1.1573701330416508e6 -1 -1.1359603960496883e6 -1 -979284.231025938 -1 -1.178948338139384e6 1 1.0837486802373305e6 1 980326.7845904456 -1 -1.1192844983627524e6 1 1.0754803833015913e6 -1 -1.1685527441561793e6 -1 -715194.4832832309 -1 -708954.993188262 -1 -1.1815342418549568e6 -1 -1.1537198166978627e6 1 973996.1121333444 -1 -973198.038833898 -1 -1.14639937174427e6 1 1.0778125240444874e6 -1 -714748.9327992175 1 851475.6215224706 1 847138.5459157161 1 854609.0794742726 -1 -1.1905985932729163e6 1 1.0388062929353433e6 1 977270.021724563 1 976557.065547209 1 1.0505502866911336e6 1 1.0396733590528398e6 1 855352.7100020746 -1 -715886.4741520236 -1 -1.1198699325289729e6 1 1.0961934852480304e6 1 1.072494478737118e6 1 975259.3752113272 1 1.080951368138785e6 1 1.0460065713357307e6 -1 -964770.6487946941 -1 -1.1244487219788318e6 1 1.079653423697165e6 -1 -1.165283283185877e6 -1 -1.1851338983082264e6 1 1.0864346779653449e6 -1 -968104.9287850753 -1 -1.1747864408851299e6 1 1.0759036768982636e6 1 1.039116043159214e6 -1 -1.1982786680254298e6 1 983506.243210684 -1 -1.1324385609089674e6 -1 -1.1608939862230965e6 -1 -481527.3062573675 1 -713881.3907618149 1 1.0470862589525869e6 -1 -1.1932615665293243e6 -1 -1.1772217417132603e6 1 1.0707526715855345e6 -1 -1.1223099997234445e6 -1 -1.1780683335887783e6 1 -714593.5738517895 1 413624.1101471493 -1 1.0422602284748205e6 -1 -483907.7893801936 -1 -1.1722170467294173e6 -1 -1.1291989066141078e6 1 841690.2308090826 1 849384.5506423067 1 1.053514695083475e6 1 1.0600746869524198e6 1 420203.1199518829 -1 1.0568820778351643e6
26 1 0.0 1 -500813.77323532046 1 -1.2237855391520313e6 -1 1.1068115101329111e6 1 -776412.8315326438 -1 912994.8175129045 -1 1.0971967061147292e6 -1 1.1375939582818414e6 -1 429508.23499361577 1 1.0974207081919783e6 -1 432477.3221548691 1 908510.780637451 -1 1.1147841744188499e6 -1 1.1215582527152295e6 -1 1.1005908021506623e6 1 -1.2230840635430464e6 -1 1.142313087943942e6 -1 1.1318448478458377e6 -1 -773406.3468550284 -1 433834.53696728905 1 -1.224154032957631e6 -1 1.1264643264460973e6 1 -1.021830714014477e6 1 -1.22688079563728e6 1 -1.2085061273547509e6 1 -1.204011248104736e6 1 -1.2239403800502403e6 1 -1.0206896865051119e6 -1 1.1316099274035564e6 -1 1.1545900765946063e6 1 -1.2063317236628751e6 1 -1.2236981574627035e6 1 -1.2247120614787154e6 1 -1.0198585756936679e6 1 -1.211640901048475e6 -1 1.0996366728455175e6 -1 1.0289600596143691e6 1 -1.2341970783010833e6 -1 1.1250038374217402e6 1 -1.2199316745719155e6 1 -760810.3173374574 1 -776994.4682504629 1 -1.2104895312627186e6 1 -1.2237851146202444e6 -1 1.0375784811625843e6 1 -1.0212469305042862e6 1 -1.22393921666931e6 -1 1.11238688415932e6 1 -764102.0403547732 -1 904935.6782837678 -1 911810.4231810005 -1 904331.8627342407 1 -1.208342062176691e6 -1 1.1518633965780868e6 -1 1.0296405702498156e6 -1 1.0326648875737907e6 -1 1.1337092023232442e6 -1 1.145255915692925e6 -1 901338.2197607136 1 -757765.0347049211 1 -1.2310452389659747e6 -1 1.0971323838509012e6 -1 1.129492479859925e6 -1 1.035104470739238e6 -1 1.1043139077496303e6 -1 1.1366400339704994e6 1 -1.0240313609690695e6 1 -1.2281494814131754e6 -1 1.1104905103106685e6 1 -1.2203994871029423e6 1 -1.210351914214659e6 -1 1.098585397072203e6 1 -1.0236283674581216e6 1 -1.2186908242982079e6 -1 1.1179525840157543e6 -1 1.1484358733006283e6 1 -1.2010730429238882e6 -1 1.0284022447332784e6 1 -1.2249274998393236e6 1 -1.2234847371428201e6 1 -500176.332766671 -1 -770709.0453200287 -1 1.1339824480860266e6 1 -1.2072677619317698e6 1 -1.2173888516250094e6 -1 1.1314879462096705e6 1 -1.2297480326591171e6 1 -1.2144981699991983e6 -1 -767683.9549086741 -1 433200.8748042466 1 1.1403682381122475e6 1 -498819.54238816805 1 -1.2198587036438244e6 1 -1.225425119045793e6 -1 913836.6550770252 -1 910319.154406262 -1 1.1329363372142566e6 -1 1.1320217820805432e6 -1 428568.06410499295 1 1.1325664464646168e6
27 1 0.0 -1 -516653.2643910886 -1 -1.2714271960664385e6 1 1.1937076992663508e6 -1 -823540.7870881994 1 961205.4792715436 1 1.2065165362561434e6 1 1.1572192243913575e6 1 448157.2615029193 -1 1.2030032648320633e6 1 447389.07516284357 -1 967933.2629000773 1 1.1904685430483024e6 1 1.1897680743420238e6 1 1.1949615382867602e6 -1 -1.28567481446277e6 1 1.1544638070508002e6 1 1.1776310284646575e6 1 -824271.5759119131 1 441271.74297260534 -1 -1.260583869368051e6 1 1.1871996010702334e6 -1 -1.0711770195370715e6 -1 -1.2483615380423837e6 -1 -1.3084696132877653e6 -1 -1.318923828043067e6 -1 -1.2641074899619895e6 -1 -1.0775105390303645e6 1 1.1811333815237053e6 1 1.151791701696148e6 -1 -1.317507030099877e6 -1 -1.278814361379769e6 -1 -1.2574046243878063e6 -1 -1.0804167017202496e6 -1 -1.3003925664775022e6 1 1.1977446824829446e6 1 1.0875077412900736e6 -1 -1.2407287267008706e6 1 1.1894763855472053e6 -1 -1.2899969724942972e6 -1 -826624.6403996584 -1 -820385.1503046894 -1 -1.3029784701930748e6 -1 -1.2751640450359806e6 1 1.0811770688329723e6 -1 -1.0743305095282097e6 -1 -1.267843600082388e6 1 1.1918085262901017e6 -1 -826179.0899156451 1 968095.4340477232 1 963758.3584409687 1 971228.8919995251 -1 -1.3120428216110345e6 1 1.1528022951809575e6 1 1.084450978424191e6 1 1.0837380222468372e6 1 1.1645462889367477e6 1 1.153669361298454e6 1 971972.5225273271 -1 -827316.6312684511 -1 -1.241314160867091e6 1 1.2101894874936445e6 1 1.1864904809827323e6 1 1.0824403319109553e6 1 1.194947370384399e6 1 1.1600025735813447e6 -1 -1.0659031194890058e6 -1 -1.24589295031695e6 1 1.193649425942779e6 -1 -1.286727511523995e6 -1 -1.3065781266463443e6 1 1.2004306802109592e6 -1 -1.0692373994793869e6 -1 -1.2962306692232478e6 1 1.1898996791438777e6 1 1.1531120454048282e6 -1 -1.319722896363548e6 1 1.090687199910312e6 -1 -1.2538827892470853e6 -1 -1.2823382145612147e6 -1 -519753.09742376825 1 -825311.5478782424 1 1.161082261198201e6 -1 -1.3147057948674425e6 -1 -1.2986659700513785e6 1 1.1847486738311485e6 -1 -1.2437542280615626e6 -1 -1.2995125619268965e6 1 -826023.7309682169 1 444375.354310892 -1 1.1562562307204348e6 -1 -522133.58054659434 -1 -1.2936612750675352e6 -1 -1.2506431349522257e6 1 958310.0433343352 1 966004.3631675593 1 1.1675106973290893e6 1 1.174070689198034e6 1 450954.36411562556 -1 1.1708780800807783e6
28 1 0.0 1 -539039.5644017212 1 -1.3452297674901492e6 -1 1.2208075123785252e6 1 -887842.9886490713 -1 1.029614630038157e6 -1 1.2111927083603432e6 -1 1.2515899605274554e6 -1 460259.4791573584 1 1.2114167104375924e6 -1 463228.56631861173 1 1.0251305931627036e6 -1 1.228780176664464e6 -1 1.2355542549608436e6 -1 1.2145868043962764e6 1 -1.3445282918811645e6 -1 1.2563090901895561e6 -1 1.2458408500914518e6 -1 -884836.5039714559 -1 464585.7811310317 1 -1.345598261295749e6 -1 1.2404603286917114e6 1 -1.1229631847087888e6 1 -1.3483250239753982e6 1 -1.329950355692869e6 1 -1.3254554764428542e6 1 -1.3453846083883585e6 1 -1.1218221571994235e6 -1 1.2456059296491705e6 -1 1.2685860788402203e6 1 -1.3277759520009933e6 1 -1.3451423858008217e6 1 -1.3461562898168333e6 1 -1.1209910463879795e6 1 -1.3330851293865931e6 -1 1.2136326750911316e6 -1 1.136141016313997e6 1 -1.3556413066392015e6 -1 1.2389998396673542e6 1 -1.3413759029100335e6 1 -872240.4744538849 1 -888424.6253668903 1 -1.3319337596008366e6 1 -1.3452293429583623e6 -1 1.1447594378622123e6 1 -1.1223794011985979e6 1 -1.3453834450074278e6 -1 1.2263828864049343e6 1 -875532.1974712007 -1 1.0215554908090204e6 -1 1.0284302357062531e6 -1 1.0209516752594933e6 1 -1.329786290514809e6 -1 1.2658593988237008e6 -1 1.1368215269494436e6 -1 1.139845844273419e6 -1 1.2477052045688583e6 -1 1.259251917938539e6 -1 1.0179580322859661e6 1 -869195.1918213486 1 -1.3524894673040928e6 -1 1.2111283860965152e6 -1 1.2434884821055394e6 -1 1.142285427438866e6 -1 1.2183099099952444e6 -1 1.2506360362161135e6 1 -1.1251638316633813e6 1 -1.3495937097512935e6 -1 1.2244865125562826e6 1 -1.3418437154410605e6 1 -1.331796142552777e6 -1 1.2125813993178173e6 1 -1.1247608381524333e6 1 -1.3401350526363258e6 -1 1.2319485862613684e6 -1 1.2624318755462423e6 1 -1.3225172712620064e6 -1 1.1355832014329063e6 1 -1.3463717281774415e6 1 -1.3449289654809383e6 1 -538402.1239330719 -1 -882139.2024364562 -1 1.2479784503316407e6 1 -1.328711990269888e6 1 -1.3388330799631276e6 -1 1.2454839484552846e6 1 -1.3511922609972353e6 1 -1.3359423983373165e6 -1 -879114.1120251016 -1 463952.1189679893 1 1.2543642403578619e6 1 -537045.3335545688 1 -1.3413029319819424e6 1 -1.346869347383911e6 -1 1.0304564676022778e6 -1 1.0269389669315146e6 -1 1.246932339459871e6 -1 1.2460177843261573e6 -1 459319.3082687356 1 1.2465624487102309e6
29 1 0.0 -1 -554879.0555574894 -1 -1.3928714244045564e6 1 1.307703701511965e6 -1 -934970.944204627 1 1.077825291796796e6 1 1.3205125385017574e6 1 1.2712152266369716e6 1 478908.50566666195 -1 1.3169992670776774e6 1 478140.3193265862 -1 1.0845530754253299e6 1 1.3044645452939165e6 1 1.303764076587638e6 1 1.3089575405323743e6 -1 -1.4071190428008882e6 1 1.2684598092964143e6 1 1.2916270307102716e6 1 -935701.7330283405 1 472022.987136348 -1 -1.3820280977061691e6 1 1.3011956033158475e6 -1 -1.1723094902313831e6 -1 -1.369805766380502e6 -1 -1.4299138416258835e6 -1 -1.440368056381185e6 -1 -1.3855517183001076e6 -1 -1.1786430097246761e6 1 1.2951293837693194e6 1 1.265787703941762e6 -1 -1.438951258437995e6 -1 -1.400258589717887e6 -1 -1.3788488527259242e6 -1 -1.1815491724145613e6 -1 -1.4218367948156204e6 1 1.3117406847285586e6 1 1.1946886979897015e6 -1 -1.3621729550389887e6 1 1.3034723877928194e6 -1 -1.4114412008324151e6 -1 -938054.7975160858 -1 -931815.3074211169 -1 -1.4244226985311927e6 -1 -1.3966082733740986e6 1 1.1883580255326005e6 -1 -1.1754629802225213e6 -1 -1.3892878284205059e6 1 1.305804528535716e6 -1 -937609.2470320726 1 1.0847152465729758e6 1 1.0803781709662213e6 1 1.0878487045247776e6 -1 -1.4334870499491526e6 1 1.2667982974265716e6 1 1.191631935123819e6 1 1.1909189789464653e6 1 1.2785422911823618e6 1 1.267665363544068e6 1 1.0885923350525796e6 -1 -938746.7883848787 -1 -1.3627583892052092e6 1 1.3241854897392585e6 1 1.3004864832283466e6 1 1.1896212886105834e6 1 1.3089433726300132e6 1 1.2739985758269588e6 -1 -1.1670355901833174e6 -1 -1.3673371786550682e6 1 1.3076454281883931e6 -1 -1.4081717398621133e6 -1 -1.4280223549844623e6 1 1.3144266824565735e6 -1 -1.1703698701736985e6 -1 -1.4176748975613657e6 1 1.3038956813894918e6 1 1.2671080476504422e6 -1 -1.4411671247016662e6 1 1.1978681566099399e6 -1 -1.3753270175852033e6 -1 -1.4037824428993328e6 -1 -557978.888590169 1 -936741.70499467 1 1.275078263443815e6 -1 -1.4361500232055606e6 -1 -1.4201101983894967e6 1 1.2987446760767626e6 -1 -1.3651984563996808e6 -1 -1.4209567902650146e6 1 -937453.8880846443 1 475126.5984746347 -1 1.270252232966049e6 -1 -560359.3717129951 -1 -1.4151055034056532e6 -1 -1.3720873632903437e6 1 1.0749298558595877e6 1 1.0826241756928118e6 1 1.2815066995747036e6 1 1.288066691443648e6 1 481705.6082793682 -1 1.2848740823263924e6
30 1 0.0 1 -577265.355568122 1 -1.4666739958282672e6 -1 1.3348035146241393e6 1 -999273.1457654989 -1 1.1462344425634095e6 -1 1.3251887106059573e6 -1 1.3655859627730695e6 -1 491010.72332110105 1 1.3254127126832064e6 -1 493979.81048235437 1 1.1417504056879561e6 -1 1.342776178910078e6 -1 1.3495502572064577e6 -1 1.3285828066418904e6 1 -1.4659725202192827e6 -1 1.3703050924351704e6 -1 1.3598368523370659e6 -1 -996266.6610878833 -1 495337.0252947743 1 -1.4670424896338673e6 -1 1.3544563309373255e6 1 -1.2240956554031004e6 1 -1.4697692523135163e6 1 -1.4513945840309872e6 1 -1.4468997047809723e6 1 -1.4668288367264767e6 1 -1.2229546278937352e6 -1 1.3596019318947846e6 -1 1.3825820810858344e6 1 -1.4492201803391115e6 1 -1.4665866141389399e6 1 -1.4676005181549513e6 1 -1.2221235170822912e6 1 -1.4545293577247113e6 -1 1.3276286773367457e6 -1 1.243321973013625e6 1 -1.4770855349773197e6 -1 1.3529958419129683e6 1 -1.4628201312481514e6 1 -983670.6315703123 1 -999854.7824833178 1 -1.4533779879389545e6 1 -1.4666735712964803e6 -1 1.2519403945618405e6 1 -1.2235118718929095e6 1 -1.4668276733455458e6 -1 1.3403788886505486e6 1 -986962.3545876283 -1 1.138175303334273e6 -1 1.1450500482315056e6 -1 1.1375714877847456e6 1 -1.4512305188529273e6 -1 1.379855401069315e6 -1 1.2440024836490715e6 -1 1.247026800973047e6 -1 1.3617012068144723e6 -1 1.3732479201841531e6 -1 1.1345778448112188e6 1 -980625.3489377762 1 -1.473933695642211e6 -1 1.3251243883421293e6 -1 1.3574844843511537e6 -1 1.2494663841384943e6 -1 1.3323059122408584e6 -1 1.3646320384617276e6 1 -1.226296302357693e6 1 -1.4710379380894117e6 -1 1.3384825148018966e6 1 -1.4632879437791787e6 1 -1.453240370890895e6 -1 1.3265774015634316e6 1 -1.225893308846745e6 1 -1.4615792809744438e6 -1 1.3459445885069824e6 -1 1.3764278777918564e6 1 -1.4439614996001245e6 -1 1.2427641581325342e6 1 -1.4678159565155595e6 1 -1.4663731938190565e6 1 -576627.9150994726 -1 -993569.3595528838 -1 1.3619744525772547e6 1 -1.4501562186080061e6 1 -1.4602773083012458e6 -1 1.3594799507008987e6 1 -1.4726364893353535e6 1 -1.4573866266754346e6 -1 -990544.269141529 -1 494703.363131732 1 1.3683602426034762e6 1 -575271.1247209696 1 -1.4627471603200603e6 1 -1.468313575722029e6 -1 1.1470762801275302e6 -1 1.1435587794567673e6 -1 1.3609283417054852e6 -1 1.3600137865717714e6 -1 490070.55243247823 1 1.360558450955845e6
31 1 0.0 -1 -593104.8467238902 -1 -1.5143156527426743e6 1 1.421699703757579e6 -1 -1.0464011013210545e6 1 1.1944451043220486e6 1 1.4345085407473715e6 1 1.3852112288825857e6 1 509659.7498304046 -1 1.4309952693232915e6 1 508891.56349032884 -1 1.2011728879505824e6 1 1.4184605475395306e6 1 1.417760078833252e6 1 1.4229535427779884e6 -1 -1.5285632711390064e6 1 1.3824558115420286e6 1 1.4056230329558856e6 1 -1.0471318901447679e6 1 502774.2313000906 -1 -1.5034723260442873e6 1 1.4151916055614615e6 -1 -1.2734419609256948e6 -1 -1.49124999471862e6 -1 -1.5513580699640017e6 -1 -1.5618122847193033e6 -1 -1.5069959466382258e6 -1 -1.2797754804189878e6 1 1.4091253860149335e6 1 1.379783706187376e6 -1 -1.5603954867761133e6 -1 -1.5217028180560053e6 -1 -1.5002930810640422e6 -1 -1.282681643108873e6 -1 -1.5432810231537386e6 1 1.4257366869741727e6 1 1.3018696546893294e6 -1 -1.483617183377107e6 1 1.4174683900384335e6 -1 -1.532885429170533e6 -1 -1.0494849546325132e6 -1 -1.0432454645375443e6 -1 -1.5458669268693107e6 -1 -1.5180525017122165e6 1 1.2955389822322286e6 -1 -1.276595450916833e6 -1 -1.5107320567586238e6 1 1.4198005307813303e6 -1 -1.0490394041485002e6 1 1.2013350590982283e6 1 1.1969979834914736e6 1 1.20446851705003e6 -1 -1.5549312782872708e6 1 1.3807942996721857e6 1 1.2988128918234468e6 1 1.2980999356460935e6 1 1.3925382934279758e6 1 1.3816613657896821e6 1 1.2052121475778322e6 -1 -1.050176945501306e6 -1 -1.4842026175433274e6 1 1.4381814919848726e6 1 1.4144824854739609e6 1 1.2968022453102116e6 1 1.4229393748756272e6 1 1.3879945780725728e6 -1 -1.268168060877629e6 -1 -1.4887814069931863e6 1 1.4216414304340072e6 -1 -1.5296159682002314e6 -1 -1.5494665833225802e6 1 1.4284226847021878e6 -1 -1.2715023408680102e6 -1 -1.5391191258994837e6 1 1.4178916836351058e6 1 1.3811040498960563e6 -1 -1.5626113530397844e6 1 1.3050491133095678e6 -1 -1.4967712459233212e6 -1 -1.525226671237451e6 -1 -596204.6797565698 1 -1.0481718621110976e6 1 1.3890742656894291e6 -1 -1.5575942515436788e6 -1 -1.5415544267276148e6 1 1.4127406783223767e6 -1 -1.486642684737799e6 -1 -1.5424010186031328e6 1 -1.0488840452010718e6 1 505877.8426383774 -1 1.3842482352116634e6 -1 -598585.1628793959 -1 -1.5365497317437711e6 -1 -1.4935315916284616e6 1 1.1915496683848402e6 1 1.1992439882180644e6 1 1.395502701820318e6 1 1.402062693689262e6 1 512456.85244311084 -1 1.3988700845720065e6
32 1 0.0 1 -615491.1467345228 1 -1.5881182241663851e6 -1 1.4487995168697534e6 1 -1.1107033028819263e6 -1 1.262854255088662e6 -1 1.4391847128515714e6 -1 1.4795819650186836e6 -1 521761.9674848437 1 1.4394087149288205e6 -1 524731.054646097 1 1.2583702182132087e6 -1 1.456772181155692e6 -1 1.4635462594520717e6 -1 1.4425788088875045e6 1 -1.587416748557401e6 -1 1.4843010946807847e6 -1 1.47383285458268e6 -1 -1.1076968182043107e6 -1 526088.269458517 1 -1.5884867179719855e6 -1 1.4684523331829396e6 1 -1.325228126097412e6 1 -1.5912134806516345e6 1 -1.5728388123691054e6 1 -1.5683439331190905e6 1 -1.5882730650645948e6 1 -1.3240870985880469e6 -1 1.4735979341403986e6 -1 1.4965780833314485e6 1 -1.5706644086772297e6 1 -1.588030842477058e6 1 -1.5890447464930692e6 1 -1.3232559877766029e6 1 -1.5759735860628295e6 -1 1.4416246795823597e6 -1 1.350502929713253e6 1 -1.5985297633154378e6 -1 1.4669918441585824e6 1 -1.5842643595862694e6 1 -1.0951007886867397e6 1 -1.1112849395997452e6 1 -1.5748222162770724e6 1 -1.5881177996345982e6 -1 1.3591213512614686e6 1 -1.3246443425872212e6 1 -1.5882719016836637e6 -1 1.454374890896163e6 1 -1.0983925117040558e6 -1 1.2547951158595255e6 -1 1.261669860756758e6 -1 1.254191300309998e6 1 -1.5726747471910454e6 -1 1.493851403314929e6 -1 1.3511834403486995e6 -1 1.3542077576726752e6 -1 1.4756972090600864e6 -1 1.4872439224297672e6 -1 1.2511976573364714e6 1 -1.0920555060542035e6 1 -1.5953779239803292e6 -1 1.4391203905877434e6 -1 1.471480486596768e6 -1 1.3566473408381224e6 -1 1.4463019144864725e6 -1 1.4786280407073416e6 1 -1.3274287730520046e6 1 -1.5924821664275299e6 -1 1.4524785170475107e6 1 -1.5847321721172968e6 1 -1.5746845992290128e6 -1 1.440573403809046e6 1 -1.3270257795410566e6 1 -1.5830235093125617e6 -1 1.4599405907525965e6 -1 1.4904238800374705e6 1 -1.5654057279382427e6 -1 1.3499451148321622e6 1 -1.5892601848536774e6 1 -1.5878174221571747e6 1 -614853.7062658734 -1 -1.1049995166693113e6 -1 1.4759704548228688e6 1 -1.5716004469461243e6 1 -1.581721536639364e6 -1 1.4734759529465127e6 1 -1.5940807176734717e6 1 -1.5788308550135528e6 -1 -1.1019744262579565e6 -1 525454.6072954746 1 1.4823562448490905e6 1 -613496.9158873704 1 -1.5841913886581783e6 1 -1.589757804060147e6 -1 1.2636960926527828e6 -1 1.2601785919820198e6 -1 1.4749243439510996e6 -1 1.4740097888173854e6 -1 520821.79659622087 1 1.474554453201459e6
33 1 0.0 -1 -631330.6378902909 -1 -1.6357598810807923e6 1 1.535695706003193e6 -1 -1.157831258437482e6 1 1.3110649168473012e6 1 1.5485045429929856e6 1 1.4992072311281997e6 1 540410.9939941472 -1 1.5449912715689056e6 1 539642.8076540715 -1 1.317792700475835e6 1 1.5324565497851446e6 1 1.531756081078866e6 1 1.5369495450236024e6 -1 -1.6500074994771245e6 1 1.4964518137876429e6 1 1.5196190352014997e6 1 -1.1585620472611955e6 1 533525.4754638333 -1 -1.6249165543824055e6 1 1.5291876078070756e6 -1 -1.3745744316200064e6 -1 -1.6126942230567383e6 -1 -1.6728022983021198e6 -1 -1.6832565130574214e6 -1 -1.628440174976344e6 -1 -1.3809079511132995e6 1 1.5231213882605475e6 1 1.4937797084329901e6 -1 -1.6818397151142315e6 -1 -1.6431470463941235e6 -1 -1.62173730940216e6 -1 -1.3838141138031846e6 -1 -1.6647252514918568e6 1 1.5397326892197868e6 1 1.4090506113889574e6 -1 -1.605061411715225e6 1 1.5314643922840476e6 -1 -1.654329657508651e6 -1 -1.1609151117489408e6 -1 -1.1546756216539717e6 -1 -1.6673111552074286e6 -1 -1.6394967300503345e6 1 1.4027199389318568e6 -1 -1.3777279216111447e6 -1 -1.6321762850967417e6 1 1.5337965330269446e6 -1 -1.1604695612649277e6 1 1.317954871623481e6 1 1.313617796016726e6 1 1.3210883295752823e6 -1 -1.676375506625389e6 1 1.4947903019177997e6 1 1.4059938485230748e6 1 1.4052808923457216e6 1 1.50653429567359e6 1 1.4956573680352962e6 1 1.3218319601030848e6 -1 -1.1616071026177334e6 -1 -1.6056468458814456e6 1 1.5521774942304867e6 1 1.5284784877195752e6 1 1.4039832020098397e6 1 1.5369353771212413e6 1 1.501990580318187e6 -1 -1.3693005315719408e6 -1 -1.6102256353313045e6 1 1.5356374326796213e6 -1 -1.6510601965383496e6 -1 -1.6709108116606981e6 1 1.542418686947802e6 -1 -1.3726348115623218e6 -1 -1.6605633542376016e6 1 1.53188768588072e6 1 1.4951000521416704e6 -1 -1.6840555813779025e6 1 1.4122300700091957e6 -1 -1.6182154742614392e6 -1 -1.6466708995755692e6 -1 -634430.4709229706 1 -1.159602019227525e6 1 1.5030702679350432e6 -1 -1.679038479881797e6 -1 -1.662998655065733e6 1 1.5267366805679908e6 -1 -1.6080869130759172e6 -1 -1.663845246941251e6 1 -1.1603142023174993e6 1 536629.08680212 -1 1.4982442374572777e6 -1 -636810.9540457967 -1 -1.657993960081889e6 -1 -1.6149758199665796e6 1 1.3081694809100928e6 1 1.315863800743317e6 1 1.5094987040659322e6 1 1.516058695934876e6 1 543208.0966068534 -1 1.5128660868176206e6
34 1 0.0 1 -653716.9379009235 1 -1.709562452504503e6 -1 1.5627955191153674e6 1 -1.2221334599983539e6 -1 1.3794740676139146e6 -1 1.5531807150971855e6 -1 1.5935779672642977e6 -1 552513.2116485863 1 1.5534047171744346e6 -1 555482.2988098396 1 1.3749900307384613e6 -1 1.5707681834013062e6 -1 1.5775422616976858e6 -1 1.5565748111331186e6 1 -1.708860976895519e6 -1 1.598297096926399e6 -1 1.587828856828294e6 -1 -1.2191269753207383e6 -1 556839.5136222596 1 -1.7099309463101036e6 -1 1.5824483354285536e6 1 -1.4263605967917237e6 1 -1.7126577089897527e6 1 -1.6942830407072236e6 1 -1.6897881614572087e6 1 -1.709717293402713e6 1 -1.4252195692823585e6 -1 1.5875939363860127e6 -1 1.6105740855770626e6 1 -1.6921086370153478e6 1 -1.7094750708151762e6 1 -1.7104889748311872e6 1 -1.4243884584709145e6 1 -1.6974178144009477e6 -1 1.5556206818279738e6 -1 1.4576838864128808e6 1 -1.719973991653556e6 -1 1.5809878464041965e6 1 -1.7057085879243873e6 1 -1.2065309458031673e6 1 -1.2227150967161725e6 1 -1.6962664446151904e6 1 -1.7095620279727161e6 -1 1.4663023079610968e6 1 -1.4257768132815328e6 1 -1.7097161300217817e6 -1 1.5683708931417773e6 1 -1.2098226688204834e6 -1 1.371414928384778e6 -1 1.3782896732820102e6 -1 1.3708111128352503e6 1 -1.6941189755291636e6 -1 1.607847405560543e6 -1 1.4583643970483274e6 -1 1.4613887143723033e6 -1 1.5896932113057005e6 -1 1.6012399246753813e6 -1 1.367817469861724e6 1 -1.2034856631706308e6 1 -1.7168221523184474e6 -1 1.5531163928333574e6 -1 1.5854764888423823e6 -1 1.4638282975377506e6 -1 1.5602979167320866e6 -1 1.5926240429529557e6 1 -1.4285612437463163e6 1 -1.713926394765648e6 -1 1.5664745192931248e6 1 -1.706176400455415e6 1 -1.6961288275671308e6 -1 1.5545694060546602e6 1 -1.4281582502353683e6 1 -1.7044677376506797e6 -1 1.5739365929982106e6 -1 1.6044198822830846e6 1 -1.686849956276361e6 -1 1.45712607153179e6 1 -1.7107044131917953e6 1 -1.7092616504952929e6 1 -653079.4974322742 -1 -1.2164296737857386e6 -1 1.5899664570684829e6 1 -1.6930446752842425e6 1 -1.7031657649774821e6 -1 1.5874719551921268e6 1 -1.7155249460115898e6 1 -1.700275083351671e6 -1 -1.213404583374384e6 -1 556205.8514592173 1 1.5963522470947048e6 1 -651722.7070537711 1 -1.7056356169962962e6 1 -1.7112020323982649e6 -1 1.3803159051780354e6 -1 1.3767984045072724e6 -1 1.5889203461967139e6 -1 1.5880057910629995e6 -1 551573.0407599634 1 1.588550455447073e6
35 1 0.0 -1 -669556.4290566917 -1 -1.7572041094189102e6 1 1.6496917082488071e6 -1 -1.2692614155539095e6 1 1.4276847293725538e6 1 1.6625005452385996e6 1 1.6132032333738138e6 1 571162.2381578898 -1 1.6589872738145196e6 1 570394.0518178141 -1 1.4344125130010876e6 1 1.6464525520307587e6 1 1.64575208332448e6 1 1.6509455472692165e6 -1 -1.7714517278152427e6 1 1.6104478160332572e6 1 1.6336150374471138e6 1 -1.269992204377623e6 1 564276.719627576 -1 -1.7463607827205237e6 1 1.6431836100526897e6 -1 -1.475706902314318e6 -1 -1.7341384513948564e6 -1 -1.794246526640238e6 -1 -1.8047007413955396e6 -1 -1.7498844033144622e6 -1 -1.4820404218076111e6 1 1.6371173905061616e6 1 1.6077757106786042e6 -1 -1.8032839434523496e6 -1 -1.7645912747322416e6 -1 -1.743181537740278e6 -1 -1.4849465844974963e6 -1 -1.786169479829975e6 1 1.6537286914654009e6 1 1.5162315680885853e6 -1 -1.7265056400533433e6 1 1.6454603945296616e6 -1 -1.775773885846769e6 -1 -1.2723452688653683e6 -1 -1.266105778770399e6 -1 -1.7887553835455466e6 -1 -1.7609409583884524e6 1 1.509900895631485e6 -1 -1.4788603923054563e6 -1 -1.7536205134348597e6 1 1.647792535272559e6 -1 -1.2718997183813553e6 1 1.4345746841487335e6 1 1.4302376085419783e6 1 1.4377081421005346e6 -1 -1.7978197349635072e6 1 1.6087863041634138e6 1 1.5131748052227027e6 1 1.5124618490453498e6 1 1.620530297919204e6 1 1.6096533702809103e6 1 1.4384517726283374e6 -1 -1.2730372597341607e6 -1 -1.7270910742195637e6 1 1.6661734964761008e6 1 1.6424744899651895e6 1 1.5111641587094679e6 1 1.6509313793668554e6 1 1.615986582563801e6 -1 -1.4704330022662524e6 -1 -1.7316698636694227e6 1 1.6496334349252353e6 -1 -1.7725044248764678e6 -1 -1.792355039998816e6 1 1.6564146891934164e6 -1 -1.4737672822566335e6 -1 -1.7820075825757196e6 1 1.645883688126334e6 1 1.6090960543872844e6 -1 -1.8054998097160207e6 1 1.5194110267088236e6 -1 -1.7396597025995571e6 -1 -1.7681151279136874e6 -1 -672656.2620893713 1 -1.2710321763439523e6 1 1.6170662701806573e6 -1 -1.8004827082199152e6 -1 -1.7844428834038512e6 1 1.6407326828136048e6 -1 -1.7295311414140353e6 -1 -1.7852894752793692e6 1 -1.2717443594339269e6 1 567380.3309658626 -1 1.612240239702892e6 -1 -675036.7452121974 -1 -1.779438188420007e6 -1 -1.7364200483046975e6 1 1.4247892934353454e6 1 1.4324836132685696e6 1 1.6234947063115465e6 1 1.6300546981804902e6 1 573959.340770596 -1 1.6268620890632346e6
36 1 0.0 1 -691942.7290673243 1 -1.831006680842621e6 -1 1.6767915213609815e6 1 -1.3335636171147814e6 -1 1.4960938801391672e6 -1 1.6671767173427995e6 -1 1.7075739695099117e6 -1 583264.455812329 1 1.6674007194200486e6 -1 586233.5429735823 1 1.4916098432637139e6 -1 1.6847641856469202e6 -1 1.6915382639433e6 -1 1.6705708133787327e6 1 -1.8303052052336372e6 -1 1.7122930991720133e6 -1 1.701824859073908e6 -1 -1.3305571324371658e6 -1 587590.7577860022 1 -1.8313751746482218e6 -1 1.6964443376741677e6 1 -1.5274930674860354e6 1 -1.8341019373278709e6 1 -1.8157272690453418e6 1 -1.8112323897953269e6 1 -1.8311615217408312e6 1 -1.5263520399766702e6 -1 1.7015899386316268e6 -1 1.7245700878226766e6 1 -1.813552865353466e6 1 -1.8309192991532944e6 1 -1.831933203169305e6 1 -1.5255209291652262e6 1 -1.8188620427390658e6 -1 1.6696166840735879e6 -1 1.5648648431125088e6 1 -1.8414182199916742e6 -1 1.6949838486498105e6 1 -1.8271528162625053e6 1 -1.3179611029195949e6 1 -1.3341452538326e6 1 -1.8177106729533083e6 1 -1.831006256310834e6 -1 1.573483264660725e6 1 -1.5269092839758445e6 1 -1.8311603583598996e6 -1 1.6823668953873916e6 1 -1.321252825936911e6 -1 1.4880347409100307e6 -1 1.4949094858072626e6 -1 1.4874309253605027e6 1 -1.8155632038672818e6 -1 1.7218434078061571e6 -1 1.5655453537479553e6 -1 1.5685696710719315e6 -1 1.7036892135513145e6 -1 1.7152359269209953e6 -1 1.4844372823869765e6 1 -1.3149158202870581e6 1 -1.8382663806565655e6 -1 1.6671123950789715e6 -1 1.6994724910879966e6 -1 1.5710092542373787e6 -1 1.6742939189777006e6 -1 1.7066200451985698e6 1 -1.529693714440628e6 1 -1.8353706231037662e6 -1 1.6804705215387389e6 1 -1.8276206287935332e6 1 -1.8175730559052487e6 -1 1.6685654083002745e6 1 -1.52929072092968e6 1 -1.8259119659887976e6 -1 1.6879325952438246e6 -1 1.7184158845286986e6 1 -1.808294184614479e6 -1 1.564307028231418e6 1 -1.8321486415299133e6 1 -1.830705878833411e6 1 -691305.2885986749 -1 -1.327859830902166e6 -1 1.703962459314097e6 1 -1.8144889036223607e6 1 -1.8246099933156003e6 -1 1.7014679574377409e6 1 -1.836969174349708e6 1 -1.8217193116897892e6 -1 -1.3248347404908116e6 -1 586957.0956229599 1 1.710348249340319e6 1 -689948.4982201719 1 -1.8270798453344142e6 1 -1.8326462607363828e6 -1 1.496935717703288e6 -1 1.493418217032525e6 -1 1.7029163484423282e6 -1 1.7020017933086136e6 -1 582324.2849237061 1 1.7025464576926872e6
37 1 0.0 -1 -707782.2202230925 -1 -1.8786483377570282e6 1 1.7636877104944212e6 -1 -1.380691572670337e6 1 1.5443045418978063e6 1 1.7764965474842137e6 1 1.7271992356194279e6 1 601913.4823216324 -1 1.7729832760601337e6 1 601145.2959815568 -1 1.5510323255263402e6 1 1.7604485542763728e6 1 1.7597480855700942e6 1 1.7649415495148306e6 -1 -1.892895956153361e6 1 1.7244438182788715e6 1 1.7476110396927278e6 1 -1.3814223614940506e6 1 595027.9637913186 -1 -1.8678050110586418e6 1 1.7571796122983037e6 -1 -1.5768393730086298e6 -1 -1.8555826797329746e6 -1 -1.9156907549783562e6 -1 -1.9261449697336578e6 -1 -1.8713286316525803e6 -1 -1.5831728925019228e6 1 1.7511133927517757e6 1 1.7217717129242183e6 -1 -1.9247281717904678e6 -1 -1.8860355030703598e6 -1 -1.864625766078396e6 -1 -1.586079055191808e6 -1 -1.907613708168093e6 1 1.767724693711015e6 1 1.6234125247882132e6 -1 -1.8479498683914614e6 1 1.7594563967752757e6 -1 -1.897218114184887e6 -1 -1.3837754259817959e6 -1 -1.3775359358868266e6 -1 -1.9101996118836645e6 -1 -1.8823851867265704e6 1 1.617081852331113e6 -1 -1.579992862999768e6 -1 -1.8750647417729776e6 1 1.7617885375181732e6 -1 -1.3833298754977828e6 1 1.551194496673986e6 1 1.5468574210672306e6 1 1.554327954625787e6 -1 -1.9192639633016253e6 1 1.722782306409028e6 1 1.6203557619223306e6 1 1.619642805744978e6 1 1.734526300164818e6 1 1.7236493725265244e6 1 1.55507158515359e6 -1 -1.384467416850588e6 -1 -1.848535302557682e6 1 1.7801694987217148e6 1 1.7564704922108038e6 1 1.618345115409096e6 1 1.7649273816124694e6 1 1.729982584809415e6 -1 -1.571565472960564e6 -1 -1.8531140920075409e6 1 1.7636294371708494e6 -1 -1.893948653214586e6 -1 -1.913799268336934e6 1 1.7704106914390307e6 -1 -1.5748997529509452e6 -1 -1.9034518109138375e6 1 1.759879690371948e6 1 1.7230920566328985e6 -1 -1.926944038054139e6 1 1.6265919834084515e6 -1 -1.861103930937675e6 -1 -1.8895593562518056e6 -1 -710882.0532557721 1 -1.3824623334603796e6 1 1.7310622724262713e6 -1 -1.9219269365580333e6 -1 -1.9058871117419694e6 1 1.754728685059219e6 -1 -1.8509753697521535e6 -1 -1.9067337036174873e6 1 -1.3831745165503544e6 1 598131.5751296052 -1 1.7262362419485063e6 -1 -713262.5363785982 -1 -1.900882416758125e6 -1 -1.8578642766428154e6 1 1.541409105960598e6 1 1.5491034257938222e6 1 1.7374907085571608e6 1 1.7440507004261042e6 1 604710.5849343387 -1 1.7408580913088487e6
38 1 0.0 1 -730168.5202337251 1 -1.952450909180739e6 -1 1.7907875236065956e6 1 -1.444993774231209e6 -1 1.6127136926644198e6 -1 1.7811727195884136e6 -1 1.8215699717555258e6 -1 614015.6999760716 1 1.7813967216656627e6 -1 616984.7871373249 1 1.6082296557889665e6 -1 1.7987601878925343e6 -1 1.805534266188914e6 -1 1.7845668156243467e6 1 -1.9517494335717554e6 -1 1.8262891014176277e6 -1 1.8158208613195221e6 -1 -1.4419872895535934e6 -1 618342.0019497449 1 -1.95281940298634e6 -1 1.8104403399197818e6 1 -1.628625538180347e6 1 -1.955546165665989e6 1 -1.93717149738346e6 1 -1.932676618133445e6 1 -1.9526057500789494e6 1 -1.6274845106709818e6 -1 1.8155859408772408e6 -1 1.8385660900682907e6 1 -1.9349970936915842e6 1 -1.9523635274914126e6 1 -1.953377431507423e6 1 -1.6266533998595378e6 1 -1.940306271077184e6 -1 1.783612686319202e6 -1 1.6720457998121367e6 1 -1.9628624483297924e6 -1 1.8089798508954246e6 1 -1.9485970446006232e6 1 -1.4293912600360224e6 1 -1.4455754109490276e6 1 -1.9391549012914263e6 1 -1.952450484648952e6 -1 1.680664221360353e6 1 -1.6280417546701562e6 1 -1.9526045866980175e6 -1 1.7963628976330059e6 1 -1.4326829830533385e6 -1 1.6046545534352832e6 -1 1.611529298332515e6 -1 1.604050737885755e6 1 -1.9370074322054e6 -1 1.8358394100517712e6 -1 1.6727263104475832e6 -1 1.6757506277715596e6 -1 1.8176852157969286e6 -1 1.8292319291666094e6 -1 1.601057094912229e6 1 -1.4263459774034854e6 1 -1.9597106089946837e6 -1 1.7811083973245856e6 -1 1.813468493333611e6 -1 1.6781902109370069e6 -1 1.7882899212233147e6 -1 1.8206160474441838e6 1 -1.6308261851349396e6 1 -1.9568148514418844e6 -1 1.794466523784353e6 1 -1.9490648571316514e6 1 -1.9390172842433667e6 -1 1.7825614105458888e6 1 -1.6304231916239916e6 1 -1.9473561943269155e6 -1 1.8019285974894387e6 -1 1.8324118867743127e6 1 -1.9297384129525973e6 -1 1.671487984931046e6 1 -1.9535928698680312e6 1 -1.9521501071715292e6 1 -729531.0797650757 -1 -1.4392899880185933e6 -1 1.817958461559711e6 1 -1.9359331319604788e6 1 -1.9460542216537185e6 -1 1.815463959683355e6 1 -1.9584134026878262e6 1 -1.9431635400279074e6 -1 -1.4362648976072392e6 -1 617708.3397867025 1 1.8243442515859334e6 1 -728174.2893865727 1 -1.948524073672532e6 1 -1.9540904890745007e6 -1 1.6135555302285405e6 -1 1.6100380295577776e6 -1 1.8169123506879425e6 -1 1.8159977955542277e6 -1 613075.5290874487 1 1.8165424599383012e6
39 1 0.0 -1 -746008.0113894932 -1 -2.0000925660951461e6 1 1.8776837127400353e6 -1 -1.4921217297867646e6 1 1.660924354423059e6 1 1.8904925497298278e6 1 1.841195237865042e6 1 632664.7264853751 -1 1.8869792783057478e6 1 631896.5401452994 -1 1.6676521380515927e6 1 1.8744445565219868e6 1 1.8737440878157082e6 1 1.8789375517604447e6 -1 -2.014340184491479e6 1 1.8384398205244858e6 1 1.861607041938342e6 1 -1.4928525186104781e6 1 625779.2079550612 -1 -1.98924923939676e6 1 1.8711756145439178e6 -1 -1.6779718437029414e6 -1 -1.9770269080710928e6 -1 -2.0371349833164744e6 -1 -2.047589198071776e6 -1 -1.9927728599906985e6 -1 -1.6843053631962345e6 1 1.8651093949973898e6 1 1.8357677151698323e6 -1 -2.046172400128586e6 -1 -2.007479731408478e6 -1 -1.986069994416514e6 -1 -1.6872115258861196e6 -1 -2.0290579365062113e6 1 1.881720695956629e6 1 1.730593481487841e6 -1 -1.9693940967295796e6 1 1.8734523990208898e6 -1 -2.0186623425230049e6 -1 -1.4952055830982234e6 -1 -1.4889660930032542e6 -1 -2.0316438402217824e6 -1 -2.0038294150646883e6 1 1.7242628090307412e6 -1 -1.6811253336940797e6 -1 -1.9965089701110956e6 1 1.8757845397637875e6 -1 -1.4947600326142104e6 1 1.6678143091992387e6 1 1.663477233592483e6 1 1.6709477671510393e6 -1 -2.0407081916397435e6 1 1.836778308654642e6 1 1.7275367186219585e6 1 1.726823762444606e6 1 1.8485223024104321e6 1 1.8376453747721384e6 1 1.6716913976788425e6 -1 -1.4958975739670154e6 -1 -1.9699795308958e6 1 1.894165500967329e6 1 1.870466494456418e6 1 1.7255260721087242e6 1 1.8789233838580835e6 1 1.843978587055029e6 -1 -1.6726979436548757e6 -1 -1.974558320345659e6 1 1.8776254394164635e6 -1 -2.0153928815527041e6 -1 -2.035243496675052e6 1 1.884406693684645e6 -1 -1.6760322236452568e6 -1 -2.0248960392519555e6 1 1.8738756926175621e6 1 1.8370880588785126e6 -1 -2.048388266392257e6 1 1.7337729401080795e6 -1 -1.982548159275793e6 -1 -2.0110035845899237e6 -1 -749107.8444221729 1 -1.493892490576807e6 1 1.8450582746718854e6 -1 -2.0433711648961515e6 -1 -2.0273313400800875e6 1 1.868724687304833e6 -1 -1.9724195980902717e6 -1 -2.0281779319556055e6 1 -1.494604673666782e6 1 628882.8192933479 -1 1.8402322441941206e6 -1 -751488.327544999 -1 -2.022326645096243e6 -1 -1.9793085049809334e6 1 1.6580289184858506e6 1 1.6657232383190747e6 1 1.851486710802775e6 1 1.8580467026717183e6 1 635461.8290980813 -1 1.8548540935544628e6
40 1 0.0 1 -768394.3114001259 1 -2.073895137518857e6 -1 1.9047835258522097e6 1 -1.5564239313476365e6 -1 1.7293335051896723e6 -1 1.8951687218340277e6 -1 1.9355659740011399e6 -1 644766.9441398142 1 1.8953927239112768e6 -1 647736.0313010676 1 1.724849468314219e6 -1 1.9127561901381484e6 -1 1.919530268434528e6 -1 1.8985628178699608e6 1 -2.0731936619098736e6 -1 1.940285103663242e6 -1 1.9298168635651362e6 -1 -1.553417446670021e6 -1 649093.2461134875 1 -2.0742636313244582e6 -1 1.9244363421653959e6 1 -1.7297580088746587e6 1 -2.0769903940041072e6 1 -2.058615725721578e6 1 -2.0541208464715632e6 1 -2.0740499784170676e6 1 -1.7286169813652935e6 -1 1.929581943122855e6 -1 1.9525620923139048e6 1 -2.0564413220297024e6 1 -2.0738077558295308e6 1 -2.074821659845541e6 1 -1.7277858705538495e6 1 -2.0617504994153022e6 -1 1.897608688564816e6 -1 1.7792267565117646e6 1 -2.0843066766679105e6 -1 1.9229758531410387e6 1 -2.0700412729387411e6 1 -1.54082141715245e6 1 -1.5570055680654552e6 1 -2.0605991296295442e6 1 -2.07389471298707e6 -1 1.7878451780599812e6 1 -1.7291742253644678e6 1 -2.0740488150361355e6 -1 1.9103588998786202e6 1 -1.544113140169766e6 -1 1.7212743659605358e6 -1 1.7281491108577673e6 -1 1.7206705504110074e6 1 -2.0584516605435181e6 -1 1.9498354122973853e6 -1 1.7799072671472111e6 -1 1.7829315844711878e6 -1 1.9316812180425427e6 -1 1.9432279314122235e6 -1 1.7176769074374817e6 1 -1.5377761345199128e6 1 -2.081154837332802e6 -1 1.8951043995701997e6 -1 1.9274644955792252e6 -1 1.785371167636635e6 -1 1.9022859234689288e6 -1 1.934612049689798e6 1 -1.7319586558292513e6 1 -2.0782590797800026e6 -1 1.908462526029967e6 1 -2.0705090854697695e6 1 -2.0604615125814846e6 -1 1.8965574127915031e6 1 -1.7315556623183032e6 1 -2.0688004226650335e6 -1 1.9159245997350528e6 -1 1.9464078890199268e6 1 -2.0511826412907154e6 -1 1.7786689416306738e6 1 -2.0750370982061492e6 1 -2.0735943355096474e6 1 -767756.8709314765 -1 -1.5507201451350206e6 -1 1.931954463805325e6 1 -2.057377360298597e6 1 -2.0674984499918367e6 -1 1.929459961928969e6 1 -2.0798576310259444e6 1 -2.0646077683660255e6 -1 -1.5476950547236667e6 -1 648459.5839504452 1 1.9383402538315477e6 1 -766400.0805529734 1 -2.06996830201065e6 1 -2.0755347174126187e6 -1 1.730175342753793e6 -1 1.7266578420830301e6 -1 1.9309083529335568e6 -1 1.9299937977998417e6 -1 643826.7732511914 1 1.9305384621839153e6
41 1 0.0 -1 -784233.802555894 -1 -2.121536794433264e6 1 1.9916797149856493e6 -1 -1.6035518869031921e6 1 1.7775441669483115e6 1 2.0044885519754419e6 1 1.955191240110656e6 1 663415.9706491177 -1 2.0009752805513619e6 1 662647.784309042 -1 1.7842719505768453e6 1 1.988440558767601e6 1 1.9877400900613223e6 1 1.9929335540060587e6 -1 -2.135784412829597e6 1 1.9524358227701e6 1 1.975603044183956e6 1 -1.6042826757269057e6 1 656530.4521188039 -1 -2.110693467734878e6 1 1.985171616789532e6 -1 -1.779104314397253e6 -1 -2.098471136409211e6 -1 -2.158579211654593e6 -1 -2.169033426409894e6 -1 -2.1142170883288165e6 -1 -1.785437833890546e6 1 1.9791053972430038e6 1 1.9497637174154464e6 -1 -2.167616628466704e6 -1 -2.1289239597465964e6 -1 -2.107514222754632e6 -1 -1.7883439965804312e6 -1 -2.1505021648443295e6 1 1.995716698202243e6 1 1.837774438187469e6 -1 -2.0908383250676978e6 1 1.9874484012665038e6 -1 -2.140106570861123e6 -1 -1.606635740214651e6 -1 -1.6003962501196817e6 -1 -2.1530880685599004e6 -1 -2.1252736434028065e6 1 1.8314437657303694e6 -1 -1.7822578043883913e6 -1 -2.1179531984492135e6 1 1.9897805420094018e6 -1 -1.606190189730638e6 1 1.7844341217244912e6 1 1.7800970461177353e6 1 1.7875675796762917e6 -1 -2.1621524199778615e6 1 1.950774310900256e6 1 1.8347176753215864e6 1 1.8340047191442342e6 1 1.9625183046560462e6 1 1.9516413770177525e6 1 1.788311210204095e6 -1 -1.6073277310834427e6 -1 -2.0914237592339183e6 1 2.008161503212943e6 1 1.9844624967020324e6 1 1.8327070288083523e6 1 1.9929193861036976e6 1 1.9579745893006432e6 -1 -1.7738304143491874e6 -1 -2.0960025486837772e6 1 1.9916214416620776e6 -1 -2.1368371098908223e6 -1 -2.15668772501317e6 1 1.9984026959302593e6 -1 -1.7771646943395685e6 -1 -2.1463402675900734e6 1 1.9878716948631762e6 1 1.9510840611241267e6 -1 -2.1698324947303752e6 1 1.8409538968077074e6 -1 -2.103992387613911e6 -1 -2.132447812928042e6 -1 -787333.6355885736 1 -1.6053226476932343e6 1 1.9590542769174995e6 -1 -2.1648153932342697e6 -1 -2.1487755684182057e6 1 1.982720689550447e6 -1 -2.0938638264283899e6 -1 -2.1496221602937235e6 1 -1.6060348307832095e6 1 659634.0634570905 -1 1.954228246439735e6 -1 -789714.1187113997 -1 -2.143770873434361e6 -1 -2.1007527333190516e6 1 1.7746487310111031e6 1 1.7823430508443273e6 1 1.9654827130483894e6 1 1.9720427049173324e6 1 666213.073261824 -1 1.9688500958000768e6
42 1 0.0 1 -806620.1025665266 1 -2.195339365856975e6 -1 2.0187795280978237e6 1 -1.667854088464064e6 -1 1.845953317714925e6 -1 2.0091647240796417e6 -1 2.049561976246754e6 -1 675518.1883035569 1 2.0093887261568909e6 -1 678487.2754648102 1 1.8414692808394716e6 -1 2.0267521923837624e6 -1 2.033526270680142e6 -1 2.0125588201155749e6 1 -2.1946378902479913e6 -1 2.0542811059088563e6 -1 2.0438128658107503e6 -1 -1.6648476037864485e6 -1 679844.4902772302 1 -2.195707859662576e6 -1 2.03843234441101e6 1 -1.8308904795689704e6 1 -2.1984346223422256e6 1 -2.1800599540596963e6 1 -2.1755650748096816e6 1 -2.1954942067551855e6 1 -1.8297494520596052e6 -1 2.043577945368469e6 -1 2.0665580945595189e6 1 -2.1778855503678205e6 1 -2.195251984167649e6 1 -2.1962658881836594e6 1 -1.8289183412481612e6 1 -2.1831947277534204e6 -1 2.01160469081043e6 -1 1.8864077132113925e6 1 -2.2057509050060287e6 -1 2.0369718553866528e6 1 -2.1914855012768595e6 1 -1.6522515742688775e6 1 -1.6684357251818827e6 1 -2.182043357967662e6 1 -2.195338941325188e6 -1 1.8950261347596094e6 1 -1.8303066960587795e6 1 -2.1954930433742534e6 -1 2.0243549021242345e6 1 -1.6555432972861936e6 -1 1.8378941784857884e6 -1 1.8447689233830196e6 -1 1.8372903629362597e6 1 -2.179895888881636e6 -1 2.0638314145429994e6 -1 1.887088223846839e6 -1 1.890112541170816e6 -1 2.0456772202881568e6 -1 2.0572239336578376e6 -1 1.8342967199627343e6 1 -1.64920629163634e6 1 -2.20259906567092e6 -1 2.0091004018158137e6 -1 2.0414604978248395e6 -1 1.8925521243362632e6 -1 2.0162819257145429e6 -1 2.048608051935412e6 1 -1.833091126523563e6 1 -2.199703308118121e6 -1 2.022458528275581e6 1 -2.191953313807888e6 1 -2.1819057409196026e6 -1 2.0105534150371174e6 1 -1.832688133012615e6 1 -2.1902446510031517e6 -1 2.0299206019806669e6 -1 2.0604038912655408e6 1 -2.1726268696288336e6 -1 1.8858498983303017e6 1 -2.1964813265442676e6 1 -2.1950385638477653e6 1 -805982.6620978772 -1 -1.662150302251448e6 -1 2.0459504660509392e6 1 -2.1788215886367154e6 1 -2.188942678329955e6 -1 2.043455964174583e6 1 -2.2013018593640625e6 1 -2.1860519967041435e6 -1 -1.6591252118400943e6 -1 679210.8281141878 1 2.052336256077162e6 1 -804625.8717193742 1 -2.1914125303487685e6 1 -2.196978945750737e6 -1 1.8467951552790457e6 -1 1.8432776546082827e6 -1 2.044904355179171e6 -1 2.0439898000454558e6 -1 674578.017414934 1 2.0445344644295294e6
43 1 0.0 -1 -822459.5937222948 -1 -2.2429810227713822e6 1 2.1056757172312634e6 -1 -1.7149820440196197e6 1 1.894163979473564e6 1 2.118484554221056e6 1 2.06918724235627e6 1 694167.2148128604 -1 2.114971282796976e6 1 693399.0284727847 -1 1.900891763102098e6 1 2.1024365610132148e6 1 2.101736092306936e6 1 2.1069295562516726e6 -1 -2.2572286411677147e6 1 2.0664318250157144e6 1 2.08959904642957e6 1 -1.7157128328433332e6 1 687281.6962825465 -1 -2.232137696072996e6 1 2.099167619035146e6 -1 -1.8802367850915648e6 -1 -2.219915364747329e6 -1 -2.280023439992711e6 -1 -2.2904776547480123e6 -1 -2.2356613166669346e6 -1 -1.8865703045848578e6 1 2.093101399488618e6 1 2.0637597196610605e6 -1 -2.289060856804822e6 -1 -2.250368188084714e6 -1 -2.2289584510927503e6 -1 -1.889476467274743e6 -1 -2.2719463931824476e6 1 2.109712700447857e6 1 1.944955394887097e6 -1 -2.212282553405816e6 1 2.101444403512118e6 -1 -2.261550799199241e6 -1 -1.7180658973310785e6 -1 -1.7118264072361093e6 -1 -2.2745322968980186e6 -1 -2.2467178717409247e6 1 1.9386247224299975e6 -1 -1.883390275082703e6 -1 -2.2393974267873317e6 1 2.103776544255016e6 -1 -1.7176203468470655e6 1 1.9010539342497438e6 1 1.8967168586429877e6 1 1.904187392201544e6 -1 -2.283596648315979e6 1 2.06477031314587e6 1 1.9418986320212143e6 1 1.9411856758438624e6 1 2.0765143069016603e6 1 2.0656373792633666e6 1 1.9049310227293477e6 -1 -1.71875788819987e6 -1 -2.2128679875720367e6 1 2.122157505458557e6 1 2.0984584989476465e6 1 1.9398879855079805e6 1 2.1069153883493114e6 1 2.0719705915462573e6 -1 -1.874962885043499e6 -1 -2.217446777021895e6 1 2.1056174439076916e6 -1 -2.2582813382289405e6 -1 -2.278131953351288e6 1 2.1123986981758736e6 -1 -1.8782971650338802e6 -1 -2.2677844959281916e6 1 2.1018676971087903e6 1 2.0650800633697407e6 -1 -2.2912767230684934e6 1 1.9481348535073353e6 -1 -2.2254366159520294e6 -1 -2.2538920412661596e6 -1 -825559.4267549744 1 -1.7167528048096616e6 1 2.0730502791631136e6 -1 -2.286259621572388e6 -1 -2.270219796756324e6 1 2.0967166917960611e6 -1 -2.2153080547665083e6 -1 -2.2710663886318416e6 1 -1.717464987899637e6 1 690385.3076208332 -1 2.0682242486853492e6 -1 -827939.9098778005 -1 -2.2652151017724792e6 -1 -2.2221969616571697e6 1 1.8912685435363557e6 1 1.89896286336958e6 1 2.0794787152940037e6 1 2.0860387071629465e6 1 696964.3174255666 -1 2.082846098045691e6
44 1 0.0 1 -844845.8937329274 1 -2.316783594195093e6 -1 2.1327755303434376e6 1 -1.7792842455804916e6 -1 1.9625731302401775e6 -1 2.123160726325256e6 -1 2.163557978492368e6 -1 706269.4324672995 1 2.123384728402505e6 -1 709238.5196285528 1 1.9580890933647242e6 -1 2.1407481946293763e6 -1 2.147522272925756e6 -1 2.126554822361189e6 1 -2.316082118586109e6 -1 2.1682771081544706e6 -1 2.1578088680563644e6 -1 -1.776277760902876e6 -1 710595.7344409728 1 -2.3171520880006943e6 -1 2.152428346656624e6 1 -1.932022950263282e6 1 -2.319878850680344e6 1 -2.3015041823978145e6 1 -2.2970093031478e6 1 -2.3169384350933037e6 1 -1.9308819227539168e6 -1 2.157573947614083e6 -1 2.180554096805133e6 1 -2.2993297787059387e6 1 -2.3166962125057667e6 1 -2.3177101165217776e6 1 -1.9300508119424728e6 1 -2.3046389560915385e6 -1 2.125600693056044e6 -1 1.9935886699110204e6 1 -2.327195133344147e6 -1 2.150967857632267e6 1 -2.3129297296149777e6 1 -1.763681731385305e6 1 -1.7798658822983103e6 1 -2.3034875863057803e6 1 -2.3167831696633063e6 -1 2.0022070914592375e6 1 -1.9314391667530912e6 1 -2.3169372717123716e6 -1 2.1383509043698483e6 1 -1.7669734544026211e6 -1 1.954513991011041e6 -1 1.961388735908272e6 -1 1.953910175461512e6 1 -2.3013401172197536e6 -1 2.1778274167886134e6 -1 1.994269180546467e6 -1 1.997293497870444e6 -1 2.159673222533771e6 -1 2.171219935903452e6 -1 1.9509165324879868e6 1 -1.7606364487527674e6 1 -2.3240432940090382e6 -1 2.123096404061428e6 -1 2.1554565000704536e6 -1 1.9997330810358913e6 -1 2.130277927960157e6 -1 2.1626040541810263e6 1 -1.9342235972178746e6 1 -2.3211475364562385e6 -1 2.136454530521195e6 1 -2.3133975421460057e6 1 -2.3033499692577207e6 -1 2.1245494172827317e6 1 -1.9338206037069266e6 1 -2.31168887934127e6 -1 2.143916604226281e6 -1 2.174399893511155e6 1 -2.294071097966952e6 -1 1.9930308550299297e6 1 -2.317925554882386e6 1 -2.316482792185883e6 1 -844208.453264278 -1 -1.7735804593678752e6 -1 2.1599464682965535e6 1 -2.3002658169748336e6 1 -2.310386906668073e6 -1 2.1574519664201974e6 1 -2.3227460877021807e6 1 -2.3074962250422616e6 -1 -1.7705553689565219e6 -1 709962.0722779304 1 2.1663322583227763e6 1 -842851.662885775 1 -2.3128567586868866e6 1 -2.3184231740888553e6 -1 1.9634149678042983e6 -1 1.9598974671335353e6 -1 2.1589003574247854e6 -1 2.1579858022910696e6 -1 705329.2615786766 1 2.158530466675143e6
45 1 0.0 -1 -860685.3848886956 -1 -2.3644252511095004e6 1 2.2196717194768772e6 -1 -1.8264122011360473e6 1 2.0107837919988167e6 1 2.2324805564666702e6 1 2.1831832446018844e6 1 724918.458976603 -1 2.2289672850425905e6 1 724150.2726365273 -1 2.0175115756273505e6 1 2.2164325632588286e6 1 2.2157320945525505e6 1 2.220925558497287e6 -1 -2.3786728695058324e6 1 2.1804278272613287e6 1 2.203595048675184e6 1 -1.8271429899597608e6 1 718032.9404462891 -1 -2.3535819244111143e6 1 2.2131636212807605e6 -1 -1.9813692557858764e6 -1 -2.3413595930854473e6 -1 -2.401467668330829e6 -1 -2.4119218830861305e6 -1 -2.357105545005053e6 -1 -1.9877027752791694e6 1 2.207097401734232e6 1 2.1777557219066746e6 -1 -2.4105050851429403e6 -1 -2.371812416422832e6 -1 -2.3504026794308685e6 -1 -1.9906089379690546e6 -1 -2.393390621520566e6 1 2.223708702693471e6 1 2.0521363515867249e6 -1 -2.3337267817439344e6 1 2.215440405757732e6 -1 -2.3829950275373594e6 -1 -1.829496054447506e6 -1 -1.8232565643525368e6 -1 -2.3959765252361367e6 -1 -2.368162100079043e6 1 2.0458056791296257e6 -1 -1.9845227457770146e6 -1 -2.36084165512545e6 1 2.2177725465006297e6 -1 -1.829050503963493e6 1 2.0176737467749964e6 1 2.01333667116824e6 1 2.0208072047267964e6 -1 -2.405040876654097e6 1 2.178766315391484e6 1 2.0490795887208423e6 1 2.0483666325434905e6 1 2.190510309147274e6 1 2.179633381508981e6 1 2.0215508352546003e6 -1 -1.8301880453162973e6 -1 -2.334312215910155e6 1 2.2361535077041714e6 1 2.212454501193261e6 1 2.0470689422076086e6 1 2.2209113905949257e6 1 2.185966593791872e6 -1 -1.9760953557378107e6 -1 -2.338891005360013e6 1 2.2196134461533055e6 -1 -2.379725566567058e6 -1 -2.3995761816894063e6 1 2.226394700421488e6 -1 -1.9794296357281918e6 -1 -2.3892287242663098e6 1 2.215863699354404e6 1 2.179076065615355e6 -1 -2.4127209514066116e6 1 2.0553158102069632e6 -1 -2.3468808442901475e6 -1 -2.3753362696042773e6 -1 -863785.2179213752 1 -1.828182961926089e6 1 2.1870462814087276e6 -1 -2.407703849910506e6 -1 -2.391664025094442e6 1 2.2107126940416754e6 -1 -2.3367522831046265e6 -1 -2.39251061696996e6 1 -1.8288951450160646e6 1 721136.5517845758 -1 2.1822202509309635e6 -1 -866165.7010442013 -1 -2.3866593301105974e6 -1 -2.343641189995288e6 1 2.0078883560616083e6 1 2.0155826758948325e6 1 2.193474717539618e6 1 2.2000347094085603e6 1 727715.5615893092 -1 2.1968421002913048e6
