1 1 0.0 -1 0.9907439307006018 1 0.027480035742751374 -1 0.08327520139326317 1 0.8318472762875326 -1 0.6649582696401903 -1 0.9128123795896437 -1 -0.06799058688558102 1 -0.13466097174022562 -1 -0.8876581170494755 1 -0.2167162886309999 1 -0.5819299205695421 1 -0.40963935306006327 -1 0.3097546650292804 1 0.9991876402551347 1 -0.015213672864058836 -1 0.012519445837873677 -1 -0.2453916560504632 -1 -0.8448903118612474 -1 -0.9224311248269861 1 -0.2246379321558467 1 0.8830138205104776 1 -0.9380526850153685 -1 -0.6244095263524565 1 0.8560931923698154 -1 0.47941089226871814 -1 0.8379263985178456 -1 -0.37814947209904615 1 0.7475554087513585 1 0.20498235161947487 1 -0.5967319206950896 -1 -0.8762656143684511 1 0.6601759669052627 -1 -0.14799363888346617 1 -0.21361864062816904 1 -0.5054747072572097 1 -0.7202038678314842 1 0.7831792092997052 -1 0.8934099516461085 1 0.693124654452532 1 0.2024617333525629 -1 -0.785473980435438 -1 -0.8577065198864628 -1 6.96967034707896e-5 -1 0.7531059417456416 -1 -0.3751373364687176 -1 -0.08066128832192421 -1 -0.6491173683626343 -1 -0.6334806898551959 1 0.9103281420150382 -1 0.9532584010317249 1 0.7217549859486714 -1 -0.4479549769957325 1 -0.17088972727262774 -1 0.4331816565745268 -1 -0.6794592802167949 -1 0.144176771809726 -1 0.6820040376776022 1 0.4717808138393629 1 0.9442726387586657 1 0.5081411228369366 1 -0.9226797635665347 1 0.8953722526135681 -1 -0.8906982897899898 1 0.0701279266759256 -1 0.6464103597821982 1 -0.6406412182873757 1 -0.8716079020744636 -1 0.930804399081739 1 0.619151575043793 -1 -0.23532060970270474 1 0.20399303981116668 -1 -0.13522760581118942 1 -0.7710523135322744 1 -0.9463437558433927 1 -0.0256295887991691 1 -0.5561161310279072 -1 -0.4040525914807678 -1 0.8003327968378777 -1 -0.04350089905038046 -1 -0.8935398481921706 1 0.5582835885930548 1 0.8734578458371483 -1 0.1883474843432067 1 0.9350893420404083 1 0.9105352453408169 -1 -0.40914068205853993 -1 0.24313005953177869 -1 -0.6746074671404911 -1 -0.23809735321292913 -1 0.37072503362890474 -1 -0.5138628413785873 -1 0.9328461879724061 -1 0.06679168241092892 -1 0.030413183488344098 1 -0.4935145418199549 1 0.31374424925774 -1 0.1769880296115227 1 -0.5764730039066663 -1 -0.7696687742737038
2 1 0.0 1 2297.042792840856 -1 4676.199584235632 1 -6188.210330327579 -1 -911.7458454403514 1 -5259.890499465612 1 6961.976510412551 1 2794.3069078713816 -1 -3722.247707223732 1 -3319.906316277607 -1 4890.663037034072 -1 -6505.909419553741 -1 -12091.389152378048 1 -15887.682853522107 -1 -2295.052861269898 -1 -2794.390112131133 1 -4676.159584754054 1 4461.219063421039 1 3351.5924515275856 1 -2881.3578335703346 -1 199.32255611356223 -1 -1710.78568155429 -1 -11197.598101595171 1 4615.808100840477 -1 5759.734400475734 1 -11935.532046842978 1 -5758.040380884847 1 14375.492957385959 -1 5974.333511814923 -1 12150.924089209673 -1 -4617.029242287526 1 3318.142392546189 -1 9711.51963370215 1 8198.589962767282 -1 -4461.678073717715 -1 -10579.363486403165 -1 -18113.864812054966 -1 3534.509486492661 1 1712.5621053264467 -1 11223.67408371878 -1 10724.860571249572 1 -3353.222815819881 1 3318.160951640669 1 -938.8985331741059 1 -8412.692499587234 1 10638.222468192509 1 6531.567738499023 1 8567.764543450354 1 -2768.6874689939505 -1 -7673.183868561867 1 9900.199455104914 -1 5261.2772127211965 1 12090.531558047993 -1 -8198.908846133438 1 -7270.566626955868 1 18112.46514890692 1 -9925.422930086243 1 -11222.298955026652 -1 3035.87523854909 -1 -9898.301924065123 -1 11936.519598858085 -1 -2735.557984388768 -1 -1710.773323122187 1 15517.426205484802 -1 6188.363733455646 1 -9710.213047375464 -1 -15888.633249405428 -1 -3319.89026606263 1 3224.721001102962 -1 9711.47860931029 1 -199.78251465542078 -1 15888.19660122695 1 4461.329227471276 -1 -3319.7897104740878 -1 2295.10570515431 -1 938.8729732820102 -1 -7769.878774291583 1 18112.740555595657 1 -3532.925974486526 1 -938.9421037698597 1 -6618.602443622782 -1 -3034.845174146658 -1 2022.478263800118 1 -17399.925762031875 -1 510.41839396724106 -1 -6960.153162787622 1 12090.570372342929 1 -12150.475976798522 1 327.51973171414556 1 -4891.117850675913 1 12151.089831891682 1 -3465.33261882224 1 -508.55045843722826 1 -6188.226813846561 1 -4676.141691016412 -1 3480.59097243319 -1 15888.306352436393 1 -13662.663620157522 -1 4391.980430770682 1 -7057.061828263911
3 1 0.0 -1 -8272.647261385626 1 15717.891577856046 -1 -25288.83268014152 1 20044.352799961038 -1 -22934.45185193769 -1 5830.691168573101 -1 2531.0201199925914 1 8092.214378900668 -1 24982.092186646383 1 17814.152236396112 1 -15906.83276670951 1 6296.202698764973 -1 -26800.727702006963 1 11272.559285460567 1 16735.647535928416 -1 -33691.18858634896 -1 -1545.7855766640223 -1 13310.578242064534 -1 -13982.789421023823 1 12254.813201514944 1 8119.552963847095 1 -20786.90818771958 -1 -6425.883892779937 1 10624.29324364426 -1 -30323.123897986 -1 -28595.93623202787 -1 18123.92691379213 1 7101.6188536543705 1 12135.763634132589 1 25910.121260636464 -1 -2903.5698966616796 1 12136.218827747873 -1 15529.329365212794 1 22328.19892787719 1 10248.088013862665 1 -26715.69715655258 1 10469.252274371449 -1 -1356.2600360876977 1 11208.513628641696 1 9996.669617501564 -1 -27204.91731874385 -1 -6640.8248388962775 -1 -10769.23717857549 -1 -1044.5344134628258 -1 16456.84036930894 -1 9137.555897988654 -1 2401.7918480755507 -1 -26749.029117053495 1 6977.134481252061 -1 9696.652261059196 1 9412.805557218802 -1 15838.96551445416 1 16151.108506338669 -1 -1972.5924855417206 -1 16981.17980706747 -1 -30752.874430352073 -1 -33347.16430749876 1 12195.77002642788 1 10929.149576200689 1 8184.085642451919 1 14569.327663670778 1 4382.291820950119 -1 15528.586660561888 1 3578.375573966015 -1 -32762.81654764129 1 -26930.325243025844 1 21244.834735532273 -1 736.2822132241718 1 15873.451304685093 -1 -15992.546661385886 1 10993.316847904249 -1 16671.787928162405 1 17507.66178979173 1 1626.654345239373 1 4007.6951146961546 1 12842.86507685144 -1 13244.181712427127 -1 -29395.06482828771 -1 -7032.007247842165 -1 -16732.556289449465 1 -26087.448674412466 1 5091.300405214264 -1 -25873.11096139392 1 7316.514036710466 1 5963.336036574429 -1 12101.730827420013 -1 -30538.067827941544 -1 17546.34487578645 -1 -18930.731936800308 -1 8398.655875485518 -1 -16207.532852740365 -1 -12564.04110383861 -1 -21551.575662331416 -1 -26302.684193940382 1 9702.303261641056 1 7256.153097784607 -1 -28312.98196997146 1 21637.126484997156 -1 9603.70087242722
4 1 0.0 1 -38041.22321885505 -1 39268.81792766998 1 -75885.8250459044 -1 15819.916904160931 1 -70593.2617190297 1 -91099.3838043137 1 -105610.87535688147 -1 37061.69933371191 1 26419.31363906531 -1 25986.569282648106 -1 -67362.65572896364 -1 99489.00417032269 1 -66684.22241333072 -1 52641.85458795923 -1 35406.854587496724 1 -39724.514136588194 1 -93441.1731960155 1 28390.311890124074 1 -38158.615581576705 -1 44637.44000002638 -1 83923.40078096566 -1 -25933.012047368706 1 -89549.31065726696 -1 64717.53055145925 1 -55042.816954870636 1 -60790.176291570664 1 9208.158458715037 -1 95045.0253225539 -1 53505.05893663126 -1 23610.06921172631 1 -89764.27016247777 -1 49768.24062891747 1 18812.859155749742 -1 27502.6938816252 -1 71815.87232433583 -1 -29233.554628110265 -1 68299.76308351551 1 -96988.92115676824 -1 56315.08243246943 -1 50825.05542930383 1 -53522.79238094481 1 -86026.97810205423 1 -81753.10529128155 1 -2820.083070560121 1 18597.924362929352 1 -59191.74491647174 1 -102002.83012746942 1 -59244.03732970636 -1 63055.38245148066 1 -34869.007052072164 -1 55490.58637167924 1 -7711.960835359774 -1 35964.76135482352 1 2579.9600631026224 1 12945.130650235995 1 -47998.02048457856 1 -43117.763359067074 -1 34964.758326268384 -1 43483.89738268661 -1 80250.6599582414 -1 39262.69981040125 -1 105049.64029516601 1 22549.38995242792 -1 111720.27105084008 1 -46270.68910053869 -1 -26080.58491766699 -1 31084.341338403086 1 -103668.3397623208 -1 39424.377654499025 1 -77062.00812231096 -1 59837.15915306108 1 15075.598420453738 -1 33739.00919223724 -1 106031.27632078434 -1 108412.31709024112 -1 41488.21837403379 1 23632.582801209694 1 -57852.03138650142 1 -82680.88700967103 1 -33803.511151756735 -1 -66984.74203751722 -1 102021.37537810106 1 -72732.82982582774 -1 87785.37350295184 -1 102893.41100946123 1 -29267.56447507866 1 -51520.48738349711 1 16689.506776902876 1 -32264.413297778494 1 76727.95668994592 1 -37015.76121637672 1 -79810.63571521557 1 -77397.9630307525 1 -63462.704055716065 -1 54267.9625747724 -1 91462.28606535507 1 -64244.49553084334 -1 24929.824233003535 1 76420.88018555853
5 1 0.0 -1 -63194.47194187472 1 134223.93741730327 -1 -137978.25311607987 1 86461.3174442991 -1 -109008.10879186334 -1 -119556.3503625274 -1 -115381.4744084498 1 55205.305219942624 -1 151487.32878845406 1 50839.049852557684 1 -109514.77630312636 1 115875.31962805794 -1 -140787.5619901516 1 125886.36356828889 1 142501.53272891097 -1 -155736.95323068718 -1 -118160.86625290014 -1 85904.67603685452 -1 -59574.590803267274 1 126868.61748434333 1 115258.81024401722 1 -19736.578073950313 -1 -125480.82421813885 1 118476.5810224853 -1 -150856.76704099507 -1 -143880.18437237875 -1 -4458.822517361516 1 115168.61428161824 1 123012.29441563184 1 152973.4203058253 -1 -121958.51022202056 1 128262.14461190531 -1 -11658.69212123059 1 148833.43552968485 1 118100.37579270371 1 -15562.57365203371 1 118321.54005321249 -1 -117971.3407123238 1 119060.80140748277 1 83303.79791096256 -1 -119696.7359683983 -1 -125695.76516425516 -1 -128896.43935614068 -1 -10309.93089618479 -1 -8136.353412721892 -1 -147531.147999938 -1 -119247.9761816959 -1 -117144.34291184357 1 78273.8184238358 -1 -108448.59009088129 1 77470.53884802162 -1 -133457.51761579578 1 139322.1659949087 -1 -7349.747411644852 -1 -4459.123827169638 -1 -152798.6390746903 -1 -155392.92895183698 1 85717.60596901161 1 82724.1563683326 1 115323.34292262205 1 137955.0928013636 1 110224.13524891401 -1 -11659.434825881486 1 105682.94550060084 -1 -154808.58119197952 1 -16146.877442919524 1 147165.6879838046 -1 -117176.2123152182 1 130642.22364280323 -1 -135417.16269115734 1 118845.60462674532 -1 -6065.929558280983 1 146083.08233630966 1 107468.49777320326 1 106112.26504133096 1 128968.79086100889 -1 -13016.10162622252 -1 -149928.7079712968 -1 -126086.94757320106 -1 -65133.89302522829 1 -112874.13611300902 1 114670.41733450723 -1 -138562.5313973323 1 115383.50946467432 1 111805.17946453832 -1 -155168.0893108044 -1 -152583.83247227973 -1 83593.63381571195 -1 -67332.06867257912 -1 115537.91315565564 -1 -65906.28344072547 -1 -130691.24328140377 -1 -132015.84409826976 -1 -116113.6146351951 1 79985.18855244387 1 115323.14852574847 -1 -142085.1086089933 1 53519.5783042422 -1 118968.11015259734
6 1 0.0 1 -95452.59196313997 -1 161822.07337902577 1 -192596.13418359717 -1 128897.94044057776 1 -184254.7813872913 1 -213059.08794466458 1 -230594.8224998906 -1 75581.16087969804 1 152924.55024087298 -1 78689.45251497124 -1 -181024.17539722522 -1 192058.01110705856 1 -187930.8960550107 -1 172170.86703665677 -1 158887.8481866462 1 -161770.27878092643 1 -219138.15083769555 1 132078.57253446226 1 -95569.98432586162 -1 169415.84745138214 -1 210127.86922966325 -1 -6065.597097873759 1 -209996.89329628885 -1 183447.45199749866 1 -179313.7335992088 1 -183548.9714345797 1 -40549.444501412545 -1 213774.94676859336 -1 173034.07138532883 -1 150673.36825691516 1 -210211.8528014996 -1 167072.10107761505 1 -25325.67309730715 -1 154007.93048343287 -1 190545.79377037522 -1 -9366.139678615316 -1 187029.6845295549 1 -222685.89879844827 -1 172819.85187850884 -1 140689.51491255747 1 -167184.3120492064 1 -206474.56074107607 1 -202200.6879303034 1 -27714.185373590422 1 -29277.881391456616 1 -183462.66156080988 1 -216487.98726516223 1 -175929.80000062613 -1 146871.35592941788 1 -187432.53618763832 -1 149805.3498549328 1 -195549.94568597124 -1 159445.754953973 1 -32228.54889170864 1 -36812.472309891586 1 -173781.05863024585 1 -165163.52800340528 -1 135628.77596794837 -1 143847.14687125655 -1 202717.85490560991 -1 161815.955261757 -1 220042.2882398764 1 -21589.142300628962 -1 226712.91899555046 1 -172053.72724620602 -1 -6213.169968172051 -1 156077.45643888167 1 -225628.04390267178 -1 161977.6331058548 1 -193772.3172600037 -1 180079.20210042957 1 -34682.00453967386 -1 158732.12429271583 -1 221023.9242654947 -1 223404.9650349515 -1 164041.47382538955 1 -19208.535599640916 1 -182122.9480308396 1 -203128.46964869287 1 -93654.73954516446 -1 -180646.26170577883 -1 217014.0233228114 1 -189443.13896352047 -1 199040.7479463331 -1 217886.0589541716 1 -168675.9618637018 1 -177303.52552916438 1 137242.07731597777 1 -88378.36818985712 1 195457.87813598535 1 -90689.85645933257 1 -200258.2183542374 1 -197845.54566977432 1 -178636.34522530675 -1 144845.4525566969 -1 206454.93401006545 1 -185491.1691725233 -1 77632.70746532669 1 176464.4341249525
7 1 0.0 -1 -121163.90312954082 1 249216.5853620136 -1 -258425.83575510173 1 199720.62994615984 -1 -230943.26646544124 -1 -241516.0545028783 -1 -240365.42155145892 1 102503.82539431789 -1 266479.9767331644 1 98137.57002693294 1 -235986.29848069148 1 230867.96757276828 -1 -261235.1446291734 1 240879.0115129992 1 257494.1806736213 -1 -286769.38637901266 -1 -240120.5703932511 -1 199163.98853871526 -1 -117544.02199093335 1 241861.26542905363 1 230251.45818872759 1 35059.712239712615 -1 -245928.40685716073 1 233469.22896719564 -1 -277352.83568533324 -1 -267352.01001405873 -1 -59251.11283102445 1 230161.2622263286 1 234267.66885901307 1 267966.0682505357 -1 -242406.0928610424 1 243254.79255661566 -1 -66450.98243489352 1 263826.0834743952 1 233093.02373741404 1 39233.716661629296 1 233314.18799792283 -1 -239931.04485267476 1 237790.72285352217 1 196563.11041282327 -1 -244656.13664463436 -1 -246143.34780327702 -1 -249344.0219951625 -1 -65102.22120984772 -1 -62928.643726384835 -1 -271002.973641618 -1 -241207.68032204686 -1 -245127.98659073777 1 191533.13092569652 -1 -228871.62626313014 1 190729.85134988237 -1 -253905.1002548176 1 254314.81393961902 -1 -62142.03772530778 -1 -59251.414140832574 -1 -282318.9507216867 -1 -286425.3621001624 1 198976.91847087233 1 195983.46887019332 1 230315.9908673324 1 252947.74074607395 1 225216.7831936244 -1 -66451.72513954449 1 220675.5934453112 -1 -284328.89283897594 1 38649.412870743465 1 262158.33592851495 -1 -239135.91645556918 1 245634.87158751357 -1 -255864.74533017917 1 233838.25257145564 -1 -60858.21987194392 1 261075.73028102002 1 222461.1457179136 1 221104.91298604137 1 243961.43880571926 -1 -67808.39193988555 -1 -273400.5336129768 -1 -246534.5302122229 -1 -123103.32421289438 1 -239345.65829057415 1 229663.06527921758 -1 -259010.1140363541 1 230376.15740938467 1 226797.82740924868 -1 -284688.4009578008 -1 -280592.0226179471 -1 196852.94631757267 -1 -125301.49986024521 -1 230530.561100366 -1 -123875.71462839158 -1 -251138.82592042562 -1 -252463.42673729162 -1 -242585.13681276026 1 193244.5010543046 1 230315.79647045885 -1 -264044.81274934416 1 100818.09847861747 -1 233960.75809730767
8 1 0.0 1 -153422.02315080608 -1 276814.72132373607 1 -313043.716822619 -1 242157.2529424385 1 -306189.93906086916 1 -338043.0350876737 1 -344366.9491389125 -1 122879.68105407331 1 267917.19818558334 -1 125987.9726893465 -1 -307495.69757479033 -1 307050.6590517689 1 -308378.4786940325 -1 287163.5149813671 -1 273880.4961313566 1 -292802.7119292519 1 -347859.37148203375 1 245337.885036323 1 -153539.4155135277 -1 284408.4953960924 -1 325120.5171743736 -1 83659.56857995722 1 -330444.4759353107 -1 298440.09994220897 1 -305809.80224354693 1 -307020.7970762597 1 -106553.55531906278 -1 328767.5947133037 -1 288026.71933003917 -1 265666.0162016255 1 -335195.7999445087 -1 282064.7490223254 1 -91329.78391495731 -1 269000.5784281432 -1 305538.44171508553 -1 80359.02599921566 -1 302022.33247426525 1 -351407.1194427865 -1 287812.49982321914 -1 253948.82741441816 1 -294368.8647254425 1 -326922.1433800979 1 -322648.2705693252 1 -93718.29619124059 1 -95281.99220910679 1 -306934.48720248987 1 -341471.93440817134 1 -291103.44117021677 -1 260130.6684312786 1 -307855.5723598872 -1 263064.6623567936 1 -315997.5283249931 -1 274438.40289868333 1 -98232.65970935882 1 -102816.58312754182 1 -303301.37027724227 1 -296195.96115173073 -1 248888.0884698091 -1 257106.45937311728 -1 317710.5028503203 -1 276808.60320646735 -1 335034.9361845868 1 -87593.25311827922 -1 341705.5669402608 1 -301574.03889320244 -1 83511.99570965898 -1 271070.104383592 1 -355861.38604833913 -1 276970.2810505651 1 -314219.89989902556 -1 295071.8500451399 1 -100686.11535732403 -1 273724.7722374262 -1 336016.572210205 -1 338397.6129796619 -1 279034.1217700999 1 -85212.64641729118 1 -305594.7736725196 1 -323576.0522877147 1 -151624.17073283056 -1 -305605.66238201485 -1 332006.6712675218 1 -309890.72160254227 -1 314033.3958910435 -1 332878.70689888194 1 -298196.2735106982 1 -305311.7156748317 1 250501.3898178385 1 -146347.79937752322 1 310450.5260806957 1 -148659.28764699868 1 -320705.80099325924 1 -318293.1283087962 1 -296035.13839489745 -1 258104.76505855762 -1 321447.58195477584 1 -307450.8733128742 -1 124931.22763970196 1 291457.08206966287
9 1 0.0 -1 -179133.33431720693 1 364209.23330672394 -1 -378873.41839412355 1 312979.94244802056 -1 -359639.94064300635 -1 -366500.0016458874 -1 -365349.36869446805 1 149802.34556869316 -1 381472.6246778748 1 145436.0902013082 1 -352672.0611516112 1 345860.6155174786 -1 -381682.72726819525 1 355871.6594577095 1 372486.8286183317 -1 -416289.6980260091 -1 -365104.51753626025 -1 312423.30104057596 -1 -175513.45317859945 1 356853.9133737639 1 345244.10613343795 1 123487.46406533732 -1 -366375.9894961826 1 348461.87691190594 -1 -398599.50932701316 -1 -390823.8356557387 -1 -125255.2236486747 1 345153.910171039 1 349260.3168037234 1 382958.7161952461 -1 -367390.04000405147 1 358247.440501326 -1 -132455.09325254368 1 378818.7314191056 1 348085.6716821243 1 127661.468487254 1 348306.83594263316 -1 -364914.99199568393 1 352783.37079823244 1 309822.422914684 -1 -369615.53732087044 -1 -366590.9304422989 -1 -369791.60463418433 -1 -131106.33202749788 -1 -128932.75454403501 -1 -394474.79928329797 -1 -366191.62746505596 -1 -371599.50876830285 1 304792.44342755724 -1 -349294.662435379 1 303989.16385174316 -1 -374352.6828938395 1 369307.4618843293 -1 -128146.14854295796 -1 -125255.5249584828 -1 -408815.01936602494 -1 -412921.43074450066 1 312236.23097273306 1 309242.781372054 1 345308.6388120428 1 367940.38869078434 1 340209.4311383348 -1 -132455.83595719474 1 335668.2413900216 -1 -410824.96148331417 1 127077.16469636821 1 377150.98387322534 -1 -365631.98509990744 1 360627.51953222393 -1 -376312.327969201 1 348830.900516166 -1 -126862.33068959409 1 376068.3782257304 1 337453.79366262397 1 336097.56093075173 1 358954.0867504296 -1 -133812.5027575358 -1 -403633.8757586441 -1 -366982.1128512447 -1 -181072.7554005605 1 -364305.0589668102 1 344655.71322392795 -1 -379457.6966753759 1 345368.80535409506 1 341790.475353959 -1 -411184.4696021391 -1 -407088.09126228525 -1 310112.2588194334 -1 -183270.9310479113 -1 345523.20904507634 -1 -181845.1458160577 -1 -371586.40855944745 -1 -372911.0093763135 -1 -367544.53748899634 1 306503.8135561653 1 345308.44441516924 -1 -387516.6383910241 1 148116.61865299274 -1 348953.40604201803
10 1 0.0 1 -211391.4543384722 -1 391807.3692684464 1 -433491.2994616408 -1 355416.56544429925 1 -431149.3397371052 1 -459289.70872935373 1 -473088.1697832507 -1 170178.20122844857 1 382909.84613029374 -1 173286.49286372174 -1 -427918.73374703916 -1 422043.3069964792 1 -428826.0613330544 -1 402156.16292607744 -1 388873.14407606696 1 -422323.0235762483 1 -476580.592126372 1 358597.19753818365 1 -211508.8467011938 -1 399401.1433408027 -1 440113.16511908395 -1 172087.32040558194 1 -462902.970080978 -1 413432.7478869193 1 -430793.749386556 1 -430492.62271793967 1 -172557.66613671303 -1 443760.2426580141 -1 403019.3672747495 -1 380658.6641463359 1 -448967.9265835305 -1 397057.3969670357 1 -157333.89473260747 -1 383993.2263728536 -1 420531.08965979586 -1 168786.77782484036 -1 417014.9804189756 1 -480128.3400871248 -1 402805.1477679294 -1 367208.1399162789 1 -414791.9008976913 1 -455643.3640244361 1 -444607.9747096761 1 -159722.40700889076 1 -161286.10302675696 1 -430406.31284416985 1 -466455.88155118044 1 -410014.35584113654 -1 373389.98093313933 1 -428278.608532136 -1 376323.9748586544 1 -436445.11096401495 -1 389431.05084339366 1 -164236.77052700898 1 -168820.69394519203 1 -429797.4389215805 1 -422692.02979606896 -1 362147.4009716698 -1 370365.771874978 -1 432703.15079503064 -1 391801.25115117774 -1 450027.5841292972 1 -153597.36393592946 -1 456698.2148849712 1 -428070.10753754067 -1 171939.74753528374 -1 386062.7523283024 1 -469633.512687361 -1 391962.9289952755 1 -434667.4825380474 -1 410064.49798985024 1 -166690.2261749742 -1 388717.4201821365 -1 451009.2201549154 -1 453390.26092437224 -1 394026.76971481025 1 -151216.75723494144 1 -432090.8423168578 1 -452297.27293205285 1 -209593.60192049667 -1 -432077.18455957994 -1 446999.31921223213 1 -430338.3042415641 -1 429026.04383575387 -1 447871.3548435923 1 -424692.3421550365 1 -431807.7843191699 1 363760.7023196992 1 -204317.2305651893 1 425443.174025406 1 -206628.7188346648 1 -442665.50513361016 1 -438740.710947818 1 -416458.1745671463 -1 371364.07756041834 -1 436440.2298994862 1 -430922.6989545541 -1 172229.74781407721 1 406449.7300143732
11 1 0.0 -1 -237102.76550487304 1 479201.8812514343 -1 -499321.00103314535 1 426239.25494988135 -1 -476325.70331392606 -1 -491483.9487888965 -1 -490333.3158374772 1 194076.62274041027 -1 496465.2726225852 1 192734.61037568343 1 -492666.6163371508 1 460853.26346218894 -1 -531315.4674191789 1 470864.30740241986 1 487479.4765630421 -1 -542785.7666703473 -1 -490088.4646792694 -1 425682.6135424366 -1 -233482.88436626556 1 471846.5613184742 1 460236.7540781483 1 213427.3373922911 -1 -491359.9366391917 1 463454.5248566163 -1 -514596.787966035 -1 -518032.93479874777 -1 -191259.33446632494 1 460146.5581157494 1 464252.96474843373 1 497951.3641399564 -1 -492373.9871470605 1 473240.08844603633 -1 -198459.20407019384 1 493811.379363816 1 463078.31962683465 1 216089.2203128787 1 463299.4838873435 -1 -489898.9391386931 1 467776.0187429427 1 423081.7354165447 -1 -491550.6949944484 -1 -491574.877585308 -1 -491751.30877453525 -1 -197110.44284514806 -1 -194936.86536168517 -1 -521683.898426307 -1 -491175.5746080651 -1 -490510.4234392226 1 418051.75592941797 -1 -487777.0961195895 1 417248.47635360394 -1 -494800.26553286135 1 484300.10982903966 -1 -194150.25936060812 -1 -191259.63577613301 -1 -528549.5715063759 -1 -539417.4993888389 1 425495.5434745938 1 422502.09387391474 1 460301.2867567531 1 482933.0366354947 1 455202.0790830452 -1 -198459.94677484498 1 450660.88933473197 -1 -535808.9086263233 1 217017.03802332206 1 492143.63181793573 -1 -490615.93224291655 1 475620.16747693426 -1 -496759.9106082229 1 463823.54846087634 -1 -192866.44150724428 1 491061.0261704407 1 452446.44160733436 1 451090.20887546206 1 473946.7346951399 -1 -199816.61357518606 -1 -501657.81738969136 -1 -491966.0599942538 -1 -239042.1865882266 1 -472004.1531337426 1 459648.3611686383 -1 -525353.1633250304 1 460361.4532988054 1 456783.12329866935 -1 -537680.5382464774 -1 -506624.15439466166 -1 423371.5713212941 -1 -241240.36223557737 -1 460515.85698978667 -1 -239814.5770037238 -1 -493546.11269979837 -1 -493358.5920153353 -1 -489479.69516257424 1 419763.12605802604 1 460301.0923598796 -1 -510988.46403270407 1 195415.13882736798 -1 463946.05398672837
12 1 0.0 1 -269360.8855261383 -1 506800.01721315674 1 -553938.8821006627 -1 468675.87794616004 1 -551572.375909354 1 -582761.5343710338 1 -598072.1169262598 -1 213653.38739750755 1 497902.4940750041 -1 216048.64853410976 -1 -532593.5849113135 -1 537035.9549411896 1 -552297.8869747345 -1 517148.81087078777 -1 503865.79202077736 1 -548819.0922205865 1 -601564.5392693812 1 471856.5100400443 1 -269478.2778888599 -1 514393.79128551297 -1 555105.8130637943 -1 266563.55823652295 1 -586374.795722658 -1 528425.3958316296 1 -554265.575028236 1 -553964.4483596196 1 -238561.77695436327 -1 558752.8906027245 -1 518012.01521945983 -1 495651.31209104625 1 -567190.3572225523 -1 512050.04491174605 1 -223338.00555025763 -1 498985.874317564 -1 535523.7376045062 -1 265488.1676557815 -1 532007.6283636859 1 -605112.2872301339 -1 517797.7957126397 -1 480467.4524181396 1 -541263.4230752565 1 -577603.068164787 1 -574042.2258526853 1 -225726.51782654092 1 -227290.21384440712 1 -553878.1384858498 1 -589927.7071928605 1 -550008.9110266761 -1 486649.29343500006 1 -559286.4952136884 -1 489583.28736051515 1 -556892.6936030368 -1 504423.698788104 1 -230240.88134465914 1 -234824.80476284225 1 -553269.2645632606 1 -549188.0984404072 -1 475406.71347353054 -1 483625.0843768387 -1 547695.798739741 -1 506793.8990958881 -1 565020.2320740075 1 -219601.4747535797 -1 571690.8628296816 1 -553054.0546805498 -1 262678.7118648957 -1 501055.4002730128 1 -593105.338329041 -1 506955.57693998585 1 -555115.0651770693 -1 525057.1459345606 1 -232694.3369926244 -1 503710.06812684686 -1 566001.8680996258 -1 568382.9088690826 -1 509019.4176595206 1 -217220.8680525917 1 -552538.4249558796 1 -570519.7035710746 1 -267563.0331081628 -1 -550988.0992304997 -1 561991.9671569425 1 -553810.129883244 -1 544018.6917804641 -1 562864.0027883026 1 -551188.4107993748 1 -553767.4884595207 1 477020.01482155995 1 -262286.66175285535 1 540435.8219701163 1 -264598.15002233087 1 -559375.8142713029 1 -562925.5670881689 1 -557251.820755344 -1 484623.39006227907 -1 551432.8778441965 1 -554394.5245962341 -1 211254.62998313617 1 521442.37795908353
13 1 0.0 -1 -295072.19669253915 1 594194.5291961445 -1 -634004.6471788127 1 539498.5674517421 -1 -612582.9849981365 -1 -614955.7744305766 -1 -615317.2629804863 1 232302.4139068111 -1 611457.9205672955 1 230960.40154208423 1 -613089.6525093996 1 575845.9114068993 -1 -658524.5665621881 1 585856.9553471302 1 602472.1245077525 -1 -670793.9568160146 -1 -615072.4118222786 -1 538941.9260442973 -1 -291452.31555393164 1 586839.2092631845 1 575229.4020228586 1 310927.8182258903 -1 -614831.7622808717 1 578447.1728013266 -1 -626856.7931037279 -1 -630292.9399364404 -1 -257263.4452839752 1 575139.2060604597 1 579245.6126931441 1 612944.0120846668 -1 -614333.6912874114 1 588232.7363907467 -1 -264463.314887844 1 608804.0273085263 1 578070.967571545 1 313589.701146478 1 578292.1318320538 -1 -614882.8862817022 1 582768.666687653 1 536341.0479184054 -1 -618022.2171720136 -1 -613534.5817256588 -1 -613711.0129148862 -1 -263114.5536627982 -1 -260940.97617933532 -1 -637681.1770653288 -1 -614647.4002497452 -1 -620006.1886194459 1 531311.0684312787 -1 -593164.9777825348 1 530507.7888554648 -1 -618272.0911745414 1 599292.75777375 -1 -260154.37017825828 -1 -257263.74659378323 -1 -648284.1236467268 -1 -667425.6895345062 1 538754.8559764544 1 535761.4063757755 1 575293.9347014634 1 597925.684580205 1 570194.7270277555 -1 -264464.0575924952 1 565653.5372794424 -1 -651806.1872653451 1 314517.5188569213 1 607136.2797626461 -1 -614087.7578845966 1 590612.8154216446 -1 -620231.7362499029 1 578816.1964055867 -1 -258870.55232489447 1 606053.674115151 1 567439.0895520448 1 566082.8568201724 1 588939.3826398503 -1 -265820.72439283633 -1 -655027.831042004 -1 -613925.7641346047 -1 -297011.6177758927 1 -617248.1033219404 1 574641.0091133487 -1 -641350.4419640522 1 575354.1012435157 1 571775.7712433797 -1 -662664.4853894865 -1 -645045.074041658 -1 536630.8838231548 -1 -299209.79342324345 -1 575508.504934497 -1 -297784.00819138985 -1 -613993.6953388202 -1 -613806.1746543571 -1 -594867.5768255194 1 533022.4385598868 1 575293.74030459 -1 -623248.4691703968 1 233640.92999376878 -1 578938.7019314386
14 1 0.0 1 -327330.3167138044 -1 621792.665157867 1 -677410.7077423427 -1 581935.1904480208 1 -684092.3840922354 1 -692796.3875087266 1 -685683.3290559781 -1 251879.17856390838 1 612895.1420197145 -1 254274.43970051056 -1 -680861.7781021694 -1 652028.6028859 1 -675769.7126164145 -1 632141.458815498 -1 618858.4399654877 1 -676827.2823662538 1 -689175.7513990995 1 585115.822541905 1 -327447.709076526 -1 629386.4392302233 -1 670098.4610085046 -1 364064.0390701222 1 -700146.9223616798 -1 643418.04377634 1 -677737.4006699161 1 -677436.2740012995 1 -304565.88777201355 -1 673745.5385474348 -1 633004.6631641702 -1 610643.9600357566 1 -707123.3983708776 -1 627042.6928564564 1 -289342.1163679078 -1 613978.5222622743 -1 650516.3855492165 -1 362988.6484893808 -1 647000.2763083962 1 -696460.7728611813 -1 632790.44365735 -1 593726.7649200003 1 -658662.2162448473 1 -728747.9298170997 1 -725187.087504998 1 -291730.6286441911 1 -293294.3246620573 1 -677349.9641275298 1 -703699.8338318825 1 -655396.7926896213 -1 599908.6059368608 1 -672148.9238792919 -1 602842.599862376 1 -681876.640746046 -1 619416.3467328143 1 -296244.9921623093 1 -300828.91558049247 1 -676741.0902049405 1 -677196.2885860745 -1 588666.0259753913 -1 596884.3968786994 -1 662688.4466844513 -1 621786.5470405985 -1 680012.8800187178 1 -285605.5855712299 -1 686683.510774392 1 -676525.8803222298 -1 360179.19269849494 -1 616048.0482177231 1 -710614.738469392 -1 621948.2248846962 1 -678586.8908187492 -1 640049.7938792709 1 -298698.44781027455 -1 618702.7160715573 -1 680994.5160443361 -1 683375.5568137929 -1 624012.0656042309 1 -283224.97887024196 1 -676010.2505975596 1 -717927.2917220583 1 -325532.4642958289 -1 -661625.3758961031 -1 676984.6151016529 1 -677281.955524924 -1 659011.3397251745 -1 677856.6507330129 1 -676172.357942384 1 -677239.3141012008 1 590279.3273234207 1 -320256.0929405214 1 655428.4699148267 1 -322567.58120999695 1 -714257.9494249447 1 -721544.9757431399 1 -670114.2494209474 -1 597882.7025641399 -1 666425.525788907 1 -677866.3502379141 -1 249480.42114953697 1 636435.0259037939
15 1 0.0 -1 -353041.6278802052 1 709187.1771408549 -1 -757476.4728204927 1 652757.8799536029 -1 -717970.8666610818 -1 -739939.7215735856 -1 -740301.2101234954 1 270528.2050732119 -1 726450.568512006 1 269186.192708485 1 -719989.655673674 1 690838.5593516097 -1 -793208.2127078554 1 700849.6032918404 1 717464.7724524628 -1 -775579.4149510491 -1 -740056.3589652877 -1 652201.238546158 -1 -349421.7467415977 1 701831.8572078948 1 690222.049967569 1 408428.2990594895 -1 -739815.7094238808 1 693439.820746037 -1 -750328.6187454079 -1 -753764.7655781204 -1 -323267.55610162544 1 690131.85400517 1 694238.2606378545 1 727936.6600293771 -1 -739317.6384304204 1 703225.384335457 -1 -330467.4257054941 1 723796.6752532367 1 693063.6155162554 1 411090.1819800773 1 693284.7797767641 -1 -739866.8334247114 1 697761.3146323634 1 649600.3604202662 -1 -735421.0103416044 -1 -738518.528868668 -1 -738694.9600578954 -1 -329118.66448044835 -1 -326945.0869969855 -1 -761153.0027070087 -1 -739631.3473927543 -1 -735892.8602877074 1 644570.3809331395 -1 -737695.8974720617 1 643767.1013573256 -1 -741743.9168162214 1 714285.4057184603 -1 -326158.48099590844 -1 -323267.8574114335 -1 -779230.496291065 -1 -772211.1476695407 1 652014.1684783152 1 649020.7188776361 1 690286.5826461738 1 712918.3325249155 1 685187.3749724658 -1 -330468.16841014544 1 680646.1852241529 -1 -782752.5599096834 1 412017.9996905205 1 722128.9277073564 -1 -739071.7050276056 1 705605.4633663549 -1 -743703.5618915828 1 693808.844350297 -1 -324874.6631425446 1 721046.3220598614 1 682431.7374967551 1 681075.5047648827 1 703932.0305845606 -1 -331824.8352104866 -1 -789711.4771876713 -1 -738909.7112776139 -1 -354981.0489635588 1 -734646.896491531 1 689633.6570580591 -1 -764822.2676057321 1 690346.7491882261 1 686768.41918809 -1 -786136.3110311666 -1 -768516.899683338 -1 649890.1963250155 -1 -357179.2246109095 -1 690501.1528792073 -1 -355753.439379056 -1 -738977.6424818294 -1 -738790.1217973663 -1 -739398.4965150463 1 646281.7510617475 1 690286.3882493004 -1 -746720.2948120768 1 271866.7211601696 -1 693931.349876149
16 1 0.0 1 -385299.7479014705 -1 736785.3131025773 1 -800882.5333840228 -1 695194.5029498816 1 -796954.8127578389 1 -813243.9701477484 1 -806130.911695 -1 290104.9697303092 1 727887.7899644249 -1 292500.23086691136 -1 -795236.3282691019 -1 767021.2508306103 1 -799241.5382580946 -1 747134.1067602083 -1 733851.087910198 1 -800299.1080079338 1 -809623.3340381213 1 698375.1350437657 1 -385417.1402641921 -1 744379.0871749336 -1 785091.108953215 -1 461564.5199037214 1 -820594.5050007016 -1 758410.6917210503 1 -801209.2263115961 1 -800908.0996429794 1 -370569.99858966377 -1 788738.1864921452 -1 747997.3111088806 -1 725636.6079804669 1 -829083.1025112285 -1 742035.3408011667 1 -355346.2271855579 -1 728971.1702069846 -1 765509.0334939269 -1 460489.12932298006 -1 761992.9242531066 1 -816908.3555002032 -1 747783.0916020604 -1 706986.0774218611 1 -803193.1359343742 1 -850707.6339574507 1 -847146.791645349 1 -357734.73946184124 1 -359298.43547970743 1 -800821.7897692097 1 -824147.4164709043 1 -799927.7123791481 -1 713167.9184387216 1 -797993.4760621734 -1 716101.9123642368 1 -803836.3448863969 -1 734408.9946775247 1 -362249.10297995945 1 -366833.02639814274 1 -800212.9158466206 1 -800668.1142277544 -1 701925.338477252 -1 710143.7093805601 -1 777681.0946291616 -1 736779.1949853089 -1 795005.5279634282 1 -351609.69638888014 -1 801676.1587191025 1 -799997.7059639099 -1 457679.67353209417 -1 731040.6961624335 1 -832574.4426097429 -1 736940.8728294065 1 -802058.7164604291 -1 755042.4418239812 1 -364702.55862792477 -1 733695.3640162676 -1 795987.1639890466 -1 798368.2047585032 -1 739004.7135489412 1 -349229.08968789224 1 -799482.0762392397 1 -839886.9958624094 1 -383501.89548349497 -1 -806156.2955856299 -1 791977.2630463634 1 -800753.7811666039 -1 774003.9876698848 -1 792849.2986777233 1 -799644.183584064 1 -800711.1397428808 1 703538.6398252813 1 -378225.5241281875 1 770421.117859537 1 -380537.0123976631 1 -836217.6535652957 1 -843504.6798834908 1 -785373.9510945254 -1 711142.0150660006 -1 781418.1737336174 1 -801338.1758795942 -1 287706.2123159378 1 751427.6738485042
17 1 0.0 -1 -411011.05906787136 1 824179.8250855652 -1 -880948.2984621727 1 766017.1924554637 -1 -869976.3333532668 -1 -860387.3042126074 -1 -862260.9142638464 1 308753.99623961275 -1 841443.2164567164 1 307411.98387488583 1 -871995.1223658589 1 805831.20729632 -1 -918192.1598508644 1 815842.2512365506 1 832457.4203971731 -1 -899051.2405927292 -1 -860503.9416043095 -1 765460.5510480186 -1 -407391.1779292638 1 816824.5051526051 1 805214.6979122793 1 505928.77989308874 -1 -860263.2920629026 1 808432.4686907473 -1 -873800.444387088 -1 -877236.5912198003 -1 -389271.66691927565 1 805124.5019498804 1 809230.9085825648 1 842929.3079740874 -1 -861277.3425707713 1 818218.0322801673 -1 -396471.5365231442 1 838789.323197947 1 808056.2634609657 1 508590.6628136766 1 808277.4277214744 -1 -860314.4160637333 1 812753.9625770737 1 762859.672922127 -1 -842321.0135058787 -1 -860478.233009019 -1 -860654.6641982464 -1 -395122.7752980985 -1 -392949.19781463564 -1 -884624.8283486887 -1 -860078.9300317761 -1 -860938.3214679307 1 757829.6934350003 -1 -867277.7231562722 1 757026.4138591863 -1 -863703.6209565724 1 829278.0536631707 -1 -392162.5918135586 -1 -389271.96822908375 -1 -902702.321932745 -1 -895682.9733112206 1 765273.480980176 1 762280.0313794968 1 805279.2305908841 1 827910.9804696259 1 800180.0229171761 -1 -396472.27922779566 1 795638.8331688633 -1 -906224.3855513635 1 509518.48052411975 1 837121.5756520667 -1 -861031.4091679566 1 820598.1113110653 -1 -867175.3875332627 1 808801.4922950073 -1 -390878.77396019484 1 836038.9700045718 1 797424.3854414655 1 796068.1527095931 1 818924.6785292709 -1 -397828.9460281369 -1 -914695.4243306805 -1 -860869.4154179649 -1 -412950.4801512249 1 -838522.6566531472 1 804626.3050027696 -1 -888294.093247412 1 805339.3971329364 1 801761.0671328004 -1 -911120.2581741757 -1 -891988.725325018 -1 763149.5088268762 -1 -415148.6557985756 -1 805493.8008239176 -1 -413722.8705667221 -1 -860937.3466221804 -1 -860749.8259377172 -1 -865870.0186926115 1 759541.0635636083 1 805279.0361940109 -1 -870192.1204537569 1 310092.5123265704 -1 808923.9978208593
18 1 0.0 1 -443269.17908913665 -1 851777.9610472877 1 -924354.3590257028 -1 808453.8154517424 1 -907592.0894234423 1 -967413.0748027192 1 -934139.1018406672 -1 328330.76089671004 1 842880.4379091354 -1 330726.0220333122 -1 -904361.4834333762 -1 882013.8987753206 1 -924225.4854011036 -1 862126.7547049185 -1 848843.7358549084 1 -923770.9336496139 1 -960055.1651917631 1 811634.4475456263 1 -443386.57145185815 -1 859371.735119644 -1 900083.7568979253 -1 559065.0007373206 1 -974763.6096556725 -1 873403.3396657606 1 -924681.0519532762 1 -924379.9252846594 1 -436574.109407314 -1 903730.8344368555 -1 862989.9590535909 -1 840629.2559251772 1 -936892.8036489213 -1 857027.988745877 1 -421350.338003208 -1 843963.818151695 -1 880501.6814386372 -1 557989.6101565794 -1 876985.5721978169 1 -971077.4601551741 -1 862775.7395467707 -1 820245.3899237219 1 -917567.6861013067 1 -963766.7300978017 1 -956468.6142843709 1 -423738.8502794914 1 -425302.5462973576 1 -924293.6154108896 1 -978316.5211258751 1 -917326.5055487388 -1 826427.2309405823 1 -908630.7527277768 -1 829361.2248660976 1 -931844.5350320642 -1 849401.642622235 1 -428253.2137976096 1 -432837.137215793 1 -923684.7414883006 1 -924139.9398694343 -1 815184.6509791128 -1 823403.0218824208 -1 892673.742573872 -1 851771.8429300194 -1 909998.1759081385 1 -417613.80720653036 -1 916668.806663813 1 -923469.5316055899 -1 555180.1543656935 -1 846033.3441071438 1 -940384.1437474356 -1 851933.5207741169 1 -930066.9066060963 -1 870035.0897686916 1 -430706.669445575 -1 848688.011960978 -1 910979.811933757 -1 913360.8527032136 -1 853997.3614936515 1 -415233.2005055425 1 -924466.0233822488 1 -949208.8185014313 1 -441471.32667116105 -1 -917506.6027499043 -1 906969.9109910738 1 -924225.6068082838 -1 888996.6356145951 -1 907841.9466224336 1 -924628.1307270732 1 -924182.9653845609 1 816797.952327142 1 -436194.9553158536 1 885413.7658042473 1 -438506.4435853292 1 -945539.4762043176 1 -952826.5025225126 1 -912472.4432667742 -1 824401.3275678614 -1 896410.8216783279 1 -926322.1230226032 -1 325932.0034823386 1 866420.3217932145
19 1 0.0 -1 -468980.4902555375 1 939172.4730302755 -1 -1.0088704281038528e6 1 879276.5049573245 -1 -984350.8835201993 -1 -988395.4943582747 -1 -988756.9829081845 1 346979.7874060136 -1 956435.8644014269 1 345637.77504128666 1 -984857.5510314623 1 920823.8552410303 -1 -1.0199533749832409e6 1 930834.8991812608 1 947450.0683418835 -1 -1.0307106437357384e6 -1 -988512.1317499768 -1 878719.8635498793 -1 -465360.6091169299 1 931817.1530973155 1 920207.3458569896 1 603429.260726688 -1 -988271.4822085699 1 923425.1166354576 -1 -994248.0270261097 -1 -1.0051587208614802e6 -1 -456787.899238255 1 920117.1498945907 1 924223.5565272751 1 957921.9559187978 -1 -987773.4112151095 1 933210.6802248777 -1 -462475.6473407943 1 953781.9711426573 1 923048.911405676 1 606091.1436472759 1 923270.0756661848 -1 -988322.6062094006 1 927746.610521784 1 876118.9854239877 -1 -975640.1126914184 -1 -988486.4231546863 -1 -988662.8543439137 -1 -461126.88611574867 -1 -458953.3086322858 -1 -1.0125469579903686e6 -1 -988087.1201774434 -1 -982873.4791415086 1 871089.005936861 -1 -981652.2733232047 1 870285.7263610471 -1 -990199.6896009105 1 944270.701607881 -1 -458166.70263120875 -1 -455276.079046734 -1 -1.0343617250757542e6 -1 -1.0273423764542297e6 1 878532.7934820368 1 875539.3438813575 1 920271.8785355944 1 942903.6284143364 1 915172.6708618865 -1 -462476.3900454459 1 910631.4811135738 -1 -1.0378837886943725e6 1 607018.961357719 1 952114.2235967771 -1 -987527.4778122947 1 935590.7592557756 -1 -992159.3346762718 1 923794.1402397177 -1 -456882.88477784506 1 951031.6179492823 1 912417.033386176 1 911060.8006543034 1 933917.3264739813 -1 -463833.05684578716 -1 -1.0015075454577407e6 -1 -988877.6055636322 -1 -470919.91133889096 1 -979316.302841345 1 919618.95294748 -1 -1.0162162228890919e6 1 920332.0450776467 1 916753.7150775107 -1 -997932.3793012359 -1 -1.0236481284680272e6 -1 876408.8213287368 -1 -471605.96548491257 -1 920486.448768628 -1 -471692.30175438826 -1 -988945.5367678477 -1 -988758.0160833844 -1 -981756.690360873 1 872800.3760654691 1 920271.6841387213 -1 -992151.8245941078 1 348318.30349297123 -1 923916.6457655696
20 1 0.0 1 -501238.6102768028 -1 966770.608991998 1 -1.0448019416647246e6 -1 921713.1279536032 1 -1.044648462110311e6 1 -1.0803861104390828e6 1 -1.0657985049836764e6 -1 366556.55206311087 1 957873.0858538458 -1 368951.813199713 -1 -1.0414178561202448e6 -1 997006.546720031 1 -1.0446730680401255e6 -1 977119.4026496287 -1 963836.3837996187 1 -1.0442185162886358e6 1 -1.0730282008281269e6 1 924893.760047487 1 -501356.00263952423 -1 974364.3830643543 -1 1.0150764048426356e6 -1 656565.4815709199 1 -1.0877366452920362e6 -1 988395.987610471 1 -1.045128634592298e6 1 -1.0448275079236812e6 1 -500353.0682249642 -1 1.0187234823815658e6 -1 977982.6069983012 -1 955621.9038698876 1 -1.094713121301234e6 -1 972020.6366905874 1 -487354.4488208581 -1 958956.4660964053 -1 995494.3293833475 -1 655490.0909901786 -1 991978.2201425273 1 -1.0840504957915377e6 -1 977768.387491481 -1 933504.7024255827 1 -1.0546240587881755e6 1 -1.0767397657341654e6 1 -1.0694416499207346e6 1 -489742.96109714155 1 -491306.65711500775 1 -1.0447411980499114e6 1 -1.0912895567622387e6 1 -1.0469083312329493e6 -1 939686.5434424431 1 -1.0531616724173035e6 -1 942620.5373679583 1 -1.052292117671086e6 -1 964394.2905669453 1 -494257.3246152598 1 -502578.52153477236 1 -1.0441323241273225e6 1 -1.0445875225084561e6 -1 928443.9634809736 -1 936662.3343842814 -1 1.0076663905185823e6 -1 966764.4908747298 -1 1.0249908238528488e6 1 -483617.9180241806 -1 1.0316614546085234e6 1 -1.0439171142446117e6 -1 652680.6351992927 -1 961025.9920518541 1 -1.0982044613997482e6 -1 966926.1687188272 1 -1.0467772157437891e6 -1 985027.7377134019 1 -496710.7802632252 -1 963680.6599056885 -1 1.0259724598784675e6 -1 1.0283535006479239e6 -1 968990.0094383619 1 -481237.3113231928 1 -1.0449136060212706e6 1 -1.058444580636466e6 1 -499440.7578588271 -1 -1.054562975436773e6 -1 1.0219625589357843e6 1 -1.0446731894473056e6 -1 1.0039892835593055e6 -1 1.0228345945671439e6 1 -1.045075713366095e6 1 -1.0446305480235828e6 1 930057.2648290027 1 -496389.53850351967 1 1.0004064137489577e6 1 -492738.60127166624 1 -1.0547752383393522e6 1 -1.0620622646575472e6 1 -1.0495288159536428e6 -1 937660.6400697222 -1 1.0114034696230383e6 1 -1.0505069791629543e6 -1 364157.79464873945 1 981412.9697379249
21 1 0.0 -1 -525437.7999418746 1 1.0541651209749859e6 -1 -1.13687861824952e6 1 992535.8174591853 -1 -1.1138466487004226e6 -1 -1.1088430769972967e6 -1 -1.1092045655472064e6 1 385205.5785724144 -1 1.0714285123461373e6 1 383863.5662076875 1 -1.121913923718331e6 1 1.0358165031857407e6 -1 -1.1479615651289083e6 1 1.0458275471259711e6 1 1.0624427162865938e6 -1 -1.1602309553827348e6 -1 -1.1089597143889987e6 -1 991979.17605174 -1 -521817.9188032669 1 1.0468098010420258e6 1 1.0351999938017e6 1 700929.7415602872 -1 -1.1087190648475918e6 1 1.038417764580168e6 -1 -1.122256217171777e6 -1 -1.1331669110071475e6 -1 -527328.3745598925 1 1.035109797839301e6 1 1.0392162044719855e6 1 1.0729146038635082e6 -1 -1.1082209938541313e6 1 1.048203328169588e6 -1 -528479.7581584444 1 1.0687746190873676e6 1 1.0380415593503864e6 1 703591.6244808751 1 1.0382627236108951e6 -1 -1.1087701888484224e6 1 1.0427392584664944e6 1 989378.2979258485 -1 -1.0885025413570218e6 -1 -1.1089340057937081e6 -1 -1.1091104369829355e6 -1 -527130.9969333989 -1 -524957.419449936 -1 -1.1405551481360358e6 -1 -1.1085347028164652e6 -1 -1.0987601508097702e6 1 984348.3184387218 -1 -1.094514701988808e6 1 983545.0388629079 -1 -1.1151836367439197e6 1 1.0592633495525913e6 -1 -525682.934950188 -1 -528840.7973710296 -1 -1.1638820367227506e6 -1 -1.156862688101226e6 1 991792.1059838976 1 988798.6563832181 1 1.0352645264803048e6 1 1.0578962763590468e6 1 1.0301653188065968e6 -1 -528480.5008630961 1 1.0256241290582842e6 -1 -1.167404100341369e6 1 704519.4421913183 1 1.0671068715414875e6 -1 -1.1079750604513166e6 1 1.050583407200486e6 -1 -1.120167524821939e6 1 1.038786788184428e6 -1 -525911.2385981535 1 1.0660242658939927e6 1 1.0274096813308864e6 1 1.0260534485990137e6 1 1.0489099744186916e6 -1 -529837.1676634374 -1 -1.1295157356034077e6 -1 -1.109325188202654e6 -1 -525865.0995238989 1 -1.0921787315069484e6 1 1.0346116008921905e6 -1 -1.1442244130347592e6 1 1.0353246930223571e6 1 1.031746363022221e6 -1 -1.1259405694469032e6 -1 -1.1531684401150236e6 -1 989668.1338305975 -1 -525039.0321685914 -1 1.0354790967133383e6 -1 -523613.24693673797 -1 -1.1093931194068694e6 -1 -1.1092055987224064e6 -1 -1.0976433620291345e6 1 986059.6885673299 1 1.0352643320834318e6 -1 -1.1171357717371169e6 1 386544.09465937206 -1 1.03890929371028e6
22 1 0.0 1 -538124.400949849 -1 1.0817632569367085e6 1 -1.1728101318103918e6 -1 1.034972440455464e6 1 -1.1544866477732563e6 1 -1.203857936080763e6 1 -1.1892703306253564e6 -1 404782.3432295117 1 1.0728657337985563e6 -1 407177.60436611384 -1 -1.154280284785848e6 -1 1.1119991946647414e6 1 -1.172681258185793e6 -1 1.092112050594339e6 -1 1.078829031744329e6 1 -1.173738827935632e6 1 -1.196500026469807e6 1 1.0381530725493476e6 1 -544204.2188138996 -1 1.0893570310090645e6 -1 1.130069052787346e6 -1 754065.9624045191 1 -1.2112084709337163e6 -1 1.1033886355551812e6 1 -1.1731368247379651e6 1 -1.1728356980693485e6 1 -567242.3305492598 -1 1.1337161303262762e6 -1 1.0929752549430116e6 -1 1.070614551814598e6 1 -1.218184946942914e6 -1 1.0870132846352977e6 1 -564656.4406464827 -1 1.0739491140411156e6 -1 1.1104869773280579e6 -1 752990.5718237779 -1 1.1069708680872375e6 1 -1.2075223214332177e6 -1 1.0927610354361914e6 -1 1.0467640149274435e6 1 -1.1674864874537787e6 1 -1.2002115913758453e6 1 -1.1929134755624146e6 1 -570782.2264240953 1 -575284.1049406325 1 -1.1727493881955785e6 1 -1.2147613824039188e6 1 -1.162795002901211e6 -1 1.052945855944304e6 1 -1.166024101082907e6 -1 1.0558798498698191e6 1 -1.1787881863154243e6 -1 1.0793869385116557e6 1 -575296.5899422136 1 -557542.9328564097 1 -1.173652635774319e6 1 -1.1741078341554524e6 -1 1.0417032759828344e6 -1 1.049921646886142e6 -1 1.1226590384632926e6 -1 1.0817571388194403e6 -1 1.1399834717975592e6 1 -560919.9098498053 -1 1.1466541025532337e6 1 -1.1734374258916082e6 -1 750181.1160328919 -1 1.0760186399965647e6 1 -1.2216762870414285e6 -1 1.0819188166635374e6 1 -1.1762975273907853e6 -1 1.1000203856581124e6 1 -573299.741590179 -1 1.0786733078503988e6 -1 1.140965107823178e6 -1 1.1433461485926344e6 -1 1.0839826573830722e6 1 -554802.0296474885 1 -1.1729217961669378e6 1 -1.1819164062781457e6 1 -536326.5485318734 -1 -1.1674254041023762e6 -1 1.1369552068804947e6 1 -1.172681379592973e6 -1 1.1189819315040158e6 -1 1.1378272425118543e6 1 -1.1730839035117624e6 1 -1.1741508596705792e6 1 1.0433165773308633e6 1 -541462.906677895 1 1.115399061693668e6 1 -542262.2734460415 1 -1.178247063981032e6 1 -1.1855340902992273e6 1 -1.1654154876219044e6 -1 1.050919952571583e6 -1 1.1263961175677488e6 1 -1.1770030478072923e6 -1 402383.5858151403 1 1.096405617682635e6
23 1 0.0 -1 -557701.1656069463 1 1.1691577689196963e6 -1 -1.2760125683951871e6 1 1.105795129961046e6 -1 -1.2312454418700133e6 -1 -1.2323149026389767e6 -1 -1.2326763911888865e6 1 423431.36973881524 -1 1.1864211602908478e6 1 422089.3573740883 1 -1.2347763523839342e6 1 1.1508091511304511e6 -1 -1.2870955152745757e6 1 1.1608201950706814e6 1 1.177435364231304e6 -1 -1.2507803500111238e6 -1 -1.2324315400306787e6 -1 1.1052384885536006e6 -1 -552569.1629670096 1 1.1618024489867361e6 1 1.1501926417464104e6 1 798430.2223938864 -1 -1.2321908904892718e6 1 1.153410412524878e6 -1 -1.2613901673174442e6 -1 -1.2723008611528147e6 -1 -608453.7003908334 1 1.1501024457840114e6 1 1.1542088524166958e6 1 1.1879072518082187e6 -1 -1.2316928194958114e6 1 1.1631959761142982e6 -1 -609605.0839893855 1 1.183767267032078e6 1 1.1530342072950967e6 1 801092.1053144743 1 1.1532553715556054e6 -1 -1.2322420144901024e6 1 1.1577319064112047e6 1 1.1026376104277093e6 -1 -1.2255589140438903e6 -1 -1.232405831435388e6 -1 -1.2325822626246156e6 -1 -608256.3227643399 -1 -605283.6542782189 -1 -1.279689098281703e6 -1 -1.2320065284581452e6 -1 -1.2358165234966388e6 1 1.0976076309405826e6 -1 -1.2315710746756769e6 1 1.0968043513647688e6 -1 -1.2334060673829415e6 1 1.1742559974973018e6 -1 -601558.8657784709 -1 -609966.1232019706 -1 -1.25443143135114e6 -1 -1.2474120827296153e6 1 1.1050514184857584e6 1 1.1020579688850788e6 1 1.1502571744250152e6 1 1.1728889243037573e6 1 1.1451579667513072e6 -1 -609605.8266940371 1 1.1406167770029944e6 -1 -1.2579534949697582e6 1 802019.9230249175 1 1.182099519486198e6 -1 -1.231446886092997e6 1 1.1655760551451962e6 -1 -1.2421272289622899e6 1 1.1537794361291383e6 -1 -607036.5644290945 1 1.181016913838703e6 1 1.142402329275597e6 1 1.1410460965437242e6 1 1.1639026223634018e6 -1 -610962.4934943785 -1 -1.268649685749075e6 -1 -1.232797013844334e6 -1 -559640.5866902997 1 -1.229235104193817e6 1 1.1496042488369008e6 -1 -1.2833583631804266e6 1 1.1503173409670673e6 1 1.1467390109669315e6 -1 -1.2650745195925706e6 -1 -1.243717834743413e6 -1 1.1029274463324582e6 -1 -557302.3978336632 -1 1.1504717446580485e6 -1 -554364.4911004807 -1 -1.2366022185498783e6 -1 -1.2326774243640865e6 -1 -1.2346997347160033e6 1 1.0993190010691907e6 1 1.1502569800281422e6 -1 -1.2390954758774678e6 1 424769.8858257729 -1 1.1539019416549902e6
24 1 0.0 1 -568875.6451135917 -1 1.196755904881419e6 1 -1.2932577144494136e6 -1 1.1482317529573245e6 1 -1.3027548409641122e6 1 -1.328841883223772e6 1 -1.3142542777683656e6 -1 443008.1343959125 1 1.1878583817432667e6 -1 445403.39553251467 -1 -1.2754163514567679e6 -1 1.2269918426094516e6 1 -1.293128840824815e6 -1 1.2071046985390494e6 -1 1.1938216796890392e6 1 -1.294186410574654e6 1 -1.3214839736128158e6 1 1.1514123850512083e6 1 -574955.4629776422 -1 1.204349678953775e6 -1 1.2450617007320565e6 -1 851566.4432381183 1 -1.3361924180767254e6 -1 1.2183812834998914e6 1 -1.293584407376987e6 1 -1.2932832807083703e6 1 -648367.6563802008 -1 1.2487087782709864e6 -1 1.2079679028877218e6 -1 1.1856071997593085e6 1 -1.3431688940859232e6 -1 1.202005932580008e6 1 -645781.7664774238 -1 1.188941761985826e6 -1 1.2254796252727683e6 -1 850491.0526573771 -1 1.221963516031948e6 1 -1.332506268576227e6 -1 1.2077536833809018e6 -1 1.1600233274293041e6 1 -1.3045428601406473e6 1 -1.3251955385188542e6 1 -1.3178974227054238e6 1 -651907.5522550363 1 -656409.4307715734 1 -1.2931969708346003e6 1 -1.339745329546928e6 1 -1.2727192490681433e6 -1 1.1662051684461648e6 1 -1.2978310787671176e6 -1 1.16913916237168e6 1 -1.3037721334584332e6 -1 1.194379586456366e6 1 -656421.9157731546 1 -638668.2586873507 1 -1.2941002184133409e6 1 -1.2945554167944745e6 -1 1.1549625884846952e6 -1 1.1631809593880028e6 -1 1.237651686408003e6 -1 1.1967497867641507e6 -1 1.2549761197422696e6 1 -642045.2356807463 -1 1.261646750497944e6 1 -1.29388500853063e6 -1 847681.5968664911 -1 1.1910112879412752e6 1 -1.3481723556857668e6 -1 1.1969114646082476e6 1 -1.296745110029807e6 -1 1.2150130336028226e6 1 -654425.0674211201 -1 1.193665955795109e6 -1 1.2559577557678884e6 -1 1.2583387965373448e6 -1 1.1989753053277824e6 1 -635927.3554784296 1 -1.2933693788059596e6 1 -1.306900353421155e6 1 -567077.792695616 -1 -1.3044817767892447e6 -1 1.251947854825205e6 1 -1.293128962231995e6 -1 1.233974579448726e6 -1 1.2528198904565647e6 1 -1.2935314861507844e6 1 -1.294598442309601e6 1 1.1565758898327241e6 1 -572214.1508416376 1 1.2303917096383781e6 1 -573013.5176097843 1 -1.2986946466200538e6 1 -1.3105180374422364e6 1 -1.279077007290166e6 -1 1.1641792650734438e6 -1 1.2413887655124592e6 1 -1.297450630446314e6 -1 440609.3769815411 1 1.2113982656273453e6
25 1 0.0 -1 -588452.409770689 1 1.2841504168644068e6 -1 -1.4025086370395254e6 1 1.2190544424629067e6 -1 -1.3441078705356168e6 -1 -1.3572988497819859e6 -1 -1.3576603383318956e6 1 461657.16090521606 -1 1.3014138082355582e6 1 460315.14854048914 1 -1.3521751455535248e6 1 1.2658017990751613e6 -1 -1.413591583918914e6 1 1.2758128430153918e6 1 1.2924280121760143e6 -1 -1.377276418655462e6 -1 -1.3574154871736877e6 -1 1.2184978010554614e6 -1 -583320.4071307522 1 1.2767950969314463e6 1 1.2651852896911209e6 1 895930.7032274856 -1 -1.357174837632281e6 1 1.2684030604695883e6 -1 -1.3878862359617823e6 -1 -1.398796929797153e6 -1 -689579.0262217744 1 1.2650950937287216e6 1 1.269201500361406e6 1 1.302899899752929e6 -1 -1.3566767666388205e6 1 1.2781886240590084e6 -1 -690730.4098203266 1 1.2987599149767885e6 1 1.2680268552398072e6 1 898592.5861480735 1 1.268248019500316e6 -1 -1.3572259616331116e6 1 1.2727245543559152e6 1 1.2158969229295698e6 -1 -1.3369092212081645e6 -1 -1.357389778578397e6 -1 -1.3575662097676247e6 -1 -689381.6485952808 -1 -686408.9801091598 -1 -1.406185166926041e6 -1 -1.3569904756011544e6 -1 -1.3532153166662294e6 1 1.2108669434424434e6 -1 -1.3444335033412804e6 1 1.2100636638666296e6 -1 -1.3614142575286087e6 1 1.2892486454420122e6 -1 -682684.1916094118 -1 -691091.4490329116 -1 -1.380927499995478e6 -1 -1.3739081513739536e6 1 1.2183107309876191e6 1 1.2153172813869396e6 1 1.2652498223697257e6 1 1.2878815722484677e6 1 1.2601506146960177e6 -1 -690731.152524978 1 1.2556094249477047e6 -1 -1.3844495636140963e6 1 899520.4038585167 1 1.2970921674309084e6 -1 -1.3579429547373352e6 1 1.2805687030899064e6 -1 -1.368623297606628e6 1 1.2687720840738486e6 -1 -688161.8902600356 1 1.2960095617834132e6 1 1.2573949772203073e6 1 1.2560387444884346e6 1 1.278895270308112e6 -1 -692087.8193253196 -1 -1.3951457543934132e6 -1 -1.357780960987343e6 -1 -590391.8308540423 1 -1.340585411358091e6 1 1.264596896781611e6 -1 -1.409854431824765e6 1 1.2653099889117775e6 1 1.261731658911642e6 -1 -1.391570588236909e6 -1 -1.370213903387751e6 -1 1.216186758834319e6 -1 -588053.6419974058 -1 1.2654643926027587e6 -1 -585115.7352642234 -1 -1.3615861656928875e6 -1 -1.3576613715070956e6 -1 -1.352098527885594e6 1 1.2125783135710515e6 1 1.2652496279728527e6 -1 -1.3655915445218058e6 1 462995.6769921737 -1 1.2688945895997004e6
26 1 0.0 1 -599626.8892773343 -1 1.3117485528261294e6 1 -1.4197537830937519e6 -1 1.2614910654591853e6 1 -1.4156172696297157e6 1 -1.4530267393641232e6 1 -1.4384391339087165e6 -1 481233.92556231335 1 1.3028510296879772e6 -1 483629.1866989155 -1 -1.4124727241436364e6 -1 1.3419844905541618e6 1 -1.4196249094691533e6 -1 1.3220973464837598e6 -1 1.3088143276337495e6 1 -1.4206824792189922e6 1 -1.4456688297531668e6 1 1.264671697553069e6 1 -605706.7071413848 -1 1.3193423268984852e6 -1 1.360054348676767e6 -1 949066.9240717175 1 -1.4603772742170764e6 -1 1.3333739314446016e6 1 -1.420080476021325e6 1 -1.4197793493527086e6 1 -729492.9822111417 -1 1.3637014262156966e6 -1 1.322960550832432e6 -1 1.300599847704019e6 1 -1.4673537502262741e6 -1 1.3169985805247182e6 1 -726907.0923083649 -1 1.3039344099305365e6 -1 1.3404722732174788e6 -1 947991.5334909763 -1 1.3369561639766584e6 1 -1.4566911247165778e6 -1 1.3227463313256123e6 -1 1.2732826399311647e6 1 -1.4158931673049214e6 1 -1.449380394659205e6 1 -1.4420822788457747e6 1 -733032.8780859773 1 -737534.7566025145 1 -1.4196930394789383e6 1 -1.4639301856872789e6 1 -1.409775621755012e6 -1 1.2794644809480256e6 1 -1.4122056289340502e6 -1 1.2823984748735407e6 1 -1.4272439591001133e6 -1 1.3093722344010766e6 1 -737547.2416040956 1 -719793.5845182916 1 -1.420596287057679e6 1 -1.4210514854388128e6 -1 1.268221900986556e6 -1 1.2764402718898635e6 -1 1.3526443343527135e6 -1 1.3117424347088612e6 -1 1.36996876768698e6 1 -723170.5615116872 -1 1.3766393984426542e6 1 -1.420381077174968e6 -1 945182.0777000904 -1 1.3060039358859856e6 1 -1.427509929810169e6 -1 1.3119041125529578e6 1 -1.4232411786741451e6 -1 1.3300056815475328e6 1 -735550.3932520612 -1 1.3086586037398193e6 -1 1.3709504037125988e6 -1 1.3733314444820553e6 -1 1.3139679532724926e6 1 -717052.6813093707 1 -1.419865447450298e6 1 -1.4310852095615058e6 1 -597829.0368593587 -1 -1.415832083953519e6 -1 1.3669405027699152e6 1 -1.4196250308763334e6 -1 1.3489672273934362e6 -1 1.3678125384012752e6 1 -1.4200275547951227e6 1 -1.421094510953939e6 1 1.269835202334585e6 1 -602965.3950053803 1 1.3453843575830883e6 1 -603764.761773527 1 -1.423678593763063e6 1 -1.4347028935825874e6 1 -1.4161333799770346e6 -1 1.2774385775753045e6 -1 1.3563814134571697e6 1 -1.4239466990906522e6 -1 478835.16814794193 1 1.3263909135720555e6
27 1 0.0 -1 -619203.6539344316 1 1.3991430648091172e6 -1 -1.5229562196785472e6 1 1.3323137549647675e6 -1 -1.4849015167238147e6 -1 -1.477746432421008e6 -1 -1.4781079209709174e6 1 499882.9520716169 -1 1.4164064561802687e6 1 498540.93970688997 1 -1.4854942447390645e6 1 1.3807944470198716e6 -1 -1.534039166557936e6 1 1.3908054909601023e6 1 1.4074206601207245e6 -1 -1.497724001294484e6 -1 -1.4778630698127095e6 -1 1.3317571135573222e6 -1 -614071.6512944949 1 1.3917877448761566e6 1 1.3801779376358313e6 1 993431.1840610849 -1 -1.4776224202713028e6 1 1.3833957084142985e6 -1 -1.508333818600804e6 -1 -1.5192445124361748e6 -1 -770704.3520527154 1 1.3800877416734318e6 1 1.3841941483061162e6 1 1.4178925476976396e6 -1 -1.4771243492778426e6 1 1.3931812720037187e6 -1 -771855.7356512677 1 1.413752562921499e6 1 1.3830195031845176e6 1 996093.0669816728 1 1.3832406674450263e6 -1 -1.4776735442721334e6 1 1.3877172023006256e6 1 1.3291562354314304e6 -1 -1.4777028673963621e6 -1 -1.477837361217419e6 -1 -1.4780137924066465e6 -1 -770506.9744262218 -1 -767534.3059401009 -1 -1.5266327495650628e6 -1 -1.4774380582401762e6 -1 -1.4902716893530982e6 1 1.3241262559443042e6 -1 -1.4889644230308072e6 1 1.3233229763684904e6 -1 -1.4818618401676305e6 1 1.4042412933867227e6 -1 -763809.5174403528 -1 -772216.7748638525 -1 -1.5013750826344998e6 -1 -1.4943557340129754e6 1 1.33157004348948e6 1 1.3285765938888004e6 1 1.3802424703144361e6 1 1.4028742201931782e6 1 1.3751432626407281e6 -1 -771856.478355919 1 1.3706020728924149e6 -1 -1.504897146253118e6 1 997020.884692116 1 1.4120848153756189e6 -1 -1.4783905373763572e6 1 1.3955613510346166e6 -1 -1.4890708802456497e6 1 1.3837647320185588e6 -1 -769287.2160909767 1 1.4110022097281234e6 1 1.3723876251650178e6 1 1.371031392433145e6 1 1.3938879182528222e6 -1 -773213.1451562607 -1 -1.515593337032435e6 -1 -1.478228543626365e6 -1 -621143.075017785 1 -1.4813790575462887e6 1 1.3795895447263212e6 -1 -1.530302014463787e6 1 1.3803026368564877e6 1 1.3767243068563524e6 -1 -1.512018170875931e6 -1 -1.4906614860267728e6 -1 1.3294460713361797e6 -1 -618804.8861611484 -1 1.380457040547469e6 -1 -615866.9794279662 -1 -1.4857710218332384e6 -1 -1.4781089541461174e6 -1 -1.4742058065671462e6 1 1.3258376260729122e6 1 1.3802422759175631e6 -1 -1.4823018536594985e6 1 501221.46815857454 -1 1.3838872375444106e6
28 1 0.0 1 -630378.133441077 -1 1.4267412007708398e6 1 -1.5402013657327737e6 -1 1.374750377961046e6 1 -1.5315039412979775e6 1 -1.5810349295097906e6 1 -1.5664473240543837e6 -1 519459.7167287142 1 1.4178436776326876e6 -1 521854.9778653163 -1 -1.5283593958118982e6 -1 1.456977138498872e6 1 -1.5400724921081753e6 -1 1.4370899944284703e6 -1 1.4238069755784597e6 1 -1.541130061858014e6 1 -1.573677019898834e6 1 1.3779310100549299e6 1 -636457.9513051275 -1 1.4343349748431954e6 -1 1.4750469966214774e6 -1 1.0465674049053168e6 1 -1.5898975858640727e6 -1 1.4483665793893118e6 1 -1.5405280586603468e6 1 -1.5402269319917304e6 1 -810618.3080420827 -1 1.4786940741604068e6 -1 1.4379531987771422e6 -1 1.4155924956487294e6 1 -1.5968740618732707e6 -1 1.4319912284694284e6 1 -808032.418139306 -1 1.418927057875247e6 -1 1.4554649211621892e6 -1 1.0454920143245755e6 -1 1.4519488119213688e6 1 -1.5862114363635741e6 -1 1.4377389792703227e6 -1 1.3865419524330252e6 1 -1.5469010539864737e6 1 -1.5773885848048725e6 1 -1.570090468991442e6 1 -814158.2039169183 1 -818660.0824334556 1 -1.5401406221179601e6 1 -1.5934504973342752e6 1 -1.5226380504206154e6 -1 1.3927237934498864e6 1 -1.5265801791009826e6 -1 1.3956577873754015e6 1 -1.5537400277444513e6 -1 1.424364882345787e6 1 -818672.5674350365 1 -800918.9103492326 1 -1.5410438696967007e6 1 -1.5414990680778346e6 -1 1.3814812134884167e6 -1 1.3896995843917243e6 -1 1.467636982297424e6 -1 1.4267350826535716e6 -1 1.4849614156316905e6 1 -804295.8873426282 -1 1.4916320463873644e6 1 -1.54082865981399e6 -1 1.0426825585336896e6 -1 1.420996583830696e6 1 -1.5555181199558363e6 -1 1.426896760497668e6 1 -1.545200882814496e6 -1 1.444998329492243e6 1 -816675.7190830023 -1 1.4236512516845295e6 -1 1.4859430516573093e6 -1 1.4883240924267657e6 -1 1.4289606012172028e6 1 -798178.0071403118 1 -1.5403130300893197e6 1 -1.5590933997071732e6 1 -628580.2810231013 -1 -1.5347429986244387e6 -1 1.4819331507146254e6 1 -1.5400726135153554e6 -1 1.4639598753381465e6 -1 1.4828051863459856e6 1 -1.5404751374341447e6 1 -1.5415420935929609e6 1 1.3830945148364457e6 1 -633716.6391691229 1 1.4603770055277986e6 1 -634516.0059372698 1 -1.547150419404743e6 1 -1.5627110837282548e6 1 -1.5531897526639032e6 -1 1.3906978900771653e6 -1 1.47137406140188e6 1 -1.5504427677349902e6 -1 517060.95931434276 1 1.4413835615167657e6
29 1 0.0 -1 -649954.8980981742 1 1.5141357127538277e6 -1 -1.6464280453202273e6 1 1.4455730674666283e6 -1 -1.6007881883920764e6 -1 -1.6057546225666753e6 -1 -1.6061161111165846e6 1 538108.7432380177 -1 1.531399104124979e6 1 536766.7308732908 1 -1.6013809164073262e6 1 1.4957870949645818e6 -1 -1.657510992199616e6 1 1.5057981389048127e6 1 1.5224133080654347e6 -1 -1.621195826936164e6 -1 -1.6058712599583766e6 -1 1.445016426059183e6 -1 -644822.8954582375 1 1.5067803928208668e6 1 1.4951705855805418e6 1 1.0909316648946842e6 -1 -1.607142731918299e6 1 1.4983883563590087e6 -1 -1.6318056442424841e6 -1 -1.6427163380778548e6 -1 -851829.6778836563 1 1.495080389618142e6 1 1.4991867962508264e6 1 1.53288519564235e6 -1 -1.606644660924839e6 1 1.5081739199484289e6 -1 -852981.0614822088 1 1.5287452108662094e6 1 1.498012151129228e6 1 1.0935935478152721e6 1 1.4982333153897368e6 -1 -1.6071938559191297e6 1 1.502709850245336e6 1 1.442415547933291e6 -1 -1.5875410530593074e6 -1 -1.6058455513630863e6 -1 -1.6060219825523137e6 -1 -851632.3002571628 -1 -848659.631771042 -1 -1.6501045752067429e6 -1 -1.6069583698871725e6 -1 -1.6031341180187014e6 1 1.437385568446165e6 -1 -1.6033389731977396e6 1 1.4365822888703512e6 -1 -1.6083579088119685e6 1 1.5192339413314331e6 -1 -844934.8432712938 -1 -853342.1006947935 -1 -1.6248469082761798e6 -1 -1.6178275596546554e6 1 1.4448293559913407e6 1 1.4418359063906611e6 1 1.4952351182591466e6 1 1.5178668681378886e6 1 1.4901359105854386e6 -1 -852981.80418686 1 1.485594720837125e6 -1 -1.628368971894798e6 1 1.0945213655257153e6 1 1.5270774633203293e6 -1 -1.6063987275220244e6 1 1.5105539989793268e6 -1 -1.6140548273886587e6 1 1.498757379963269e6 -1 -850412.5419219178 1 1.5259948576728336e6 1 1.4873802731097282e6 1 1.4860240403778555e6 1 1.5088805661975325e6 -1 -854338.4709872018 -1 -1.639065162674115e6 -1 -1.6062367337720324e6 -1 -651894.3191815276 1 -1.6002899722172085e6 1 1.4945821926710315e6 -1 -1.6537738401054672e6 1 1.495295284801198e6 1 1.4917169548010628e6 -1 -1.635489996517611e6 -1 -1.6141333116684526e6 -1 1.4427053838380405e6 -1 -649556.1303248911 -1 1.4954496884921791e6 -1 -646618.2235917089 -1 -1.6107549689762476e6 -1 -1.6061171442917848e6 -1 -1.5870682352327495e6 1 1.439096938574773e6 1 1.4952349238622736e6 -1 -1.6103100438051657e6 1 539447.2593249753 -1 1.4988798854891208e6
30 1 0.0 1 -661129.3776048196 -1 1.5417338487155503e6 1 -1.6636731913744537e6 -1 1.4880096904629068e6 1 -1.6685603139848462e6 1 -1.716431606154129e6 1 -1.701844000698722e6 -1 557685.507895115 1 1.532836325577398e6 -1 560080.7690317171 -1 -1.665415768498767e6 -1 1.5719697864435823e6 1 -1.6635443177498553e6 -1 1.5520826423731807e6 -1 1.53879962352317e6 1 -1.664601887499694e6 1 -1.709073696543172e6 1 1.4911903225567907e6 1 -667209.1954688701 -1 1.5493276227879056e6 -1 1.5900396445661879e6 -1 1.144067885738916e6 1 -1.680446980492462e6 -1 1.563359227334022e6 1 -1.6639998843020268e6 1 -1.6636987576334104e6 1 -891743.6338730237 -1 1.593686722105117e6 -1 1.5529458467218524e6 -1 1.5305851435934398e6 1 -1.68742345650166e6 -1 1.5469838764141386e6 1 -889157.7439702471 -1 1.5339197058199574e6 -1 1.5704575691068997e6 -1 1.142992495158175e6 -1 1.5669414598660793e6 1 -1.6767608309919634e6 -1 1.5527316272150332e6 -1 1.4998012649348858e6 1 -1.6627877256547352e6 1 -1.7127852614492108e6 1 -1.70548714563578e6 1 -895283.5297478592 1 -899785.4082643967 1 -1.6636124477596402e6 1 -1.6839998919626642e6 1 -1.663431696608813e6 -1 1.5059831059517472e6 1 -1.6598992782865223e6 -1 1.5089170998772623e6 1 -1.674187610383473e6 -1 1.5393575302904975e6 1 -899797.8932659775 1 -882044.2361801736 1 -1.6645156953383808e6 1 -1.6649708937195146e6 -1 1.4947405259902775e6 -1 1.502958896893585e6 -1 1.5826296302421344e6 -1 1.541727730598282e6 -1 1.599954063576401e6 1 -885421.2131735692 -1 1.6066246943320746e6 1 -1.66430048545567e6 -1 1.140183039367289e6 -1 1.5359892317754065e6 1 -1.6909147966001744e6 -1 1.5418894084423783e6 1 -1.6686727084561759e6 -1 1.5599909774369532e6 1 -897801.0449139434 -1 1.5386438996292397e6 -1 1.6009356996020197e6 -1 1.6033167403714762e6 -1 1.543953249161913e6 1 -879303.3329712529 1 -1.6637848557309997e6 1 -1.6944900763515115e6 1 -659331.5251868439 -1 -1.6717993713113074e6 -1 1.5969257986593356e6 1 -1.6635444391570357e6 -1 1.5789525232828567e6 -1 1.597797834290696e6 1 -1.6639469630758248e6 1 -1.6650139192346407e6 1 1.4963538273383065e6 1 -664467.8833328655 1 1.5753696534725088e6 1 -665267.2501010125 1 -1.669110123545094e6 1 -1.698107760372593e6 1 -1.6660521813295064e6 -1 1.503957202579026e6 -1 1.5863667093465906e6 1 -1.6724024718753411e6 -1 555286.7504807435 1 1.556376209461476e6
31 1 0.0 -1 -680706.1422619169 1 1.6291283606985381e6 -1 -1.7729241139645656e6 1 1.558832379968489e6 -1 -1.710712434559009e6 -1 -1.7262022052056973e6 -1 -1.7265636937556067e6 1 576334.5344044184 -1 1.6463917520696896e6 1 574992.5220396916 1 -1.7150424360755878e6 1 1.610779742909292e6 -1 -1.7840070608439543e6 1 1.6207907868495232e6 1 1.637405956010145e6 -1 -1.7476918955805022e6 -1 -1.7263188425973984e6 -1 1.5582757385610437e6 -1 -675574.1396219801 1 1.621773040765577e6 1 1.6101632335252522e6 1 1.1884321457282833e6 -1 -1.7275903145573211e6 1 1.613381004303719e6 -1 -1.7583017128868222e6 -1 -1.7692124067221931e6 -1 -932955.0037145973 1 1.6100730375628523e6 1 1.6141794441955367e6 1 1.6478778435870605e6 -1 -1.727092243563861e6 1 1.623166567893139e6 -1 -934106.3873131499 1 1.6437378588109198e6 1 1.6130047990739385e6 1 1.1910940286488715e6 1 1.6132259633344472e6 -1 -1.7276414385581515e6 1 1.6177024981900465e6 1 1.5556748604351515e6 -1 -1.7395465197514922e6 -1 -1.7262931340021081e6 -1 -1.7264695651913355e6 -1 -932757.6260881037 -1 -929784.9576019831 -1 -1.776600643851081e6 -1 -1.7274059525261943e6 -1 -1.736453217204241e6 1 1.5506448809480257e6 -1 -1.7403953458846083e6 1 1.549841601372212e6 -1 -1.7288054914509903e6 1 1.6342265892761436e6 -1 -926060.1691022348 -1 -934467.4265257345 -1 -1.7513429769205179e6 -1 -1.7443236282989937e6 1 1.5580886684932015e6 1 1.555095218892522e6 1 1.610227766203857e6 1 1.632859516082599e6 1 1.605128558530149e6 -1 -934107.130017801 1 1.6005873687818353e6 -1 -1.7548650405391362e6 1 1.1920218463593146e6 1 1.6420701112650398e6 -1 -1.7268463101610462e6 1 1.625546646924037e6 -1 -1.7360145315290096e6 1 1.6137500279079792e6 -1 -931537.8677528589 1 1.6409875056175438e6 1 1.6023729210544387e6 1 1.601016688322566e6 1 1.6238732141422427e6 -1 -935463.7968181429 -1 -1.7655612313184533e6 -1 -1.7266843164110542e6 -1 -682645.5633452702 1 -1.7071899753814829e6 1 1.6095748406157417e6 -1 -1.7802699087498055e6 1 1.6102879327459082e6 1 1.6067096027457733e6 -1 -1.7619860651619493e6 -1 -1.7406293803127906e6 -1 1.5559646963399013e6 -1 -680307.3744886337 -1 1.6104423364368894e6 -1 -677369.4677554517 -1 -1.7327146731165985e6 -1 -1.7265647269308069e6 -1 -1.7119415754049981e6 1 1.5523562510766338e6 1 1.610227571806984e6 -1 -1.7307576264441875e6 1 577673.0504913761 -1 1.613872533433831e6
32 1 0.0 1 -691880.6217685622 -1 1.6567264966602607e6 1 -1.790169260018792e6 -1 1.6012690029647676e6 1 -1.7859591071544369e6 1 -1.841415553297138e6 1 -1.8268279478417311e6 -1 595911.2990615157 1 1.6478289735221085e6 -1 598306.5601981179 -1 -1.7828145616683576e6 -1 1.6869624343882925e6 1 -1.7900403863941936e6 -1 1.6670752903178912e6 -1 1.65379227146788e6 1 -1.7910979561440323e6 1 -1.8340576436861812e6 1 1.6044496350586514e6 1 -697960.4396326127 -1 1.6643202707326158e6 -1 1.7050322925108983e6 -1 1.241568366572515e6 1 -1.805430927635471e6 -1 1.6783518752787323e6 1 -1.7904959529463649e6 1 -1.7901948262777487e6 1 -972868.9597039646 -1 1.7086793700498273e6 -1 1.6679384946665626e6 -1 1.6455777915381503e6 1 -1.812407403644669e6 -1 1.6619765243588488e6 1 -970283.0698011882 -1 1.6489123537646679e6 -1 1.6854502170516101e6 -1 1.2404929759917744e6 -1 1.6819341078107897e6 1 -1.8017447781349723e6 -1 1.6677242751597436e6 -1 1.6130605774367463e6 1 -1.7756501543203385e6 1 -1.8377692085922197e6 1 -1.830471092778789e6 1 -976408.8555788002 1 -980910.7340953378 1 -1.7901085164039782e6 1 -1.8089838391056734e6 1 -1.7762941252744165e6 -1 1.619242418453608e6 1 -1.7727617069521255e6 -1 1.622176412379123e6 1 -1.799171557526482e6 -1 1.654350178235208e6 1 -980923.2190969185 1 -963169.5620111146 1 -1.7910117639827188e6 1 -1.791466962363853e6 -1 1.6079998384921383e6 -1 1.6162182093954459e6 -1 1.697622278186845e6 -1 1.6567203785429925e6 -1 1.7149467115211114e6 1 -966546.5390045102 -1 1.7216173422767848e6 1 -1.790796554100008e6 -1 1.2376835202008884e6 -1 1.650981879720117e6 1 -1.8158987437431833e6 -1 1.6568820563870885e6 1 -1.7951687771005142e6 -1 1.6749836253816634e6 1 -978926.3707448845 -1 1.65363654757395e6 -1 1.7159283475467302e6 -1 1.7183093883161866e6 -1 1.6589458971066233e6 1 -960428.6588021939 1 -1.790280924375338e6 1 -1.8194740234945205e6 1 -690082.7693505866 -1 -1.7861739214782398e6 -1 1.7119184466040458e6 1 -1.790040507801374e6 -1 1.693945171227567e6 -1 1.7127904822354065e6 1 -1.790443031720163e6 1 -1.7915099878789787e6 1 1.6096131398401672e6 1 -695219.1274966082 1 1.690362301417219e6 1 -696018.4942647553 1 -1.7956061921894322e6 1 -1.8230917075156022e6 1 -1.783450974499097e6 -1 1.617216515080887e6 -1 1.701359357291301e6 1 -1.7973864190183503e6 -1 593512.5416471442 1 1.6713688574061862e6
33 1 0.0 -1 -711457.3864256595 1 1.7441210086432486e6 -1 -1.8933716966035874e6 1 1.6720916924703498e6 -1 -1.8477688072458776e6 -1 -1.8511861523487065e6 -1 -1.8515476408986158e6 1 614560.3255708192 -1 1.7613844000144e6 1 613218.3132060923 1 -1.8520988087624565e6 1 1.7257723908540022e6 -1 -1.9044546434829764e6 1 1.7357834347942336e6 1 1.7523986039548551e6 -1 -1.868139478219524e6 -1 -1.8513027897404076e6 -1 1.6715350510629045e6 -1 -706325.3837857228 1 1.7367656887102872e6 1 1.7251558814699627e6 1 1.2859326265618824e6 -1 -1.8525742617003303e6 1 1.7283736522484291e6 -1 -1.878749295525844e6 -1 -1.889659989361215e6 -1 -1.0140803295455383e6 1 1.7250656855075625e6 1 1.7291720921402469e6 1 1.762870491531771e6 -1 -1.85207619070687e6 1 1.7381592158378493e6 -1 -1.015231713144091e6 1 1.7587305067556303e6 1 1.727997447018649e6 1 1.2885945094824708e6 1 1.7282186112791577e6 -1 -1.8526253857011604e6 1 1.732695146134757e6 1 1.668934172937012e6 -1 -1.8524089484170955e6 -1 -1.851277081145117e6 -1 -1.8514535123343447e6 -1 -1.0138829519190447e6 -1 -1.0109102834329242e6 -1 -1.8970482264901027e6 -1 -1.8523898996692034e6 -1 -1.8493156458698446e6 1 1.6639041934498865e6 -1 -1.8532577745502116e6 1 1.6631009138740727e6 -1 -1.8537894385939992e6 1 1.749219237220854e6 -1 -1.0071854949331757e6 -1 -1.0155927523566755e6 -1 -1.8717905595595397e6 -1 -1.8647712109380155e6 1 1.6713479809950623e6 1 1.6683545313943827e6 1 1.7252204141485675e6 1 1.7478521640273095e6 1 1.7201212064748595e6 -1 -1.0152324558487419e6 1 1.7155800167265455e6 -1 -1.875312623178158e6 1 1.289522327192914e6 1 1.7570627592097502e6 -1 -1.8518302573040552e6 1 1.7405392948687472e6 -1 -1.8609984786720187e6 1 1.7287426758526894e6 -1 -1.0126631935838e6 1 1.755980153562254e6 1 1.7173655689991491e6 1 1.7160093362672764e6 1 1.738865862086953e6 -1 -1.016589122649084e6 -1 -1.8860088139574751e6 -1 -1.8516682635540632e6 -1 -713396.8075090129 1 -1.8442463480683514e6 1 1.724567488560452e6 -1 -1.9007174913888276e6 1 1.7252805806906184e6 1 1.7217022506904837e6 -1 -1.8824336478009713e6 -1 -1.8610769629518124e6 -1 1.669224008841762e6 -1 -711058.6186523763 -1 1.7254349843815996e6 -1 -708120.7119191944 -1 -1.8576986202596077e6 -1 -1.851548674073816e6 -1 -1.848997948091867e6 1 1.6656155635784946e6 1 1.7252202197516945e6 -1 -1.8557415735871966e6 1 615898.8416577769 -1 1.7288651813785413e6
34 1 0.0 1 -722631.8659323049 -1 1.7717191446049712e6 1 -1.9106168426578138e6 -1 1.7145283154666284e6 1 -1.9230154798413054e6 1 -1.9663995004401472e6 1 -1.9518118949847403e6 -1 634137.0902279165 1 1.762821621466819e6 -1 636532.3513645186 -1 -1.9025245673419356e6 -1 1.8019550823330027e6 1 -1.9104879690332157e6 -1 1.7820679382626016e6 -1 1.7687849194125903e6 1 -1.911545538783054e6 1 -1.9590415908291903e6 1 1.7177089475605122e6 1 -728711.6837963554 -1 1.779312918677326e6 -1 1.8200249404556088e6 -1 1.3390688474061142e6 1 -1.927390631775822e6 -1 1.7933445232234425e6 1 -1.9109435355853867e6 1 -1.9106424089167705e6 1 -1.0539942855349057e6 -1 1.8236720179945375e6 -1 1.7829311426112729e6 -1 1.7605704394828607e6 1 -1.9373913507876783e6 -1 1.776969172303559e6 1 -1.0514083956321292e6 -1 1.7639050017093783e6 -1 1.8004428649963206e6 -1 1.3379934568253737e6 -1 1.7969267557555002e6 1 -1.923704482275323e6 -1 1.782716923104454e6 -1 1.7263198899386069e6 1 -1.8975853119939163e6 1 -1.9627531557352287e6 1 -1.9554550399217983e6 1 -1.0575341814097413e6 1 -1.062036059926279e6 1 -1.910556099043e6 1 -1.9324556647473534e6 1 -1.9170877714626144e6 -1 1.7325017309554687e6 1 -1.8916726216230453e6 -1 1.7354357248809838e6 1 -1.9196191401655038e6 -1 1.7693428261799184e6 1 -1.0620485449278594e6 1 -1.0442948878420555e6 1 -1.9114593466217406e6 1 -1.9119145450028747e6 -1 1.721259150993999e6 -1 1.7294775218973067e6 -1 1.8126149261315553e6 -1 1.771713026487703e6 -1 1.8299393594658219e6 1 -1.0476718648354511e6 -1 1.836609990221495e6 1 -1.9112441367390298e6 -1 1.3351840010344877e6 -1 1.7659745276648274e6 1 -1.9408826908861923e6 -1 1.7718747043317987e6 1 -1.915616359739536e6 -1 1.7899762733263737e6 1 -1.0600516965758256e6 -1 1.7686291955186601e6 -1 1.8309209954914406e6 -1 1.833302036260897e6 -1 1.7739385450513335e6 1 -1.041553984633135e6 1 -1.9107285070143598e6 1 -1.9444579706375294e6 1 -720834.0135143292 -1 -1.9232302941651084e6 -1 1.826911094548756e6 1 -1.910488090440396e6 -1 1.808937819172277e6 -1 1.827783130180117e6 1 -1.910890614359185e6 1 -1.9119575705180005e6 1 1.722872452342028e6 1 -725970.3716603508 1 1.8053549493619292e6 1 -726769.738428498 1 -1.916053774828454e6 1 -1.9480756546586114e6 1 -1.9205073471859659e6 -1 1.7304758275827477e6 -1 1.8163520052360115e6 1 -1.917834001657372e6 -1 631738.332813545 1 1.7863615053508964e6
35 1 0.0 -1 -742208.6305894022 1 1.859113656587959e6 -1 -2.0198677652479257e6 1 1.7853510049722106e6 -1 -1.9591191144101517e6 -1 -1.9761700994917157e6 -1 -1.976531588041625e6 1 652786.11673722 -1 1.8763770479591105e6 1 651444.1043724931 1 -1.9755460879373634e6 1 1.8407650387987124e6 -1 -2.0309507121273146e6 1 1.850776082738944e6 1 1.8673912518995653e6 -1 -1.9946355468638623e6 -1 -1.9762867368834168e6 -1 1.7847943635647653e6 -1 -737076.6279494654 1 1.8517583366549974e6 1 1.840148529414673e6 1 1.3834331073954816e6 -1 -1.9745339658406812e6 1 1.8433663001931394e6 -1 -2.005245364170182e6 -1 -2.0161560580055532e6 -1 -1.0952056553764793e6 1 1.8400583334522727e6 1 1.844164740084957e6 1 1.8778631394764814e6 -1 -1.9770601378498792e6 1 1.8531518637825595e6 -1 -1.0963570389750318e6 1 1.8737231547003407e6 1 1.8429900949633594e6 1 1.3860949903160702e6 1 1.8432112592238681e6 -1 -1.974585089841511e6 1 1.8476877940794674e6 1 1.7821934854388726e6 -1 -1.9743441060906732e6 -1 -1.976261028288126e6 -1 -1.9764374594773538e6 -1 -1.095008277749986e6 -1 -1.0920356092638653e6 -1 -2.0235442951344408e6 -1 -1.9758617253108835e6 -1 -1.9636901960367772e6 1 1.7771635059517473e6 -1 -1.9721686892211314e6 1 1.7763602263759335e6 -1 -1.9787733857370084e6 1 1.8642118851655645e6 -1 -1.0883108207641167e6 -1 -1.0967180781876165e6 -1 -1.9982866282038777e6 -1 -1.9912672795823538e6 1 1.784607293496923e6 1 1.7816138438962435e6 1 1.840213062093278e6 1 1.86284481197202e6 1 1.83511385441957e6 -1 -1.096357781679683e6 1 1.8305726646712557e6 -1 -2.001808691822496e6 1 1.3870228080265133e6 1 1.8720554071544607e6 -1 -1.976814204447064e6 1 1.8555319428134575e6 -1 -1.9874945473163568e6 1 1.8437353237973996e6 -1 -1.093788519414741e6 1 1.8709728015069643e6 1 1.8323582169438596e6 1 1.831001984211987e6 1 1.853858510031663e6 -1 -1.097714448480025e6 -1 -2.0125048826018134e6 -1 -1.976652210697072e6 -1 -744148.0516727555 1 -1.9555966552326255e6 1 1.839560136505162e6 -1 -2.0272135600331658e6 1 1.8402732286353286e6 1 1.8366948986351942e6 -1 -2.0089297164453096e6 -1 -1.9875730315961505e6 -1 1.7824833213436229e6 -1 -741809.862816119 -1 1.8404276323263098e6 -1 -738871.9560829372 -1 -1.9841946889039457e6 -1 -1.9765326212168252e6 -1 -1.9603482552561413e6 1 1.7788748760803554e6 1 1.840212867696405e6 -1 -1.9807255207302058e6 1 654124.6328241776 -1 1.8438578293232515e6
36 1 0.0 1 -753383.1100960475 -1 1.8867117925496816e6 1 -2.037112911302152e6 -1 1.8277876279684892e6 1 -2.0343657870055796e6 1 -2.075635262575182e6 1 -2.061047657119775e6 -1 672362.8813943173 1 1.8778142694115294e6 -1 674758.1425309194 -1 -2.0290821500234879e6 -1 1.916947730277713e6 1 -2.036984037677554e6 -1 1.897060586207312e6 -1 1.8837775673573005e6 1 -2.0380416074273924e6 1 -2.068277352964225e6 1 1.830968260062373e6 1 -759462.927960098 -1 1.8943055666220363e6 -1 1.9350175884003192e6 -1 1.4365693282397133e6 1 -2.086723070929464e6 -1 1.9083371711681527e6 1 -2.0374396042297247e6 1 -2.0371384775611088e6 1 -1.1351196113658466e6 -1 1.9386646659392477e6 -1 1.897923790555983e6 -1 1.8755630874275712e6 1 -2.046627112922713e6 -1 1.8919618202482692e6 1 -1.13253372146307e6 -1 1.8788976496540888e6 -1 1.915435512941031e6 -1 1.435493937658973e6 -1 1.9119194037002106e6 1 -2.0830369214289647e6 -1 1.8977095710491645e6 -1 1.8395792024404674e6 1 -2.0346416846807848e6 1 -2.0719889178702633e6 1 -2.064690802056833e6 1 -1.1386595072406824e6 1 -1.14316138575722e6 1 -2.037052167687338e6 1 -2.0790641618956788e6 1 -2.031462321629547e6 -1 1.8457610434573295e6 1 -2.036203541312572e6 -1 1.8486950373828446e6 1 -2.044603087308513e6 -1 1.8843354741246288e6 1 -1.1431738707588005e6 1 -1.1254202136729967e6 1 -2.0379554152660787e6 1 -2.038410613647213e6 -1 1.8345184634958599e6 -1 1.8427368343991674e6 -1 1.9276075740762658e6 -1 1.8867056744324134e6 -1 1.9449320074105323e6 1 -1.1287971906663922e6 -1 1.9516026381662053e6 1 -2.0377402053833678e6 -1 1.432684481868087e6 -1 1.8809671756095379e6 1 -2.050118453021227e6 -1 1.886867352276509e6 1 -2.042112428383874e6 -1 1.9049689212710839e6 1 -1.1411770224067667e6 -1 1.8836218434633703e6 -1 1.945913643436151e6 -1 1.9482946842056075e6 -1 1.8889311929960437e6 1 -1.122679310464076e6 1 -2.037224575658698e6 1 -2.0536937327725638e6 1 -751585.2576780719 -1 -2.0345806013293825e6 -1 1.9419037424934662e6 1 -2.0369841590847343e6 -1 1.9239304671169873e6 -1 1.9427757781248274e6 1 -2.0373866830035234e6 1 -2.0384536391623386e6 1 1.8361317648438888e6 1 -756721.6158240935 1 1.9203475973066394e6 1 -757520.9825922408 1 -2.042549843472792e6 1 -2.057311416793646e6 1 -2.0318576543502402e6 -1 1.8437351400846085e6 -1 1.931344653180722e6 1 -2.0428179488003813e6 -1 669964.1239799458 1 1.9013541532956066e6
37 1 0.0 -1 -772959.8747531448 1 1.9741063045326695e6 -1 -2.1403153478869474e6 1 1.8986103174740714e6 -1 -2.1036500340996785e6 -1 -2.0966176821307375e6 -1 -2.0969791706806468e6 1 691011.9079036207 -1 1.991369695903821e6 1 689669.8955388939 1 -2.109578217621574e6 1 1.9557576867434226e6 -1 -2.1513982947663367e6 1 1.9657687306836545e6 1 1.9823838998442756e6 -1 -2.115083129502884e6 -1 -2.0967343195224388e6 -1 1.898053676066626e6 -1 -767827.872113208 1 1.9667509845997076e6 1 1.9551411773593836e6 1 1.4809335882290807e6 -1 -2.0964936699810324e6 1 1.9583589481378496e6 -1 -2.125692946809204e6 -1 -2.136603640644575e6 -1 -1.1763309812074201e6 1 1.955050981396983e6 1 1.9591573880296673e6 1 1.9928557874211918e6 -1 -2.0975077204889013e6 1 1.9681445117272697e6 -1 -1.1774823648059727e6 1 1.9887158026450512e6 1 1.9579827429080699e6 1 1.4835954711496695e6 1 1.9582039071685786e6 -1 -2.096544793981862e6 1 1.9626804420241779e6 1 1.8954527979407331e6 -1 -2.0964513847722255e6 -1 -2.096708610927148e6 -1 -2.0968850421163756e6 -1 -1.176133603580927e6 -1 -1.1731609350948064e6 -1 -2.143991877773463e6 -1 -2.0963093079499053e6 -1 -2.1082211157263042e6 1 1.890422818453608e6 -1 -2.0942759679026837e6 1 1.8896195388777943e6 -1 -2.09922096837603e6 1 1.979204533110275e6 -1 -1.1694361465950578e6 -1 -1.1778434040185576e6 -1 -2.1187342108428995e6 -1 -2.1117148622213756e6 1 1.8978666059987838e6 1 1.8948731563981043e6 1 1.9552057100379884e6 1 1.9778374599167304e6 1 1.9501065023642804e6 -1 -1.177483107510624e6 1 1.945565312615966e6 -1 -2.1222562744615176e6 1 1.4845232888601127e6 1 1.9870480550991711e6 -1 -2.097261787086086e6 1 1.9705245907581677e6 -1 -2.1079421299553784e6 1 1.9587279717421099e6 -1 -1.1749138452456822e6 1 1.9859654494516745e6 1 1.94735086488857e6 1 1.9459946321566973e6 1 1.9688511579763733e6 -1 -1.178839774310966e6 -1 -2.132952465240835e6 -1 -2.097099793336094e6 -1 -774899.2958364981 1 -2.1001275749221523e6 1 1.9545527844498723e6 -1 -2.1476611426721876e6 1 1.9552658765800388e6 1 1.9516875465799046e6 -1 -2.1293772990843314e6 -1 -2.108020614235172e6 -1 1.8957426338454837e6 -1 -772561.1069798616 -1 1.95542028027102e6 -1 -769623.20024668 -1 -2.1046422715429673e6 -1 -2.096980203855847e6 -1 -2.1048791749456683e6 1 1.8921341885822162e6 1 1.9552055156411154e6 -1 -2.1011731033692276e6 1 692350.4239905784 -1 1.9588504772679617e6
38 1 0.0 1 -784134.3542597902 -1 2.001704440494392e6 1 -2.157560493941174e6 -1 1.94104694047035e6 1 -2.1502524586738413e6 1 -2.2036434527208493e6 1 -2.1890558472654424e6 -1 710588.672560718 1 1.9928069173562399e6 -1 712983.9336973202 -1 -2.1404324571877625e6 -1 2.0319403782224231e6 1 -2.1574316203165757e6 -1 2.0120532341520225e6 -1 1.9987702153020108e6 1 -2.158489190066414e6 1 -2.1962855431098924e6 1 1.9442275725642338e6 1 -790214.1721238407 -1 2.0092982145667465e6 -1 2.0500102363450297e6 -1 1.5340698090733124e6 1 -2.2109939875738025e6 -1 2.023329819112863e6 1 -2.1578871868687468e6 1 -2.1575860602001306e6 1 -1.2162449371967874e6 -1 2.053657313883958e6 -1 2.0129164385006933e6 -1 1.9905557353722816e6 1 -2.1746353030683803e6 -1 2.0069544681929795e6 1 -1.2136590472940109e6 -1 1.9938902975987992e6 -1 2.0304281608857415e6 -1 1.5329944184925724e6 -1 2.026912051644921e6 1 -2.207307838073303e6 -1 2.012702218993875e6 -1 1.952838514942328e6 1 -2.170185935866324e6 1 -2.1999971080159307e6 1 -2.1926989922025003e6 1 -1.2197848330716235e6 1 -1.224286711588161e6 1 -2.15749975032636e6 1 -2.216059020545333e6 1 -2.1428126287938217e6 -1 1.9590203559591903e6 1 -2.1732599139994406e6 -1 1.9619543498847054e6 1 -2.17261127745418e6 -1 1.9993281220693393e6 1 -1.2242991965897416e6 1 -1.2065455395039378e6 1 -2.1584029979051e6 1 -2.1588581962862345e6 -1 1.9477777759977207e6 -1 1.9559961469010282e6 -1 2.0426002220209762e6 -1 2.0016983223771239e6 -1 2.0599246553552428e6 1 -1.2099225164973333e6 -1 2.0665952861109155e6 1 -2.1581877880223896e6 -1 1.5301849627016864e6 -1 1.9959598235542483e6 1 -2.178126643166894e6 -1 2.0018600002212191e6 1 -2.165584254025554e6 -1 2.019961569215794e6 1 -1.2223023482377077e6 -1 1.9986144914080806e6 -1 2.0609062913808615e6 -1 2.063287332150318e6 -1 2.003923840940754e6 1 -1.203804636295017e6 1 -2.15767215829772e6 1 -2.181701922918231e6 1 -782336.5018418145 -1 -2.151979394498973e6 -1 2.0568963904381765e6 1 -2.157431741723756e6 -1 2.0389231150616976e6 -1 2.0577684260695379e6 1 -2.157834265642545e6 1 -2.1619254648040184e6 1 1.9493910773457496e6 1 -787472.8599878361 1 2.0353402452513496e6 1 -788272.2267559835 1 -2.167533790615801e6 1 -2.1853196069393135e6 1 -2.1462322045171726e6 -1 1.9569944525864692e6 -1 2.0463373011254324e6 1 -2.1693140174447196e6 -1 708189.9151463466 1 2.0163468012403168e6
39 1 0.0 -1 -803711.1189168874 1 2.08909895247738e6 -1 -2.2637871735286275e6 1 2.0118696299759322e6 -1 -2.2195367057679403e6 -1 -2.224625872276405e6 -1 -2.2249873608263144e6 1 729237.6990700215 -1 2.106362343848531e6 1 727895.6867052946 1 -2.220928524785849e6 1 2.0707503346881329e6 -1 -2.2748701204080167e6 1 2.080761378628365e6 1 2.097376547788986e6 -1 -2.2385549551445637e6 -1 -2.224742509668106e6 -1 2.0113129885684869e6 -1 -798579.1162769507 1 2.0817436325444179e6 1 2.070133825304094e6 1 1.5784340690626798e6 -1 -2.2245018601267e6 1 2.0733515960825598e6 -1 -2.249164772450884e6 -1 -2.260075466286255e6 -1 -1.257456307038361e6 1 2.0700436293416931e6 1 2.0741500359743775e6 1 2.1078484353659023e6 -1 -2.2255159106345684e6 1 2.08313715967198e6 -1 -1.2586076906369135e6 1 2.1037084505897616e6 1 2.0729753908527803e6 1 1.5810959519832688e6 1 2.073196555113289e6 -1 -2.2245529841275294e6 1 2.0776730899688883e6 1 2.0087121104425937e6 -1 -2.2078016919365e6 -1 -2.2247168010728154e6 -1 -2.2248932322620433e6 -1 -1.257258929411868e6 -1 -1.2542862609257475e6 -1 -2.267463703415143e6 -1 -2.2258296195969013e6 -1 -2.219571422890579e6 1 2.0036821309554689e6 -1 -2.205626275066958e6 1 2.002878851379655e6 -1 -2.2287412800230267e6 1 2.0941971810549854e6 -1 -1.250561472425999e6 -1 -1.2589687298494987e6 -1 -2.242206036484579e6 -1 -2.2351866878630556e6 1 2.0111259185006446e6 1 2.008132468899965e6 1 2.0701983579826988e6 1 2.0928301078614409e6 1 2.0650991503089909e6 -1 -1.258608433341565e6 1 2.0605579605606762e6 -1 -2.2457281001031976e6 1 1.582023769693712e6 1 2.102040703043882e6 -1 -2.225269977231753e6 1 2.085517238702878e6 -1 -2.2344381985997166e6 1 2.07372061968682e6 -1 -1.2560391710766233e6 1 2.100958097396385e6 1 2.0623435128332805e6 1 2.0609872801014078e6 1 2.0838438059210835e6 -1 -1.259965100141907e6 -1 -2.2564242908825153e6 -1 -2.225107983481761e6 -1 -805650.5400002408 1 -2.217526368091743e6 1 2.0695454323945825e6 -1 -2.2711329683138677e6 1 2.070258524524749e6 1 2.066680194524615e6 -1 -2.2528491247260114e6 -1 -2.2345166828795103e6 -1 2.0090019463473444e6 -1 -803312.3511436043 -1 2.0704129282157302e6 -1 -800374.4444104227 -1 -2.2326504616886345e6 -1 -2.224988394001514e6 -1 -2.2192537251126007e6 1 2.005393501084077e6 1 2.0701981635858258e6 -1 -2.230693415016224e6 1 730576.2151569792 -1 2.073843125212672e6
40 1 0.0 1 -814885.5984235328 -1 2.1166970884391023e6 1 -2.281032319582854e6 -1 2.0543062529722108e6 1 -2.283571557859381e6 1 -2.3278283088612e6 1 -2.3132407034057933e6 -1 748814.4637271188 1 2.10779956530095e6 -1 751209.7248637209 -1 -2.2774888298746315e6 -1 2.1469330261671334e6 1 -2.280903445958256e6 -1 2.127045882096733e6 -1 2.113762863246721e6 1 -2.2819610157080935e6 1 -2.3204703992502433e6 1 2.0574868850660946e6 1 -820965.4162875833 -1 2.1242908625114565e6 -1 2.16500288428974e6 -1 1.6315702899069116e6 1 -2.3351788437141534e6 -1 2.138322467057573e6 1 -2.281359012510427e6 1 -2.2810578858418106e6 1 -1.2973702630277283e6 -1 2.168649961828668e6 -1 2.1279090864454038e6 -1 2.1055483833169923e6 1 -2.2988201592087313e6 -1 2.12194711613769e6 1 -1.2947843731249517e6 -1 2.1088829455435094e6 -1 2.1454208088304517e6 -1 1.6304948993261717e6 -1 2.1419046995896315e6 1 -2.331492694213654e6 -1 2.1276948669385854e6 -1 2.0660978274441885e6 1 -2.2830483645319277e6 1 -2.3241819641562817e6 1 -2.3168838483428513e6 1 -1.3009101589025646e6 1 -1.3054120374191022e6 1 -2.28097157596804e6 1 -2.295396594669735e6 1 -2.2798690014806907e6 -1 2.072279668461051e6 1 -2.284610221163715e6 -1 2.0752136623865662e6 1 -2.2945709815945313e6 -1 2.1143207700140495e6 1 -1.3054245224206827e6 1 -1.287670865334879e6 1 -2.28187482354678e6 1 -2.2823300219279146e6 -1 2.0610370884995814e6 -1 2.069255459402889e6 -1 2.157592869965687e6 -1 2.116690970321834e6 -1 2.174917303299953e6 1 -1.2910478423282744e6 -1 2.181587934055626e6 1 -2.2816596136640697e6 -1 1.6276854435352858e6 -1 2.1109524714989588e6 1 -2.302311499307245e6 -1 2.1168526481659296e6 1 -2.289056079667234e6 -1 2.1349542171605043e6 1 -1.3034276740686488e6 -1 2.113607139352791e6 -1 2.175898939325572e6 -1 2.1782799800950284e6 -1 2.118916488885464e6 1 -1.2849299621259582e6 1 -2.2811439839394e6 1 -2.305886779058582e6 1 -813087.7460055571 -1 -2.2890357671858417e6 -1 2.171889038382887e6 1 -2.280903567365436e6 -1 2.153915763006408e6 -1 2.1727610740142483e6 1 -2.281306091284225e6 1 -2.2853972904456984e6 1 2.0626503898476104e6 1 -818224.1041515787 1 2.15033289319606e6 1 -819023.4709197263 1 -2.291005616257481e6 1 -2.3095044630796644e6 1 -2.2870258507053703e6 -1 2.07025376508833e6 -1 2.1613299490701426e6 1 -2.2927858430863996e6 -1 746415.7063127473 1 2.1313394491850273e6
41 1 0.0 -1 -834462.3630806301 1 2.20409160042209e6 -1 -2.3917953636742947e6 1 2.125128942477793e6 -1 -2.334710346937531e6 -1 -2.3450734549154267e6 -1 -2.345434943465336e6 1 767463.4902364223 -1 2.2213549917932414e6 1 766121.4778716954 1 -2.357984897472718e6 1 2.185742982632843e6 -1 -2.402878310553684e6 1 2.1957540265730754e6 1 2.212369195733696e6 -1 -2.366563145290231e6 -1 -2.345190092307128e6 -1 2.1245723010703474e6 -1 -829330.3604406933 1 2.196736280489128e6 1 2.1851264732488045e6 1 1.675934549896279e6 -1 -2.3449494427657216e6 1 2.18834424402727e6 -1 -2.377172962596551e6 -1 -2.388083656431922e6 -1 -1.3385816328693018e6 1 2.1850362772864033e6 1 2.189142683919088e6 1 2.222841083310613e6 -1 -2.34596349327359e6 1 2.1981298076166906e6 -1 -1.3397330164678544e6 1 2.218701098534472e6 1 2.1879680387974903e6 1 1.6785964328168682e6 1 2.1881892030579993e6 -1 -2.345000566766551e6 1 2.192665737913599e6 1 2.1219714229444545e6 -1 -2.337924427111407e6 -1 -2.345164383711837e6 -1 -2.345340814901065e6 -1 -1.3383842552428092e6 -1 -1.3354115867566885e6 -1 -2.39547189356081e6 -1 -2.346277202235923e6 -1 -2.356627795577448e6 1 2.1169414434573296e6 -1 -2.3320117367405356e6 1 2.1161381638815156e6 -1 -2.3491888626620485e6 1 2.2091898289996954e6 -1 -1.33168679825694e6 -1 -1.3400940556804398e6 -1 -2.3702142266302463e6 -1 -2.363194878008723e6 1 2.1243852310025054e6 1 2.1213917814018256e6 1 2.1851910059274095e6 1 2.207822755806151e6 1 2.180091798253701e6 -1 -1.3397337591725062e6 1 2.175550608505387e6 -1 -2.3737362902488653e6 1 1.6795242505273113e6 1 2.217033350988592e6 -1 -2.345717559870775e6 1 2.2005098866475886e6 -1 -2.3548857812387384e6 1 2.1887132676315303e6 -1 -1.3371644969075643e6 1 2.215950745341095e6 1 2.1773361607779907e6 1 2.1759799280461185e6 1 2.198836453865794e6 -1 -1.3410904259728482e6 -1 -2.3844324810281824e6 -1 -2.345555566120783e6 -1 -836401.7841639834 1 -2.3274506142586754e6 1 2.184538080339293e6 -1 -2.399141158459535e6 1 2.1852511724694595e6 1 2.1816728424693253e6 -1 -2.3808573148716786e6 -1 -2.3579885085211904e6 -1 2.1222612588492054e6 -1 -834063.5953073469 -1 2.1854055761604407e6 -1 -831125.6885741655 -1 -2.3530980443276563e6 -1 -2.3454359766405364e6 -1 -2.329177971279533e6 1 2.1186528135859375e6 1 2.185190811530536e6 -1 -2.351140997655246e6 1 768802.0063233799 -1 2.1888357731573824e6
42 1 0.0 1 -845636.8425872754 -1 2.2316897363838125e6 1 -2.409040509728521e6 -1 2.1675655654740715e6 1 -2.4024824725303007e6 1 -2.4513001345028803e6 1 -2.4367125290474733e6 -1 787040.2548935196 1 2.22279221324566e6 -1 789435.5160301217 -1 -2.390351258540235e6 -1 2.2619256741118436e6 1 -2.408911636103923e6 -1 2.242038530041443e6 -1 2.2287555111914314e6 1 -2.4099692058537607e6 1 -2.4439422248919234e6 1 2.170746197567955e6 1 -851716.6604513259 -1 2.2392835104561667e6 -1 2.2799955322344503e6 -1 1.7290707707405107e6 1 -2.4586506693558334e6 -1 2.2533151150022834e6 1 -2.409367202656094e6 1 -2.409066075987478e6 1 -1.3784955888586692e6 -1 2.2836426097733784e6 -1 2.242901734390114e6 -1 2.220541031261703e6 1 -2.4222919848504113e6 -1 2.2369397640824e6 1 -1.3759096989558926e6 -1 2.2238755934882197e6 -1 2.260413456775162e6 -1 1.727995380159771e6 -1 2.2568973475343417e6 1 -2.454964519855334e6 -1 2.2426875148832956e6 -1 2.1793571399460495e6 1 -2.4019592792028477e6 1 -2.4476537897979617e6 1 -2.4403556739845313e6 1 -1.3820354847335056e6 1 -1.3865373632500432e6 1 -2.4089797661137073e6 1 -2.418868420311415e6 1 -2.392731430146294e6 -1 2.1855389809629116e6 1 -2.4035211358346343e6 -1 2.1884729748884267e6 1 -2.4180428072362114e6 -1 2.2293134179587597e6 1 -1.3865498482516238e6 1 -1.36879619116582e6 1 -2.409883013692447e6 1 -2.4103382120735818e6 -1 2.174296401001442e6 -1 2.18251477190475e6 -1 2.2725855179103976e6 -1 2.2316836182665443e6 -1 2.2899099512446634e6 1 -1.3721731681592155e6 -1 2.2965805820003366e6 1 -2.4096678038097373e6 -1 1.725185924368885e6 -1 2.225945119443669e6 1 -2.425783324948925e6 -1 2.2318452961106403e6 1 -2.412527905308914e6 -1 2.2499468651052145e6 1 -1.38455299989959e6 -1 2.228599787297501e6 -1 2.290891587270282e6 -1 2.293272628039739e6 -1 2.233909136830175e6 1 -1.3660552879568993e6 1 -2.409152174085067e6 1 -2.4293586047002617e6 1 -843838.9901692998 -1 -2.4064345603554323e6 -1 2.286881686327597e6 1 -2.408911757511103e6 -1 2.2689084109511185e6 -1 2.2877537219589585e6 1 -2.4093142814298924e6 1 -2.4088691160873785e6 1 2.1759097023494714e6 1 -848975.3483153214 1 2.2653255411407705e6 1 -849774.715083469 1 -2.414477441899161e6 1 -2.4329762887213444e6 1 -2.404424643874961e6 -1 2.1835130775901903e6 -1 2.276322597014853e6 1 -2.4162576687280796e6 -1 784641.4974791481 1 2.2463320971297375e6
43 1 0.0 -1 -865213.6072443727 1 2.3190842483668e6 -1 -2.5085056728119873e6 1 2.2383882549796537e6 -1 -2.4717667196243997e6 -1 -2.4685452805571067e6 -1 -2.4689067691070163e6 1 805689.281402823 -1 2.3363476397379516e6 1 804347.2690380962 1 -2.4708473261383213e6 1 2.300735630577553e6 -1 -2.5195886196913766e6 1 2.3107466745177857e6 1 2.3273618436784064e6 -1 -2.4832734544279235e6 -1 -2.468661917948808e6 -1 2.237831613572208e6 -1 -860081.604604436 1 2.3117289284338383e6 1 2.3001191211935147e6 1 1.773435030729878e6 -1 -2.4684212684074016e6 1 2.30333689197198e6 -1 -2.4938832717342437e6 -1 -2.504793965569615e6 -1 -1.4197069587002427e6 1 2.3000289252311136e6 1 2.304135331863798e6 1 2.3378337312553236e6 -1 -2.4694353189152703e6 1 2.313122455561401e6 -1 -1.4208583422987952e6 1 2.333693746479182e6 1 2.3029606867422005e6 1 1.7760969136504675e6 1 2.3031818510027095e6 -1 -2.4684723924082313e6 1 2.307658385858309e6 1 2.2352307354463153e6 -1 -2.474980799798276e6 -1 -2.4686362093535173e6 -1 -2.468812640542745e6 -1 -1.4195095810737503e6 -1 -1.4165369125876296e6 -1 -2.5121822026985027e6 -1 -2.469749027877603e6 -1 -2.4694902242430514e6 1 2.2302007559591904e6 -1 -2.469068109427404e6 1 2.2293974763833764e6 -1 -2.4726606883037286e6 1 2.3241824769444056e6 -1 -1.412812124087881e6 -1 -1.421219381511381e6 -1 -2.486924535767939e6 -1 -2.4799051871464155e6 1 2.237644543504366e6 1 2.2346510939036864e6 1 2.30018365387212e6 1 2.322815403750861e6 1 2.2950844461984113e6 -1 -1.4208590850034473e6 1 2.2905432564500975e6 -1 -2.4904465993865584e6 1 1.7770247313609107e6 1 2.3320259989333022e6 -1 -2.469189385512455e6 1 2.3155025345922993e6 -1 -2.4783576068804185e6 1 2.3037059155762405e6 -1 -1.4182898227385054e6 1 2.3309433932858054e6 1 2.292328808722701e6 1 2.290972575990829e6 1 2.3138291018105047e6 -1 -1.4222157518037893e6 -1 -2.501142790165875e6 -1 -2.4690273917624624e6 -1 -867153.0283277261 1 -2.464506986945544e6 1 2.299530728284003e6 -1 -2.5158514675972275e6 1 2.30024382041417e6 1 2.2966654904140355e6 -1 -2.4975676240093713e6 -1 -2.523283373176161e6 -1 2.235520571351066e6 -1 -864814.8394710895 -1 2.3003982241051514e6 -1 -861876.9327379082 -1 -2.4765698699693363e6 -1 -2.4689078022822165e6 -1 -2.4662343439664016e6 1 2.231912126087798e6 1 2.3001834594752463e6 -1 -2.474612823296926e6 1 807027.7974897807 -1 2.3038284211020926e6
44 1 0.0 1 -876388.0867510181 -1 2.3466823843285227e6 1 -2.529488092367543e6 -1 2.2808248779759323e6 1 -2.5139188401985625e6 1 -2.5793083246485475e6 1 -2.564720719193141e6 -1 825266.0460599203 1 2.3377848611903703e6 -1 827661.3071965225 -1 -2.5167367202138132e6 -1 2.376918322056554e6 1 -2.5293592187429448e6 -1 2.3570311779861534e6 -1 2.3437481591361417e6 1 -2.5304167884927825e6 1 -2.5719504150375905e6 1 2.284005510069816e6 1 -882467.9046150686 -1 2.354276158400877e6 -1 2.3949881801791606e6 -1 1.8265712515741098e6 1 -2.5866588595015006e6 -1 2.3683077629469936e6 1 -2.529814785295116e6 1 -2.5295136586264996e6 1 -1.45962091468961e6 -1 2.3986352577180886e6 -1 2.357894382334824e6 -1 2.3355336792064137e6 1 -2.548788053494749e6 -1 2.3519324120271103e6 1 -1.4570350247868334e6 -1 2.33886824143293e6 -1 2.375406104719872e6 -1 1.8254958609933704e6 -1 2.371889995479052e6 1 -2.582972710001001e6 -1 2.357680162828006e6 -1 2.2926164524479103e6 1 -2.5103714038684512e6 1 -2.575661979943629e6 1 -2.568363864130199e6 1 -1.4631608105644467e6 1 -1.4676626890809843e6 1 -2.529427348752729e6 1 -2.543852367454424e6 1 -2.5206290133212013e6 -1 2.2987982934647724e6 1 -2.5269684150095414e6 -1 2.3017322873902875e6 1 -2.540002511376562e6 -1 2.34430606590347e6 1 -1.467675174082565e6 1 -1.449921516996761e6 1 -2.530330596331469e6 1 -2.5307857947126036e6 -1 2.287555713503303e6 -1 2.2957740844066106e6 -1 2.3875781658551083e6 -1 2.3466762662112545e6 -1 2.4049025991893737e6 1 -1.4532984939901566e6 -1 2.4115732299450473e6 1 -2.530115386448759e6 -1 1.8226864052024845e6 -1 2.340937767388379e6 1 -2.552279393593263e6 -1 2.346837944055351e6 1 -2.5329754879479357e6 -1 2.3649395130499247e6 1 -1.465678325730531e6 -1 2.3435924352422114e6 -1 2.4058842352149924e6 -1 2.40826527598445e6 -1 2.3489017847748855e6 1 -1.4471806137878404e6 1 -2.529599756724089e6 1 -2.557366794845929e6 1 -874590.2343330424 -1 -2.543490933042301e6 -1 2.4018743342723073e6 1 -2.529359340150125e6 -1 2.383901058895829e6 -1 2.4027463699036688e6 1 -2.529761864068914e6 1 -2.5293166987264003e6 1 2.289169014851332e6 1 -879726.592479064 1 2.380318189085481e6 1 -880525.9592472118 1 -2.5349250245381827e6 1 -2.560984478867012e6 1 -2.5414810165618295e6 -1 2.2967723900920507e6 -1 2.391315244959563e6 1 -2.5382173728684303e6 -1 822867.2886455489 1 2.3613247450744477e6
