1 1 0.0 1 -0.031238466107253338 -1 -0.9443092706471108 1 0.4791301362626885 -1 -0.9149550796484376 -1 0.06876844603194776 -1 0.8830254275851395 1 0.4233819434067243 1 -0.07265069574412397 -1 0.8274132930738642 -1 0.19406373643542207 -1 -0.826082704742573 1 -0.8178622076770892 1 -0.4792609906298315 1 -0.1902196628716486 1 -0.2908639785276388 1 -0.39914315300734504 -1 0.6329741675754545 1 -0.285882485234622 1 -0.9347222470545051 1 0.5156130536536956 1 0.45933207065627246 1 -0.681037359241115 1 0.8389884591249532 1 -0.19211195761324484 1 0.6708415793233993 -1 -0.12575963188333317 -1 -0.7268045758446546 1 -0.9485262948170261 -1 0.5935973653535567 -1 -0.5582099816424904 -1 -0.13400657112292902 -1 -0.8495349201801077 -1 -0.04029498560624245 1 -0.8158463800944544 -1 0.03062195873830964 1 -0.0975072082852999 -1 0.17221890751183877 -1 -0.2948655671991973 -1 -0.08622072396985825 -1 -0.8068169705669637 1 0.6619491703298419 1 0.6746531808069682 1 0.9143322194474559 -1 -0.40866832813426823 1 -0.4775267601080657 -1 0.7854483490441238 -1 -0.7892005876325139 -1 -0.3345675144406537 1 -0.9779548340489543 1 0.01919917404723437 1 -0.36864737117953483 -1 0.7114618144116773 -1 0.7082422906058907 1 -0.6071246457049306 1 -0.5636176358414824 1 0.09003120101632756 -1 -0.3812906699987597 1 -0.2388918165628784 1 -0.9235373712710995 1 0.6434140440036031 -1 -0.19785232480063475 1 -0.6791949972246469 -1 0.024650601948350115 -1 -0.6547378252223159 1 -0.07767426421405532 -1 -0.2911353847746787 -1 0.4185689010190492 -1 0.021008312474448898 -1 0.43351666834709235 1 -0.823022011108242 -1 0.32793480646682727 -1 -0.9449713508978868 1 0.9314948145613968 -1 0.48316563715312144 1 0.4951578689900755 1 0.921129202731368 1 0.3143992506130324 1 -0.5638551838785448 1 -0.47590798997261663 1 -0.15564711219525407 -1 -0.2574753938341745 1 -0.33007336648525554 -1 -0.7846138904244635 1 -0.2799676742817716 -1 0.8260440018846864 1 -0.9459911943661532 1 -0.1631572181976595 1 0.594913671394752 1 -0.7937763008731338 1 0.29994363894384213 1 -0.5405288839096176 -1 0.033220534010344416 1 0.20232604659010134 -1 -0.5971440431610642 1 -0.23366446968074417 1 0.03899914733119547 -1 0.6189976597816904 1 0.6965300272341728 -1 0.2780665339095725
2 1 0.0 -1 -10827.015582963717 1 -5948.209355522639 -1 -5233.755417444812 1 3876.166146462085 1 2639.475611614565 1 2425.5822194733037 -1 -1496.5376643085826 -1 -5577.661992535191 1 1309.4017205764344 1 9556.085466181945 1 -2365.785682917395 -1 3506.587534921507 -1 2080.8651387967184 -1 -14590.768975643738 -1 -4092.079614643068 -1 -5389.601746023824 1 -10.527480909513683 -1 -2579.953131820694 -1 8755.86567754029 -1 -8970.9924358565 -1 -1496.5017141813355 -1 5388.521565511572 -1 -2423.8602055865936 -1 -10853.497366609394 -1 -5233.56370600175 1 15518.19114414271 1 -5389.929407446657 -1 8386.176169079985 1 8972.101646275509 1 -3009.6407575627168 1 19255.45639853255 1 -8757.649934707528 1 1806.8568618458655 -1 -226.68395057999138 1 6376.710966456349 -1 -3319.116165368842 1 4864.731062076042 1 5388.907737303614 1 13078.371033927815 1 6900.517287229327 -1 724.8529029183337 -1 -8970.833395729349 -1 -2423.7848618262715 1 7828.653583665487 -1 -6532.1259265474555 1 2425.4846423947647 1 -355.3044499230916 1 -1282.5879646436276 -1 997.6602418698308 -1 -4735.892498858917 -1 1281.8847497580075 1 6162.684157189214 1 9899.95443899449 -1 1651.3219768960307 -1 -4307.060017423188 -1 -4864.468811967514 1 5388.821312200817 -1 -2665.966645139266 -1 -3878.0046389130025 -1 11.803869121090411 1 10853.107402326981 -1 4091.1095556673145 1 -6961.039047431018 1 -4092.4434884897614 -1 -13078.534928915999 1 4091.4976152797635 1 1497.3796151530082 1 11411.388706345433 1 1497.3945629203388 -1 7243.855876447156 1 5234.562482387538 1 2664.782781971804 -1 -9898.314701889321 1 5234.717713218226 -1 -5233.739389712083 -1 -6161.051566172068 -1 4521.5184481607685 -1 4305.932544603471 -1 -2949.818861737979 -1 -5208.069284539092 1 1067.2882726125447 -1 -5389.5326762373015 1 -4092.573364554964 -1 -6317.220718338822 1 -1307.7482632814792 -1 4648.905202851356 -1 -18328.01541452814 -1 784.5254612524718 -1 3163.256826569942 -1 7674.3941403428225 -1 3008.5420186971646 1 2639.440063702537 -1 -3936.6183693282082 1 -2081.941543830509 -1 -6403.234919121464 -1 -2639.367844021196 1 3722.732043911775 -1 -9898.549666676645 1 -7673.81613016997
3 1 0.0 1 -3706.9838296410144 -1 13677.056753993587 1 -31963.892825206658 -1 28982.687860444035 -1 33150.360383544416 -1 64887.68599406133 1 -60934.39843623843 1 -8345.715980839283 -1 -68627.24905666975 -1 29686.77219877099 -1 -30651.51845484723 1 -54264.183680389535 1 -64118.51213712039 1 -4687.522778939856 1 -42034.03752639213 1 -24645.192151127507 -1 57915.211789691246 1 22681.53663745098 1 -12302.559202842482 1 -15872.3165400564 1 -64671.63598744027 1 -6952.654464259829 1 -54387.17397485826 1 -8424.798172563675 1 -39438.24811642174 -1 36629.25784483383 -1 -769.4968970798318 1 -31411.25803825655 -1 49697.27400140576 -1 41479.126009050786 -1 36629.249597894595 -1 1880.947670821457 -1 21648.900804429602 1 -58152.423221180754 -1 48983.68052732824 1 -16089.707493385855 -1 68597.92777871617 -1 55470.424300833685 -1 37926.71123594802 -1 21293.541346772126 1 -26847.8493703406 1 -19609.431001258334 1 -58124.37213242702 -1 15907.912352405518 1 -12291.004233830812 -1 68624.86191831187 -1 57570.43482067767 -1 24777.99280728622 1 -26575.04203138911 1 -22866.190059730794 1 -33765.3645261591 -1 52506.92721939019 -1 45960.11514500194 1 -18190.721965687706 1 -14268.115991904844 1 -43734.16487151031 -1 59207.61137705996 1 -26415.33491308185 1 -24817.837553320234 1 -61651.20890280876 -1 43175.99460700535 1 -52167.54015831464 -1 -1198.1607401476576 -1 33849.51442325931 1 -6912.562233541199 -1 13992.813995928354 -1 71434.0303923992 -1 39997.00240969472 -1 67696.77183883743 1 -33850.992183095645 -1 65230.48569769859 -1 17102.46366660764 1 -13062.365304760136 -1 61493.36742720019 1 -35701.150298803004 1 -25786.317675688297 1 -6677.211784694096 1 -54392.576818501286 1 -47438.58562835148 1 -17864.20901446996 -1 -30242.68750197548 1 -28382.39658267006 -1 37586.65804852319 1 -22205.21332652597 -1 61867.38600997746 1 -59084.291513788776 1 -4687.495716495181 1 28357.227734511413 1 -14346.281291452375 1 48769.24219988563 1 -10763.722597996071 -1 61364.27033696149 1 -45615.849782406345 -1 26203.79122809933 1 -11878.49802597952 1 -52377.52961329286 -1 61493.5032592228 1 -6515.791414683023 -1 -18312.41373569895
4 1 0.0 -1 -27021.021988067347 1 144922.20505383422 -1 -98318.2381564135 1 76985.73974348497 1 78713.55261746256 1 97210.5731987397 -1 -65980.24624485087 -1 -24426.235695884454 1 -58724.00285996587 1 67074.80803502828 1 -66652.82678871225 -1 -81733.67249697645 -1 -61689.81294307468 -1 -141337.0341367284 -1 -91927.16735095353 -1 -115021.36049562518 1 112661.74000234412 -1 85633.68252580821 -1 -22790.329120971117 -1 -126232.2662434058 -1 -58505.66329206547 -1 -50947.23874921464 -1 -78119.3892901161 -1 -133149.45852769405 -1 -93068.65144231223 1 139960.34157476475 1 44093.085941835685 -1 -101502.87687079248 1 119392.89621937499 1 129861.11573366541 1 143697.60682915465 1 136863.36947199117 1 48597.88622920365 -1 -70672.81803245137 1 122416.57624662654 -1 -51956.453870844656 1 89708.9944794073 1 117691.49951614473 1 133783.2479632208 1 87055.22258866469 -1 -71835.82620819286 -1 -118972.26784974328 -1 -74382.04044502672 1 49403.706632044006 -1 -55202.88231570216 1 85998.65511767392 1 116054.23653465963 1 83992.86519431438 -1 -75300.29237057045 -1 -85827.50390555749 -1 -63005.156356036845 1 118465.27593603032 1 126867.5578669584 -1 -51832.31634314652 -1 -53657.42822156991 -1 -89890.02119474261 1 110216.86608838374 -1 -78877.85875359227 -1 -82529.75639648878 -1 -62959.78321009212 1 127820.71083029089 -1 -87111.5759775597 1 47401.69560009696 1 144655.1451558484 -1 -137599.64809000067 1 51225.88177689591 1 85070.55009043217 1 132116.26563563844 1 92545.11204085764 -1 -94955.9425116443 1 93816.09940104788 1 46860.98444491705 -1 -129384.74050943862 1 105028.07513586579 -1 -93068.82712602257 -1 -110913.0910175278 -1 -55706.48342318433 -1 -74387.51863243006 -1 -86119.89494892562 -1 -22046.198637011148 1 -69981.2693371696 -1 -105235.53191919324 1 137180.46827712507 -1 -117830.7766736818 1 97927.5467159849 -1 -67867.41282373031 -1 -145074.28057561282 -1 80097.55311888142 -1 -21681.161061787287 -1 125939.41142051302 -1 -22179.23066391844 1 108636.25154695618 -1 -88034.43260430956 1 81681.39011379842 -1 -78534.49873198694 -1 -83584.29193120885 1 101290.93746655932 -1 -24237.079776192844 1 -121412.524085513
5 1 0.0 1 -26983.68099072549 -1 162295.99825319625 1 -133262.27397565858 -1 149508.93748936476 -1 147499.47686201328 -1 200541.65692867065 1 -172817.630095994 1 -28126.168199871685 -1 -178285.32871642534 -1 99461.5752014291 -1 -134150.5051385262 1 -157074.68633217056 1 -177513.86529820508 1 -131433.78794002454 1 -141820.29717551492 1 -135016.30230955395 -1 193569.18272430057 1 137958.39126371354 1 -33964.80862761649 1 -131278.11405201824 1 -181804.26264985403 1 -108834.53174655653 1 -160221.91962929745 1 -130720.75933364833 1 -139224.50776554452 -1 168545.95527811404 -1 92692.9422820803 1 -132709.63918870848 -1 185351.2449360151 -1 177133.09694366012 -1 168545.94703117484 -1 172923.53017799862 -1 85985.92206546094 1 -167011.4118782782 -1 184637.65146193758 1 -102369.19986552837 -1 204251.8987133255 -1 191124.39523544302 -1 173580.68217055735 -1 134130.5363239119 1 -128834.71455269051 1 -131492.6626610139 1 -165471.23928819533 -1 83054.46896697223 1 -98141.0813077277 -1 205790.95435425028 -1 193224.40575528698 -1 141566.96893487786 1 -125537.66421108086 1 -116579.4172367643 1 -135752.22970850894 -1 188160.89815399953 -1 181614.08607961127 1 -105982.33583915932 1 -100332.90071492453 1 -143520.4245206331 -1 194861.58231166925 1 -120128.56209011545 1 -118531.06473035378 1 -175046.56206389345 -1 178829.96554161469 1 -148216.52630610834 -1 88527.00493768332 -1 165766.21185653954 1 -131433.67539462587 -1 81139.37061049505 -1 210112.24432966672 -1 175650.97334430407 -1 203350.74277344675 1 -133637.25183221846 -1 200884.4566323079 -1 91723.56728383256 1 -130693.31481672198 -1 197147.3383618095 1 -135487.4099479258 1 -134645.30633278567 1 -94907.40891388078 1 -161739.44397426955 1 -150962.11877880336 1 -40695.22514631465 -1 -132229.55268432538 1 -132705.02073578016 -1 169503.35548180342 1 -134088.4449862815 -1 197521.35694458673 1 -169455.40167221526 1 -131433.76087757986 1 145146.20386210305 1 -44067.46107241988 1 184423.213134495 1 -37090.983671892864 -1 197018.2412715708 1 -145402.10943152913 -1 142992.76735569097 1 -123522.47556983918 1 -153675.9107637448 -1 197147.47419383208 1 -31674.28578150916 -1 -130195.64539545451
6 1 0.0 -1 -50297.71914915182 1 280576.17598844355 -1 -212340.56131218176 1 198096.37272594104 1 199824.18559991862 1 232864.54413334903 -1 -177863.47790460647 -1 -47702.93285696895 1 -172119.35602105054 1 130920.6042200362 1 -168639.69197106213 -1 -184544.17514875747 -1 -175085.16610415938 -1 -226973.2907831932 -1 -191713.42700007634 -1 -197633.37413943172 1 248315.71093695343 -1 205232.19400693517 -1 -46067.0262820556 -1 -238029.43739917414 -1 -171901.01645315014 -1 -149332.87108945925 -1 -183954.1349445553 -1 -241209.3561821333 -1 -192854.911091435 1 275614.3125093741 1 121309.01726347317 -1 -215525.20002656075 1 255046.86715398432 1 265515.0866682747 1 279351.57776376395 1 272517.34040660044 1 125813.81755084105 -1 -179531.8066895488 1 258070.5471812359 -1 -150342.08621108925 1 225362.96541401662 1 253345.47045075407 1 269437.2188978301 1 205141.61256846262 -1 -190456.02790516266 -1 -223294.89200285345 -1 -181728.90760079504 1 126619.63795368146 -1 -153588.51465594678 1 223164.7475536123 1 251708.20746926893 1 205103.49817677043 -1 -190896.25106488206 -1 -196887.0980958818 -1 -161967.77853572852 1 254119.24687063968 1 262521.52880156774 -1 -150217.94868339112 -1 -152043.06056181452 -1 -189676.28084386542 1 245870.83702299302 -1 -192961.6959465748 -1 -195101.47208814218 -1 -176355.1363711768 1 263474.6817649002 -1 -186897.83562668247 1 124617.62692173435 1 280309.1160904577 -1 -234447.72524045268 1 128441.8130985334 1 223748.76402769968 1 267770.2365702478 1 228199.08297546697 -1 -208978.26566741255 1 229470.0703356572 1 124076.9157665545 -1 -244919.18516653607 1 240682.0460704751 -1 -194367.20827647447 -1 -200999.65166399252 -1 -154092.11576342897 -1 -181734.38578819833 -1 -185906.15459804842 -1 -45322.895798095604 1 -178016.62052483583 -1 -219257.85507496152 1 272834.43921173434 -1 -205692.18532014653 1 233581.51765059418 -1 -178238.52298215678 -1 -230710.5372220776 -1 201208.1861013375 -1 -44957.85822287175 -1 261593.38235512236 -1 -45455.927825002895 1 244290.2224815655 -1 -187820.69225343235 1 202792.02309625447 -1 -192618.33592496943 -1 -184882.67308166076 1 236944.9084011686 -1 -47513.776937277355 1 -248158.78924659768
7 1 0.0 1 -50260.378151809964 -1 297949.9691878056 1 -236072.77662743963 -1 270619.5704718208 -1 268610.10984446935 -1 336195.62786327995 1 -283188.7402544205 1 -51402.86536095619 -1 -288656.43887485185 -1 163307.37138643704 -1 -243697.97782752145 1 -265933.6749892679 1 -287884.9754566316 1 -235756.4120931347 1 -247655.04282995407 1 -236314.68346000588 -1 329223.1536589099 1 255331.75074484054 1 -57241.505788700975 1 -235600.73820512844 1 -292175.3728082805 1 -207220.16408680115 1 -269080.9082863948 1 -235043.3834867585 1 -243547.13191865457 -1 304199.92621272337 -1 169908.87360371777 1 -235520.14184048952 -1 321005.2158706244 -1 312787.0678782694 -1 304199.91796578415 -1 308577.5011126079 -1 163201.85338709835 1 -275870.40053537564 -1 320291.62239654694 1 -200754.83220577295 -1 339905.8696479348 -1 326778.3661700524 -1 309234.6531051666 -1 258978.44280769705 1 -233845.82273769856 1 -235815.28681412406 1 -274330.2279452927 -1 160270.40028860967 1 -196526.71364797233 -1 345182.19879018865 -1 328878.3766898963 -1 262677.6019173339 1 -230548.7723960889 1 -217054.16091778505 1 -240763.33789351693 -1 323814.8690886089 -1 317268.0570142206 1 -204367.96817940392 1 -198718.53305516916 1 -252379.4131777304 -1 330515.55324627855 1 -222115.42727246528 1 -219005.8084113745 1 -285417.67222232 -1 314483.936476224 1 -257075.51496320564 -1 165742.9362593207 -1 301420.18279114884 1 -235756.29954773604 -1 158355.30193213254 -1 342028.94176294695 -1 311304.94427891343 -1 339004.7137080561 1 -236447.75448399948 -1 336538.42756691726 -1 168939.49860547003 1 -235015.9389698322 -1 332801.3092964188 1 -239810.03410103585 1 -235943.6874832376 1 -193293.04125412542 1 -270598.43263136694 1 -259821.1074359007 1 -63971.922307399116 -1 -241777.02537332068 1 -235515.52338756123 -1 305157.3264164127 1 -236898.94763806253 -1 333175.32787919603 1 -278314.39032931265 1 -235756.38503069006 1 266256.8368445591 1 -67344.15823350433 1 320077.1840691043 1 -60367.68083297732 -1 332672.2122061801 1 -254261.09808862646 -1 264103.400338147 1 -227021.4622535181 1 -262534.8994208421 -1 332801.4451284413 1 -54950.98294259367 -1 -234518.2695485647
8 1 0.0 -1 -73574.4163102363 1 416230.1469230529 -1 -312925.91196396283 1 319207.00570839713 1 320934.8185823747 1 368518.51506795833 -1 -288234.58806303295 -1 -70979.63001805346 1 -282490.46617947705 1 190230.0359010569 1 -268401.4051534119 -1 -293403.1638058548 -1 -285456.2762625859 -1 -323821.36793364515 -1 -297548.1726545155 -1 -309430.54529519996 1 383969.6818715628 -1 326342.82698939124 -1 -69343.72344314009 -1 -334877.51454962615 -1 -282272.12661157665 -1 -247718.50342970388 -1 -292813.1236016526 -1 -345531.9803352435 -1 -298689.65674587415 1 411268.2834439834 1 200037.07008643972 -1 -338534.19168631634 1 390700.8380885936 1 401169.057602884 1 415005.54869837326 1 408171.31134120974 1 203029.74887247846 -1 -288390.7953466463 1 393724.5181158453 -1 -248727.71855133385 1 361016.9363486259 1 388999.4413853634 1 405091.1898324394 1 326252.2455509187 -1 -295467.1360901707 -1 -320142.9691533054 -1 -290587.8962578924 1 203835.5692753189 -1 -251974.1469961914 1 358818.7184882216 1 387362.17840387824 1 326214.13115922647 -1 -295907.3592498901 -1 -297361.84177690255 -1 -274453.4337233947 1 389773.21780524903 1 398175.4997361771 -1 -248603.58102363572 -1 -250428.69290205915 -1 -298535.2695009627 1 381524.8079576023 -1 -294948.5611289246 -1 -295576.2157691629 -1 -286726.2465296034 1 399128.6526995095 -1 -295756.8242837798 1 203345.6797447008 1 415963.087025067 -1 -331295.8023909047 1 205657.74442017087 1 359402.734962309 1 403424.20750485716 1 363853.05391007627 -1 -305826.3428178645 1 365124.0412702666 1 202804.96858952107 -1 -349241.80931964633 1 376336.0170050844 -1 -301714.07543224265 -1 -316534.0963210899 -1 -252477.7481036736 -1 -290593.3744452957 -1 -294765.14325514575 -1 -68599.59295918007 1 -271729.8477018693 -1 -342266.84673471714 1 408488.41014634364 -1 -302540.26247059845 1 369235.4885852035 -1 -287097.51163925417 -1 -327558.6143725296 -1 322318.81908379355 -1 -68234.5553839562 -1 397247.3532897317 -1 -68732.62498608735 1 379944.1934161748 -1 -296679.6809105297 1 323902.6560787105 -1 -296117.32260864833 -1 -293741.6617387581 1 372598.87933577783 -1 -70790.47409836187 1 -352481.4133997079
9 1 0.0 1 -73537.07531289443 -1 433603.94012241496 1 -340395.40078054974 -1 391730.20345427695 -1 389720.7428269254 -1 471849.59879788925 1 -388310.4554101888 1 -74679.5625220407 -1 -397515.4275319493 -1 213544.07405948322 -1 -347196.9645112003 1 -374792.6636463652 1 -396743.9641137291 1 -340079.03624624485 1 -351178.57598040596 1 -340637.30761311593 -1 464877.12459351926 1 376442.3837272966 1 -80518.20294978547 1 -339923.3623582386 1 -401034.36146537797 1 -305605.7964270458 1 -377939.8969434921 1 -339366.0076398687 1 -344845.51306910644 -1 439853.89714733267 -1 250149.04792801343 1 -339842.7659935997 -1 456659.1868052337 -1 448441.0388128787 -1 439853.88890039345 -1 444231.4720472172 -1 245667.17971139395 1 -384729.3891924731 -1 455945.5933311563 1 -299140.4645460176 -1 475559.8405825441 -1 462432.3371046617 -1 444888.6240397759 -1 380089.0757901531 1 -339656.0219253648 1 -340137.9109672342 1 -383189.21660239017 -1 238998.4531115762 1 -294912.3459882169 -1 480836.16972479795 -1 464532.3476245056 -1 383788.23489978997 1 -331109.5765810969 1 -323577.39060412213 1 -345774.4460785249 -1 459468.84002321825 -1 452922.02794883 1 -302753.6005196485 1 -297104.16539541376 1 -348428.3993255241 -1 466169.52418088785 1 -342874.72046544775 1 -336027.82810302795 1 -394276.66087941744 -1 450137.9074108333 1 -361398.1391163157 -1 242245.83708228718 -1 437074.15372575814 1 -340078.9237008462 -1 237083.3547550991 -1 477682.9126975563 -1 446958.9152135228 -1 474658.6846426654 1 -340770.3786371096 -1 472192.3985015266 -1 249179.6729297657 1 -339338.56312294246 -1 468455.2802310281 1 -344132.6582541459 1 -340266.31163634773 1 -291678.67359437 1 -379457.42128846433 1 -368680.09609299805 1 -87248.61946848358 -1 -346788.1335583286 1 -339838.1475406714 -1 440811.297351022 1 -341221.5717911726 -1 468829.29881380533 1 -390910.65248773916 1 -340079.0091838002 1 387367.4698270152 1 -90620.8553945888 1 455731.1550037137 1 -83644.37799406178 -1 468326.1831407894 1 -355559.47923907836 -1 385214.0333206031 1 -327582.2664385261 1 -371393.88807793945 -1 468455.4160630506 1 -78227.68010367818 -1 -338840.89370167494
10 1 0.0 -1 -96851.11347132077 1 551884.1178576623 -1 -418760.657618402 1 440317.63869085326 1 442045.4515648307 1 504172.48600256763 -1 -397093.57672013034 -1 -94256.32717913797 1 -391349.4548365745 1 235930.37407011582 1 -371900.39183709084 -1 -402262.15246295213 -1 -394315.26491968334 -1 -429656.11358808435 -1 -397334.43230363826 -1 -415265.2909496391 1 519623.65280617215 -1 447453.45997184736 -1 -92620.42060422458 -1 -440712.2602040654 -1 -391131.1152686741 -1 -346104.1357699485 -1 -401672.11225874996 -1 -452878.84749101184 -1 -403012.2808989842 1 546922.2543785927 1 280277.2444107354 -1 -444368.9373407556 1 526354.809023203 1 536823.0285374933 1 550659.5196329826 1 543825.282275819 1 283269.92319677403 -1 -397249.7840037437 1 529378.4890504546 -1 -347113.3508915785 1 496670.9072832352 1 524653.4123199728 1 540745.1607670487 1 447362.87853337475 -1 -400478.24427517876 -1 -425977.7148077446 -1 -399446.8849149899 1 284075.74359961454 -1 -350359.779336436 1 494472.6894228309 1 523016.14933848754 1 447324.76414168254 -1 -403942.71043755626 -1 -403885.0714632396 -1 -377952.4204070736 1 525427.1887398583 1 533829.4706707865 -1 -346989.2133638803 -1 -348814.3252423038 -1 -398321.5291500855 1 517178.7788922116 -1 -381814.21129798365 -1 -405123.68845815817 -1 -395585.2351867008 1 534782.6236341188 -1 -400079.44843688986 1 283585.8540689964 1 551617.0579596764 -1 -437130.54804534395 1 285897.91874446656 1 495056.70589691837 1 539078.1784394665 1 499507.02484468557 -1 -411661.0884723037 1 500778.01220487594 1 283045.14291381673 -1 -456588.6764754147 1 511989.9879396937 -1 -406036.6995853527 -1 -422368.8419755291 -1 -350863.3804439182 -1 -399452.3631023931 -1 -403624.1319122431 -1 -91876.29012026453 1 -375228.8343855482 -1 -448101.5923891564 1 544142.3810809529 -1 -408375.0081250376 1 504889.4595198128 -1 -395956.5002963516 -1 -433393.3600269688 -1 443429.4520662496 -1 -91511.25254504067 -1 532901.3242243411 -1 -92009.32214717181 1 515598.1643507841 -1 -397978.0620609816 1 445013.2890611666 -1 -404152.6737963145 -1 -402600.6503958554 1 508252.85027038713 -1 -94067.17125944638 1 -459828.28055547626
11 1 0.0 1 -96813.77247397891 -1 569257.9110570243 1 -446230.1464349889 -1 512840.8364367331 -1 510831.3758093814 -1 607503.5697324986 1 -495657.32256595715 1 -97956.2596831252 -1 -504862.2946877177 -1 259244.41222854215 -1 -450695.95119487925 1 -465678.31529548805 1 -504090.8312694974 1 -445913.78190068406 1 -488423.6311468069 1 -446472.0532675551 -1 600531.0955281286 1 497553.01670975273 1 -103794.90011086996 1 -445758.10801267787 1 -508381.22862114635 1 -403991.4287672904 1 -468825.54859261494 1 -446712.87479563704 1 -458953.8967288619 -1 575507.868081942 -1 330389.2222523091 1 -445677.511648039 -1 592313.1577398431 -1 584095.009747488 -1 575507.8598350028 -1 579885.4429818264 -1 325907.3540356895 1 -492076.25634824147 -1 591599.5642657656 1 -397526.0968862622 -1 611213.8115171534 -1 598086.308039271 -1 580542.5949743852 -1 501199.7087726092 1 -444667.13011037285 1 -445972.6566216734 1 -479324.26325417124 -1 319238.62743587187 1 -393297.9783284615 -1 616490.1406594072 -1 600186.3185591149 -1 504898.86788224604 1 -433096.4417634467 1 -436776.0762904592 1 -449273.4327622038 -1 595122.8109578276 -1 588575.9988834393 1 -401139.2328598931 1 -395489.7977356584 1 -481936.18099059595 -1 601823.4951154971 1 -449397.9501517848 1 -426802.8727813905 1 -501623.5280351858 -1 585791.8783454426 1 -472482.279773413 -1 322486.0114065828 -1 572728.1246603675 1 -445913.66935528547 -1 317323.52907939476 -1 613336.8836321656 -1 582612.8861481322 -1 610312.6555772747 1 -446605.1242915488 -1 607846.369436136 -1 329419.8472540613 1 -446685.43027871085 -1 604109.2511656374 1 -448455.2824072559 1 -446101.05729078694 1 -390064.3059346147 1 -475592.4679402454 1 -455828.47424079175 1 -110525.31662956804 -1 -450287.12024200754 1 -445672.89319511066 -1 576465.2682856313 1 -447056.31744561176 -1 604483.2697484146 1 -498257.51964350755 1 -445913.7548382394 1 508478.10280947125 1 -113897.55255567326 1 591385.1259383231 1 -106921.07515514625 -1 603980.1540753987 1 -485329.98740282113 -1 506324.66630305914 1 -429569.1316208759 1 -462279.5397270622 -1 604109.3869976599 1 -101504.37726476269 -1 -446187.7608574433
12 1 0.0 -1 -120127.81063240525 1 687538.0887922716 -1 -532069.9502754994 1 561428.2716733094 1 563156.0845472867 1 639826.456937177 -1 -504440.44387589867 -1 -117533.02434022247 1 -498696.3219923429 1 281630.71223917475 1 -476911.50002209883 -1 -508096.8981173913 -1 -501662.13207545166 -1 -546702.6797465109 -1 -504681.2994594066 -1 -528574.5836067364 1 655277.6237407814 -1 568564.0929543035 -1 -115897.11776530907 -1 -557758.8263624919 -1 -498477.9824244425 -1 -444489.7681101931 -1 -507506.8579131891 -1 -517603.58463083114 -1 -508847.0265534233 1 682576.225313202 1 360517.41873503104 -1 -561415.5034991822 1 662008.7799578124 1 672476.9994721026 1 686313.490567592 1 679479.2532104282 1 363510.0975210696 -1 -504596.6511595121 1 665032.4599850639 -1 -445498.9832318231 1 632324.8782178445 1 660307.3832545821 1 676399.131701658 1 568473.5115158309 -1 -510025.71696417406 -1 -543024.2809661711 -1 -506793.75207075814 1 364315.9179239102 -1 -448745.4116766806 1 630126.6603574402 1 658670.120273097 1 568435.3971241387 -1 -505929.57561990607 -1 -505871.9366455894 -1 -486700.80209341063 1 661081.1596744678 1 669483.4416053959 -1 -445374.8457041249 -1 -447199.9575825484 -1 -505668.3963058538 1 652832.7498268209 -1 -483088.0459816626 -1 -507110.553640508 -1 -502932.1023424692 1 670436.5945687281 -1 -507426.3155926581 1 363826.028393292 1 687271.0288942857 -1 -554177.1142037704 1 366138.0930687622 1 630710.6768315276 1 674732.1493740758 1 635160.995779295 -1 -524970.381129401 1 636431.9831394852 1 363285.31723811233 -1 -521313.413615234 1 647643.958874303 -1 -511871.4452397918 -1 -539415.4081339556 -1 -449249.0127841629 -1 -506799.2302581614 -1 -509458.87756668223 -1 -115152.987281349 1 -480239.9425705562 -1 -565148.1585475829 1 679796.3520155622 -1 -514209.75377947674 1 640543.430454422 -1 -503303.36745212 -1 -550439.9261853953 -1 564540.0850487057 -1 -114787.94970612513 -1 668555.2951589505 -1 -115286.01930825628 1 651252.1352853933 -1 -505324.9292167499 1 566123.9220436227 -1 -506139.5389786643 -1 -508435.3960502945 1 643906.8212049964 -1 -117343.86842053088 1 -535764.8381992829
13 1 0.0 1 -120090.46963506339 -1 704911.8819916336 1 -552064.8920894281 -1 633951.4694191891 -1 631942.0087918375 -1 743157.5406671079 1 -603004.1897217254 1 -121232.95684420971 -1 -612209.161843486 -1 304944.7503976011 -1 -555707.0593798872 1 -566976.69644594 1 -611437.6984252657 1 -551748.5275551233 1 -595770.4983025752 1 -552306.7989219943 -1 736185.0664627379 1 618663.6496922089 1 -127071.59727195445 1 -551592.8536671172 1 -615728.0957769147 1 -502377.061107535 1 -570123.9297430669 1 -552547.6204500762 1 -560252.2778793138 -1 711161.8390165513 -1 410629.39657660475 1 -551512.2573024783 -1 727967.1286744525 -1 719748.9806820974 -1 711161.8307696122 -1 715539.4139164356 -1 406147.52835998504 1 -599423.1235040098 -1 727253.5352003749 1 -495911.7292265068 -1 746867.7824517627 -1 733740.2789738803 -1 716196.5659089945 -1 622310.3417550653 1 -531704.9012874063 1 -551807.4022761126 1 -582134.7659059522 -1 399478.80176016747 1 -491683.6106687061 -1 752144.1115940167 -1 735840.2894937244 -1 626009.5008647022 1 -550917.5524577583 1 -554597.1869847708 1 -554284.5409472118 -1 730776.781892437 -1 724229.9698180488 1 -499524.8652001377 1 -493875.430075903 1 -589283.0481463643 -1 737477.4660501064 1 -554409.0583367929 1 -541599.7404730439 1 -608970.3951909542 -1 721445.8492800519 1 -573780.6609238649 -1 402726.1857308784 -1 708382.0955949768 1 -551748.4150097247 -1 397563.7034036904 -1 748990.8545667749 -1 718266.8570827415 -1 745966.6265118842 1 -552439.869945988 -1 743500.3403707453 -1 409660.0215783569 1 -552520.17593315 -1 739763.2221002467 1 -554290.028061695 1 -551935.8029452262 1 -488449.93827485933 1 -578402.9705920264 1 -557126.8553912436 1 -133802.0137906525 -1 -555298.2284270155 1 -551507.6388495499 -1 712119.2392202406 1 -552891.0631000509 -1 740137.2406830238 1 -605604.3867992759 1 -551748.5004926787 1 629588.7357919273 1 -137174.24971675774 1 727039.0968729325 1 -130197.77231623071 -1 739634.125010008 1 -592676.8545585894 -1 627435.2992855152 1 -547390.2423151875 1 -563577.920877514 -1 739763.3579322692 1 -124781.0744258472 -1 -552022.5065118825
14 1 0.0 -1 -143404.50779348973 1 823192.0597268809 -1 -639416.8174312677 1 682538.9046557654 1 684266.7175297429 1 775480.4278717863 -1 -611787.3110316669 -1 -140809.72150130698 1 -606043.1891481113 1 327331.0504082337 1 -581922.6082071067 -1 -609395.2792678431 -1 -609008.99923122 -1 -654049.5469022793 -1 -612028.1666151749 -1 -635921.4507625047 1 790931.5946753907 -1 689674.7259367596 -1 -139173.81492639356 -1 -665105.6935182604 -1 -605824.8495802109 -1 -542875.4004504377 -1 -608805.239063641 -1 -624950.4517865994 -1 -610145.4077038752 1 818230.1962478113 1 440757.5930593267 -1 -668762.3706549505 1 797662.7508924218 1 808130.970406712 1 821967.4615022014 1 815133.2241450374 1 443750.2718453651 -1 -611943.5183152804 1 800686.4309196732 -1 -543884.6155720677 1 767978.8491524538 1 795961.3541891914 1 812053.1026362673 1 689584.1444982869 -1 -612012.5821465239 -1 -650371.1481219394 -1 -609604.2547225391 1 444556.0922482058 -1 -547131.0440169252 1 765780.6312920497 1 794324.0912077064 1 689546.0301065948 -1 -620013.4128128886 -1 -588287.2828146486 -1 -596961.3052810768 1 796735.1306090772 1 805137.4125400053 -1 -543760.4780443695 -1 -545585.589922793 -1 -613015.2634616222 1 788486.7207614302 -1 -591836.4276679996 -1 -618170.1478308323 -1 -610278.9694982376 1 806090.5655033374 -1 -608724.69674311 1 444066.2027175876 1 822924.999828895 -1 -661523.9813595387 1 446378.2673930579 1 766364.6477661369 1 810386.1203086851 1 770814.9667139044 -1 -632317.2482851692 1 772085.9540740945 1 443525.49156240793 -1 -628660.2807710023 1 783297.9298089123 -1 -617706.190894231 -1 -646762.2752897239 -1 -547634.6451244075 -1 -609609.7329099424 -1 -610757.2587171341 -1 -138429.68444243347 1 -585251.0507555641 -1 -672495.0257033512 1 815450.3229501715 -1 -621556.620935245 1 776197.4013890312 -1 -610650.2346078883 -1 -657786.7933411637 -1 685650.7180311617 -1 -138064.6468672096 -1 804209.2660935599 -1 -138562.71646934075 1 786906.1062200026 -1 -612671.7963725182 1 687234.5550260787 -1 -620223.3761716468 -1 -609733.7772007463 1 779560.7921396057 -1 -140620.5655816154 1 -643111.7053550511
15 1 0.0 1 -143367.16679614788 -1 840565.8529262429 1 -659411.7592451965 -1 755062.1024016452 -1 753052.6417742936 -1 878811.5116017172 1 -678940.747365532 1 -144509.6540052942 -1 -718043.9074979253 -1 350645.08856666007 -1 -660718.1675648951 1 -706446.9036123408 1 -709797.8970770468 1 -659095.3947108916 1 -670194.9344450526 1 -659653.6660777626 -1 871839.0373973472 1 739774.282674665 1 -150348.29443303894 1 -658939.7208228856 1 -721562.841431354 1 -600762.6934477796 1 -713331.410410797 1 -659894.4876058444 1 -692247.9380430565 -1 846815.8099511606 -1 490869.5709009004 1 -658859.1244582466 -1 863621.099609062 -1 855402.9516167068 -1 846815.8017042216 -1 851193.3848510447 -1 486387.7026842806 1 -675359.6811478164 -1 862907.5061349842 1 -594297.3615667514 -1 882521.753386372 -1 869394.2499084896 -1 851850.5368436038 -1 743420.9747375213 1 -649439.9514777306 1 -659154.2694318809 1 -702918.6055657078 -1 479718.97608446307 1 -590069.2430089507 -1 887798.0825286261 -1 871494.2604283338 -1 747120.1338471583 1 -643917.7491361209 1 -659608.2951697789 1 -660807.770633549 -1 866430.7528270464 -1 859883.9407526582 1 -597910.4975403823 1 -592261.0624161476 1 -663707.4842888417 -1 873131.4369847158 1 -659420.1665218008 1 -645811.7576553937 1 -688644.2263360899 -1 857099.8202146612 1 -716988.141591595 -1 482966.360055174 -1 844036.0665295861 1 -659095.282165493 -1 477803.8777279861 -1 884644.8255013842 -1 853920.8280173508 -1 881620.5974464936 1 -659786.7371017562 -1 879154.3113053546 -1 489900.1959026525 1 -659867.0430889183 -1 875417.193034856 1 -664661.1382201214 1 -659282.6701009945 1 -586835.5706151039 1 -699186.810251782 1 -681647.9685523282 1 -157078.71095173698 -1 -660309.3366120234 1 -658854.5060053183 -1 847773.2101548499 1 -660237.9302558191 -1 875791.211617633 1 -685278.2179444114 1 -659095.367648447 1 750699.3687743833 1 -160450.9468778422 1 862693.0678075419 1 -153474.46947731517 -1 875288.0959446172 1 -667101.2907010668 -1 748545.9322679712 1 -640390.43899355 1 -695573.5810412568 -1 875417.3288668785 1 -148057.77158693172 -1 -659369.3736676507
16 1 0.0 -1 -166681.2049545742 1 958846.0306614902 -1 -746763.684587036 1 803649.5376382214 1 805377.350512199 1 911134.3988063956 -1 -717622.0566861061 -1 -164086.4186623915 1 -711877.9348025506 1 373031.3885772927 1 -692183.1113947729 -1 -715230.0249222823 -1 -714843.7448856592 -1 -761396.4140580476 -1 -716350.7907682849 -1 -740244.0749156149 1 926585.56561 -1 810785.3589192157 -1 -162450.51208747807 -1 -772452.5606740288 -1 -711659.5952346502 -1 -641261.0327906824 -1 -714639.9847180804 -1 -729273.0759397094 -1 -715980.1533583144 1 953884.1671824206 1 520997.76738362235 -1 -776109.2378107188 1 933316.7218270312 1 943784.9413413214 1 957621.4324368108 1 950787.1950796465 1 523990.44616966066 -1 -717778.2639697195 1 936340.4018542825 -1 -642270.2479123123 1 903632.8200870631 1 931615.3251238007 1 947707.0735708766 1 810694.7774807429 -1 -718535.8118328609 -1 -757718.0152777077 -1 -715439.0003769784 1 524796.2665725014 -1 -645516.6763571699 1 901434.6022266591 1 929978.0621423158 1 810656.6630890509 -1 -720488.1564939093 -1 -706108.3935089603 -1 -688535.4409620976 1 932389.1015436866 1 940791.3834746147 -1 -642146.1103846141 -1 -643971.2222630376 -1 -721075.1611160613 1 924140.6916960395 -1 -709657.5383623112 -1 -718644.891511853 -1 -716113.7151526768 1 941744.5364379467 -1 -714559.4423975493 1 524306.3770418832 1 958578.9707635043 -1 -768870.8485153071 1 526618.4417173535 1 902018.6187007462 1 946040.0912432944 1 906468.9376485138 -1 -736639.8724382793 1 907739.9250087038 1 523765.66588670353 -1 -732982.9049241124 1 918951.9007435216 -1 -718291.5415460118 -1 -754109.1424454922 -1 -646020.2774646521 -1 -715444.4785643816 -1 -716592.0043715732 -1 -161706.38160351792 1 -695511.5539432303 -1 -779841.8928591196 1 951104.2938847808 -1 -725879.245088355 1 911851.3723236404 -1 -716484.9802623275 -1 -765133.660496932 -1 806761.3510136177 -1 -161341.34402829406 -1 939863.2370281693 -1 -161839.4136304252 1 922560.0771546118 -1 -716994.4205256283 1 808345.1880085347 -1 -720698.1198526676 -1 -715568.5228551856 1 915214.763074215 -1 -163897.2627426999 1 -750458.5725108193
17 1 0.0 1 -166643.86395723236 -1 976219.8238608522 1 -766758.6264009648 -1 876172.7353841012 -1 874163.2747567497 -1 1.0144654825363265e6 1 -777300.9460173129 1 -167786.3511663787 -1 -823878.6531523647 -1 396345.426735719 -1 -767241.3972512322 1 -812281.64926678 1 -815632.642731486 1 -766442.26186666 1 -790978.7741048081 1 -763976.2902308728 -1 1.0074930083319565e6 1 860884.9156571211 1 -173624.99159412345 1 -766286.5879786541 1 -827397.5870857934 1 -699148.3257880243 1 -819166.1560652363 1 -764217.1117589545 1 -798082.6836974957 -1 982469.7808857699 -1 571109.745225196 1 -766205.991614015 -1 999275.0705436714 -1 991056.9225513162 -1 982469.772638831 -1 986847.3557856539 -1 566627.8770085762 1 -773719.8797995972 -1 998561.4770695935 1 -692682.993906996 -1 1.0181757243209813e6 -1 1.0050482208430989e6 -1 987504.5077782131 -1 864531.6077199773 1 -751426.8166600805 1 -766501.1365876492 1 -808753.3512201471 -1 559959.1504087587 1 -688454.8753491954 -1 1.0234520534632355e6 -1 1.0071482313629432e6 -1 868230.7668296144 1 -745904.6143184707 1 -773692.1323627614 1 -767331.000319886 -1 1.0020847237616559e6 -1 995537.9116872676 1 -696296.1298806269 1 -690646.6947563922 1 -763493.7439379646 -1 1.008785407919325e6 1 -773504.0037147834 1 -747798.6228377435 1 -794478.9719905291 -1 992753.7911492705 1 -822822.8872460343 -1 563206.5343794696 -1 979690.0374641954 1 -766442.1493212613 -1 558044.0520522818 -1 1.0202987964359935e6 -1 989574.79895196 -1 1.017274568381103e6 1 -764109.3612548662 -1 1.0148082822399639e6 -1 570140.3702269482 1 -764189.6672420284 -1 1.0110711639694653e6 1 -770495.8838745605 1 -766629.5372567629 1 -685221.2029553485 1 -805021.5559062212 1 -783745.4407054383 1 -180355.40811282143 -1 -766832.5662983606 1 -766201.3731610866 -1 983427.1810894592 1 -764560.5544089292 -1 1.0114451825522422e6 1 -787375.6900975215 1 -766442.2348042154 1 871810.0017568393 1 -183727.64403892664 1 998347.0387421513 1 -176751.16663839962 -1 1.0109420668792264e6 1 -780410.5833581642 -1 869656.5652504272 1 -742377.3041758998 1 -801408.326695696 -1 1.0110712998014878e6 1 -171334.46874801622 -1 -766716.240823419
18 1 0.0 -1 -189957.90211565868 1 1.0945000015960995e6 -1 -831686.9107348298 1 924760.1706206774 1 926487.9834946551 1 1.0467883697410049e6 -1 -823456.8023405452 -1 -187363.115823476 1 -817712.6804569899 1 418731.72674635163 1 -804668.766582439 -1 -821064.7705767215 -1 -820678.4905400984 -1 -846319.6402058413 -1 -822185.5364227241 -1 -881226.403583345 1 1.0622395365446093e6 -1 931895.9919016719 -1 -185727.20924856258 -1 -857375.7868218226 -1 -817494.3408890895 -1 -739646.6651309271 -1 -820474.7303725197 -1 -870255.4046074394 -1 -821814.8990127536 1 1.0895381381170298e6 1 601237.941707918 -1 -861032.4639585126 1 1.0689706927616405e6 1 1.0794389122759309e6 1 1.0932754033714202e6 1 1.0864411660142557e6 1 604230.6204939563 -1 -823613.0096241586 1 1.071994372788892e6 -1 -740655.8802525569 1 1.0392867910216724e6 1 1.06726929605841e6 1 1.0833610445054858e6 1 931805.4104631989 -1 -820522.6770152107 -1 -842641.2414255014 -1 -821273.7460314177 1 605036.440896797 -1 -743902.3086974146 1 1.0370885731612685e6 1 1.0656320330769252e6 1 931767.296071507 -1 -822475.0216762591 -1 -798395.5596886519 -1 -801021.0961497638 1 1.068043072478296e6 1 1.0764453544092241e6 -1 -740531.7427248587 -1 -742356.8546032822 -1 -884481.1307917659 1 1.0597946626306488e6 -1 -801944.7045420029 -1 -820631.7566942028 -1 -821948.460807116 1 1.077398507372556e6 -1 -820394.1880519886 1 604546.5513661788 1 1.0942329416981137e6 -1 -853794.0746631009 1 606858.6160416492 1 1.0376725896353555e6 1 1.0816940621779037e6 1 1.0421229085831232e6 -1 -877622.2011060094 1 1.0433938959433131e6 1 604005.8402109992 -1 -873965.2335918425 1 1.054605871678131e6 -1 -827150.5302031091 -1 -839032.368593286 -1 -744405.9098048967 -1 -821279.2242188208 -1 -822426.7500260124 -1 -184983.07876460237 1 -807997.2091308965 -1 -864765.1190069134 1 1.0867582648193901e6 -1 -866861.573756085 1 1.0475053432582496e6 -1 -822319.7259167666 -1 -850056.8866447258 -1 927871.9839960737 -1 -184618.0411893785 -1 1.0755172079627786e6 -1 -185116.11079150965 1 1.0582140480892211e6 -1 -822829.1661800673 1 929455.8209909907 -1 -822684.9850350174 -1 -821403.2685096248 1 1.0508687340088245e6 -1 -187173.95990378442 1 -835381.798658613
19 1 0.0 1 -189920.56111831684 -1 1.1118737947954615e6 1 -874105.493556733 -1 997283.3683665572 -1 995273.9077392059 -1 1.1501194534709358e6 1 -877087.2056664356 1 -191063.0483274632 -1 -929713.398806804 -1 442045.764904778 -1 -872252.5054362401 1 -915092.1519185611 1 -918443.1453832671 1 -873789.1290224282 1 -893789.2767565892 1 -871323.1573866411 -1 1.1431469792665658e6 1 981995.5486395772 1 -196901.68875520796 1 -873633.4551344223 1 -933232.3327402327 1 -797533.9581282691 1 -925000.9017196756 1 -871563.9789147228 1 -900893.1863492768 -1 1.1181237518203792e6 -1 651349.9195494916 1 -873552.8587697833 -1 1.1349290414782807e6 -1 1.1267108934859256e6 -1 1.1181237435734405e6 -1 1.122501326720263e6 -1 646868.0513328718 1 -873506.13944872 -1 1.134215448004203e6 1 -791068.6262472406 -1 1.1538296952555906e6 -1 1.1407021917777085e6 -1 1.1231584787128223e6 -1 985642.2407024333 1 -874583.3828610375 1 -873848.0037434174 1 -911563.8538719282 -1 640199.3247330543 1 -786840.5076894402 -1 1.159106024397845e6 -1 1.1428022022975525e6 -1 989341.3998120705 1 -853939.9655061369 1 -877191.1190464403 1 -876079.3820062231 -1 1.1377386946962653e6 -1 1.131191882621877e6 1 -794681.7622208715 1 -789032.3270966368 1 -870840.6110937329 -1 1.1444393788539344e6 1 -873265.7168971332 1 -870955.1890387004 1 -897289.4746423101 -1 1.12840776208388e6 1 -928657.6329004737 -1 643446.7087037652 -1 1.1153440083988048e6 1 -873789.0164770297 -1 638284.2263765775 -1 1.1559527673706028e6 -1 1.1252287698865694e6 -1 1.1529285393157124e6 1 -871456.2284106347 -1 1.1504622531745732e6 -1 650380.5445512439 1 -871536.5343977967 -1 1.1467251349040747e6 1 -873306.3865263414 1 -873976.4044125311 1 -783606.8352955931 1 -907832.0585580021 1 -886555.9433572192 1 -203632.10527390588 -1 -871843.6744833686 1 -873548.2403168549 -1 1.1190811520240684e6 1 -871907.4215646974 -1 1.1470991534868514e6 1 -890186.1927493025 1 -873789.1019599837 1 992920.6347392953 1 -207004.34120001108 1 1.1340010096767605e6 1 -200027.86379948407 -1 1.1465960378138358e6 1 -880196.8430072869 -1 990767.1982328832 1 -850412.655363566 1 -904218.8293474771 -1 1.1467252707360971e6 1 -194611.16590910073 -1 -874063.1079791872
20 1 0.0 -1 -213234.59927674316 1 1.2301539725307086e6 -1 -928534.9878852817 1 1.0458708036031334e6 1 1.0475986164771112e6 1 1.182442340675614e6 -1 -924755.1834909971 -1 -210639.8129845605 1 -923547.4261114292 1 464432.0649154106 1 -928538.3632820668 -1 -923875.2732285026 -1 -923488.9931918795 -1 -943167.7173562932 -1 -924996.0390745052 -1 -990085.3922404425 1 1.1978935074792185e6 -1 1.0530066248841279e6 -1 -209003.90640964708 -1 -954223.8639722746 -1 -923329.0865435288 -1 -838032.2974711718 -1 -926309.476026959 -1 -979114.3932645369 -1 -924625.4016645347 1 1.2251921090516392e6 1 681478.1160322136 -1 -957880.5411089646 1 1.20462466369625e6 1 1.2150928832105403e6 1 1.2289293743060296e6 1 1.222095136948865e6 1 684470.7948182519 -1 -965308.3687905596 1 1.2076483437235013e6 -1 -839041.5125928015 1 1.1749407619562817e6 1 1.2029232669930195e6 1 1.2190150154400952e6 1 1.052916043445655e6 -1 -905249.2356882571 -1 -939489.3185759534 -1 -924084.2486831988 1 685276.6152210926 -1 -842287.9410376593 1 1.1727425440958778e6 1 1.2012860040115344e6 1 1.0528779290539632e6 -1 -930510.3728639253 -1 -898870.3033696726 -1 -903007.9613321136 1 1.2036970434129054e6 1 1.2120993253438333e6 -1 -838917.3750651033 -1 -840742.4869435268 -1 -994852.2409501923 1 1.1954486335652582e6 -1 -925814.3012416308 -1 -942276.2013938307 -1 -924758.963458897 1 1.2130524783071654e6 -1 -926228.9337064279 1 684786.7256904744 1 1.229886912632723e6 -1 -950642.1518135528 1 687098.790365945 1 1.1733265605699648e6 1 1.2173480331125131e6 1 1.1777768795177327e6 -1 -986481.1897631069 1 1.1790478668779226e6 1 684246.014535295 -1 -982824.2222489399 1 1.1902598426127404e6 -1 -968845.8893695101 -1 -935880.4457437379 -1 -842791.5421451413 -1 -924089.7268706018 -1 -925237.2526777934 -1 -208259.77592568682 1 -933378.9273318535 -1 -961613.1961573653 1 1.2224122357539993e6 -1 -974208.4409118532 1 1.1831593141928588e6 -1 -925130.2285685475 -1 -946904.9637951778 -1 1.0489826169785298e6 -1 -207894.73835046295 -1 1.2111711788973878e6 -1 -208392.8079525941 1 1.1938680190238305e6 -1 -922615.4258291901 1 1.0505664539734467e6 -1 -930720.3362226835 -1 -924213.7711614058 1 1.1865227049434336e6 -1 -210450.65706486892 1 -932229.875809065
21 1 0.0 1 -213197.2582794013 -1 1.2475277657300706e6 1 -985988.7252164885 -1 1.1183940013490133e6 -1 1.1163845407216619e6 -1 1.285773424405545e6 1 -1.0098819568328366e6 1 -214339.74548854772 -1 -1.0310978404612433e6 -1 487746.10307383694 -1 -966678.7631119445 1 -1.0276884140769875e6 1 -1.0347766810430227e6 1 -978111.7531755383 1 -1.0026482654136865e6 1 -980182.1460437386 -1 1.278800950201175e6 1 1.1031061816220332e6 1 -220178.38591629246 1 -977956.0792875325 1 -1.038354047896001e6 1 -895919.5904685138 1 -987500.4868594949 1 -980422.9675718202 1 -1.0134894485077034e6 -1 1.2537777227549886e6 -1 731590.0938737872 1 -977875.4829228934 -1 1.27058301241289e6 -1 1.262364864420535e6 -1 1.25377771450805e6 -1 1.2581552976548723e6 -1 727108.2256571674 1 -977828.7636018302 -1 1.2698694189388123e6 1 -889454.2585874852 -1 1.2894836661902e6 -1 1.276356162712318e6 -1 1.2588124496474317e6 -1 1.1067528736848894e6 1 -976570.2480433874 1 -979682.7493978566 1 -1.0241601160303548e6 -1 720439.4990573499 1 -885226.1400296849 -1 1.294759995332454e6 -1 1.2784561732321617e6 -1 1.1104520327945265e6 1 -964913.499192474 1 -977665.862727461 1 -978066.2471885729 -1 1.2733926656308747e6 -1 1.266845853556486e6 1 -893067.3945611161 1 -887417.9594368814 1 -981211.7212521593 -1 1.2800933497885438e6 1 -972228.339076825 1 -960931.1427144049 1 -1.0061484632994074e6 -1 1.2640617330184893e6 1 -991157.2180402928 -1 723686.8830280608 -1 1.2509979793334142e6 1 -978111.6406301397 -1 718524.4007008732 -1 1.291606738305212e6 -1 1.2608827408211788e6 -1 1.2885825102503218e6 1 -980315.2170677321 -1 1.2861162241091826e6 -1 730620.7188755396 1 -980395.5230548942 -1 1.2823791058386841e6 1 -977629.0106794516 1 -979811.1500669701 1 -881992.4676358377 1 -1.0204283207164286e6 1 -995414.9320143166 1 -226908.80243499033 -1 -958795.3851564149 1 -977870.864469965 -1 1.2547351229586776e6 1 -979254.2887204656 -1 1.2827531244214606e6 1 -999045.1814063998 1 -978111.7261130938 1 1.1140312677217515e6 1 -230281.03836109553 1 1.2696549806113697e6 1 -223304.56096056852 -1 1.2822500087484452e6 1 -1.0413776606829914e6 -1 1.1118778312153392e6 1 -961386.1890499031 1 -1.0168150915059035e6 -1 1.2823792416707063e6 1 -217887.86307018524 -1 -981409.9751349555
22 1 0.0 -1 -236511.29643782764 1 1.3658079434653178e6 -1 -1.0358818550410499e6 1 1.1669814365855895e6 1 1.1687092494595672e6 1 1.3180963116102233e6 -1 -1.0336141721480944e6 -1 -233916.510145645 1 -1.0324064147685267e6 1 510132.40308446955 1 -1.0320373499657457e6 -1 -1.0327342618855999e6 -1 -1.0323479818489769e6 -1 -1.0653776180133906e6 -1 -1.0338550277316025e6 -1 -1.0524989168762746e6 1 1.3335474784138277e6 -1 1.174117257866584e6 -1 -232280.6035707316 -1 -1.077945886130701e6 -1 -1.0321880752006263e6 -1 -936417.9298114165 -1 -1.0336563431827272e6 -1 -1.0415279179003689e6 -1 -1.0334843903216321e6 1 1.3608460799862486e6 1 761718.2903565092 -1 -1.0816025632673912e6 1 1.3402786346308594e6 1 1.3507468541451497e6 1 1.364583345240639e6 1 1.357749107883474e6 1 764710.9691425475 -1 -1.0890303909489862e6 1 1.3433023146581107e6 -1 -937427.1449330461 1 1.3105947328908911e6 1 1.338577237927629e6 1 1.3546689863747046e6 1 1.174026676428111e6 -1 -1.0344542878945305e6 -1 -1.0594740672330507e6 -1 -1.0329432373402963e6 1 765516.7895453882 -1 -940673.573377904 1 1.308396515030487e6 1 1.3369399749461436e6 1 1.173988562036419e6 -1 -1.0340093595476042e6 -1 -1.0303005075759459e6 -1 -1.0209151325304124e6 1 1.3393510143475148e6 1 1.3477532962784425e6 -1 -937303.0074053479 -1 -939128.1192837714 -1 -1.0385793980793789e6 1 1.3311026044998677e6 -1 -1.0338496524292971e6 -1 -1.0375015500721933e6 -1 -1.0336179521159943e6 1 1.3487064492417749e6 -1 -1.033575800862196e6 1 765026.90001477 1 1.3655408835673325e6 -1 -1.0728520524706503e6 1 767338.9646902407 1 1.308980531504574e6 1 1.3530020040471226e6 1 1.313430850452342e6 -1 -1.048894714398939e6 1 1.314701837812532e6 1 764486.1888595907 -1 -1.045237746884772e6 1 1.3259138135473498e6 -1 -1.0940800330292657e6 -1 -1.055865194400835e6 -1 -941177.1744853859 -1 -1.0329487155276992e6 -1 -1.0340962413348907e6 -1 -231536.47308677126 1 -1.0391030660155325e6 -1 -1.0853352183157918e6 1 1.3580662066886085e6 -1 -1.062782880056989e6 1 1.318813285127468e6 -1 -1.0339892172256449e6 -1 -1.0691148644522752e6 -1 1.170093249960986e6 -1 -231171.4355115474 -1 1.346825149831997e6 -1 -231669.50511367855 1 1.32952198995844e6 -1 -1.0314744144862875e6 1 1.1716770869559029e6 -1 -1.0342193229063624e6 -1 -1.0330727598185032e6 1 1.3221766758780428e6 -1 -233727.35422595343 1 -1.0350403784608459e6
23 1 0.0 1 -236473.9554404858 -1 1.3831817366646798e6 1 -1.0850619543669403e6 -1 1.2395046343314694e6 -1 1.237495173704118e6 -1 1.4214273953401542e6 1 -1.1150036719886048e6 1 -237616.44264963223 -1 -1.1399568291183407e6 -1 533446.4412428959 -1 -1.1018462408195469e6 1 -1.136547402734085e6 1 -1.14363566970012e6 1 -1.077898012824661e6 1 -1.1025205855667966e6 1 -1.0799684056928616e6 -1 1.4144549211357841e6 1 1.2242168146044894e6 1 -243455.08307737697 1 -1.0792544604379844e6 1 -1.1472130365530986e6 1 -994305.2228087585 1 -1.1075712960205795e6 1 -1.0802092272209432e6 1 -1.1223484371648007e6 -1 1.389431693689598e6 -1 811830.2681980828 1 -1.0791738640733454e6 -1 1.4062369833474995e6 -1 1.3980188353551445e6 -1 1.3894316854426593e6 -1 1.3938092685894815e6 -1 807348.399981463 1 -1.0791271447522822e6 -1 1.4055233898734218e6 1 -987839.8909277298 -1 1.4251376371248094e6 -1 1.4120101336469273e6 -1 1.3944664205820411e6 -1 1.2278635066673455e6 1 -1.066632262223079e6 1 -1.0794690090469795e6 1 -1.133019104687452e6 -1 800679.6733816455 1 -983611.7723699296 -1 1.4304139662670633e6 -1 1.4141101441667709e6 -1 1.2315626657769824e6 1 -1.0751740023801401e6 1 -1.1053587934324052e6 1 -1.0997106918882008e6 -1 1.409046636565484e6 -1 1.4024998244910953e6 1 -991453.0269013607 1 -985803.591777126 1 -1.0825101024026112e6 -1 1.4157473207231532e6 1 -1.0817758117658203e6 1 -1.0629180078967547e6 1 -1.1112701784551756e6 -1 1.3997157039530987e6 1 -1.1187025742040356e6 -1 803927.0573523564 -1 1.3866519502680236e6 1 -1.0778979002792628e6 -1 798764.575025169 -1 1.4272607092398212e6 -1 1.3965367117557882e6 -1 1.4242364811849312e6 1 -1.0801014767168548e6 -1 1.421770195043792e6 -1 810860.8931998353 1 -1.0801817827040171e6 -1 1.4180330767732935e6 1 -1.0804395133312328e6 1 -1.079597409716093e6 1 -980378.0999760823 1 -1.129287309373526e6 1 -1.0937751306660976e6 1 -250185.49959607478 -1 -1.0592701288374357e6 1 -1.079169245620417e6 -1 1.3903890938932868e6 1 -1.0790405483695886e6 -1 1.4184070953560697e6 1 -1.09891750155951e6 1 -1.0778979857622168e6 1 1.2351419007042076e6 1 -253557.73552217998 1 1.405308951545979e6 1 -246581.25812165297 -1 1.4179039796830546e6 1 -1.1517487708414178e6 -1 1.2329884641977954e6 1 -1.0701345707362401e6 1 -1.1256740801630009e6 -1 1.4180332126053155e6 1 -241164.56023126974 -1 -1.0879577512880655e6
24 1 0.0 -1 -259787.99359891211 1 1.501461914399927e6 -1 -1.143228722196818e6 1 1.2880920695680457e6 1 1.2898198824420234e6 1 1.4537502825448324e6 -1 -1.1424731608051918e6 -1 -257193.2073067295 1 -1.1412654034256241e6 1 555832.7412535285 1 -1.1257505771427792e6 -1 -1.1415932505426975e6 -1 -1.1412069705060744e6 -1 -1.189898731174475e6 -1 -1.1427140163886999e6 -1 -1.162070936032043e6 1 1.469201449348437e6 -1 1.2952278908490401e6 -1 -255557.3007318161 -1 -1.172568811281153e6 -1 -1.1410470638577237e6 -1 -1.0348035621516613e6 -1 -1.1425153318398246e6 -1 -1.1510999370561372e6 -1 -1.1423433789787295e6 1 1.496500050920858e6 1 841958.4646808048 -1 -1.1762254884178431e6 1 1.4759326055654688e6 1 1.4864008250797591e6 1 1.5002373161752485e6 1 1.4934030788180833e6 1 844951.1434668431 -1 -1.1836533160994381e6 1 1.4789562855927201e6 -1 -1.0358127772732907e6 1 1.4462487038255006e6 1 1.4742312088622383e6 1 1.490322957309314e6 1 1.2951373094105672e6 -1 -1.1394653960795384e6 -1 -1.169046086388819e6 -1 -1.1418022259973937e6 1 845756.9638696838 -1 -1.0390592057181487e6 1 1.4440504859650962e6 1 1.4725939458807528e6 1 1.295099195018875e6 -1 -1.1405325892339414e6 -1 -1.1240137347529794e6 -1 -1.1273523017127623e6 1 1.4750049852821243e6 1 1.4834072672130517e6 -1 -1.0356886397455925e6 -1 -1.037513751624016e6 -1 -1.144414143733818e6 1 1.466756575434477e6 -1 -1.1207153025983563e6 -1 -1.139488415254543e6 -1 -1.1424769407730915e6 1 1.4843604201763843e6 -1 -1.1424347895192935e6 1 845267.0743390656 1 1.501194854501942e6 -1 -1.197373165631735e6 1 847579.1390145364 1 1.4446345024391832e6 1 1.488655974981732e6 1 1.4490848213869515e6 -1 -1.1584667335547071e6 1 1.4503558087471414e6 1 844726.3631838864 -1 -1.1548097660405403e6 1 1.4615677844819592e6 -1 -1.1475929496650978e6 -1 -1.1654372135566035e6 -1 -1.0395628068256305e6 -1 -1.1418077041847964e6 -1 -1.1444673514933172e6 -1 -254813.1702478557 1 -1.1395778096965533e6 -1 -1.1799581434662438e6 1 1.4937201776232177e6 -1 -1.1873039932180736e6 1 1.4544672560620771e6 -1 -1.1458724488854003e6 -1 -1.19363597761336e6 -1 1.291203882943442e6 -1 -254448.13267263185 -1 1.4824791207666062e6 -1 -254946.202274763 1 1.4651759608930494e6 -1 -1.1418455246447138e6 1 1.292787719938359e6 -1 -1.1392304310913703e6 -1 -1.1419317484756005e6 1 1.457830646812652e6 -1 -257004.05138703794 1 -1.1423872456166141e6
25 1 0.0 1 -259750.65260157027 -1 1.518835707599289e6 1 -1.1968591255227085e6 -1 1.3606152673139255e6 -1 1.3586058066865741e6 -1 1.5570813662747634e6 1 -1.2110526581363988e6 1 -260893.13981071673 -1 -1.2434803622687927e6 -1 579146.7794119548 -1 -1.1970715894979094e6 1 -1.2400709358845372e6 1 -1.247159202850572e6 1 -1.1837327584791002e6 1 -1.2000816932159194e6 1 -1.185803151347301e6 -1 1.5501088920703933e6 1 1.3453274475869455e6 1 -266731.78023846145 1 -1.1850892060924235e6 1 -1.2507365697035505e6 1 -1.0926908551490032e6 1 -1.2036202821683732e6 1 -1.1860439728753823e6 1 -1.2221346968139235e6 -1 1.5250856646242074e6 -1 892070.4425223784 1 -1.1850086097277848e6 -1 1.541890954282109e6 -1 1.5336728062897539e6 -1 1.5250856563772687e6 -1 1.5294632395240907e6 -1 887588.5743057586 1 -1.1849618904067215e6 -1 1.5411773608080312e6 1 -1.0862255232679744e6 -1 1.5607916080594189e6 -1 1.5476641045815367e6 -1 1.5301203915166506e6 -1 1.3489741396498017e6 1 -1.1995745879306814e6 1 -1.1853037547014186e6 1 -1.2365426378379043e6 -1 880919.8477059411 1 -1.0819974047101743e6 -1 1.5660679372016725e6 -1 1.54976411510138e6 -1 1.3526732987594383e6 1 -1.1894299605810973e6 1 -1.1990720206094387e6 1 -1.1949360405665636e6 -1 1.5447006075000935e6 -1 1.5381537954257044e6 1 -1.0898386592416053e6 1 -1.0841892241173706e6 1 -1.1943072735583794e6 -1 1.5514012916577626e6 1 -1.1995108619561447e6 1 -1.195860333604357e6 1 -1.2073191646029693e6 -1 1.5353696748877082e6 1 -1.2147515603518293e6 -1 884167.231676652 -1 1.522305921202633e6 1 -1.1837326459337021e6 -1 879004.7493494647 -1 1.5629146801744304e6 -1 1.5321906826903976e6 -1 1.5598904521195407e6 1 -1.1859362223712942e6 -1 1.5574241659784014e6 -1 891101.067524131 1 -1.1860165283584562e6 -1 1.553687047707903e6 1 -1.186274258985672e6 1 -1.1854321553705323e6 1 -1.0787637323163268e6 1 -1.2328108425239779e6 1 -1.1906232078165496e6 1 -273462.1967571592 -1 -1.1922124545450383e6 1 -1.1850039912748563e6 -1 1.526043064827896e6 1 -1.184875294024028e6 -1 1.554061066290679e6 1 -1.1882910317073036e6 1 -1.183732731416656e6 1 1.3562525336866637e6 1 -276834.43268326443 1 1.540962922480588e6 1 -269857.95528273744 -1 1.553557950617664e6 1 -1.2291113894825662e6 -1 1.3540990971802515e6 1 -1.2030768964438424e6 1 -1.2254603398121237e6 -1 1.5536871835399247e6 1 -264441.25739235425 -1 -1.218441289950479e6
26 1 0.0 -1 -283064.6907599966 1 1.6371158853345362e6 -1 -1.2505755893525863e6 1 1.4092027025505018e6 1 1.4109305154244795e6 1 1.5894042534794416e6 -1 -1.2422594204543147e6 -1 -280469.904467814 1 -1.241051663074747e6 1 601533.0794225874 1 -1.233699867826458e6 -1 -1.2413795101918206e6 -1 -1.2409932301551972e6 -1 -1.3032940843355597e6 -1 -1.2440123975391518e6 -1 -1.2754662891931278e6 1 1.604855420283046e6 -1 1.4163385238314962e6 -1 -278833.99789290054 -1 -1.2859641644422375e6 -1 -1.2408333235068466e6 -1 -1.1331891944919059e6 -1 -1.2423015914889474e6 -1 -1.2644952902172217e6 -1 -1.2421296386278523e6 1 1.6321540218554675e6 1 922198.6390051004 -1 -1.2896208415789278e6 1 1.6115865765000782e6 1 1.6220547960143685e6 1 1.635891287109858e6 1 1.6290570497526925e6 1 925191.3177911387 -1 -1.2970486692605228e6 1 1.6146102565273296e6 -1 -1.1341984096135353e6 1 1.58190267476011e6 1 1.6098851797968477e6 1 1.6259769282439235e6 1 1.4162479423930233e6 -1 -1.224991045755243e6 -1 -1.2824414395499036e6 -1 -1.2415884856465168e6 1 925997.1381939794 -1 -1.1374448380583934e6 1 1.5797044568997053e6 1 1.608247916815362e6 1 1.4162098280013308e6 -1 -1.2455436974189496e6 -1 -1.2319630254366582e6 -1 -1.2405509873990994e6 1 1.6106589562167337e6 1 1.6190612381476609e6 -1 -1.134074272085837e6 -1 -1.1358993839642606e6 -1 -1.2547852538922443e6 1 1.6024105463690865e6 -1 -1.228664593282035e6 -1 -1.2377380069355639e6 -1 -1.2422632004222143e6 1 1.6200143911109937e6 -1 -1.2422210491684163e6 1 925507.2486633612 1 1.6368488254365514e6 -1 -1.3107685187928197e6 1 927819.3133388321 1 1.5802884733737924e6 1 1.6243099459163414e6 1 1.584738792321561e6 -1 -1.2718620867157918e6 1 1.5860097796817508e6 1 924966.5375081821 -1 -1.2682051192016248e6 1 1.5972217554165686e6 -1 -1.2609883028261822e6 -1 -1.2788325667176882e6 -1 -1.137948439165875e6 -1 -1.2415939638339195e6 -1 -1.2563505831530727e6 -1 -278089.86740894016 1 -1.2430767963802323e6 -1 -1.2933534966273285e6 1 1.6293741485578269e6 -1 -1.3006993463791583e6 1 1.5901212269966863e6 -1 -1.259267802046485e6 -1 -1.3070313307744446e6 -1 1.4123145159258982e6 -1 -277724.82983371627 -1 1.6181330917012154e6 -1 -278222.8994358475 1 1.6008299318276588e6 -1 -1.2416317842938367e6 1 1.413898352920815e6 -1 -1.2232439592657457e6 -1 -1.2417180081247233e6 1 1.5934846177472612e6 -1 -280280.7485481225 1 -1.242173505265737e6
27 1 0.0 1 -283027.34976265475 -1 1.6544896785338982e6 1 -1.3042059926784767e6 -1 1.4817259002963817e6 -1 1.4797164396690303e6 -1 1.6927353372093725e6 1 -1.3138631607881796e6 1 -284169.83697180124 -1 -1.3462908649205738e6 -1 624847.1175810137 -1 -1.2975463331789302e6 1 -1.3428814385363183e6 1 -1.3499697055023531e6 1 -1.297128111640185e6 1 -1.3028921958677005e6 1 -1.2991985045083857e6 -1 1.6857628630050025e6 1 1.4664380805694016e6 1 -290008.4773995459 1 -1.298484559253508e6 1 -1.3535470723553316e6 1 -1.1910764874892477e6 1 -1.3064307848201543e6 1 -1.2994393260364668e6 1 -1.3249451994657046e6 -1 1.6607396355588168e6 -1 972310.616846674 1 -1.2984039628888695e6 -1 1.6775449252167183e6 -1 1.6693267772243633e6 -1 1.6607396273118781e6 -1 1.6651172104586998e6 -1 967828.7486300542 1 -1.2983572435678062e6 -1 1.6768313317426406e6 1 -1.184611155608219e6 -1 1.6964455789940283e6 -1 1.6833180755161461e6 -1 1.66577436245126e6 -1 1.4700847726322578e6 1 -1.3000493316117022e6 1 -1.2986991078625033e6 1 -1.3393531404896853e6 -1 961160.0220302367 1 -1.180383037050419e6 -1 1.7017219081362817e6 -1 1.6854180860359892e6 -1 1.4737839317418942e6 1 -1.271759246246169e6 1 -1.2995467642904595e6 1 -1.2969229057489133e6 -1 1.680354578434703e6 -1 1.6738077663603136e6 1 -1.1882242915818498e6 1 -1.1825748564576153e6 1 -1.3046783837168056e6 -1 1.687055262592372e6 1 -1.2999856056371653e6 1 -1.297847198786707e6 1 -1.3101296672547502e6 -1 1.6710236458223176e6 1 -1.3175620630036104e6 -1 964407.4060009476 -1 1.6579598921372425e6 1 -1.2971279990947868e6 -1 959244.9236737604 -1 1.6985686511090396e6 -1 1.667844653625007e6 -1 1.69554442305415e6 1 -1.2993315755323789e6 -1 1.6930781369130109e6 -1 971341.2418484268 1 -1.2994118815195407e6 -1 1.6893410186425124e6 1 -1.2996696121467564e6 1 -1.298827508531617e6 1 -1.1771493646565715e6 1 -1.335621345175759e6 1 -1.3025064394763052e6 1 -296738.89391824364 -1 -1.27454174021011e6 1 -1.298399344435941e6 -1 1.6616970357625051e6 1 -1.2982706471851126e6 -1 1.689715037225288e6 1 -1.3016863848683883e6 1 -1.2971280845777406e6 1 1.4773631666691198e6 1 -300111.1298443489 1 1.6766168934151973e6 1 -293134.6524438219 -1 1.6892119215522734e6 1 -1.3319218921343472e6 -1 1.4752097301627076e6 1 -1.3020395186235341e6 1 -1.3282708424639048e6 -1 1.6893411544745339e6 1 -287717.9545534388 -1 -1.3212517926022601e6
28 1 0.0 -1 -306341.3879210811 1 1.7727698562691454e6 -1 -1.3503618490017091e6 1 1.530313335532958e6 1 1.5320411484069356e6 1 1.7250582244140508e6 -1 -1.3450699231060955e6 -1 -303746.6016288985 1 -1.343862165726528e6 1 647233.4175916463 1 -1.3621058290300732e6 -1 -1.3441900128436016e6 -1 -1.3438037328069783e6 -1 -1.412153072992657e6 -1 -1.3527853256922618e6 -1 -1.381301034847567e6 1 1.7405093912176553e6 -1 1.5374491568139524e6 -1 -302110.695053985 -1 -1.3917989100966766e6 -1 -1.3436438261586276e6 -1 -1.2315748268321503e6 -1 -1.3451120941407285e6 -1 -1.3703300358716608e6 -1 -1.3449401412796334e6 1 1.7678079927900769e6 1 1.002438813329396e6 -1 -1.3954555872333671e6 1 1.7472405474346876e6 1 1.757708766948978e6 1 1.7715452580444673e6 1 1.7647110206873016e6 1 1.0054314921154343e6 -1 -1.4028834149149621e6 1 1.750264227461939e6 -1 -1.23258404195378e6 1 1.7175566456947194e6 1 1.7455391507314572e6 1 1.7616308991785329e6 1 1.5373585753754794e6 -1 -1.33151427544158e6 -1 -1.3882761852043427e6 -1 -1.3443989882982979e6 1 1.006237312518275e6 -1 -1.2358304703986382e6 1 1.7153584278343145e6 1 1.7439018877499711e6 1 1.5373204609837867e6 -1 -1.3520669271052866e6 -1 -1.3399983766243244e6 -1 -1.3697560396053726e6 1 1.746312927151343e6 1 1.75471520908227e6 -1 -1.2324599044260816e6 -1 -1.2342850163045053e6 -1 -1.347096966538709e6 1 1.738064517303696e6 -1 -1.3351878229683721e6 -1 -1.3586694211365208e6 -1 -1.3450737030739952e6 1 1.755668362045603e6 -1 -1.3450315518201974e6 1 1.0057474229876568e6 1 1.7725027963711608e6 -1 -1.4196275074499173e6 1 1.0080594876631278e6 1 1.7159424443084016e6 1 1.7599639168509508e6 1 1.7203927632561703e6 -1 -1.3776968323702312e6 1 1.7216637506163602e6 1 1.0052067118324778e6 -1 -1.3740398648560639e6 1 1.732875726351178e6 -1 -1.3653109269792922e6 -1 -1.3846673123721275e6 -1 -1.2363340715061198e6 -1 -1.3444044664857006e6 -1 -1.3561368428021956e6 -1 -301366.5645700246 1 -1.3511121475678985e6 -1 -1.3991882422817678e6 1 1.765028119492436e6 -1 -1.4065340920335976e6 1 1.7257751979312955e6 -1 -1.360566183196937e6 -1 -1.415890319431542e6 -1 1.5334251489083543e6 -1 -301001.5269948007 -1 1.7537870626358245e6 -1 -301499.5965969319 1 1.7364839027622682e6 -1 -1.3444422869456178e6 1 1.5350089859032712e6 -1 -1.3282550674507536e6 -1 -1.3445285107765044e6 1 1.7291385886818704e6 -1 -303557.44570920704 1 -1.344984007917518e6
29 1 0.0 1 -306304.04692373925 -1 1.7901436494685074e6 1 -1.411552859834245e6 -1 1.6028365332788378e6 -1 1.6008270726514864e6 -1 1.8283893081439817e6 1 -1.4212100279439478e6 1 -307446.53413288575 -1 -1.4536377320763422e6 -1 670547.4557500726 -1 -1.3860101653533056e6 1 -1.4502283056920867e6 1 -1.4573165726581214e6 1 -1.4059871002972822e6 1 -1.4072148200208105e6 1 -1.405033250162825e6 -1 1.8214168339396117e6 1 1.5875487135518577e6 1 -313285.17456063034 1 -1.404319304907947e6 1 -1.4608939395110998e6 1 -1.2894621198294922e6 1 -1.4137776519759225e6 1 -1.4052740716909058e6 1 -1.432292066621473e6 -1 1.7963936064934263e6 -1 1.0525507911709696e6 1 -1.4042387085433088e6 -1 1.8131988961513278e6 -1 1.8049807481589727e6 -1 1.7963935982464876e6 -1 1.800771181393309e6 -1 1.0480689229543498e6 1 -1.4041919892222455e6 -1 1.81248530267725e6 1 -1.2829967879484638e6 -1 1.8320995499286377e6 -1 1.8189720464507556e6 -1 1.8014283333858694e6 -1 1.591195405614714e6 1 -1.4065725612980393e6 1 -1.4045338535169424e6 1 -1.4467000076454538e6 -1 1.0414001963545323e6 1 -1.2787686693906637e6 -1 1.8373758790708908e6 -1 1.8210720569705984e6 -1 1.59489456472435e6 1 -1.3879821749351644e6 1 -1.4075821154781256e6 1 -1.3884109809259467e6 -1 1.8160085493693124e6 -1 1.8094617372949228e6 1 -1.2866099239220943e6 1 -1.28096048879786e6 1 -1.4120252508725738e6 -1 1.8227092335269814e6 1 -1.4065088353235023e6 1 -1.3878231524624112e6 1 -1.4174765344105184e6 -1 1.806677616756927e6 1 -1.4249089301593788e6 -1 1.0446475803252432e6 -1 1.793613863071852e6 1 -1.4059869877518844e6 -1 1.0394850979980561e6 -1 1.8342226220436487e6 -1 1.8034986245596164e6 -1 1.8311983939887595e6 1 -1.4051663211868182e6 -1 1.8287321078476203e6 -1 1.0515814161727224e6 1 -1.4052466271739798e6 -1 1.8249949895771218e6 1 -1.4055043578011955e6 1 -1.4046622541860563e6 1 -1.2755349969968162e6 1 -1.4429682123315274e6 1 -1.4068290636294151e6 1 -320015.5910793281 -1 -1.3907646688991054e6 1 -1.4042340900903803e6 -1 1.7973510066971143e6 1 -1.404105392839552e6 -1 1.8253690081598973e6 1 -1.4060090090214983e6 1 -1.405987073234838e6 1 1.598473799651576e6 1 -323387.8270054333 1 1.8122708643498064e6 1 -316411.34960490634 -1 1.8248658924868829e6 1 -1.4392687592901154e6 -1 1.5963203631451637e6 1 -1.407050626808542e6 1 -1.435617709619673e6 -1 1.824995125409143e6 1 -310994.6517145233 -1 -1.4285986597580286e6
30 1 0.0 -1 -329618.0850821656 1 1.9084238272037546e6 -1 -1.4577087161574773e6 1 1.651423968515414e6 1 1.6531517813893917e6 1 1.86071219534866e6 -1 -1.4524167902618637e6 -1 -327023.29878998303 1 -1.4512090328822965e6 1 692933.7557607052 1 -1.4663178462124232e6 -1 -1.45153687999937e6 -1 -1.4511505999627465e6 -1 -1.4731405366311471e6 -1 -1.458620071346701e6 -1 -1.4983476010059936e6 1 1.8761633621522645e6 -1 1.6585597897964085e6 -1 -325387.39221506944 -1 -1.508845476255103e6 -1 -1.4509906933143958e6 -1 -1.3299604591723948e6 -1 -1.4524589612964967e6 -1 -1.4873766020300873e6 -1 -1.4522870084354018e6 1 1.9034619637246863e6 1 1.0826789876536916e6 -1 -1.5125021533917938e6 1 1.882894518369297e6 1 1.8933627378835874e6 1 1.9071992289790767e6 1 1.9003649916219108e6 1 1.08567166643973e6 -1 -1.5199299810733886e6 1 1.8859181983965484e6 -1 -1.3309696742940247e6 1 1.8532106166293288e6 1 1.8811931216660666e6 1 1.8972848701131423e6 1 1.6584692083579355e6 -1 -1.440262657127917e6 -1 -1.5053227513627692e6 -1 -1.4517458554540663e6 1 1.0864774868425706e6 -1 -1.3342161027388829e6 1 1.8510123987689237e6 1 1.8795558586845803e6 1 1.6584310939662426e6 -1 -1.4608153087916237e6 -1 -1.4307734213026871e6 -1 -1.457506841281077e6 1 1.8819668980859525e6 1 1.8903691800168792e6 -1 -1.330845536766326e6 -1 -1.33267064864475e6 -1 -1.454443833694477e6 1 1.8737184882383053e6 -1 -1.4439362046547092e6 -1 -1.4643935598201996e6 -1 -1.4524205702297634e6 1 1.8913223329802125e6 -1 -1.4523784189759658e6 1 1.0859875973119524e6 1 1.9081567673057702e6 -1 -1.4806149710884076e6 1 1.0882996619874234e6 1 1.8515964152430107e6 1 1.8956178877855602e6 1 1.8560467341907797e6 -1 -1.4947433985286576e6 1 1.8573177215509696e6 1 1.0854468861567734e6 -1 -1.4910864310144903e6 1 1.8685296972857874e6 -1 -1.4838696146390478e6 -1 -1.501713878530554e6 -1 -1.3347197038463645e6 -1 -1.451751333641469e6 -1 -1.4634837099579638e6 -1 -324643.26173110906 1 -1.4561232557529067e6 -1 -1.5162348084401945e6 1 1.9006820904270452e6 -1 -1.523580658192024e6 1 1.8614291688659047e6 -1 -1.469425171854034e6 -1 -1.476877783070032e6 -1 1.6545357818908105e6 -1 -324278.22415588517 -1 1.8894410335704337e6 -1 -324776.29375801637 1 1.8721378736968776e6 -1 -1.451789154101386e6 1 1.6561196188857274e6 -1 -1.4354913276357616e6 -1 -1.4518753779322726e6 1 1.8647925596164796e6 -1 -326834.14287029154 1 -1.4523308750732865e6
31 1 0.0 1 -329580.74408482376 -1 1.9257976204031166e6 1 -1.5158754839873551e6 -1 1.723947166261294e6 -1 1.7219377056339425e6 -1 1.964043279078591e6 1 -1.528556895099716e6 1 -330723.23129397025 -1 -1.5609845992321107e6 -1 716247.7939191315 -1 -1.4879970305356556e6 1 -1.5575751728478551e6 1 -1.5646634398138896e6 1 -1.5118218459517213e6 1 -1.5130495656752496e6 1 -1.510867995817264e6 -1 1.9570708048742209e6 1 1.7086593465343139e6 1 -336561.8717217148 1 -1.5101540505623864e6 1 -1.568240806666868e6 1 -1.3878477521697367e6 1 -1.5211245191316907e6 1 -1.5111088173453452e6 1 -1.5396389337772415e6 -1 1.9320475774280357e6 -1 1.1327909654952653e6 1 -1.510073454197748e6 -1 1.9488528670859372e6 -1 1.9406347190935821e6 -1 1.932047569181097e6 -1 1.9364251523279182e6 -1 1.1283090972786455e6 1 -1.5100267348766846e6 -1 1.9481392736118594e6 1 -1.3813824202887085e6 -1 1.967753520863247e6 -1 1.954626017385365e6 -1 1.9370823043204788e6 -1 1.71230603859717e6 1 -1.5115836694830472e6 1 -1.5103685991713817e6 1 -1.5540468748012222e6 -1 1.1216403706788279e6 1 -1.3771543017309085e6 -1 1.9730298500055e6 -1 1.9567260279052076e6 -1 1.716005197706806e6 1 -1.4914811616188432e6 1 -1.5095689806604756e6 1 -1.4949342106122838e6 -1 1.9516625203039218e6 -1 1.945115708229532e6 1 -1.3849955562623388e6 1 -1.3793461211381047e6 1 -1.519372118028342e6 -1 1.9583632044615909e6 1 -1.5115199435085105e6 1 -1.4898100176447611e6 1 -1.5248234015662866e6 -1 1.9423315876915364e6 1 -1.5322557973151472e6 -1 1.1248877546495388e6 -1 1.9292678340064613e6 1 -1.5118217334063235e6 -1 1.1197252723223516e6 -1 1.969876592978258e6 -1 1.9391525954942259e6 -1 1.966852364923369e6 1 -1.5110010668412573e6 -1 1.9643860787822297e6 -1 1.131821590497018e6 1 -1.511081372828419e6 -1 1.9606489605117312e6 1 -1.5113391034556348e6 1 -1.5104969998404956e6 1 -1.373920629337061e6 1 -1.5503150794872958e6 1 -1.5126638092838542e6 1 -343292.28824041254 -1 -1.4972878985854427e6 1 -1.5100688357448196e6 -1 1.9330049776317235e6 1 -1.5099401384939912e6 -1 1.9610229790945065e6 1 -1.5118437546759374e6 1 -1.511821818889277e6 1 1.719584432634032e6 1 -346664.5241665178 1 1.9479248352844156e6 1 -339688.0467659908 -1 1.9605198634214923e6 1 -1.5466156264458837e6 -1 1.7174309961276199e6 1 -1.5105496134922209e6 1 -1.5429645767754412e6 -1 1.9606490963437522e6 1 -334271.34887560783 -1 -1.535945526913797e6
32 1 0.0 -1 -352894.7822432501 1 2.0440777981383638e6 -1 -1.5620313403105875e6 1 1.7725346014978702e6 1 1.7742624143718479e6 1 1.9963661662832692e6 -1 -1.559763657417632e6 -1 -350299.99595106754 1 -1.558555900038065e6 1 738634.0939297641 1 -1.568304711394773e6 -1 -1.5588837471551385e6 -1 -1.5584974671185147e6 -1 -1.57292679628027e6 -1 -1.5629426954998109e6 -1 -1.6011581036577746e6 1 2.0118173330868736e6 -1 1.7796704227788646e6 -1 -348664.0893761539 -1 -1.6131681004082132e6 -1 -1.558337560470164e6 -1 -1.4283460915126393e6 -1 -1.559805828452265e6 -1 -1.5901871046818683e6 -1 -1.5596338755911703e6 1 2.0391159346592957e6 1 1.1629191619779873e6 -1 -1.616824777544904e6 1 2.0185484893039064e6 1 2.0290167088181968e6 1 2.0428531999136861e6 1 2.03601896255652e6 1 1.1659118407640257e6 -1 -1.6242526052264988e6 1 2.0215721693311578e6 -1 -1.4293553066342694e6 1 1.9888645875639382e6 1 2.016847092600676e6 1 2.0329388410477517e6 1 1.7795798413403917e6 -1 -1.5438477043155832e6 -1 -1.6096453755158794e6 -1 -1.5590927226098347e6 1 1.166717661166866e6 -1 -1.4326017350791276e6 1 1.986666369703533e6 1 2.0152098296191895e6 1 1.7795417269486985e6 -1 -1.5643142954753025e6 -1 -1.5711902940129477e6 -1 -1.564030070967414e6 1 2.017620869020562e6 1 2.0260231509514884e6 -1 -1.4292311691065705e6 -1 -1.4310562809849947e6 -1 -1.5617907008502453e6 1 2.0093724591729147e6 -1 -1.5475212518423754e6 -1 -1.5663804250025495e6 -1 -1.5597674373855316e6 1 2.026976303914822e6 -1 -1.5597252861317343e6 1 1.1662277716362479e6 1 2.0438107382403796e6 -1 -1.5804012307375304e6 1 1.168539836311719e6 1 1.98725038617762e6 1 2.0312718587201696e6 1 1.9917007051253892e6 -1 -1.5975539011804387e6 1 1.992971692485579e6 1 1.1656870604810691e6 -1 -1.5938969336662714e6 1 2.0041836682203969e6 -1 -1.5866801172908288e6 -1 -1.6060365026836642e6 -1 -1.4331053361866092e6 -1 -1.5590982007972375e6 -1 -1.5662942126097446e6 -1 -347919.9588921935 1 -1.562646485439244e6 -1 -1.6205574325933047e6 1 2.0363360613616544e6 -1 -1.6279032823451343e6 1 1.9970831398005139e6 -1 -1.569211431503157e6 -1 -1.5766640427191549e6 -1 1.7756464148732666e6 -1 -347554.9213169696 -1 2.025095004505043e6 -1 -348052.9909191008 1 2.007791844631487e6 -1 -1.5591360212571542e6 1 1.7772302518681835e6 -1 -1.5578488028340603e6 -1 -1.5592222450880408e6 1 2.0004465305510887e6 -1 -350110.84003137605 1 -1.559677742229055e6
33 1 0.0 1 -352857.44124590827 -1 2.0614515913377258e6 1 -1.6247344726444525e6 -1 1.84505779924375e6 -1 1.8430483386163986e6 -1 2.0996972500132e6 1 -1.6374158837568134e6 1 -353999.92845505476 -1 -1.669843587889208e6 -1 761948.1320881904 -1 -1.5937211692193346e6 1 -1.6664341615049527e6 1 -1.673522428470987e6 1 -1.6116081056008441e6 1 -1.6203964328310178e6 1 -1.6136784984690452e6 -1 2.09272477580883e6 1 1.82976997951677e6 1 -359838.56888279924 1 -1.6144766747154966e6 1 -1.6770997953239654e6 1 -1.4862333845099811e6 1 -1.629983507788788e6 1 -1.6139193199971262e6 1 -1.6484979224343388e6 -1 2.067701548362645e6 -1 1.213031139819561e6 1 -1.6143960783508583e6 -1 2.0845068380205466e6 -1 2.0762886900281915e6 -1 2.0677015401157064e6 -1 2.0720791232625274e6 -1 1.2085492716029412e6 1 -1.6143493590297948e6 -1 2.0837932445464688e6 1 -1.4797680526289532e6 -1 2.1034074917978565e6 -1 2.0902799883199744e6 -1 2.0727362752550882e6 -1 1.8334166715796262e6 1 -1.6226432636733716e6 1 -1.6146912233244919e6 1 -1.6629058634583198e6 -1 1.2018805450031233e6 1 -1.4755399340711532e6 -1 2.1086838209401094e6 -1 2.0923799988398168e6 -1 1.837115830689262e6 1 -1.5987174218038511e6 1 -1.591357356834851e6 1 -1.6021704707972917e6 -1 2.0873164912385312e6 -1 2.0807696791641412e6 1 -1.4833811886025833e6 1 -1.4777317534783494e6 1 -1.6282311066854394e6 -1 2.0940171753962003e6 1 -1.6225795376988347e6 1 -1.59553415632844e6 1 -1.633682390223384e6 -1 2.0779855586261458e6 1 -1.6411147859722446e6 -1 1.2051279289738343e6 -1 2.0649218049410707e6 1 -1.6116079930554463e6 -1 1.199965446646647e6 -1 2.105530563912867e6 -1 2.0748065664288353e6 -1 2.102506335857978e6 1 -1.6138115694930383e6 -1 2.100040049716839e6 -1 1.2120617648213138e6 1 -1.6138918754802002e6 -1 2.0963029314463406e6 1 -1.6141496061074159e6 1 -1.6148196239936058e6 1 -1.4723062616773057e6 1 -1.6591740681443934e6 1 -1.6169864334369642e6 1 -366568.985401497 -1 -1.60603628027178e6 1 -1.6143914598979298e6 -1 2.0686589485663327e6 1 -1.6142627626471014e6 -1 2.0966769500291157e6 1 -1.6131421358263893e6 1 -1.6116080785384e6 1 1.8406950656164882e6 1 -369941.2213276022 1 2.0835788062190248e6 1 -362964.74392707524 -1 2.0961738343561017e6 1 -1.655474615102981e6 -1 1.838541629110076e6 1 -1.6291698151891904e6 1 -1.6518235654325385e6 -1 2.0963030672783614e6 1 -357548.04603669234 -1 -1.6448045155708943e6
34 1 0.0 -1 -376171.4794043346 1 2.179731769072973e6 -1 -1.6724024504690138e6 1 1.8936452344803263e6 1 1.895373047354304e6 1 2.1320201372178784e6 -1 -1.6686226460747293e6 -1 -373576.69311215205 1 -1.6674148886951623e6 1 784334.432098823 1 -1.670291576577123e6 -1 -1.667742735812236e6 -1 -1.667356455775612e6 -1 -1.7220967024493292e6 -1 -1.6748259271595664e6 -1 -1.716692548314872e6 1 2.147471304021483e6 -1 1.9007810557613207e6 -1 -371940.78653723834 -1 -1.6838552630493615e6 -1 -1.6671965491272614e6 -1 -1.5267317238528838e6 -1 -1.6686648171093622e6 -1 -1.7057215493389657e6 -1 -1.6684928642482676e6 1 2.174769905593905e6 1 1.243159336302283e6 -1 -1.6875119401860524e6 1 2.154202460238516e6 1 2.164670679752806e6 1 2.1785071708482956e6 1 2.1716729334911294e6 1 1.2461520150883214e6 -1 -1.694939767867647e6 1 2.157226140265767e6 -1 -1.5277409389745141e6 1 2.1245185584985474e6 1 2.1525010635352856e6 1 2.168592811982361e6 1 1.9006904743228478e6 -1 -1.649571842999262e6 -1 -1.6803325381570277e6 -1 -1.6679517112669323e6 1 1.2469578354911616e6 -1 -1.5309873674193723e6 1 2.1223203406381425e6 1 2.1508638005537987e6 1 1.9006523599311544e6 -1 -1.6678132821589813e6 -1 -1.6716650376939685e6 -1 -1.667529057651093e6 1 2.153274839955171e6 1 2.161677121886098e6 -1 -1.527616801446815e6 -1 -1.5294419133252394e6 -1 -1.6721618110086718e6 1 2.145026430107524e6 -1 -1.6532453905260542e6 -1 -1.6683672901848992e6 -1 -1.668626426042629e6 1 2.1626302748494316e6 -1 -1.6685842747888316e6 1 1.2464679459605434e6 1 2.179464709174989e6 -1 -1.7295711369065894e6 1 1.2487800106360144e6 1 2.1229043571122293e6 1 2.166925829654779e6 1 2.127354676059998e6 -1 -1.713088345837536e6 1 2.1286256634201882e6 1 1.2459272348053649e6 -1 -1.7094313783233687e6 1 2.139837639155006e6 -1 -1.7022145619479264e6 -1 -1.6767236653248128e6 -1 -1.531490968526854e6 -1 -1.667957189454335e6 -1 -1.675153201266842e6 -1 -371196.65605327795 1 -1.6676575936242521e6 -1 -1.691244595234453e6 1 2.1719900322962636e6 -1 -1.6985904449862828e6 1 2.132737110735123e6 -1 -1.7198934591735452e6 -1 -1.725833948888214e6 -1 1.8967570478557227e6 -1 -370831.61847805406 -1 2.1607489754396523e6 -1 -371329.68808018527 1 2.1434458155660965e6 -1 -1.6679950099142515e6 1 1.8983408848506396e6 -1 -1.6493368780110937e6 -1 -1.6680812337451382e6 1 2.136100501485698e6 -1 -373387.53719246056 1 -1.6685367308861522e6
35 1 0.0 1 -376134.1384069928 -1 2.1971055622723354e6 1 -1.7260328537949042e6 -1 1.9661684322262062e6 -1 1.9641589715988548e6 -1 2.2353512209478095e6 1 -1.7402263864085942e6 1 -377276.62561613927 -1 -1.7787025765463053e6 -1 807648.4702572493 -1 -1.7017565204070008e6 1 -1.772268907159392e6 1 -1.7823814171280842e6 1 -1.7159307297539543e6 1 -1.7247190569841277e6 1 -1.7180011226221554e6 -1 2.228378746743439e6 1 1.9508806124992261e6 1 -383115.2660438837 1 -1.7187992988686066e6 1 -1.7859587839810627e6 1 -1.5846190168502256e6 1 -1.7327940104405691e6 1 -1.7182419441502362e6 1 -1.75130842508612e6 -1 2.2033555192972543e6 -1 1.2932713141438568e6 1 -1.7187187025039683e6 -1 2.220160808955156e6 -1 2.211942660962801e6 -1 2.2033555110503156e6 -1 2.207733094197137e6 -1 1.288789445927237e6 1 -1.718671983182905e6 -1 2.2194472154810783e6 1 -1.578153684969198e6 -1 2.2390614627324655e6 -1 2.225933959254584e6 -1 2.2083902461896976e6 -1 1.9545273045620823e6 1 -1.7246301288557213e6 1 -1.7190138474776018e6 1 -1.76722848761143e6 -1 1.2821207193274188e6 1 -1.573925566411398e6 -1 2.244337791874719e6 -1 2.228033969774426e6 -1 1.9582264636717178e6 1 -1.721873988004808e6 1 -1.6993927080225172e6 1 -1.730576432000907e6 -1 2.22297046217314e6 -1 2.216423650098751e6 1 -1.5817668209428277e6 1 -1.5761173858185941e6 1 -1.7295294878358913e6 -1 2.2296711463308097e6 1 -1.7245664028811844e6 1 -1.7126422365240806e6 1 -1.7364928928751647e6 -1 2.2136395295607555e6 1 -1.7439252886240256e6 -1 1.2853681032981297e6 -1 2.2005757758756797e6 1 -1.7159306172085565e6 -1 1.2802056209709425e6 -1 2.2411845348474765e6 -1 2.2104605373634445e6 -1 2.238160306792587e6 1 -1.7181341936461485e6 -1 2.2356940206514485e6 -1 1.2923019391456095e6 1 -1.7182144996333104e6 -1 2.23195690238095e6 1 -1.718472230260526e6 1 -1.719142248146716e6 1 -1.5706918940175504e6 1 -1.7634966922975036e6 1 -1.7213090575900744e6 1 -389845.68256258144 -1 -1.726967694472737e6 1 -1.71871408405104e6 -1 2.204312919500942e6 1 -1.7185853868002116e6 -1 2.232330920963725e6 1 -1.7174647599794995e6 1 -1.71593070269151e6 1 1.9618056985989443e6 1 -393217.9184886867 1 2.2192327771536345e6 1 -386241.4410881597 -1 2.231827805290711e6 1 -1.759797239256091e6 -1 1.9596522620925321e6 1 -1.7281324373688821e6 1 -1.7561461895856487e6 -1 2.231957038212971e6 1 -380824.74319777684 -1 -1.7476150182226754e6
36 1 0.0 -1 -399448.1765654191 1 2.3153857400075826e6 -1 -1.7767250746221237e6 1 2.0147558674627824e6 1 2.0164836803367601e6 1 2.267674108152488e6 -1 -1.7714331487265101e6 -1 -396853.39027323655 1 -1.7762738773522596e6 1 830034.7702678819 1 -1.7783269277647892e6 -1 -1.7735774814666754e6 -1 -1.7762154444327094e6 -1 -1.8309556911064265e6 -1 -1.7791485513126764e6 -1 -1.8255515369719695e6 1 2.2831252749560922e6 -1 2.0218916887437769e6 -1 -395217.4836983228 -1 -1.7927142517064589e6 -1 -1.7760555377843587e6 -1 -1.6251173561931283e6 -1 -1.7714753197611433e6 -1 -1.814580537996063e6 -1 -1.7713033669000487e6 1 2.3104238765285145e6 1 1.3233995106265787e6 -1 -1.7963709288431497e6 1 2.289856431173125e6 1 2.3003246506874156e6 1 2.3141611417829045e6 1 2.307326904425739e6 1 1.3263921894126171e6 -1 -1.8037987565247444e6 1 2.2928801112003764e6 -1 -1.6261265713147589e6 1 2.2601725294331564e6 1 2.288155034469895e6 1 2.3042467829169706e6 1 2.021801107305304e6 -1 -1.760545376685599e6 -1 -1.789191526814125e6 -1 -1.7722743354200425e6 1 1.327198009815457e6 -1 -1.629372999759617e6 1 2.257974311572752e6 1 2.286517771488408e6 1 2.0217629929136103e6 -1 -1.765263782837344e6 -1 -1.7797003888816347e6 -1 -1.7507434948228102e6 1 2.28892881088978e6 1 2.2973310928207072e6 -1 -1.6260024337870595e6 -1 -1.6278275456654842e6 -1 -1.7734601921591237e6 1 2.2806804010421336e6 -1 -1.7642189242123913e6 -1 -1.78547537038054e6 -1 -1.7714369286944098e6 1 2.298284245784041e6 -1 -1.7713947774406127e6 1 1.3267081202848388e6 1 2.3151186801095977e6 -1 -1.838430125563687e6 1 1.3290201849603099e6 1 2.2585583280468388e6 1 2.3025798005893882e6 1 2.263008646994607e6 -1 -1.8219473344946336e6 1 2.2642796343547977e6 1 1.3261674091296606e6 -1 -1.8182903669804663e6 1 2.2754916100896155e6 -1 -1.8110735506050237e6 -1 -1.78558265398191e6 -1 -1.6298766008670987e6 -1 -1.7722798136074452e6 -1 -1.7840121899239393e6 -1 -394473.3532143624 1 -1.7561214257986273e6 -1 -1.8001035838915503e6 1 2.307644003230873e6 -1 -1.8074494336433802e6 1 2.2683910816697325e6 -1 -1.8287524478306426e6 -1 -1.8346929375453114e6 -1 2.0178676808381788e6 -1 -394108.3156391385 -1 2.2964029463742618e6 -1 -394606.3852412697 1 2.279099786500706e6 -1 -1.7723176340673615e6 1 2.0194515178330957e6 -1 -1.7535488951934436e6 -1 -1.7724038578982484e6 1 2.2717544724203073e6 -1 -396664.23435354506 1 -1.7713472335379333e6
37 1 0.0 1 -399410.8355680773 -1 2.332759533206945e6 1 -1.8348918424520015e6 -1 2.0872790652086623e6 -1 2.0852696045813109e6 -1 2.371005191882419e6 1 -1.874447198572337e6 1 -400553.3227772238 -1 -1.8381779186834665e6 -1 853348.8084263082 -1 -1.8105049020933378e6 1 -1.8466933433018695e6 1 -1.8418567592652454e6 1 -1.8247897184110517e6 1 -1.832065924139896e6 1 -1.826860111279253e6 -1 2.3640327176780486e6 1 2.0719912454816822e6 1 -406391.96320496814 1 -1.827658287525704e6 1 -1.8454341261182236e6 1 -1.68300464919047e6 1 -1.8670148226043119e6 1 -1.8271009328073335e6 1 -1.8855292372498629e6 -1 2.3390094902318637e6 -1 1.3735114884681525e6 1 -1.8275776911610656e6 -1 2.3558147798897647e6 -1 2.3475966318974104e6 -1 2.3390094819849245e6 -1 2.343387065131746e6 -1 1.3690296202515326e6 1 -1.8275309718400023e6 -1 2.3551011864156877e6 1 -1.6765393173094427e6 -1 2.3747154336670744e6 -1 2.361587930189193e6 -1 2.344044217124307e6 -1 2.0756379375445384e6 1 -1.8281291155394004e6 1 -1.8278728361346992e6 1 -1.8640765647618822e6 -1 1.3623608936517143e6 1 -1.6723111987516426e6 -1 2.3799917628093283e6 -1 2.3636879407090354e6 -1 2.0793370966541737e6 1 -1.8253729746884871e6 1 -1.806628968207525e6 1 -1.8295390541805986e6 -1 2.358624433107749e6 -1 2.3520776210333603e6 1 -1.6801524532830722e6 1 -1.6745030181588389e6 1 -1.850313327495647e6 -1 2.365325117265419e6 1 -1.8280653895648634e6 1 -1.8071545547037723e6 1 -1.8707137050389075e6 -1 2.349293500495365e6 1 -1.8781461007877686e6 -1 1.3656082776224252e6 -1 2.3362297468102886e6 1 -1.824789605865654e6 -1 1.360445795295238e6 -1 2.376838505782086e6 -1 2.346114508298054e6 -1 2.373814277727196e6 1 -1.826993182303246e6 -1 2.3713479915860575e6 -1 1.3725421134699052e6 1 -1.827073488290408e6 -1 2.3676108733155592e6 1 -1.8273312189176234e6 1 -1.8280012368038134e6 1 -1.669077526357795e6 1 -1.8603447694479558e6 1 -1.8316801677485006e6 1 -413122.3797236659 -1 -1.8274424381537575e6 1 -1.8275730727081373e6 -1 2.3399668904355513e6 1 -1.827444375457309e6 -1 2.3679848918983345e6 1 -1.8263237486365968e6 1 -1.8247896913486074e6 1 2.0829163315814005e6 1 -416494.6156497711 1 2.354886748088244e6 1 -409518.13824924413 -1 2.3674817762253205e6 1 -1.856645316406543e6 -1 2.0807628950749882e6 1 -1.828607181049903e6 1 -1.8529942667361007e6 -1 2.3676110091475802e6 1 -404101.44035886135 -1 -1.8818358303864184e6
38 1 0.0 -1 -422724.87372650363 1 2.451039710942192e6 -1 -1.881047698775234e6 1 2.135866500445239e6 1 2.137594313319216e6 1 2.403328079087097e6 -1 -1.8757557728796203e6 -1 -420130.08743432106 1 -1.8805965015053698e6 1 875735.1084369408 1 -1.8833380359497971e6 -1 -1.8779001056197854e6 -1 -1.8805380685858196e6 -1 -1.9398146797635239e6 -1 -1.8819590539644572e6 -1 -1.932898404127738e6 1 2.4187792458907017e6 -1 2.1430023217262328e6 -1 -418494.18085940724 -1 -1.898548997360898e6 -1 -1.8803781619374687e6 -1 -1.7235029885333728e6 -1 -1.8757979439142535e6 -1 -1.9219274051518312e6 -1 -1.8756259910531589e6 1 2.4460778474631235e6 1 1.4036396849508744e6 -1 -1.9022056744975888e6 1 2.425510402107734e6 1 2.435978621622025e6 1 2.4498151127175135e6 1 2.4429808753603483e6 1 1.4066323637369128e6 -1 -1.9096335021791838e6 1 2.428534082134986e6 -1 -1.7245122036550036e6 1 2.3958265003677653e6 1 2.4238090054045045e6 1 2.43990075385158e6 1 2.1429117402877603e6 -1 -1.8618192113692781e6 -1 -1.895026272468564e6 -1 -1.8765969595731527e6 1 1.4074381841397525e6 -1 -1.7277586320998617e6 1 2.3936282825073614e6 1 2.4221717424230175e6 1 2.1428736258960664e6 -1 -1.8899324705396302e6 -1 -1.8869366490666426e6 -1 -1.855754603007818e6 1 2.424582781824389e6 1 2.4329850637553167e6 -1 -1.724388066127304e6 -1 -1.7262131780057289e6 -1 -1.877782816312234e6 1 2.416334371976743e6 -1 -1.8654927588960703e6 -1 -1.8837249620615607e6 -1 -1.87575955284752e6 1 2.4339382167186504e6 -1 -1.8757174015937229e6 1 1.4069482946091343e6 1 2.4507726510442067e6 -1 -1.9472891142207845e6 1 1.4092603592846054e6 1 2.394212298981448e6 1 2.4382337715239977e6 1 2.398662617929216e6 -1 -1.929294201650402e6 1 2.3999336052894066e6 1 1.4064075834539563e6 -1 -1.9256372341362347e6 1 2.411145581024225e6 -1 -1.918420417760792e6 -1 -1.8914173996363492e6 -1 -1.7282622332073434e6 -1 -1.8766024377605554e6 -1 -1.885310571074391e6 -1 -417750.05037544685 1 -1.879191931495597e6 -1 -1.9059383295459896e6 1 2.4432979741654824e6 -1 -1.9132841792978193e6 1 2.404045052604342e6 -1 -1.936099314986411e6 -1 -1.9435519262024087e6 -1 2.138978313820635e6 -1 -417385.01280022296 -1 2.432056917308871e6 -1 -417883.08240235416 1 2.4147537574353153e6 -1 -1.8766402582204717e6 1 2.1405621508155516e6 -1 -1.8585600033784516e6 -1 -1.8767264820513586e6 1 2.4074084433549168e6 -1 -419940.93151462957 1 -1.8756698576910435e6
39 1 0.0 1 -422687.5327291618 -1 2.4684135041415542e6 1 -1.9407265881064408e6 -1 2.2083896981911184e6 -1 2.2063802375637665e6 -1 2.5066591628170284e6 1 -1.9817940657281054e6 1 -423830.0199383083 -1 -1.9440126643379056e6 -1 899049.1465953671 -1 -1.9177411622783458e6 1 -1.9540402104576377e6 1 -1.9476915049196845e6 1 -1.933648707068149e6 1 -1.937900669794335e6 1 -1.9342069784350214e6 -1 2.499686688612658e6 1 2.193101878464138e6 1 -429668.6603660526 1 -1.933493033180143e6 1 -1.9512688717726627e6 1 -1.7813902815307146e6 1 -1.9743616897600803e6 1 -1.9344477999631017e6 1 -1.992876104405631e6 -1 2.4746634611664726e6 -1 1.4537516627924482e6 1 -1.9334124368155047e6 -1 2.4914687508243737e6 -1 2.48325060283202e6 -1 2.4746634529195335e6 -1 2.4790410360663556e6 -1 1.4492697945758284e6 1 -1.9333657174944417e6 -1 2.490755157350297e6 1 -1.7749249496496874e6 -1 2.5103694046016834e6 -1 2.4972419011238026e6 -1 2.4796981880589165e6 -1 2.1967485705269948e6 1 -1.9331402237244083e6 1 -1.9337075817891383e6 1 -1.9714234319176504e6 -1 1.4426010679760098e6 1 -1.7706968310918873e6 -1 2.5156457337439377e6 -1 2.499341911643645e6 -1 2.20044772963663e6 1 -1.9116116548628625e6 1 -1.9123531068912041e6 1 -1.9345501623656065e6 -1 2.494278404042358e6 -1 2.4877315919679697e6 1 -1.7785380856233167e6 1 -1.7728886504990836e6 1 -1.9576601946514153e6 -1 2.5009790882000285e6 1 -1.9330764977498716e6 1 -1.9143908148887802e6 1 -1.978060572194676e6 -1 2.4849474714299743e6 1 -1.985492967943537e6 -1 1.4458484519467207e6 -1 2.4718837177448976e6 1 -1.9336485945227516e6 -1 1.4406859696195335e6 -1 2.5124924767166954e6 -1 2.4817684792326633e6 -1 2.509468248661805e6 1 -1.9343400494590146e6 -1 2.5070019625206664e6 -1 1.452782287794201e6 1 -1.9344203554461764e6 -1 2.5032648442501687e6 1 -1.9346780860733916e6 1 -1.9338359824582525e6 1 -1.7674631586980398e6 1 -1.967691636603724e6 1 -1.9344906704002814e6 1 -436399.07688475034 -1 -1.92489293883212e6 1 -1.9334078183625767e6 -1 2.4756208613701607e6 1 -1.933279121111748e6 -1 2.503638862832944e6 1 -1.9336706157923653e6 1 -1.9336486800057048e6 1 2.204026964563857e6 1 -439771.31281085557 1 2.4905407190228533e6 1 -432794.8354103286 -1 2.50313574715993e6 1 -1.963992183562311e6 -1 2.2018735280574444e6 1 -1.9336182892349109e6 1 -1.9603411338918689e6 -1 2.5032649800821897e6 1 -427378.13751994586 -1 -1.9891826975421866e6
40 1 0.0 -1 -446001.57088758814 1 2.5866936818768014e6 -1 -1.9868824444296733e6 1 2.256977133427695e6 1 2.2587049463016717e6 1 2.5389820500217066e6 -1 -1.9831026400353888e6 -1 -443406.78459540557 1 -1.9864312471598089e6 1 921435.4466059997 1 -1.9868370226334762e6 -1 -1.9852469727755536e6 -1 -1.9863728142402587e6 -1 -2.0224266934073304e6 -1 -1.9877937996188963e6 -1 -2.0080358707688863e6 1 2.554433216825311e6 -1 2.264112954708689e6 -1 -441770.8780204917 -1 -2.0349949615246407e6 -1 -1.9862129075919078e6 -1 -1.8218886208736172e6 -1 -1.983144811070022e6 -1 -1.9970648717929795e6 -1 -1.982972858208927e6 1 2.5817318183977325e6 1 1.4838798592751701e6 -1 -2.0386516386613315e6 1 2.5611643730423427e6 1 2.5716325925566345e6 1 2.5854690836521224e6 1 2.5786348462949577e6 1 1.4868725380612086e6 -1 -2.0460794663429267e6 1 2.5641880530695952e6 -1 -1.8228978359952483e6 1 2.5314804713023743e6 1 2.559462976339114e6 1 2.5755547247861894e6 1 2.2640223732702164e6 -1 -1.9910242635755513e6 -1 -2.0150110211256614e6 -1 -1.983943826728921e6 1 1.487678358464048e6 -1 -1.8261442644401065e6 1 2.529282253441971e6 1 2.557825713357627e6 1 2.2639842588785226e6 -1 -1.99191933572198e6 -1 -1.9889235142489925e6 -1 -1.960765711192826e6 1 2.560236752758998e6 1 2.568639034689926e6 -1 -1.8227736984675485e6 -1 -1.8245988103459736e6 -1 -1.9851296834680024e6 1 2.5519883429113524e6 -1 -1.9946978111023437e6 -1 -1.9872239487452395e6 -1 -1.9831064200032884e6 1 2.56959218765326e6 -1 -1.9830642687494913e6 1 1.4871884689334298e6 1 2.5864266219788156e6 -1 -2.0299011278645913e6 1 1.4895005336089008e6 1 2.5298662699160576e6 1 2.573887742458607e6 1 2.534316588863825e6 -1 -2.0044316682915506e6 1 2.5355875762240156e6 1 1.486647757778252e6 -1 -2.0007747007773833e6 1 2.5467995519588343e6 -1 -1.988308489399282e6 -1 -2.0114021482934465e6 -1 -1.826647865547588e6 -1 -1.9839493049163236e6 -1 -1.99337046872883e6 -1 -441026.7475365313 1 -1.9902515256859213e6 -1 -2.0423842937097326e6 1 2.578951945100092e6 -1 -2.0497301434615622e6 1 2.5396990235389513e6 -1 -2.0187113286302176e6 -1 -2.0261639398462153e6 -1 2.260088946803091e6 -1 -440661.7099613074 -1 2.5677108882434806e6 -1 -441159.7795634386 1 2.5504077283699247e6 -1 -1.98398712537624e6 1 2.2616727837980078e6 -1 -1.9802044480780794e6 -1 -1.9840733492071268e6 1 2.543062414289526e6 -1 -443217.6286757141 1 -1.9830167248468117e6
41 1 0.0 1 -445964.2298902463 -1 2.6040674750761637e6 1 -2.0495855767635382e6 -1 2.3295003311735746e6 -1 2.327490870546222e6 -1 2.642313133751638e6 1 -2.0921651758865318e6 1 -447106.7170993928 -1 -2.054383774496332e6 -1 944749.484764426 -1 -2.0354762124686702e6 1 -2.064411320616064e6 1 -2.058062615078111e6 1 -2.034947088218601e6 1 -2.0452475369501032e6 1 -2.0355053595854733e6 -1 2.6353406595472675e6 1 2.3142125114465943e6 1 -452945.35752713704 1 -2.036303535831924e6 1 -2.0616399819310892e6 1 -1.879775913870959e6 1 -2.084732799918507e6 1 -2.0357461811135537e6 1 -2.1032472145640575e6 -1 2.6103174321010816e6 -1 1.533991837116744e6 1 -2.0362229394672858e6 -1 2.6271227217589826e6 -1 2.618904573766629e6 -1 2.6103174238541424e6 -1 2.614695007000965e6 -1 1.529509968900124e6 1 -2.0361762201462227e6 -1 2.6264091282849065e6 1 -1.873310581989932e6 -1 2.6460233755362923e6 -1 2.632895872058412e6 -1 2.615352158993526e6 -1 2.317859203509451e6 1 -2.0201779949014417e6 1 -2.0350059629395902e6 1 -2.0817945420760768e6 -1 1.5228412423003053e6 1 -1.869082463432132e6 -1 2.651299704678547e6 -1 2.634995882578254e6 -1 2.321558362619086e6 1 -2.0173357935465416e6 1 -2.0255517925775412e6 1 -2.0395612705506145e6 -1 2.629932374976967e6 -1 2.623385562902579e6 1 -1.8769237179635612e6 1 -1.8712742828393283e6 1 -2.0680313048098418e6 -1 2.636633059134638e6 1 -2.014864873924247e6 1 -2.0306137435777755e6 1 -2.0884316823531024e6 -1 2.6206014423645837e6 1 -2.0958640781019635e6 -1 1.5260886262710162e6 -1 2.6075376886795065e6 1 -2.0349469756732038e6 -1 1.520926143943829e6 -1 2.648146447651305e6 -1 2.6174224501672727e6 -1 2.645122219596414e6 1 -2.0356384306094665e6 -1 2.6426559334552754e6 -1 1.5330224621184967e6 1 -2.0357187365966283e6 -1 2.638918815184778e6 1 -2.0420249532291598e6 1 -2.0351343636087044e6 1 -1.8658487910382845e6 1 -2.0780627467621504e6 1 -2.0373011730520625e6 1 -459675.7740458348 -1 -2.0231425305131408e6 1 -2.0362183210143577e6 -1 2.61127483230477e6 1 -2.0360896237635294e6 -1 2.6392928337675533e6 1 -2.0349689969428172e6 1 -2.034947061156157e6 1 2.325137597546313e6 1 -463048.00997194 1 2.6261946899574627e6 1 -456071.53257141303 -1 2.6387897180945394e6 1 -2.0743632937207376e6 -1 2.3229841610399005e6 1 -2.0552627339345387e6 1 -2.0707122440502953e6 -1 2.638918951016799e6 1 -450654.83468103036 -1 -2.099553807700613e6
42 1 0.0 -1 -469278.26804867265 1 2.722347652811411e6 -1 -2.0972535545880995e6 1 2.378087766410151e6 1 2.3798155792841273e6 1 2.674636020956316e6 -1 -2.0934737501938152e6 -1 -466683.4817564901 1 -2.0983144788195645e6 1 967135.7847750586 1 -2.0842875233118387e6 -1 -2.0956180829339798e6 -1 -2.096743924398685e6 -1 -2.145435685067086e6 -1 -2.0966527882759937e6 -1 -2.129532740927313e6 1 2.6900871877599205e6 -1 2.385223587691145e6 -1 -465047.57518157613 -1 -2.1004327291631307e6 -1 -2.0965840177503342e6 -1 -1.9202742532138617e6 -1 -2.0935159212284486e6 -1 -2.118561741951406e6 -1 -2.0933439683673535e6 1 2.7173857893323414e6 1 1.5641200335994659e6 -1 -2.1040894062998216e6 1 2.6968183439769517e6 1 2.707286563491244e6 1 2.7211230545867314e6 1 2.714288817229567e6 1 1.5671127123855043e6 -1 -2.111517233981417e6 1 2.6998420240042047e6 -1 -1.921283468335493e6 1 2.667134442236983e6 1 2.6951169472737233e6 1 2.711208695720799e6 1 2.3851330062526725e6 -1 -2.093011128757901e6 -1 -2.138020012785417e6 -1 -2.0943149368873474e6 1 1.5679185327883435e6 -1 -1.9245298967803512e6 1 2.66493622437658e6 1 2.6934796842922363e6 1 2.3850948918609787e6 -1 -2.09390620090433e6 -1 -2.0909103794313425e6 -1 -2.069514092879163e6 1 2.695890723693607e6 1 2.7042930056245355e6 -1 -1.921159330807793e6 -1 -1.9229844426862183e6 -1 -2.0955007936264288e6 1 2.687642313845962e6 -1 -2.0951725547833645e6 -1 -2.0922350569302477e6 -1 -2.0934775301617149e6 1 2.7052461585878693e6 -1 -2.0934353789079178e6 1 1.5674286432577253e6 1 2.7220805929134246e6 -1 -2.152910119524347e6 1 1.5697407079331963e6 1 2.665520240850667e6 1 2.7095417133932165e6 1 2.669970559798434e6 -1 -2.125928538449977e6 1 2.6712415471586245e6 1 1.5668879321025477e6 -1 -2.1222715709358095e6 1 2.6824535228934437e6 -1 -2.0971674780563796e6 -1 -2.134411139953202e6 -1 -1.9250334978878328e6 -1 -2.09432041507475e6 -1 -2.0976930928819403e6 -1 -464303.44469761575 1 -2.092238390868271e6 -1 -2.1078220613482227e6 1 2.7146059160347013e6 -1 -2.1151679111000523e6 1 2.6753529944735607e6 -1 -2.141720320289973e6 -1 -2.149172931505971e6 -1 2.381199579785547e6 -1 -463938.40712239186 -1 2.70336485917809e6 -1 -464436.47672452306 1 2.686061699304534e6 -1 -2.0943582355346663e6 1 2.382783416780464e6 -1 -2.075429796756442e6 -1 -2.0944444593655532e6 1 2.6787163852241356e6 -1 -466494.3258367986 1 -2.0933878350052382e6
43 1 0.0 1 -469240.9270513308 -1 2.739721446010773e6 1 -2.147146684412661e6 -1 2.4506109641560307e6 -1 2.448601503528678e6 -1 2.777967104686247e6 1 -2.194975678538313e6 1 -470383.4142604773 -1 -2.1407330616414677e6 -1 990449.8229334849 -1 -2.155608535666969e6 1 -2.1641975802651867e6 1 -2.1541116012259047e6 1 -2.139269712371711e6 1 -2.1577577386045423e6 1 -2.1383158622372546e6 -1 2.770994630481877e6 1 2.4353231444290504e6 1 -476222.0546882215 1 -2.139114038483705e6 1 -2.161426241580212e6 1 -1.9781615462112036e6 1 -2.187543302570288e6 1 -2.1385566837653345e6 1 -2.2060577172158384e6 -1 2.7459714030356905e6 -1 1.6142320114410396e6 1 -2.1390334421190666e6 -1 2.7627766926935916e6 -1 2.7545585447012386e6 -1 2.7459713947887514e6 -1 2.7503489779355745e6 -1 1.6097501432244198e6 1 -2.138986722798004e6 -1 2.762063099219516e6 1 -1.9716962143301768e6 -1 2.7816773464709013e6 -1 2.7685498429930215e6 -1 2.7510061299281353e6 -1 2.438969836491907e6 1 -2.149383047107715e6 1 -2.1393285870927004e6 1 -2.183092923226529e6 -1 1.6030814166246008e6 1 -1.9674680957723767e6 -1 2.7869536756131565e6 -1 2.7706498535128636e6 -1 2.4426689956015423e6 1 -2.1374681167448405e6 1 -2.1584941182851437e6 1 -2.1483096522369515e6 -1 2.765586345911576e6 -1 2.7590395338371885e6 1 -1.9753093503038057e6 1 -1.969659915179573e6 1 -2.167817564458965e6 -1 2.7722870300692474e6 1 -2.1289487111172294e6 1 -2.1560815222827196e6 1 -2.1912421850048834e6 -1 2.756255413299193e6 1 -2.1986745807537446e6 -1 1.6063288005953117e6 -1 2.7431916596141155e6 1 -2.139269599826314e6 -1 1.6011663182681245e6 -1 2.783800418585914e6 -1 2.753076421101882e6 -1 2.780776190531023e6 1 -2.138448933261248e6 -1 2.7783099043898843e6 -1 1.6132626364427924e6 1 -2.1385292392484094e6 -1 2.7745727861193875e6 1 -2.1507978813822703e6 1 -2.1394569877618146e6 1 -1.9642344233785293e6 1 -2.1793611279126024e6 1 -2.1438489492051727e6 1 -482952.47120691923 -1 -2.152347582719414e6 1 -2.1390288236661386e6 -1 2.7469288032393795e6 1 -2.13890012641531e6 -1 2.7749468047021627e6 1 -2.1392916210959274e6 1 -2.139269685309267e6 1 2.446248230528769e6 1 -486324.70713302447 1 2.761848660892072e6 1 -479348.2297324975 -1 2.774443689029149e6 1 -2.1756616748711895e6 -1 2.4440947940223566e6 1 -2.1504880826129015e6 1 -2.1720106252007475e6 -1 2.7745729219514085e6 1 -473931.53184211487 -1 -2.202364310352394e6
44 1 0.0 -1 -492554.96520975715 1 2.8580016237460203e6 -1 -2.207624664746526e6 1 2.499198399392607e6 1 2.500926212266583e6 1 2.8102899918909254e6 -1 -2.1962842528455965e6 -1 -489960.1789175746 1 -2.2086855889779907e6 1 1.0128361229441175e6 1 -2.1832501454915307e6 -1 -2.1954043425831026e6 -1 -2.201066548551795e6 -1 -2.2221713337135506e6 -1 -2.1979511694264454e6 -1 -2.262327492093714e6 1 2.82574115869453e6 -1 2.506334220673601e6 -1 -488324.2723426606 -1 -2.2332274803295317e6 -1 -2.196370277399457e6 -1 -2.0186598855541062e6 -1 -2.1963264238802297e6 -1 -2.251356493117807e6 -1 -2.1961544710191344e6 1 2.8530397602669504e6 1 1.6443602079237616e6 -1 -2.2368841574662225e6 1 2.8324723149115606e6 1 2.8429405344258533e6 1 2.8567770255213403e6 1 2.8499427881641765e6 1 1.6473528867098e6 -1 -2.244311985147818e6 1 2.835495994938814e6 -1 -2.0196691006757377e6 1 2.802788413171592e6 1 2.8307709182083327e6 1 2.846862666655408e6 1 2.5062436392351286e6 -1 -2.191260720438922e6 -1 -2.2147556614318816e6 -1 -2.1956133180377996e6 1 1.648158707112639e6 -1 -2.022915529120596e6 1 2.8005901953111896e6 1 2.8291336552268458e6 1 2.506205524843435e6 -1 -2.2140385241026287e6 -1 -2.177149059605718e6 -1 -2.1939245990694873e6 1 2.831544694628216e6 1 2.839946976559145e6 -1 -2.0195449631480374e6 -1 -2.021370075026463e6 -1 -2.1952870532755516e6 1 2.8232962847805712e6 -1 -2.2092563919763467e6 -1 -2.179985858605952e6 -1 -2.196288032813496e6 1 2.8409001295224787e6 -1 -2.196245881559699e6 1 1.6476688175820208e6 1 2.8577345638480335e6 -1 -2.2296457681708117e6 1 1.6499808822574918e6 1 2.8011742117852764e6 1 2.845195684327826e6 1 2.805624530733043e6 -1 -2.258723289616378e6 1 2.8068955180932335e6 1 1.6471281064268434e6 -1 -2.255066322102211e6 1 2.818107493828053e6 -1 -2.203002223710819e6 -1 -2.2111467885996667e6 -1 -2.0234191302280775e6 -1 -2.1956187962252023e6 -1 -2.208064203040367e6 -1 -487580.1418587002 1 -2.1852385875466336e6 -1 -2.2406168125146236e6 1 2.8502598869693107e6 -1 -2.2479626622664533e6 1 2.81100696540817e6 -1 -2.2184559689364377e6 -1 -2.2259085801524357e6 -1 2.5023102127680033e6 -1 -487215.1042834763 -1 2.8390188301126994e6 -1 -487713.1738856075 1 2.8217156702391435e6 -1 -2.1956566166851185e6 1 2.50389404976292e6 -1 -2.188628482442779e6 -1 -2.195742840516005e6 1 2.814370356158745e6 -1 -489771.0229978831 1 -2.196198337657019e6
