1 1 0.0 -1 0.7902455736157743 -1 0.06710051435837627 -1 0.3937888208048981 1 0.1908192685440655 -1 0.8462542857513247 1 -0.004528576793510819 1 -0.3256822906048833 -1 0.17498236122244593 -1 -0.31159355812136136 -1 0.7616169355121312 1 0.9195148095885901 -1 0.11961509143594506 -1 0.3739806147855944 -1 0.43995725690924203 -1 0.5362451596685958 -1 0.3117457068340972 1 -0.31450442255727085 -1 -0.3868414261115052 -1 -0.6650153646360386 -1 -0.47470462088945276 -1 0.07660093404947688 1 -0.050319562629263404 1 -0.22317354777992193 1 0.1784556787366034 1 -0.5968907640220316 -1 0.6112400735019077 1 -0.08482288358723378 1 -0.826006211179551 1 0.8032370797407502 -1 -0.19328471130603098 1 -0.6690754980997151 -1 0.08086727572089547 -1 -0.9584582989083201 -1 -0.5470741671192081 -1 0.16853443107075372 -1 0.1506018605136481 1 0.19682431426685665 1 0.7600455031974565 -1 -0.456368149517143 1 -0.7890026019277085 -1 0.997141510869423 1 0.4869739308151706 -1 -0.8872694221733541 1 0.617633592714621 -1 -0.06397755000236494 -1 -0.12104709504196931 -1 0.9473586419474009 -1 0.4449071146970591 1 0.09467496119870167 1 -0.02311564552570422 1 -0.3939362311565413 -1 -0.22243673440046274 -1 0.4037356662902225 -1 0.48800651227206493 -1 0.16038930370861704 1 0.29334275837032586 -1 -0.054139527986108105 1 0.8957437681351879 1 -0.7059629069321622 1 0.12464916558333483 1 -0.025370782124389146 -1 0.7075984569390703 -1 -0.6647884052563457 -1 0.6572465819327449 1 -0.4516336699418313 -1 -0.15324628522481465 -1 0.9775515886207162 1 -0.2414369179711957 -1 -0.4283880689722648 1 -0.8186215465956588 -1 0.9849392437378743 -1 0.24671684808748484 -1 -0.43792613404422576 -1 -0.9764814872321574 1 -0.5819997793285772 1 -0.28181300436490586 1 -0.6033663357383154 -1 -0.12827734501883326 -1 -0.6550091573311099 -1 0.2529481432933791 -1 0.8422476906416927 1 0.7360164151142796 1 0.8877169312886357 1 0.2869717904467146 -1 -0.6072447140279691 -1 -0.591656202337038 1 0.4036673984146102 -1 0.5913870393626526 -1 0.8671866099482421 -1 0.8523129634950979 -1 0.5810415189899789 1 0.3290019203540082 1 0.957967331903411 -1 -0.06463963339994416 1 -0.14238445003776135 1 0.3048063070902449 -1 -0.01934286324586809 -1 0.6277100368125648 1 -0.479555903201635
2 1 0.0 -1 0.7901687673571457 -1 0.06710967220467172 -1 0.3937780062627904 1 0.19078470802864902 -1 0.8463402038369207 1 -0.004553289172710083 1 -0.3256873987503044 -1 0.1749778973476185 -1 -0.31162977533259006 -1 0.7615556837864064 1 0.9196138892020278 -1 0.11958163538440342 -1 0.37398535477639056 -1 0.4399308878342305 -1 0.536209678766617 -1 0.31175044682489333 1 -0.31452508523559575 -1 -0.386819474891993 -1 -0.6649341405219107 -1 -0.4746765030799728 -1 0.0765945373628685 1 -0.05030368596106276 1 -0.2232564285898621 1 0.17850570174626745 1 -0.5969499908973191 -1 0.6111866450619629 1 -0.0848056263391896 1 -0.8260482268261226 1 0.8033047741724115 -1 -0.19321738502899463 1 -0.669156722213843 -1 0.08084532450138328 -1 -0.9584217135424665 -1 -0.5470149402439205 -1 0.16849085076702616 -1 0.1505579120552956 1 0.1968547330427425 1 0.7601158667501485 -1 -0.4563555862405668 1 -0.7889491734877637 -1 0.9972169365482081 1 0.4870043495910565 -1 -0.8872274065267826 1 0.6177184983749984 -1 -0.06398836454447263 -1 -0.12101189025595918 -1 0.9473156138756108 -1 0.44495722974537943 1 0.09467390275415496 1 -0.02311734824084458 1 -0.3938987254041253 -1 -0.22235385359052257 -1 0.40372485174811484 -1 0.4879341238689356 -1 0.16032980071736072 1 0.2933535729124335 -1 -0.054123927433876166 1 0.8956446885217502 1 -0.7059250330251213 1 0.12468262163487648 1 -0.025391444802714044 -1 0.7075125388534743 -1 -0.6647660858822086 -1 0.6571762183800528 1 -0.45164623321840747 -1 -0.15324697551473643 -1 0.9775085605489261 1 -0.24150424424823205 -1 -0.4283910602285924 1 -0.8186791167751342 -1 0.9848806611331804 -1 0.24664445968435553 -1 -0.4379135707676496 -1 -0.9764188549265891 1 -0.5820590062038647 1 -0.2818647761090384 1 -0.6033785308602666 -1 -0.12822658569991932 -1 -0.6549394380490113 -1 0.25293999787230226 -1 0.8421617725560967 1 0.7361023331998756 1 0.8877599593604258 1 0.28699815952172614 -1 -0.6071905492787745 -1 -0.5915969754617504 1 0.40367821295671785 -1 0.5913254194823029 -1 0.8671071345685827 -1 0.8523651033938554 -1 0.5810269308629655 1 0.32899718036321207 1 0.9580103599752011 -1 -0.06463793068480381 1 -0.14240069486058693 1 0.3048015670994488 -1 -0.019318150866668826 -1 0.6276643396197438 1 -0.4795122308592512
3 1 0.0 -1 0.7900919610985171 -1 0.06711883005096717 -1 0.39376719172068275 1 0.19075014751323255 -1 0.8464261219225166 1 -0.004578001551909346 1 -0.3256925068957255 -1 0.1749734334727911 -1 -0.31166599254381877 -1 0.7614944320606816 1 0.9197129688154655 -1 0.11954817933286177 -1 0.3739900947671867 -1 0.439904518759219 -1 0.5361741978646382 -1 0.3117551868156895 1 -0.31454574791392065 -1 -0.38679752367248077 -1 -0.6648529164077828 -1 -0.4746483852704928 -1 0.07658814067626013 1 -0.05028780929286211 1 -0.2233393093998023 1 0.1785557247559315 1 -0.5970092177726067 -1 0.611133216622018 1 -0.08478836909114543 1 -0.8260902424726941 1 0.8033724686040729 -1 -0.1931500587519583 1 -0.669237946327971 -1 0.08082337328187109 -1 -0.9583851281766129 -1 -0.5469557133686329 -1 0.1684472704632986 -1 0.15051396359694308 1 0.19688515181862837 1 0.7601862303028406 -1 -0.45634302296399065 1 -0.7888957450478189 -1 0.9972923622269931 1 0.48703476836694237 -1 -0.887185390880211 1 0.6178034040353757 -1 -0.06399917908658032 -1 -0.12097668546994905 -1 0.9472725858038207 -1 0.44500734479369974 1 0.09467284430960826 1 -0.02311905095598494 1 -0.3938612196517093 -1 -0.2222709727805824 -1 0.4037140372060072 -1 0.48786173546580625 -1 0.1602702977261044 1 0.2933643874545412 -1 -0.05410832688164423 1 0.8955456089083125 1 -0.7058871591180804 1 0.12471607768641813 1 -0.02541210748103894 -1 0.7074266207678783 -1 -0.6647437665080715 -1 0.6571058548273607 1 -0.45165879649498364 -1 -0.1532476658046582 -1 0.977465532477136 1 -0.2415715705252684 -1 -0.42839405148492005 1 -0.8187366869546095 -1 0.9848220785284865 -1 0.2465720712812262 -1 -0.4379010074910734 -1 -0.9763562226210207 1 -0.5821182330791523 1 -0.2819165478531709 1 -0.6033907259822178 -1 -0.1281758263810054 -1 -0.6548697187669128 -1 0.2529318524512254 -1 0.8420758544705007 1 0.7361882512854716 1 0.887802987432216 1 0.28702452859673766 -1 -0.6071363845295799 -1 -0.5915377485864628 1 0.4036890274988255 -1 0.5912637996019532 -1 0.8670276591889232 -1 0.8524172432926129 -1 0.5810123427359521 1 0.32899244037241593 1 0.9580533880469912 -1 -0.06463622796966345 1 -0.1424169396834125 1 0.30479682710865263 -1 -0.01929343848746956 -1 0.6276186424269228 1 -0.4794685585168674
4 1 0.0 -1 0.7900151548398885 -1 0.06712798789726261 -1 0.3937563771785751 1 0.19071558699781607 -1 0.8465120400081126 1 -0.00460271393110861 1 -0.3256976150411466 -1 0.17496896959796368 -1 -0.3117022097550475 -1 0.7614331803349568 1 0.9198120484289032 -1 0.11951472328132012 -1 0.37399483475798284 -1 0.43987814968420746 -1 0.5361387169626594 -1 0.3117599268064856 1 -0.31456641059224555 -1 -0.38677557245296856 -1 -0.6647716922936548 -1 -0.4746202674610128 -1 0.07658174398965176 1 -0.05027193262466147 1 -0.22342219020974247 1 0.17860574776559557 1 -0.5970684446478943 -1 0.6110797881820732 1 -0.08477111184310125 1 -0.8261322581192657 1 0.8034401630357342 -1 -0.19308273247492194 1 -0.6693191704420989 -1 0.0808014220623589 -1 -0.9583485428107593 -1 -0.5468964864933453 -1 0.16840369015957105 -1 0.15047001513859057 1 0.19691557059451423 1 0.7602565938555327 -1 -0.4563304596874145 1 -0.7888423166078741 -1 0.9973677879057782 1 0.48706518714282826 -1 -0.8871433752336394 1 0.617888309695753 -1 -0.064009993628688 -1 -0.12094148068393892 -1 0.9472295577320305 -1 0.44505745984202005 1 0.09467178586506156 1 -0.0231207536711253 1 -0.39382371389929327 -1 -0.2221880919706422 -1 0.4037032226638995 -1 0.4877893470626769 -1 0.1602107947348481 1 0.29337520199664885 -1 -0.05409272632941229 1 0.8954465292948748 1 -0.7058492852110395 1 0.12474953373795977 1 -0.02543277015936384 -1 0.7073407026822823 -1 -0.6647214471339344 -1 0.6570354912746686 1 -0.4516713597715598 -1 -0.15324835609457998 -1 0.9774225044053458 1 -0.24163889680230474 -1 -0.4283970427412477 1 -0.8187942571340849 -1 0.9847634959237925 -1 0.2464996828780969 -1 -0.43788844421449724 -1 -0.9762935903154524 1 -0.5821774599544399 1 -0.2819683195973034 1 -0.6034029211041689 -1 -0.12812506706209145 -1 -0.6547999994848143 -1 0.25292370703014855 -1 0.8419899363849047 1 0.7362741693710676 1 0.8878460155040061 1 0.2870508976717492 -1 -0.6070822197803852 -1 -0.5914785217111752 1 0.4036998420409332 -1 0.5912021797216035 -1 0.8669481838092638 -1 0.8524693831913704 -1 0.5809977546089388 1 0.3289877003816198 1 0.9580964161187814 -1 -0.0646345252545231 1 -0.1424331845062381 1 0.3047920871178565 -1 -0.019268726108270295 -1 0.6275729452341018 1 -0.47942488617448364
5 1 0.0 -1 0.7899383485812599 -1 0.06713714574355806 -1 0.3937455626364674 1 0.1906810264823996 -1 0.8465979580937086 1 -0.004627426310307874 1 -0.3257027231865677 -1 0.17496450572313627 -1 -0.3117384269662762 -1 0.761371928609232 1 0.9199111280423409 -1 0.11948126722977848 -1 0.373999574748779 -1 0.43985178060919594 -1 0.5361032360606806 -1 0.31176466679728176 1 -0.31458707327057045 -1 -0.38675362123345636 -1 -0.6646904681795269 -1 -0.47459214965153285 -1 0.07657534730304338 1 -0.05025605595646082 1 -0.22350507101968264 1 0.17865577077525963 1 -0.5971276715231819 -1 0.6110263597421284 1 -0.08475385459505708 1 -0.8261742737658373 1 0.8035078574673955 -1 -0.1930154061978856 1 -0.6694003945562268 -1 0.0807794708428467 -1 -0.9583119574449057 -1 -0.5468372596180577 -1 0.1683601098558435 -1 0.15042606668023806 1 0.1969459893704001 1 0.7603269574082248 -1 -0.4563178964108383 1 -0.7887888881679292 -1 0.9974432135845632 1 0.48709560591871415 -1 -0.8871013595870678 1 0.6179732153561304 -1 -0.0640208081707957 -1 -0.1209062758979288 -1 0.9471865296602404 -1 0.44510757489034036 1 0.09467072742051486 1 -0.023122456386265658 1 -0.39378620814687726 -1 -0.22210521116070203 -1 0.40369240812179186 -1 0.48771695865954756 -1 0.16015129174359177 1 0.2933860165387565 -1 -0.05407712577718035 1 0.8953474496814371 1 -0.7058114113039986 1 0.12478298978950142 1 -0.025453432837688736 -1 0.7072547845966863 -1 -0.6646991277597973 -1 0.6569651277219766 1 -0.451683923048136 -1 -0.15324904638450176 -1 0.9773794763335557 1 -0.2417062230793411 -1 -0.4284000339975753 1 -0.8188518273135603 -1 0.9847049133190986 -1 0.24642729447496758 -1 -0.43787588093792107 -1 -0.976230958009884 1 -0.5822366868297275 1 -0.2820200913414359 1 -0.6034151162261201 -1 -0.12807430774317752 -1 -0.6547302802027157 -1 0.2529155616090717 -1 0.8419040182993087 1 0.7363600874566636 1 0.8878890435757962 1 0.2870772667467607 -1 -0.6070280550311906 -1 -0.5914192948358876 1 0.40371065658304084 -1 0.5911405598412538 -1 0.8668687084296043 -1 0.852521523090128 -1 0.5809831664819254 1 0.32898296039082364 1 0.9581394441905715 -1 -0.06463282253938274 1 -0.14244942932906368 1 0.30478734712706035 -1 -0.01924401372907103 -1 0.6275272480412808 1 -0.47938121383209986
6 1 0.0 -1 0.7898615423226313 -1 0.0671463035898535 -1 0.39373474809435977 1 0.19064646596698312 -1 0.8466838761793046 1 -0.004652138689507137 1 -0.3257078313319888 -1 0.17496004184830885 -1 -0.3117746441775049 -1 0.7613106768835072 1 0.9200102076557786 -1 0.11944781117823683 -1 0.3740043147395751 -1 0.4398254115341844 -1 0.5360677551587018 -1 0.3117694067880779 1 -0.31460773594889535 -1 -0.38673167001394415 -1 -0.6646051943645246 -1 -0.47456403184205287 -1 0.07656895061643501 1 -0.050240179288260176 1 -0.22358795182962282 1 0.17870579378492368 1 -0.5971868983984695 -1 0.6109729313021836 1 -0.0847365973470129 1 -0.8262162894124089 1 0.8035755518990568 -1 -0.19294807992084925 1 -0.6694816186703547 -1 0.08075751962333451 -1 -0.9582753720790521 -1 -0.5467780327427701 -1 0.16831652955211593 -1 0.15038211822188555 1 0.19697640814628595 1 0.7603973209609168 -1 -0.45630533313426214 1 -0.7887354597279844 -1 0.9975186392633483 1 0.48712602469460003 -1 -0.8870593439404962 1 0.6180581210165077 -1 -0.06403162271290339 -1 -0.12087107111191867 -1 0.9471435015884503 -1 0.4451576899386607 1 0.09466966897596815 1 -0.023124159101406017 1 -0.39374870239446125 -1 -0.22202233035076185 -1 0.40366603904678033 -1 0.4876445702564182 -1 0.16009178875233546 1 0.2933968310808642 -1 -0.05406152522494841 1 0.8952483700679994 1 -0.7057735373969577 1 0.12481644584104307 1 -0.025474095516013633 -1 0.7071688665110903 -1 -0.6646808580865345 -1 0.6568947641692845 1 -0.45169648632471215 -1 -0.15324973667442354 -1 0.9773364482617656 1 -0.24177354935637743 -1 -0.42840302525390295 1 -0.8189093974930357 -1 0.9846463307144047 -1 0.24635490607183827 -1 -0.4378633176613449 -1 -0.9761683257043157 1 -0.5822959137050151 1 -0.2820718630855684 1 -0.6034273113480713 -1 -0.12802354842426358 -1 -0.6546605609206172 -1 0.25290741618799484 -1 0.8418181002137127 1 0.7364460055422596 1 0.8879320716475864 1 0.28710363582177223 -1 -0.606973890281996 -1 -0.5913600679606 1 0.40373702565805236 -1 0.5910789399609041 -1 0.8667892330499448 -1 0.8525736629888855 -1 0.580968578354912 1 0.3289782204000275 1 0.9581824722623616 -1 -0.06463111982424238 1 -0.14246567415188927 1 0.3047826071362642 -1 -0.019219301349871765 -1 0.6274815508484598 1 -0.4793375414897161
7 1 0.0 -1 0.7897847360640027 -1 0.06715546143614895 -1 0.3937239335522521 1 0.19061190545156664 -1 0.8467697942649006 1 -0.004676851068706401 1 -0.32571293947740987 -1 0.17495557797348144 -1 -0.3118108613887336 -1 0.7612494251577824 1 0.9201092872692163 -1 0.11941435512669518 -1 0.37400905473037127 -1 0.4397990424591729 -1 0.536032274256723 -1 0.31177414677887405 1 -0.31462839862722025 -1 -0.38670971879443194 -1 -0.6645199205495222 -1 -0.4745359140325729 -1 0.07656255392982664 1 -0.05022430262005953 1 -0.223670832639563 1 0.17875581679458774 1 -0.5972461252737571 -1 0.6109195028622387 1 -0.08471934009896873 1 -0.8262583050589805 1 0.8036432463307182 -1 -0.1928807536438129 1 -0.6695628427844826 -1 0.08073556840382232 -1 -0.9582387867131985 -1 -0.5467188058674826 -1 0.16827294924838837 -1 0.15033816976353304 1 0.1970068269221718 1 0.7604676845136089 -1 -0.45629276985768596 1 -0.7886820312880396 -1 0.9975940649421333 1 0.4871564434704859 -1 -0.8870173282939247 1 0.618143026676885 -1 -0.06404243725501108 -1 -0.12083586632590854 -1 0.9471004735166602 -1 0.445207804986981 1 0.09466861053142145 1 -0.023125861816546377 1 -0.39371119664204524 -1 -0.22193944954082168 -1 0.4036396699717688 -1 0.4875721818532889 -1 0.16003228576107914 1 0.29340764562297184 -1 -0.054045924672716475 1 0.8951492904545617 1 -0.7057356634899168 1 0.12484990189258471 1 -0.02549475819433853 -1 0.7070829484254944 -1 -0.6646625884132717 -1 0.6568244006165924 1 -0.4517090496012883 -1 -0.15325042696434532 -1 0.9772934201899754 1 -0.24184087563341378 -1 -0.4284060165102306 1 -0.8189669676725111 -1 0.9845877481097107 -1 0.24628251766870896 -1 -0.4378507543847687 -1 -0.9761056933987473 1 -0.5823551405803027 1 -0.28212363482970093 1 -0.6034395064700224 -1 -0.12797278910534965 -1 -0.6545908416385187 -1 0.252899270766918 -1 0.8417321821281167 1 0.7365319236278556 1 0.8879750997193765 1 0.28713000489678375 -1 -0.6069197255328014 -1 -0.5913008410853124 1 0.4037633947330639 -1 0.5910173200805544 -1 0.8667097576702854 -1 0.852625802887643 -1 0.5809539902278986 1 0.32897348040923136 1 0.9582255003341518 -1 -0.06462941710910203 1 -0.14248191897471485 1 0.30477786714546806 -1 -0.0191945889706725 -1 0.6274358536556388 1 -0.4792938691473323
8 1 0.0 -1 0.7897079298053741 -1 0.0671646192824444 -1 0.39371311901014444 1 0.19057734493615017 -1 0.8468557123504966 1 -0.0047015634479056646 1 -0.32571804762283096 -1 0.17495111409865402 -1 -0.3118470785999623 -1 0.7611881734320576 1 0.920208366882654 -1 0.11938089907515353 -1 0.3740137947211674 -1 0.43977267338416137 -1 0.5359967933547441 -1 0.3117788867696702 1 -0.31464906130554515 -1 -0.38668776757491974 -1 -0.6644346467345199 -1 -0.4745077962230929 -1 0.07655615724321826 1 -0.050208425951858884 1 -0.22375371344950318 1 0.1788058398042518 1 -0.5973053521490447 -1 0.6108660744222939 1 -0.08470208285092455 1 -0.826300320705552 1 0.8037109407623795 -1 -0.19281342736677656 1 -0.6696440668986106 -1 0.08071361718431012 -1 -0.9582022013473449 -1 -0.546659578992195 -1 0.1682293689446608 -1 0.15029422130518053 1 0.19703724569805767 1 0.760538048066301 -1 -0.4562802065811098 1 -0.7886286028480948 -1 0.9976694906209184 1 0.4871868622463718 -1 -0.8869753126473531 1 0.6182279323372624 -1 -0.06405325179711877 -1 -0.12080066153989841 -1 0.94705744544487 -1 0.4452579200353013 1 0.09466755208687475 1 -0.023127564531686736 1 -0.3936736908896292 -1 -0.2218565687308815 -1 0.4036133008967573 -1 0.48749979345015954 -1 0.15997278276982282 1 0.2934184601650795 -1 -0.05403032412048454 1 0.895050210841124 1 -0.7056977895828759 1 0.12488335794412636 1 -0.025515420872663428 -1 0.7069970303398984 -1 -0.664644318740009 -1 0.6567540370639003 1 -0.4517216128778645 -1 -0.1532511172542671 -1 0.9772503921181853 1 -0.24190820191045012 -1 -0.4284090077665582 1 -0.8190245378519865 -1 0.9845291655050168 -1 0.24621012926557964 -1 -0.43783819110819255 -1 -0.976043061093179 1 -0.5824143674555903 1 -0.28217540657383344 1 -0.6034517015919736 -1 -0.12792202978643571 -1 -0.6545211223564201 -1 0.25289112534584113 -1 0.8416462640425207 1 0.7366178417134516 1 0.8880181277911666 1 0.2871563739717953 -1 -0.6068655607836068 -1 -0.5912416142100249 1 0.4037897638080754 -1 0.5909557002002047 -1 0.8666302822906259 -1 0.8526779427864005 -1 0.5809394021008852 1 0.3289687404184352 1 0.9582685284059419 -1 -0.06462771439396167 1 -0.14249816379754043 1 0.3047731271546719 -1 -0.019169876591473234 -1 0.6273901564628178 1 -0.4792501968049485
9 1 0.0 -1 0.7896311235467455 -1 0.06717377712873984 -1 0.3937023044680368 1 0.1905427844207337 -1 0.8469416304360926 1 -0.004726275827104928 1 -0.32572315576825206 -1 0.1749466502238266 -1 -0.311883295811191 -1 0.7611269217063328 1 0.9203074464960916 -1 0.11934744302361189 -1 0.37401853471196356 -1 0.43974630430914985 -1 0.5359613124527653 -1 0.31178362676046634 1 -0.31466972398387005 -1 -0.38666581635540753 -1 -0.6643493729195176 -1 -0.47447967841361294 -1 0.07654976055660989 1 -0.05019254928365824 1 -0.22383659425944336 1 0.17885586281391586 1 -0.5973645790243323 -1 0.6108126459823491 1 -0.08468482560288038 1 -0.8263423363521236 1 0.8037786351940408 -1 -0.19274610108974022 1 -0.6697252910127385 -1 0.08069166596479793 -1 -0.9581656159814913 -1 -0.5466003521169074 -1 0.16818578864093325 -1 0.15025027284682801 1 0.19706766447394353 1 0.7606084116189931 -1 -0.4562676433045336 1 -0.78857517440815 -1 0.9977449162997034 1 0.4872172810222577 -1 -0.8869332970007815 1 0.6183128379976397 -1 -0.06406406633922646 -1 -0.12076545675388828 -1 0.9470144173730799 -1 0.4453080350836216 1 0.09466649364232804 1 -0.023129267246827095 1 -0.3936361851372132 -1 -0.22177368792094132 -1 0.40358693182174576 -1 0.4874274050470302 -1 0.1599132797785665 1 0.29342927470718716 -1 -0.0540147235682526 1 0.8949511312276863 1 -0.705659915675835 1 0.12491681399566801 1 -0.025536083550988325 -1 0.7069111122543024 -1 -0.6646260490667462 -1 0.6566836735112083 1 -0.45173417615444067 -1 -0.15325180754418888 -1 0.9772073640463952 1 -0.24197552818748647 -1 -0.42841199902288585 1 -0.8190821080314619 -1 0.9844705829003229 -1 0.24613774086245033 -1 -0.4378256278316164 -1 -0.9759804287876106 1 -0.5824735943308779 1 -0.28222717831796595 1 -0.6034638967139248 -1 -0.12787127046752178 -1 -0.6544514030743216 -1 0.2528829799247643 -1 0.8415603459569247 1 0.7367037597990476 1 0.8880611558629568 1 0.2871827430468068 -1 -0.6068113960344121 -1 -0.5911823873347373 1 0.40381613288308693 -1 0.590894080319855 -1 0.8665508069109664 -1 0.852730082685158 -1 0.5809248139738719 1 0.32896400042763907 1 0.958311556477732 -1 -0.06462601167882132 1 -0.14251440862036602 1 0.3047683871638758 -1 -0.01914516421227397 -1 0.6273444592699968 1 -0.47920652446256473
10 1 0.0 -1 0.7895543172881169 -1 0.06718293497503529 -1 0.3936914899259291 1 0.19050822390531721 -1 0.8470275485216886 1 -0.004750988206304192 1 -0.32572826391367316 -1 0.1749421863489992 -1 -0.3119195130224197 -1 0.761065669980608 1 0.9204065261095293 -1 0.11931398697207024 -1 0.3740232747027597 -1 0.4397199352341383 -1 0.5359258315507865 -1 0.3117883667512625 1 -0.31469038666219495 -1 -0.3866438651358953 -1 -0.6642640991045152 -1 -0.47445156060413296 -1 0.07654336387000152 1 -0.05017667261545759 1 -0.22391947506938353 1 0.1789058858235799 1 -0.5974238058996199 -1 0.6107592175424043 1 -0.0846675683548362 1 -0.8263843519986952 1 0.8038463296257021 -1 -0.19267877481270387 1 -0.6698065151268664 -1 0.08066971474528574 -1 -0.9581290306156377 -1 -0.5465411252416198 -1 0.1681422083372057 -1 0.1502063243884755 1 0.1970980832498294 1 0.7606787751716851 -1 -0.45625508002795745 1 -0.7885217459682051 -1 0.9978203419784885 1 0.4872476997981436 -1 -0.8868912813542099 1 0.618397743658017 -1 -0.06407488088133415 -1 -0.12073025196787815 -1 0.9469713893012898 -1 0.4453581501319419 1 0.09466543519778134 1 -0.023130969961967455 1 -0.3935986793847972 -1 -0.22169080711100114 -1 0.40356056274673424 -1 0.48735501664390085 -1 0.1598537767873102 1 0.2934400892492948 -1 -0.05399912301602066 1 0.8948520516142486 1 -0.7056220417687941 1 0.12495027004720966 1 -0.025556746229313223 -1 0.7068251941687064 -1 -0.6646077793934834 -1 0.6566133099585162 1 -0.45174673943101684 -1 -0.15325249783411066 -1 0.9771643359746051 1 -0.2420428544645228 -1 -0.4284149902792135 1 -0.8191396782109372 -1 0.9844120002956289 -1 0.246065352459321 -1 -0.4378130645550402 -1 -0.9759177964820422 1 -0.5825328212061655 1 -0.28227895006209847 1 -0.6034760918358759 -1 -0.12782051114860785 -1 -0.6543816837922231 -1 0.2528748345036874 -1 0.8414744278713288 1 0.7367896778846436 1 0.8881041839347469 1 0.2872091121218183 -1 -0.6067572312852175 -1 -0.5911231604594497 1 0.40384250195809845 -1 0.5908324604395053 -1 0.866471331531307 -1 0.8527822225839156 -1 0.5809102258468585 1 0.3289592604368429 1 0.9583545845495222 -1 -0.06462430896368096 1 -0.1425306534431916 1 0.30476364717307963 -1 -0.019120451833074703 -1 0.6272987620771758 1 -0.47916285212018095
11 1 0.0 -1 0.7894775110294883 -1 0.06719209282133073 -1 0.39368067538382145 1 0.19047366338990074 -1 0.8471134666072846 1 -0.0047757005855034555 1 -0.32573337205909425 -1 0.17493772247417178 -1 -0.3119557302336484 -1 0.7610044182548832 1 0.920505605722967 -1 0.1192805309205286 -1 0.37402801469355584 -1 0.4396935661591268 -1 0.5358903506488077 -1 0.3117931067420586 1 -0.31471104934051986 -1 -0.3866219139163831 -1 -0.6641788252895129 -1 -0.474423442794653 -1 0.07653696718339315 1 -0.05016079594725695 1 -0.2240023558793237 1 0.17895590883324397 1 -0.5974830327749074 -1 0.6107057891024594 1 -0.08465031110679203 1 -0.8264263676452668 1 0.8039140240573635 -1 -0.19261144853566753 1 -0.6698877392409943 -1 0.08064776352577355 -1 -0.9580924452497841 -1 -0.5464818983663322 -1 0.16809862803347814 -1 0.150162375930123 1 0.19712850202571525 1 0.7607491387243772 -1 -0.4562425167513813 1 -0.7884683175282603 -1 0.9978957676572735 1 0.4872781185740295 -1 -0.8868492657076383 1 0.6184826493183944 -1 -0.06408569542344184 -1 -0.12069504718186802 -1 0.9469283612294996 -1 0.4454082651802622 1 0.09466437675323464 1 -0.023132672677107814 1 -0.3935611736323812 -1 -0.22160792630106096 -1 0.4035341936717227 -1 0.4872826282407715 -1 0.15979427379605388 1 0.2934509037914025 -1 -0.05398352246378872 1 0.8947529720008109 1 -0.7055841678617532 1 0.1249837260987513 1 -0.02557740890763812 -1 0.7067392760831104 -1 -0.6645895097202206 -1 0.6565429464058241 1 -0.451759302707593 -1 -0.15325318812403244 -1 0.9771213079028149 1 -0.24211018074155916 -1 -0.4284179815355411 1 -0.8191972483904126 -1 0.984353417690935 -1 0.2459929640561917 -1 -0.43780050127846404 -1 -0.9758551641764739 1 -0.582592048081453 1 -0.282330721806231 1 -0.6034882869578271 -1 -0.1277697518296939 -1 -0.6543119645101245 -1 0.25286668908261056 -1 0.8413885097857328 1 0.7368755959702395 1 0.888147212006537 1 0.28723548119682984 -1 -0.6067030665360229 -1 -0.5910639335841621 1 0.40386887103311 -1 0.5907708405591556 -1 0.8663918561516475 -1 0.8528343624826731 -1 0.5808956377198451 1 0.3289545204460468 1 0.9583976126213123 -1 -0.0646226062485406 1 -0.14254689826601719 1 0.3047589071822835 -1 -0.019095739453875438 -1 0.6272530648843548 1 -0.47911917977779717
12 1 0.0 -1 0.7894007047708597 -1 0.06720125066762618 -1 0.3936698608417138 1 0.19043910287448426 -1 0.8471993846928806 1 -0.004800412964702719 1 -0.32573848020451535 -1 0.17493325859934436 -1 -0.3119919474448771 -1 0.7609431665291584 1 0.9206046853364047 -1 0.11924707486898695 -1 0.374032754684352 -1 0.4396671970841153 -1 0.5358548697468289 -1 0.31179784673285477 1 -0.31473171201884476 -1 -0.3865999626968709 -1 -0.6640935514745105 -1 -0.474395324985173 -1 0.07653057049678477 1 -0.0501449192790563 1 -0.2240852366892639 1 0.17900593184290803 1 -0.597542259650195 -1 0.6106523606625146 1 -0.08463305385874785 1 -0.8264683832918384 1 0.8039817184890248 -1 -0.19254412225863118 1 -0.6699689633551222 -1 0.08062581230626135 -1 -0.9580558598839305 -1 -0.5464226714910446 -1 0.16805504772975058 -1 0.15011842747177048 1 0.1971589208016011 1 0.7608195022770693 -1 -0.4562299534748051 1 -0.7884148890883155 -1 0.9979711933360585 1 0.48730853734991536 -1 -0.8868072500610668 1 0.6185675549787717 -1 -0.06409650996554953 -1 -0.12065984239585789 -1 0.9468853331577095 -1 0.44545838022858253 1 0.09466331830868793 1 -0.023134375392248174 1 -0.3935236678799652 -1 -0.2215250454911208 -1 0.4035078245967112 -1 0.48721023983764217 -1 0.15973477080479756 1 0.29346171833351015 -1 -0.053967921911556783 1 0.8946538923873733 1 -0.7055462939547122 1 0.12501718215029295 1 -0.025598071585963018 -1 0.7066533579975144 -1 -0.6645712400469578 -1 0.656472582853132 1 -0.4517718659841692 -1 -0.15325387841395421 -1 0.9770782798310248 1 -0.2421775070185955 -1 -0.42842097279186875 1 -0.819254818569888 -1 0.984294835086241 -1 0.24592057565306238 -1 -0.43778793800188787 -1 -0.9757925318709055 1 -0.5826512749567406 1 -0.2823824935503635 1 -0.6035004820797782 -1 -0.12771899251077998 -1 -0.654242245228026 -1 0.2528585436615337 -1 0.8413025917001368 1 0.7369615140558355 1 0.8881902400783271 1 0.28726185027184137 -1 -0.6066489017868283 -1 -0.5910047067088745 1 0.4038952401081215 -1 0.5907092206788059 -1 0.866312380771988 -1 0.8528865023814306 -1 0.5808810495928317 1 0.32894978045525064 1 0.9584406406931024 -1 -0.06462090353340025 1 -0.14256314308884277 1 0.30475416719148735 -1 -0.019071027074676172 -1 0.6272073676915338 1 -0.4790755074354134
13 1 0.0 -1 0.7893238985122311 -1 0.06721040851392163 -1 0.39365904629960613 1 0.19040454235906779 -1 0.8472853027784766 1 -0.004825125343901983 1 -0.32574358834993644 -1 0.17492879472451695 -1 -0.31202816465610583 -1 0.7608819148034336 1 0.9207037649498424 -1 0.1192136188174453 -1 0.37403749467514813 -1 0.43964082800910376 -1 0.5358193888448501 -1 0.3118025867236509 1 -0.31475237469716966 -1 -0.3865780114773587 -1 -0.6640082776595082 -1 -0.47436720717569303 -1 0.0765241738101764 1 -0.050129042610855656 1 -0.22416811749920407 1 0.17905595485257209 1 -0.5976014865254826 -1 0.6105989322225698 1 -0.08461579661070368 1 -0.8265103989384099 1 0.8040494129206861 -1 -0.19247679598159484 1 -0.6700501874692502 -1 0.08060386108674916 -1 -0.9580192745180769 -1 -0.546363444615757 -1 0.16801146742602302 -1 0.15007447901341797 1 0.19718933957748697 1 0.7608898658297614 -1 -0.45621739019822893 1 -0.7883614606483706 -1 0.9980466190148436 1 0.4873440182518942 -1 -0.8867652344144952 1 0.618652460639149 -1 -0.06410732450765722 -1 -0.12062463760984776 -1 0.9468423050859194 -1 0.44550849527690284 1 0.09466225986414123 1 -0.023136078107388533 1 -0.39348616212754917 -1 -0.2214421646811806 -1 0.4034814555216997 -1 0.4871327893084199 -1 0.15967526781354124 1 0.2934725328756178 -1 -0.053952321359324845 1 0.8945548127739356 1 -0.7055084200476713 1 0.1250506382018346 1 -0.025618734264287915 -1 0.7065674399119184 -1 -0.664552970373695 -1 0.65640221930044 1 -0.45178442926074536 -1 -0.153254568703876 -1 0.9770352517592347 1 -0.24224483329563185 -1 -0.4284239640481964 1 -0.8193123887493634 -1 0.9842362524815471 -1 0.24584818724993307 -1 -0.4377753747253117 -1 -0.9757298995653372 1 -0.5827105018320282 1 -0.282434265294496 1 -0.6035126772017294 -1 -0.12766823319186604 -1 -0.6541725259459275 -1 0.25285039824045685 -1 0.8412166736145408 1 0.7370474321414315 1 0.8882332681501173 1 0.2872882193468529 -1 -0.6065947370376337 -1 -0.5909454798335869 1 0.403921609183133 -1 0.5906476007984562 -1 0.8662329053923286 -1 0.8529386422801881 -1 0.5808664614658183 1 0.3289450404644545 1 0.9584836687648925 -1 -0.06461920081825989 1 -0.14257938791166835 1 0.3047494272006912 -1 -0.019046314695476907 -1 0.6271616704987129 1 -0.4790318350930296
14 1 0.0 -1 0.7892470922536025 -1 0.06721956636021707 -1 0.39364823175749847 1 0.1903699818436513 -1 0.8473712208640726 1 -0.0048498377231012465 1 -0.32574869649535754 -1 0.17492433084968953 -1 -0.31206438186733454 -1 0.7608142203717723 1 0.9208028445632801 -1 0.11918016276590365 -1 0.3740422346659443 -1 0.43961445893409223 -1 0.5357839079428713 -1 0.31180732671444705 1 -0.31477303737549456 -1 -0.3865560602578465 -1 -0.6639230038445059 -1 -0.47433908936621305 -1 0.07651777712356803 1 -0.05011316594265501 1 -0.22425099830914424 1 0.17910597786223614 1 -0.5976607134007702 -1 0.610545503782625 1 -0.0845985393626595 1 -0.8265524145849815 1 0.8041171073523474 -1 -0.1924094697045585 1 -0.6701314115833781 -1 0.08058190986723697 -1 -0.9579826891522233 -1 -0.5463042177404694 -1 0.16796788712229546 -1 0.15003053055506546 1 0.19721975835337283 1 0.76096667208839 -1 -0.45620482692165276 1 -0.7883080322084258 -1 0.9981220446936286 1 0.4873794991538731 -1 -0.8867232187679236 1 0.6187373662995264 -1 -0.0641181390497649 -1 -0.12058943282383763 -1 0.9467992770141292 -1 0.44555861032522315 1 0.09466120141959453 1 -0.023137780822528892 1 -0.39344865637513315 -1 -0.22135928387124043 -1 0.40345508644668815 -1 0.48705533877919766 -1 0.15961576482228493 1 0.29348334741772547 -1 -0.05393672080709291 1 0.8944557331604979 1 -0.7054705461406304 1 0.12508409425337624 1 -0.025639396942612813 -1 0.7064815218263224 -1 -0.6645347007004322 -1 0.6563318557477479 1 -0.45179699253732153 -1 -0.15325525899379777 -1 0.9769922236874445 1 -0.2423121595726682 -1 -0.428426955304524 1 -0.8193699589288388 -1 0.9841776698768532 -1 0.24577579884680376 -1 -0.4377628114487355 -1 -0.9756672672597688 1 -0.5827697287073158 1 -0.2824860370386285 1 -0.6035248723236806 -1 -0.1276174738729521 -1 -0.6541028066638289 -1 0.25284225281938 -1 0.8411307555289448 1 0.7371333502270275 1 0.8882762962219074 1 0.2873145884218644 -1 -0.606540572288439 -1 -0.5908862529582993 1 0.40394797825814455 -1 0.5905859809181065 -1 0.8661534300126691 -1 0.8529907821789456 -1 0.580851873338805 1 0.32894030047365835 1 0.9585266968366827 -1 -0.06461749810311954 1 -0.14259563273449394 1 0.30474468720989506 -1 -0.01902160231627764 -1 0.6271159733058919 1 -0.4789881627506458
15 1 0.0 -1 0.7891702859949739 -1 0.06722872420651252 -1 0.3936374172153908 1 0.19033542132823483 -1 0.8474571389496686 1 -0.00487455010230051 1 -0.32575380464077863 -1 0.17491986697486211 -1 -0.31210059907856325 -1 0.7607465259401109 1 0.9209019241767178 -1 0.119146706714362 -1 0.3740469746567404 -1 0.4395880898590807 -1 0.5357484270408925 -1 0.3118120667052432 1 -0.31479370005381946 -1 -0.3865341090383343 -1 -0.6638377300295035 -1 -0.4743109715567331 -1 0.07651138043695965 1 -0.050097289274454365 1 -0.22433387911908442 1 0.1791560008719002 1 -0.5977199402760578 -1 0.6104920753426801 1 -0.08458128211461532 1 -0.8265944302315531 1 0.8041848017840088 -1 -0.19234214342752215 1 -0.670212635697506 -1 0.08055995864772478 -1 -0.9579461037863697 -1 -0.5462449908651819 -1 0.1679243068185679 -1 0.14998658209671295 1 0.19725017712925869 1 0.7610434783470186 -1 -0.4561922636450766 1 -0.788254603768481 -1 0.9981974703724137 1 0.48741498005585193 -1 -0.886681203121352 1 0.6188222719599037 -1 -0.0641289535918726 -1 -0.1205542280378275 -1 0.9467562489423391 -1 0.44560872537354346 1 0.09466014297504782 1 -0.023139483537669252 1 -0.39341115062271714 -1 -0.22127640306130025 -1 0.4034287173716766 -1 0.4869778882499754 -1 0.1595562618310286 1 0.29349416195983313 -1 -0.05392112025486097 1 0.8943566535470602 1 -0.7054326722335895 1 0.1251175503049179 1 -0.02566005962093771 -1 0.7063956037407264 -1 -0.6645164310271694 -1 0.6562614921950558 1 -0.4518095558138977 -1 -0.15325594928371955 -1 0.9769491956156544 1 -0.24237948584970453 -1 -0.42842994656085165 1 -0.8194275291083142 -1 0.9841190872721592 -1 0.24570341044367444 -1 -0.43775024817215935 -1 -0.9756046349542005 1 -0.5828289555826034 1 -0.282537808782761 1 -0.6035370674456317 -1 -0.12756671455403817 -1 -0.6540330873817304 -1 0.25283410739830314 -1 0.8410448374433488 1 0.7372192683126235 1 0.8883193242936975 1 0.28734095749687594 -1 -0.6064864075392444 -1 -0.5908270260830117 1 0.40397434733315607 -1 0.5905243610377569 -1 0.8660739546330096 -1 0.8530429220777032 -1 0.5808372852117916 1 0.3289355604828622 1 0.9585697249084728 -1 -0.06461579538797918 1 -0.14261187755731952 1 0.3047399472190989 -1 -0.018996889937078376 -1 0.6270702761130709 1 -0.47894449040826204
16 1 0.0 -1 0.7890934797363452 -1 0.06723788205280797 -1 0.39362660267328314 1 0.19030086081281836 -1 0.8475430570352646 1 -0.004899262481499774 1 -0.32575891278619973 -1 0.1749154031000347 -1 -0.31213681628979195 -1 0.7606788315084496 1 0.9210010037901555 -1 0.11911325066282036 -1 0.37405171464753656 -1 0.4395617207840692 -1 0.5357129461389137 -1 0.31181680669603934 1 -0.31481436273214436 -1 -0.3865121578188221 -1 -0.6637524562145012 -1 -0.4742828537472531 -1 0.07650498375035128 1 -0.05008141260625372 1 -0.2244167599290246 1 0.17920602388156426 1 -0.5977791671513454 -1 0.6104386469027353 1 -0.08456402486657115 1 -0.8266364458781247 1 0.8042524962156701 -1 -0.1922748171504858 1 -0.6702938598116339 -1 0.08053800742821259 -1 -0.9579095184205161 -1 -0.5461857639898943 -1 0.16788072651484034 -1 0.14994263363836044 1 0.19728059590514455 1 0.7611202846056472 -1 -0.4561797003685004 1 -0.7882011753285362 -1 0.9982728960511987 1 0.4874504609578308 -1 -0.8866391874747804 1 0.618907177620281 -1 -0.06413976813398028 -1 -0.12051902325181738 -1 0.946713220870549 -1 0.44565884042186377 1 0.09465908453050112 1 -0.02314118625280961 1 -0.39337364487030113 -1 -0.22119352225136008 -1 0.4034023482966651 -1 0.48690043772075314 -1 0.1594967588397723 1 0.2935049765019408 -1 -0.05390551970262903 1 0.8942575739336225 1 -0.7053947983265486 1 0.12515100635645954 1 -0.025680722299262607 -1 0.7063096856551304 -1 -0.6644981613539066 -1 0.6561911286423637 1 -0.4518221190904739 -1 -0.15325663957364133 -1 0.9769061675438643 1 -0.24244681212674088 -1 -0.4284329378171793 1 -0.8194850992877896 -1 0.9840605046674653 -1 0.24563102204054513 -1 -0.4377376848955832 -1 -0.9755420026486321 1 -0.582888182457891 1 -0.28258958052689354 1 -0.6035492625675829 -1 -0.12751595523512424 -1 -0.6539633680996318 -1 0.2528259619772263 -1 0.8409589193577528 1 0.7373051863982195 1 0.8883623523654877 1 0.28736732657188746 -1 -0.6064322427900498 -1 -0.5907677992077242 1 0.4040007164081676 -1 0.5904627411574072 -1 0.8659944792533502 -1 0.8530950619764607 -1 0.5808226970847782 1 0.32893082049206607 1 0.9586127529802629 -1 -0.06461409267283882 1 -0.1426281223801451 1 0.3047352072283028 -1 -0.01897217755787911 -1 0.6270245789202499 1 -0.47890081806587825
17 1 0.0 -1 0.7890166734777166 -1 0.06724703989910341 -1 0.3936157881311755 1 0.19026630029740188 -1 0.8476289751208606 1 -0.0049239748606990374 1 -0.3257640209316208 -1 0.17491093922520728 -1 -0.31217303350102066 -1 0.7606111370767883 1 0.9211000834035932 -1 0.11907979461127871 -1 0.3740564546383327 -1 0.43953535170905766 -1 0.5356774652369349 -1 0.3118215466868355 1 -0.31483502541046926 -1 -0.3864902065993099 -1 -0.6636671823994988 -1 -0.4742547359377731 -1 0.0764985870637429 1 -0.050065535938053074 1 -0.22449964073896478 1 0.17925604689122832 1 -0.597838394026633 -1 0.6103852184627905 1 -0.08454676761852697 1 -0.8266784615246963 1 0.8043201906473314 -1 -0.19220749087344946 1 -0.6703750839257618 -1 0.08051605620870039 -1 -0.9578729330546625 -1 -0.5461265371146067 -1 0.1678371462111128 -1 0.14989868518000793 1 0.1973110146810304 1 0.7611970908642758 -1 -0.45616713709192425 1 -0.7881477468885913 -1 0.9983483217299838 1 0.48748594185980965 -1 -0.8865971718282089 1 0.6189920832806584 -1 -0.06415058267608797 -1 -0.12048381846580725 -1 0.9466701927987589 -1 0.4457089554701841 1 0.09465802608595442 1 -0.02314288896794997 1 -0.3933361391178851 -1 -0.2211106414414199 -1 0.4033759792216536 -1 0.4868229871915309 -1 0.15943725584851598 1 0.29351579104404846 -1 -0.05388991915039709 1 0.8941584943201848 1 -0.7053569244195077 1 0.12518446240800118 1 -0.025701384977587505 -1 0.7062237675695344 -1 -0.6644798916806438 -1 0.6561207650896717 1 -0.45183468236705004 -1 -0.1532573298635631 -1 0.9768631394720741 1 -0.24251413840377722 -1 -0.4284359290735069 1 -0.819542669467265 -1 0.9840019220627714 -1 0.2455586336374158 -1 -0.437725121619007 -1 -0.9754793703430638 1 -0.5829474093331786 1 -0.28264135227102605 1 -0.6035614576895341 -1 -0.1274651959162103 -1 -0.6538936488175333 -1 0.25281781655614943 -1 0.8408730012721568 1 0.7373911044838155 1 0.8884053804372778 1 0.287393695646899 -1 -0.6063780780408552 -1 -0.5907085723324366 1 0.4040270854831791 -1 0.5904011212770575 -1 0.8659150038736907 -1 0.8531472018752182 -1 0.5808081089577648 1 0.3289260805012699 1 0.9586557810520531 -1 -0.06461238995769847 1 -0.1426443672029707 1 0.30473046723750663 -1 -0.018947465178679845 -1 0.6269788817274289 1 -0.47885714572349447
18 1 0.0 -1 0.788939867219088 -1 0.06725619774539886 -1 0.3936049735890678 1 0.1902317397819854 -1 0.8477148932064565 1 -0.004948687239898301 1 -0.3257691290770419 -1 0.17490647535037987 -1 -0.31220925071224936 -1 0.760543442645127 1 0.9211991630170309 -1 0.11904633855973706 -1 0.37406119462912885 -1 0.43950898263404614 -1 0.5356419843349561 -1 0.3118262866776316 1 -0.31485568808879416 -1 -0.3864682553797977 -1 -0.6635819085844965 -1 -0.47422661812829314 -1 0.07649219037713453 1 -0.05004965926985243 1 -0.22458252154890496 1 0.17930606990089237 1 -0.5978976209019206 -1 0.6103317900228457 1 -0.0845295103704828 1 -0.8267204771712678 1 0.8043878850789927 -1 -0.19214016459641312 1 -0.6704563080398898 -1 0.0804941049891882 -1 -0.9578363476888089 -1 -0.5460673102393191 -1 0.16779356590738523 -1 0.14985473672165542 1 0.19734143345691627 1 0.7612738971229044 -1 -0.4561545738153481 1 -0.7880943184486465 -1 0.9984237474087688 1 0.4875214227617885 -1 -0.8865551561816373 1 0.6190769889410357 -1 -0.06416139721819566 -1 -0.12044861367979712 -1 0.9466271647269687 -1 0.4457590705185044 1 0.09465696764140771 1 -0.02314459168309033 1 -0.3932986333654691 -1 -0.22102776063147972 -1 0.40334961014664206 -1 0.48674553666230863 -1 0.15937775285725966 1 0.2935266055861561 -1 -0.053874318598165154 1 0.8940594147067471 1 -0.7053190505124668 1 0.12521791845954283 1 -0.025722047655912402 -1 0.7061378494839384 -1 -0.664461622007381 -1 0.6560504015369796 1 -0.4518472456436262 -1 -0.1532580201534849 -1 0.976820111400284 1 -0.24258146468081357 -1 -0.42843892032983455 1 -0.8196002396467403 -1 0.9839433394580774 -1 0.2454862452342865 -1 -0.43771255834243084 -1 -0.9754167380374954 1 -0.5830066362084662 1 -0.28269312401515856 1 -0.6035736528114852 -1 -0.12741443659729637 -1 -0.6538239295354348 -1 0.2528096711350726 -1 0.8407870831865608 1 0.7374770225694115 1 0.8884484085090679 1 0.2874200647219105 -1 -0.6063239132916606 -1 -0.590649345457149 1 0.40405345455819064 -1 0.5903395013967078 -1 0.8658355284940312 -1 0.8531993417739757 -1 0.5807935208307514 1 0.3289213405104738 1 0.9586988091238432 -1 -0.06461068724255811 1 -0.14266061202579627 1 0.3047257272467105 -1 -0.01892275279948058 -1 0.6269331845346079 1 -0.4788134733811107
19 1 0.0 -1 0.7888630609604594 -1 0.0672653555916943 -1 0.39359415904696016 1 0.19019717926656893 -1 0.8478008112920525 1 -0.004973399619097565 1 -0.325774237222463 -1 0.17490201147555245 -1 -0.31224546792347807 -1 0.7604757482134656 1 0.9212982426304686 -1 0.11901288250819542 -1 0.374065934619925 -1 0.4394826135590346 -1 0.5356065034329773 -1 0.31183102666842777 1 -0.31487635076711906 -1 -0.38644630416028547 -1 -0.6634966347694942 -1 -0.47419850031881317 -1 0.07648579369052616 1 -0.05003378260165178 1 -0.22466540235884513 1 0.17935609291055643 1 -0.5979568477772081 -1 0.6102783615829008 1 -0.08451225312243862 1 -0.8267624928178394 1 0.804455579510654 -1 -0.19207283831937677 1 -0.6705375321540177 -1 0.08047215376967601 -1 -0.9577997623229553 -1 -0.5460080833640315 -1 0.16774998560365767 -1 0.1498107882633029 1 0.19737185223280213 1 0.761350703381533 -1 -0.4561420105387719 1 -0.7880408900087017 -1 0.9984991730875539 1 0.48755690366376736 -1 -0.8865131405350657 1 0.619161894601413 -1 -0.06417221176030335 -1 -0.12041340889378699 -1 0.9465841366551786 -1 0.4458091855668247 1 0.09465590919686101 1 -0.02314629439823069 1 -0.3932611276130531 -1 -0.22094487982153954 -1 0.40332324107163053 -1 0.4866680861330864 -1 0.15931824986600335 1 0.2935374201282638 -1 -0.053858718045933215 1 0.8939603350933094 1 -0.7052811766054259 1 0.12525137451108448 1 -0.0257427103342373 -1 0.7060519313983424 -1 -0.6644433523341182 -1 0.6559800379842875 1 -0.4518598089202024 -1 -0.15325871044340666 -1 0.9767770833284939 1 -0.2426487909578499 -1 -0.4284419115861622 1 -0.8196578098262157 -1 0.9838847568533835 -1 0.24541385683115718 -1 -0.43769999506585466 -1 -0.975354105731927 1 -0.5830658630837537 1 -0.28274489575929107 1 -0.6035858479334364 -1 -0.12736367727838244 -1 -0.6537542102533362 -1 0.2528015257139957 -1 0.8407011651009648 1 0.7375629406550075 1 0.888491436580858 1 0.28744643379692203 -1 -0.606269748542466 -1 -0.5905901185818614 1 0.40407982363320216 -1 0.5902778815163581 -1 0.8657560531143718 -1 0.8532514816727332 -1 0.580778932703738 1 0.32891660051967764 1 0.9587418371956333 -1 -0.06460898452741776 1 -0.14267685684862186 1 0.30472098725591434 -1 -0.018898040420281315 -1 0.6268874873417869 1 -0.4787698010387269
20 1 0.0 -1 0.7887862547018308 -1 0.06727451343798975 -1 0.3935833445048525 1 0.19016261875115245 -1 0.8478867293776485 1 -0.004998111998296828 1 -0.3257793453678841 -1 0.17489754760072504 -1 -0.3122816851347068 -1 0.7604080537818043 1 0.9213973222439062 -1 0.11897942645665377 -1 0.37407067461072113 -1 0.4394562444840231 -1 0.5355710225309985 -1 0.3118357666592239 1 -0.31489701344544396 -1 -0.38642435294077326 -1 -0.6634113609544918 -1 -0.4741703825093332 -1 0.07647939700391779 1 -0.05001790593345114 1 -0.2247482831687853 1 0.1794061159202205 1 -0.5980160746524957 -1 0.610224933142956 1 -0.08449499587439445 1 -0.826804508464411 1 0.8045232739423154 -1 -0.19200551204234043 1 -0.6706187562681456 -1 0.08045020255016382 -1 -0.9577631769571017 -1 -0.5459488564887439 -1 0.1677064052999301 -1 0.1497668398049504 1 0.19740227100868799 1 0.7614275096401616 -1 -0.45612944726219573 1 -0.7879874615687569 -1 0.9985745987663389 1 0.4875923845657462 -1 -0.8864711248884941 1 0.6192468002617904 -1 -0.06418302630241104 -1 -0.12037820410777686 -1 0.9465411085833885 -1 0.445859300615145 1 0.0946548507523143 1 -0.02314799711337105 1 -0.3932236218606371 -1 -0.22086199901159936 -1 0.403296871996619 -1 0.4865906356038641 -1 0.15925874687474703 1 0.29354823467037144 -1 -0.05384311749370128 1 0.8938612554798717 1 -0.705243302698385 1 0.12528483056262613 1 -0.025763373012562197 -1 0.7059660133127464 -1 -0.6644250826608554 -1 0.6559096744315954 1 -0.45187237219677856 -1 -0.15325940073332844 -1 0.9767340552567038 1 -0.24271611723488626 -1 -0.4284449028424898 1 -0.8197153800056911 -1 0.9838261742486896 -1 0.24534146842802787 -1 -0.4376874317892785 -1 -0.9752914734263587 1 -0.5831250899590413 1 -0.2827966675034236 1 -0.6035980430553876 -1 -0.1273129179594685 -1 -0.6536844909712377 -1 0.25279338029291887 -1 0.8406152470153688 1 0.7376488587406035 1 0.8885344646526482 1 0.28747280287193355 -1 -0.6062155837932713 -1 -0.5905308917065738 1 0.4041061927082137 -1 0.5902162616360084 -1 0.8656765777347123 -1 0.8533036215714908 -1 0.5807643445767247 1 0.3289118605288815 1 0.9587848652674235 -1 -0.0646072818122774 1 -0.14269310167144744 1 0.3047162472651182 -1 -0.01887332804108205 -1 0.6268417901489659 1 -0.4787261286963431
21 1 0.0 -1 0.7887094484432022 -1 0.0672836712842852 -1 0.39357252996274483 1 0.19012805823573597 -1 0.8479726474632445 1 -0.005022824377496092 1 -0.3257844535133052 -1 0.17489308372589762 -1 -0.3123179023459355 -1 0.760340359350143 1 0.9214964018573439 -1 0.11894597040511212 -1 0.3740754146015173 -1 0.43942987540901157 -1 0.5355355416290197 -1 0.31184050665002006 1 -0.31491767612376886 -1 -0.38640240172126106 -1 -0.6633260871394895 -1 -0.4741422646998532 -1 0.07647300031730941 1 -0.05000202926525049 1 -0.2248311639787255 1 0.17945613892988455 1 -0.5980753015277833 -1 0.6101715047030112 1 -0.08447773862635027 1 -0.8268465241109826 1 0.8045909683739767 -1 -0.19193818576530408 1 -0.6706999803822735 -1 0.08042825133065162 -1 -0.9577265915912481 -1 -0.5458896296134563 -1 0.16766282499620255 -1 0.14972289134659789 1 0.19743268978457384 1 0.7615043158987902 -1 -0.45611688398561956 1 -0.787934033128812 -1 0.998650024445124 1 0.4876278654677251 -1 -0.8864291092419225 1 0.6193317059221677 -1 -0.06419384084451873 -1 -0.12034299932176673 -1 0.9464980805115983 -1 0.4459094156634653 1 0.0946537923077676 1 -0.023149699828511408 1 -0.3931861161082211 -1 -0.22077911820165919 -1 0.4032705029216075 -1 0.48651318507464186 -1 0.15919924388349072 1 0.2935590492124791 -1 -0.05382751694146934 1 0.893762175866434 1 -0.7052054287913441 1 0.12531828661416777 1 -0.025784035690887094 -1 0.7058800952271505 -1 -0.6644068129875926 -1 0.6558393108789033 1 -0.45188493547335473 -1 -0.15326009102325022 -1 0.9766910271849136 1 -0.2427834435119226 -1 -0.42844789409881745 1 -0.8197729501851665 -1 0.9837675916439956 -1 0.24526908002489856 -1 -0.4376748685127023 -1 -0.9752288411207903 1 -0.5831843168343289 1 -0.2828484392475561 1 -0.6036102381773387 -1 -0.12726215864055457 -1 -0.6536147716891392 -1 0.252785234871842 -1 0.8405293289297728 1 0.7377347768261995 1 0.8885774927244383 1 0.2874991719469451 -1 -0.6061614190440767 -1 -0.5904716648312862 1 0.4041325617832252 -1 0.5901546417556587 -1 0.8655971023550528 -1 0.8533557614702483 -1 0.5807497564497113 1 0.32890712053808535 1 0.9588278933392136 -1 -0.06460557909713704 1 -0.14270934649427303 1 0.30471150727432206 -1 -0.018848615661882784 -1 0.6267960929561449 1 -0.47868245635395934
22 1 0.0 -1 0.7886326421845736 -1 0.06729282913058064 -1 0.39356171542063717 1 0.1900934977203195 -1 0.8480585655488405 1 -0.005047536756695356 1 -0.3257895616587263 -1 0.1748886198510702 -1 -0.3123541195571642 -1 0.7602726649184817 1 0.9215954814707816 -1 0.11891251435357048 -1 0.3740801545923134 -1 0.43940350633400005 -1 0.5355000607270409 -1 0.3118452466408162 1 -0.31493833880209376 -1 -0.38638045050174885 -1 -0.6632408133244871 -1 -0.47411414689037323 -1 0.07646660363070104 1 -0.049986152597049846 1 -0.22491404478866567 1 0.1795061619395486 1 -0.5981345284030709 -1 0.6101180762630664 1 -0.0844604813783061 1 -0.8268885397575542 1 0.804658662805638 -1 -0.19187085948826774 1 -0.6707812044964014 -1 0.08040630011113943 -1 -0.9576900062253945 -1 -0.5458304027381687 -1 0.167619244692475 -1 0.14967894288824538 1 0.1974631085604597 1 0.7615811221574188 -1 -0.4561043207090434 1 -0.7878806046888672 -1 0.998725450123909 1 0.48766334636970393 -1 -0.886387093595351 1 0.619416611582545 -1 -0.06420465538662642 -1 -0.1203077945357566 -1 0.9464550524398082 -1 0.4459595307117856 1 0.0946527338632209 1 -0.023151402543651767 1 -0.39314861035580506 -1 -0.220696237391719 -1 0.40324413384659596 -1 0.4864357345454196 -1 0.1591397408922344 1 0.29356986375458677 -1 -0.0538119163892374 1 0.8936630962529963 1 -0.7051675548843032 1 0.12535174266570942 1 -0.025804698369211992 -1 0.7057941771415545 -1 -0.6643885433143298 -1 0.6557689473262113 1 -0.4518974987499309 -1 -0.153260781313172 -1 0.9766479991131235 1 -0.24285076978895895 -1 -0.4284508853551451 1 -0.8198305203646419 -1 0.9837090090393017 -1 0.24519669162176924 -1 -0.43766230523612615 -1 -0.975166208815222 1 -0.5832435437096165 1 -0.2829002109916886 1 -0.6036224332992899 -1 -0.12721139932164063 -1 -0.6535450524070406 -1 0.25277708945076516 -1 0.8404434108441768 1 0.7378206949117955 1 0.8886205207962284 1 0.2875255410219566 -1 -0.6061072542948821 -1 -0.5904124379559986 1 0.40415893085823673 -1 0.590093021875309 -1 0.8655176269753934 -1 0.8534079013690058 -1 0.5807351683226979 1 0.3289023805472892 1 0.9588709214110037 -1 -0.06460387638199669 1 -0.1427255913170986 1 0.3047067672835259 -1 -0.01882390328268352 -1 0.6267503957633239 1 -0.47863878401157556
23 1 0.0 -1 0.788555835925945 -1 0.06730198697687609 -1 0.3935509008785295 1 0.19005893720490302 -1 0.8481444836344365 1 -0.005072249135894619 1 -0.3257946698041474 -1 0.1748841559762428 -1 -0.3123903367683929 -1 0.7602049704868203 1 0.9216945610842193 -1 0.11887905830202883 -1 0.37408489458310956 -1 0.4393771372589885 -1 0.5354645798250621 -1 0.31184998663161234 1 -0.31495900148041867 -1 -0.38635849928223664 -1 -0.6631555395094848 -1 -0.47408602908089326 -1 0.07646020694409267 1 -0.0499702759288492 1 -0.22499692559860585 1 0.17955618494921266 1 -0.5981937552783585 -1 0.6100646478231215 1 -0.08444322413026192 1 -0.8269305554041257 1 0.8047263572372994 -1 -0.1918035332112314 1 -0.6708624286105294 -1 0.08038434889162724 -1 -0.9576534208595409 -1 -0.5457711758628812 -1 0.16757566438874744 -1 0.14963499442989286 1 0.19749352733634556 1 0.7616579284160474 -1 -0.4560917574324672 1 -0.7878271762489224 -1 0.998800875802694 1 0.4876988272716828 -1 -0.8863450779487794 1 0.6195015172429224 -1 -0.06421546992873411 -1 -0.12027258974974647 -1 0.9464120243680181 -1 0.44600964576010593 1 0.0946516754186742 1 -0.023153105258792127 1 -0.39311110460338905 -1 -0.22061335658177883 -1 0.40321776477158444 -1 0.48635828401619735 -1 0.15908023790097808 1 0.29358067829669443 -1 -0.05379631583700546 1 0.8935640166395586 1 -0.7051296809772623 1 0.12538519871725107 1 -0.02582536104753689 -1 0.7057082590559585 -1 -0.664370273641067 -1 0.6556985837735192 1 -0.4519100620265071 -1 -0.15326147160309378 -1 0.9766049710413334 1 -0.2429180960659953 -1 -0.4284538766114727 1 -0.8198880905441173 -1 0.9836504264346078 -1 0.24512430321863993 -1 -0.43764974195955 -1 -0.9751035765096536 1 -0.5833027705849041 1 -0.2829519827358211 1 -0.603634628421241 -1 -0.1271606400027267 -1 -0.6534753331249421 -1 0.2527689440296883 -1 0.8403574927585808 1 0.7379066129973915 1 0.8886635488680186 1 0.2875519100969681 -1 -0.6060530895456875 -1 -0.590353211080711 1 0.40418529993324825 -1 0.5900314019949593 -1 0.8654381515957339 -1 0.8534600412677633 -1 0.5807205801956845 1 0.32889764055649306 1 0.9589139494827938 -1 -0.06460217366685633 1 -0.1427418361399242 1 0.30470202729272977 -1 -0.018799190903484253 -1 0.6267046985705029 1 -0.4785951116691918
24 1 0.0 -1 0.7884790296673164 -1 0.06731114482317153 -1 0.39354008633642185 1 0.19002437668948655 -1 0.8482304017200325 1 -0.005096961515093883 1 -0.3257997779495685 -1 0.17487969210141538 -1 -0.3124265539796216 -1 0.760137276055159 1 0.921793640697657 -1 0.11884560225048718 -1 0.3740896345739057 -1 0.439350768183977 -1 0.5354290989230833 -1 0.3118547266224085 1 -0.31497966415874357 -1 -0.38633654806272444 -1 -0.6630702656944825 -1 -0.4740579112714133 -1 0.0764538102574843 1 -0.049954399260648555 1 -0.22507980640854602 1 0.17960620795887672 1 -0.5982529821536461 -1 0.6100112193831767 1 -0.08442596688221775 1 -0.8269725710506973 1 0.8047940516689607 -1 -0.19173620693419505 1 -0.6709436527246573 -1 0.08036239767211505 -1 -0.9576168354936873 -1 -0.5457119489875936 -1 0.16753208408501988 -1 0.14959104597154035 1 0.19752394611223142 1 0.761734734674676 -1 -0.45607919415589104 1 -0.7877737478089776 -1 0.9988763014814791 1 0.48773430817366165 -1 -0.8863030623022078 1 0.6195864229032997 -1 -0.0642262844708418 -1 -0.12023738496373634 -1 0.946368996296228 -1 0.44605976080842624 1 0.0946506169741275 1 -0.023154807973932486 1 -0.39307359885097304 -1 -0.22053047577183865 -1 0.4031913956965729 -1 0.4862808334869751 -1 0.15902073490972177 1 0.2935914928388021 -1 -0.053780715284773524 1 0.893464937026121 1 -0.7050918070702213 1 0.12541865476879271 1 -0.025846023725861787 -1 0.7056223409703625 -1 -0.6643520039678042 -1 0.6556282202208271 1 -0.45192262530308325 -1 -0.15326216189301556 -1 0.9765619429695432 1 -0.24298542234303164 -1 -0.42845686786780035 1 -0.8199456607235927 -1 0.9835918438299138 -1 0.2450519148155106 -1 -0.4376371786829738 -1 -0.9750409442040853 1 -0.5833619974601917 1 -0.28300375447995363 1 -0.6036468235431922 -1 -0.12710988068381276 -1 -0.6534056138428436 -1 0.25276079860861145 -1 0.8402715746729849 1 0.7379925310829875 1 0.8887065769398087 1 0.28757827917197964 -1 -0.6059989247964929 -1 -0.5902939842054234 1 0.4042116690082598 -1 0.5899697821146096 -1 0.8653586762160744 -1 0.8535121811665208 -1 0.5807059920686711 1 0.3288929005656969 1 0.958956977554584 -1 -0.06460047095171598 1 -0.14275808096274978 1 0.30469728730193363 -1 -0.018774478524284988 -1 0.6266590013776819 1 -0.478551439326808
25 1 0.0 -1 0.7884022234086878 -1 0.06732030266946698 -1 0.3935292717943142 1 0.18998981617407007 -1 0.8483163198056285 1 -0.005121673894293147 1 -0.3258048860949896 -1 0.17487522822658796 -1 -0.3124627711908503 -1 0.7600695816234977 1 0.9218927203110947 -1 0.11881214619894553 -1 0.37409437456470185 -1 0.4393243991089655 -1 0.5353936180211045 -1 0.31185946661320463 1 -0.31500032683706847 -1 -0.38631459684321223 -1 -0.6629849918794801 -1 -0.4740297934619333 -1 0.07644741357087592 1 -0.04993852259244791 1 -0.2251626872184862 1 0.17965623096854078 1 -0.5983122090289337 -1 0.6099577909432319 1 -0.08440870963417357 1 -0.8270145866972689 1 0.804861746100622 -1 -0.1916688806571587 1 -0.6710248768387852 -1 0.08034044645260285 -1 -0.9575802501278337 -1 -0.545652722112306 -1 0.16748850378129232 -1 0.14954709751318784 1 0.19755436488811728 1 0.7618115409333046 -1 -0.45606663087931487 1 -0.7877203193690328 -1 0.9989517271602641 1 0.4877697890756405 -1 -0.8862610466556362 1 0.619671328563677 -1 -0.0642370990129495 -1 -0.12020218017772621 -1 0.9463259682244378 -1 0.44610987585674655 1 0.09464955852958079 1 -0.023156510689072846 1 -0.393036093098557 -1 -0.22044759496189847 -1 0.4031650266215614 -1 0.48620338295775284 -1 0.15896123191846545 1 0.29360230738090975 -1 -0.053765114732541586 1 0.8933658574126833 1 -0.7050539331631804 1 0.12545211082033436 1 -0.025866686404186684 -1 0.7055364228847665 -1 -0.6643337342945415 -1 0.655557856668135 1 -0.4519351885796594 -1 -0.15326285218293734 -1 0.9765189148977531 1 -0.24305274862006798 -1 -0.428459859124128 1 -0.820003230903068 -1 0.9835332612252199 -1 0.2449795264123813 -1 -0.43762461540639763 -1 -0.9749783118985169 1 -0.5834212243354793 1 -0.28305552622408614 1 -0.6036590186651434 -1 -0.12705912136489883 -1 -0.653335894560745 -1 0.2527526531875346 -1 0.8401856565873889 1 0.7380784491685835 1 0.8887496050115988 1 0.28760464824699117 -1 -0.6059447600472982 -1 -0.5902347573301359 1 0.4042380380832713 -1 0.5899081622342599 -1 0.865279200836415 -1 0.8535643210652784 -1 0.5806914039416577 1 0.3288881605749008 1 0.9590000056263741 -1 -0.06459876823657562 1 -0.14277432578557536 1 0.3046925473111375 -1 -0.018749766145085722 -1 0.6266133041848609 1 -0.4785077669844242
26 1 0.0 -1 0.7883254171500592 -1 0.06732946051576243 -1 0.3935184572522065 1 0.1899552556586536 -1 0.8484022378912245 1 -0.00514638627349241 1 -0.3258099942404107 -1 0.17487076435176055 -1 -0.312498988402079 -1 0.7600018871918364 1 0.9219917999245324 -1 0.11877869014740389 -1 0.374099114555498 -1 0.43929803003395396 -1 0.5353581371191257 -1 0.31186420660400077 1 -0.31502098951539337 -1 -0.3862926456237 -1 -0.6628997180644778 -1 -0.4740016756524533 -1 0.07644101688426755 1 -0.049922645924247264 1 -0.22524556802842638 1 0.17970625397820483 1 -0.5983714359042213 -1 0.6099043625032871 1 -0.0843914523861294 1 -0.8270566023438405 1 0.8049294405322833 -1 -0.19160155438012236 1 -0.6711061009529131 -1 0.08031849523309066 -1 -0.95754366476198 -1 -0.5455934952370184 -1 0.16744492347756476 -1 0.14950314905483533 1 0.19758478366400314 1 0.7618883471919332 -1 -0.4560540676027387 1 -0.7876668909290879 -1 0.9990271528390492 1 0.48780526997761936 -1 -0.8862190310090646 1 0.6197562342240543 -1 -0.06424791355505718 -1 -0.12016697539171609 -1 0.9462829401526477 -1 0.44615999090506686 1 0.09464850008503409 1 -0.023158213404213205 1 -0.392998587346141 -1 -0.2203647141519583 -1 0.4031386575465499 -1 0.4861259324285306 -1 0.15890172892720913 1 0.2936131219230174 -1 -0.05374951418030965 1 0.8932667777992456 1 -0.7050160592561395 1 0.125485566871876 1 -0.02588734908251158 -1 0.7054505047991705 -1 -0.6643154646212787 -1 0.655487493115443 1 -0.4519477518562356 -1 -0.15326354247285912 -1 0.976475886825963 1 -0.24312007489710433 -1 -0.4284628503804556 1 -0.8200608010825434 -1 0.983474678620526 -1 0.24490713800925198 -1 -0.43761205212982146 -1 -0.9749156795929486 1 -0.5834804512107669 1 -0.28310729796821865 1 -0.6036712137870945 -1 -0.1270083620459849 -1 -0.6532661752786465 -1 0.25274450776645774 -1 0.8400997385017929 1 0.7381643672541794 1 0.888792633083389 1 0.2876310173220027 -1 -0.6058905952981036 -1 -0.5901755304548483 1 0.4042644071582828 -1 0.5898465423539102 -1 0.8651997254567555 -1 0.8536164609640359 -1 0.5806768158146444 1 0.32888342058410464 1 0.9590430336981642 -1 -0.06459706552143527 1 -0.14279057060840095 1 0.30468780732034134 -1 -0.018725053765886457 -1 0.62656760699204 1 -0.4784640946420404
27 1 0.0 -1 0.7882486108914306 -1 0.06733861836205787 -1 0.39350764271009886 1 0.18992069514323712 -1 0.8484881559768205 1 -0.005171098652691674 1 -0.3258151023858318 -1 0.17486630047693313 -1 -0.3125352056133077 -1 0.759934192760175 1 0.9220908795379701 -1 0.11874523409586224 -1 0.37410385454629413 -1 0.43927166095894243 -1 0.5353226562171469 -1 0.3118689465947969 1 -0.31504165219371827 -1 -0.3862706944041878 -1 -0.6628144442494754 -1 -0.47397355784297335 -1 0.07643462019765918 1 -0.04990676925604662 1 -0.22532844883836656 1 0.1797562769878689 1 -0.5984306627795088 -1 0.6098509340633422 1 -0.08437419513808522 1 -0.8270986179904121 1 0.8049971349639446 -1 -0.191534228103086 1 -0.671187325067041 -1 0.08029654401357847 -1 -0.9575070793961264 -1 -0.5455342683617308 -1 0.1674013431738372 -1 0.14945920059648282 1 0.197615202439889 1 0.7619651534505618 -1 -0.45604150432616253 1 -0.7876134624891431 -1 0.9991025785178342 1 0.4878407508795982 -1 -0.886177015362493 1 0.6198411398844317 -1 -0.06425872809716487 -1 -0.12013177060570596 -1 0.9462399120808576 -1 0.44621010595338717 1 0.09464744164048738 1 -0.023159916119353564 1 -0.392961081593725 -1 -0.22028183334201812 -1 0.40311228847153835 -1 0.4860484818993083 -1 0.15884222593595282 1 0.2936239364651251 -1 -0.05373391362807771 1 0.8931676981858079 1 -0.7049781853490986 1 0.12551902292341766 1 -0.02590801176083648 -1 0.7053645867135745 -1 -0.6642971949480159 -1 0.6554171295627509 1 -0.45196031513281176 -1 -0.1532642327627809 -1 0.9764328587541728 1 -0.24318740117414067 -1 -0.42846584163678325 1 -0.8201183712620188 -1 0.983416096015832 -1 0.24483474960612267 -1 -0.4375994888532453 -1 -0.9748530472873802 1 -0.5835396780860544 1 -0.28315906971235116 1 -0.6036834089090457 -1 -0.12695760272707096 -1 -0.653196455996548 -1 0.2527363623453809 -1 0.8400138204161969 1 0.7382502853397754 1 0.8888356611551791 1 0.2876573863970142 -1 -0.605836430548909 -1 -0.5901163035795607 1 0.40429077623329435 -1 0.5897849224735605 -1 0.865120250077096 -1 0.8536686008627934 -1 0.580662227687631 1 0.3288786805933085 1 0.9590860617699544 -1 -0.06459536280629491 1 -0.14280681543122653 1 0.3046830673295452 -1 -0.01870034138668719 -1 0.626521909799219 1 -0.47842042229965664
28 1 0.0 -1 0.788171804632802 -1 0.06734777620835332 -1 0.3934968281679912 1 0.18988613462782064 -1 0.8485740740624165 1 -0.005195811031890938 1 -0.3258202105312529 -1 0.17486183660210572 -1 -0.3125714228245364 -1 0.7598664983285137 1 0.9221899591514078 -1 0.11871177804432059 -1 0.3741085945370903 -1 0.4392452918839309 -1 0.5352871753151681 -1 0.31187368658559306 1 -0.31506231487204317 -1 -0.3862487431846756 -1 -0.6627291704344731 -1 -0.47394544003349337 -1 0.0764282235110508 1 -0.04989089258784597 1 -0.22541132964830674 1 0.17980629999753295 1 -0.5984898896547964 -1 0.6097975056233974 1 -0.08435693789004105 1 -0.8271406336369836 1 0.805064829395606 -1 -0.19146690182604967 1 -0.671268549181169 -1 0.08027459279406628 -1 -0.9574704940302728 -1 -0.5454750414864432 -1 0.16735776287010964 -1 0.1494152521381303 1 0.19764562121577486 1 0.7620419597091904 -1 -0.45602894104958636 1 -0.7875600340491983 -1 0.9991780041966193 1 0.4878762317815771 -1 -0.8861349997159215 1 0.619926045544809 -1 -0.06426954263927256 -1 -0.12009656581969583 -1 0.9461968840090674 -1 0.4462602210017075 1 0.09464638319594068 1 -0.023161618834493924 1 -0.392923575841309 -1 -0.22019895253207794 -1 0.4030859193965268 -1 0.48597103137008607 -1 0.1587827229446965 1 0.29363475100723274 -1 -0.05371831307584577 1 0.8930686185723702 1 -0.7049403114420577 1 0.1255524789749593 1 -0.025928674439161376 -1 0.7052786686279785 -1 -0.6642789252747531 -1 0.6553467660100588 1 -0.45197287840938793 -1 -0.15326492305270267 -1 0.9763898306823827 1 -0.24325472745117702 -1 -0.4284688328931109 1 -0.8201759414414942 -1 0.9833575134111381 -1 0.24476236120299336 -1 -0.4375869255766691 -1 -0.9747904149818118 1 -0.583598904961342 1 -0.2832108414564837 1 -0.6036956040309969 -1 -0.12690684340815703 -1 -0.6531267367144494 -1 0.252728216924304 -1 0.8399279023306009 1 0.7383362034253714 1 0.8888786892269692 1 0.28768375547202574 -1 -0.6057822657997144 -1 -0.5900570767042731 1 0.40431714530830587 -1 0.5897233025932108 -1 0.8650407746974366 -1 0.8537207407615509 -1 0.5806476395606176 1 0.32887394060251235 1 0.9591290898417445 -1 -0.06459366009115455 1 -0.14282306025405211 1 0.30467832733874906 -1 -0.018675629007487926 -1 0.626476212606398 1 -0.47837674995727286
29 1 0.0 -1 0.7880949983741734 -1 0.06735693405464876 -1 0.39348601362588354 1 0.18985157411240416 -1 0.8486599921480125 1 -0.005220523411090201 1 -0.32582531867667397 -1 0.1748573727272783 -1 -0.31260764003576513 -1 0.7597988038968524 1 0.9222890387648455 -1 0.11867832199277895 -1 0.3741133345278864 -1 0.4392189228089194 -1 0.5352516944131893 -1 0.3118784265763892 1 -0.31508297755036807 -1 -0.3862267919651634 -1 -0.6626438966194708 -1 -0.4739173222240134 -1 0.07642182682444243 1 -0.04987501591964533 1 -0.2254942104582469 1 0.179856323007197 1 -0.598549116530084 -1 0.6097440771834526 1 -0.08433968064199687 1 -0.8271826492835552 1 0.8051325238272673 -1 -0.19139957554901332 1 -0.6713497732952969 -1 0.08025264157455408 -1 -0.9574339086644192 -1 -0.5454158146111556 -1 0.16731418256638209 -1 0.1493713036797778 1 0.19767603999166072 1 0.762118765967819 -1 -0.4560163777730102 1 -0.7875066056092535 -1 0.9992534298754043 1 0.48791171268355593 -1 -0.8860929840693499 1 0.6200109512051863 -1 -0.06428035718138025 -1 -0.1200613610336857 -1 0.9461538559372773 -1 0.4463103360500278 1 0.09464532475139398 1 -0.023163321549634283 1 -0.392886070088893 -1 -0.22011607172213776 -1 0.4030595503215153 -1 0.4858935808408638 -1 0.1587232199534402 1 0.2936455655493404 -1 -0.05370271252361383 1 0.8929695389589325 1 -0.7049024375350168 1 0.12558593502650095 1 -0.025949337117486274 -1 0.7051927505423825 -1 -0.6642606556014903 -1 0.6552764024573667 1 -0.4519854416859641 -1 -0.15326561334262445 -1 0.9763468026105926 1 -0.24332205372821336 -1 -0.4284718241494385 1 -0.8202335116209696 -1 0.9832989308064441 -1 0.24468997279986404 -1 -0.43757436230009294 -1 -0.9747277826762435 1 -0.5836581318366296 1 -0.2832626132006162 1 -0.603707799152948 -1 -0.1268560840892431 -1 -0.6530570174323509 -1 0.2527200715032272 -1 0.8398419842450049 1 0.7384221215109674 1 0.8889217172987594 1 0.28771012454703726 -1 -0.6057281010505198 -1 -0.5899978498289855 1 0.4043435143833174 -1 0.5896616827128611 -1 0.8649612993177771 -1 0.8537728806603084 -1 0.5806330514336042 1 0.3288692006117162 1 0.9591721179135346 -1 -0.0645919573760142 1 -0.1428393050768777 1 0.3046735873479529 -1 -0.01865091662828866 -1 0.626430515413577 1 -0.4783330776148891
30 1 0.0 -1 0.7880181921155448 -1 0.06736609190094421 -1 0.3934751990837759 1 0.1898170135969877 -1 0.8487459102336085 1 -0.005245235790289465 1 -0.32583042682209507 -1 0.1748529088524509 -1 -0.31264385724699384 -1 0.7597311094651911 1 0.9223881183782832 -1 0.1186448659412373 -1 0.37411807451868256 -1 0.43919255373390786 -1 0.5352162135112105 -1 0.31188316656718534 1 -0.31510364022869297 -1 -0.3862048407456512 -1 -0.6625586228044684 -1 -0.4738892044145334 -1 0.07641543013783406 1 -0.04985913925144468 1 -0.2255770912681871 1 0.17990634601686106 1 -0.5986083434053716 -1 0.6096906487435078 1 -0.0843224233939527 1 -0.8272246649301268 1 0.8052002182589286 -1 -0.19133224927197698 1 -0.6714309974094248 -1 0.08023069035504189 -1 -0.9573973232985656 -1 -0.545356587735868 -1 0.16727060226265453 -1 0.1493273552214253 1 0.19770645876754658 1 0.7621955722264476 -1 -0.456003814496434 1 -0.7874531771693086 -1 0.9993288555541894 1 0.4879471935855348 -1 -0.8860509684227783 1 0.6200958568655637 -1 -0.06429117172348794 -1 -0.12002615624767557 -1 0.9461108278654872 -1 0.4463604510983481 1 0.09464426630684727 1 -0.023165024264774643 1 -0.39284856433647697 -1 -0.22003319091219758 -1 0.4030331812465038 -1 0.48581613031164156 -1 0.15866371696218387 1 0.29365638009144807 -1 -0.053687111971381894 1 0.8928704593454948 1 -0.7048645636279759 1 0.1256193910780426 1 -0.02596999979581117 -1 0.7051068324567865 -1 -0.6642423859282275 -1 0.6552060389046747 1 -0.4519980049625403 -1 -0.15326630363254623 -1 0.9763037745388025 1 -0.2433893800052497 -1 -0.42847481540576615 1 -0.820291081800445 -1 0.9832403482017502 -1 0.24461758439673473 -1 -0.4375617990235168 -1 -0.9746651503706751 1 -0.5837173587119172 1 -0.2833143849447487 1 -0.6037199942748992 -1 -0.12680532477032916 -1 -0.6529872981502524 -1 0.2527119260821503 -1 0.8397560661594089 1 0.7385080395965634 1 0.8889647453705495 1 0.2877364936220488 -1 -0.6056739363013252 -1 -0.5899386229536979 1 0.4043698834583289 -1 0.5896000628325114 -1 0.8648818239381176 -1 0.853825020559066 -1 0.5806184633065908 1 0.32886446062092006 1 0.9592151459853248 -1 -0.06459025466087384 1 -0.14285554989970328 1 0.30466884735715677 -1 -0.018626204249089395 -1 0.626384818220756 1 -0.4782894052725053
31 1 0.0 -1 0.7879413858569162 -1 0.06737524974723966 -1 0.3934643845416682 1 0.1897824530815712 -1 0.8488318283192045 1 -0.005269948169488729 1 -0.32583553496751616 -1 0.17484844497762347 -1 -0.31268007445822255 -1 0.7596634150335297 1 0.9224871979917209 -1 0.11861140988969565 -1 0.3741228145094787 -1 0.43916618465889634 -1 0.5351807326092317 -1 0.3118879065579815 1 -0.3151243029070179 -1 -0.386182889526139 -1 -0.6624733489894661 -1 -0.47386108660505344 -1 0.07640903345122568 1 -0.049843262583244036 1 -0.22565997207812727 1 0.17995636902652512 1 -0.5986675702806592 -1 0.6096372203035629 1 -0.08430516614590852 1 -0.8272666805766984 1 0.80526791269059 -1 -0.19126492299494063 1 -0.6715122215235527 -1 0.0802087391355297 -1 -0.957360737932712 -1 -0.5452973608605804 -1 0.16722702195892697 -1 0.14928340676307278 1 0.19773687754343244 1 0.7622723784850762 -1 -0.45599125121985784 1 -0.7873997487293638 -1 0.9994042812329744 1 0.48798267448751365 -1 -0.8860089527762067 1 0.620180762525941 -1 -0.06430198626559563 -1 -0.11999095146166544 -1 0.946067799793697 -1 0.4464105661466684 1 0.09464320786230057 1 -0.023166726979915002 1 -0.39281105858406096 -1 -0.2199503101022574 -1 0.40300681217149226 -1 0.4857386797824193 -1 0.15860421397092755 1 0.29366719463355573 -1 -0.053671511419149956 1 0.8927713797320571 1 -0.704826689720935 1 0.12565284712958424 1 -0.02599066247413607 -1 0.7050209143711905 -1 -0.6642241162549647 -1 0.6551356753519826 1 -0.45201056823911645 -1 -0.153266993922468 -1 0.9762607464670123 1 -0.24345670628228605 -1 -0.4284778066620938 1 -0.8203486519799204 -1 0.9831817655970563 -1 0.2445451959936054 -1 -0.4375492357469406 -1 -0.9746025180651068 1 -0.5837765855872048 1 -0.2833661566888812 1 -0.6037321893968504 -1 -0.12675456545141522 -1 -0.6529175788681538 -1 0.25270378066107346 -1 0.8396701480738129 1 0.7385939576821594 1 0.8890077734423396 1 0.2877628626970603 -1 -0.6056197715521305 -1 -0.5898793960784103 1 0.40439625253334044 -1 0.5895384429521617 -1 0.8648023485584582 -1 0.8538771604578235 -1 0.5806038751795775 1 0.3288597206301239 1 0.9592581740571149 -1 -0.06458855194573349 1 -0.14287179472252887 1 0.3046641073663606 -1 -0.01860149186989013 -1 0.626339121027935 1 -0.4782457329301215
32 1 0.0 -1 0.7878645795982876 -1 0.0673844075935351 -1 0.39345356999956055 1 0.18974789256615474 -1 0.8489177464048004 1 -0.005294660548687992 1 -0.32584064311293726 -1 0.17484398110279606 -1 -0.31271629166945125 -1 0.7595957206018684 1 0.9225862776051585 -1 0.118577953838154 -1 0.37412755450027485 -1 0.4391398155838848 -1 0.5351452517072529 -1 0.31189264654877763 1 -0.3151449655853428 -1 -0.3861609383066268 -1 -0.6623880751744637 -1 -0.47383296879557346 -1 0.07640263676461731 1 -0.04982738591504339 1 -0.22574285288806745 1 0.18000639203618918 1 -0.5987267971559468 -1 0.6095837918636181 1 -0.08428790889786435 1 -0.82730869622327 1 0.8053356071222513 -1 -0.1911975967179043 1 -0.6715934456376806 -1 0.08018678791601751 -1 -0.9573241525668584 -1 -0.5452381339852929 -1 0.1671834416551994 -1 0.14923945830472027 1 0.1977672963193183 1 0.7623491847437048 -1 -0.45597868794328167 1 -0.787346320289419 -1 0.9994797069117595 1 0.4880181553894925 -1 -0.8859669371296351 1 0.6202656681863183 -1 -0.06431280080770332 -1 -0.11995574667565531 -1 0.9460247717219069 -1 0.4464606811949887 1 0.09464214941775387 1 -0.02316842969505536 1 -0.39277355283164495 -1 -0.21986742929231723 -1 0.40298044309648073 -1 0.48566122925319705 -1 0.15854471097967124 1 0.2936780091756634 -1 -0.05365591086691802 1 0.8926723001186194 1 -0.7047888158138941 1 0.1256863031811259 1 -0.026011325152460966 -1 0.7049349962855945 -1 -0.6642058465817019 -1 0.6550653117992905 1 -0.4520231315156926 -1 -0.1532676842123898 -1 0.9762177183952222 1 -0.2435240325593224 -1 -0.4284807979184214 1 -0.8204062221593957 -1 0.9831231829923623 -1 0.2444728075904761 -1 -0.43753667247036443 -1 -0.9745398857595384 1 -0.5838358124624924 1 -0.2834179284330137 1 -0.6037443845188015 -1 -0.1267038061325013 -1 -0.6528478595860553 -1 0.2526956352399966 -1 0.8395842299882169 1 0.7386798757677554 1 0.8890508015141297 1 0.28778923177207183 -1 -0.6055656068029359 -1 -0.5898201692031227 1 0.40442262160835196 -1 0.589476823071812 -1 0.8647228731787987 -1 0.853929300356581 -1 0.5805892870525641 1 0.3288549806393278 1 0.959301202128905 -1 -0.06458684923059313 1 -0.14288803954535445 1 0.3046593673755645 -1 -0.018576779490690865 -1 0.626293423835114 1 -0.47820206058773773
33 1 0.0 -1 0.787787773339659 -1 0.06739356543983055 -1 0.3934427554574529 1 0.18971333205073826 -1 0.8490036644903964 1 -0.005319372927887256 1 -0.32584575125835835 -1 0.17483951722796864 -1 -0.31275250888067996 -1 0.7595280261702071 1 0.9226853572185962 -1 0.11854449778661236 -1 0.374132294491071 -1 0.4391134465088733 -1 0.5351097708052741 -1 0.3118973865395738 1 -0.3151656282636677 -1 -0.3861389870871146 -1 -0.6623028013594614 -1 -0.4738048509860935 -1 0.07639624007800894 1 -0.049811509246842745 1 -0.22582573369800762 1 0.18005641504585324 1 -0.5987860240312344 -1 0.6095303634236733 1 -0.08427065164982017 1 -0.8273507118698415 1 0.8054033015539126 -1 -0.19113027044086794 1 -0.6716746697518086 -1 0.08016483669650531 -1 -0.9572875672010048 -1 -0.5451789071100053 -1 0.16713986135147185 -1 0.14919550984636776 1 0.19779771509520416 1 0.7624259910023334 -1 -0.4559661246667055 1 -0.7872928918494742 -1 0.9995551325905445 1 0.48805363629147136 -1 -0.8859249214830636 1 0.6203505738466957 -1 -0.06432361534981101 -1 -0.11992054188964518 -1 0.9459817436501168 -1 0.446510796243309 1 0.09464109097320716 1 -0.02317013241019572 1 -0.39273604707922893 -1 -0.21978454848237705 -1 0.4029540740214692 -1 0.4855837787239748 -1 0.15848520798841492 1 0.29368882371777105 -1 -0.05364031031468608 1 0.8925732205051817 1 -0.7047509419068532 1 0.12571975923266754 1 -0.026031987830785863 -1 0.7048490781999985 -1 -0.6641875769084391 -1 0.6549949482465984 1 -0.4520356947922688 -1 -0.15326837450231157 -1 0.9761746903234321 1 -0.24359135883635874 -1 -0.42848378917474905 1 -0.8204637923388711 -1 0.9830646003876684 -1 0.24440041918734678 -1 -0.43752410919378826 -1 -0.9744772534539701 1 -0.58389503933778 1 -0.28346970017714623 1 -0.6037565796407527 -1 -0.12665304681358736 -1 -0.6527781403039568 -1 0.25268748981891975 -1 0.8394983119026209 1 0.7387657938533514 1 0.8890938295859199 1 0.28781560084708335 -1 -0.6055114420537413 -1 -0.5897609423278352 1 0.4044489906833635 -1 0.5894152031914623 -1 0.8646433977991392 -1 0.8539814402553385 -1 0.5805746989255507 1 0.32885024064853163 1 0.9593442302006951 -1 -0.06458514651545277 1 -0.14290428436818003 1 0.30465462738476834 -1 -0.0185520671114916 -1 0.626247726642293 1 -0.47815838824535395
34 1 0.0 -1 0.7877109670810304 -1 0.067402723286126 -1 0.3934319409153452 1 0.18967877153532178 -1 0.8490895825759924 1 -0.0053440853070865196 1 -0.32585085940377945 -1 0.17483505335314123 -1 -0.31278872609190866 -1 0.7594603317385458 1 0.9227844368320339 -1 0.11851104173507071 -1 0.37413703448186714 -1 0.43908707743386177 -1 0.5350742899032953 -1 0.3119021265303699 1 -0.3151862909419926 -1 -0.3861170358676024 -1 -0.6622175275444591 -1 -0.4737767331766135 -1 0.07638984339140056 1 -0.0497956325786421 1 -0.2259086145079478 1 0.1801064380555173 1 -0.598845250906522 -1 0.6094769349837285 1 -0.084253394401776 1 -0.8273927275164131 1 0.8054709959855739 -1 -0.1910629441638316 1 -0.6717558938659365 -1 0.08014288547699312 -1 -0.9572509818351512 -1 -0.5451196802347177 -1 0.1670962810477443 -1 0.14915156138801525 1 0.19782813387109002 1 0.762502797260962 -1 -0.4559535613901293 1 -0.7872394634095293 -1 0.9996305582693296 1 0.4880891171934502 -1 -0.885882905836492 1 0.620435479507073 -1 -0.0643344298919187 -1 -0.11988533710363505 -1 0.9459387155783266 -1 0.44656091129162934 1 0.09464003252866046 1 -0.02317183512533608 1 -0.3926985413268129 -1 -0.21970166767243687 -1 0.4029277049464577 -1 0.48550632819475253 -1 0.1584257049971586 1 0.2936996382598787 -1 -0.05362470976245414 1 0.892474140891744 1 -0.7047130679998123 1 0.12575321528420919 1 -0.02605265050911076 -1 0.7047631601144025 -1 -0.6641693072351763 -1 0.6549245846939064 1 -0.45204825806884497 -1 -0.15326906479223334 -1 0.9761316622516419 1 -0.24365868511339508 -1 -0.4284867804310767 1 -0.8205213625183465 -1 0.9830060177829745 -1 0.24432803078421747 -1 -0.4375115459172121 -1 -0.9744146211484017 1 -0.5839542662130676 1 -0.28352147192127874 1 -0.6037687747627039 -1 -0.12660228749467342 -1 -0.6527084210218582 -1 0.2526793443978429 -1 0.8394123938170249 1 0.7388517119389474 1 0.88913685765771 1 0.2878419699220949 -1 -0.6054572773045467 -1 -0.5897017154525476 1 0.404475359758375 -1 0.5893535833111126 -1 0.8645639224194798 -1 0.854033580154096 -1 0.5805601107985373 1 0.3288455006577355 1 0.9593872582724853 -1 -0.06458344380031242 1 -0.14292052919100562 1 0.3046498873939722 -1 -0.018527354732292334 -1 0.626202029449472 1 -0.47811471590297017
35 1 0.0 -1 0.7876341608224018 -1 0.06741188113242144 -1 0.39342112637323756 1 0.1896442110199053 -1 0.8491755006615884 1 -0.005368797686285783 1 -0.32585596754920054 -1 0.1748305894783138 -1 -0.31282494330313737 -1 0.7593926373068844 1 0.9228835164454716 -1 0.11847758568352906 -1 0.3741417744726633 -1 0.43906070835885025 -1 0.5350388090013165 -1 0.31190686652116606 1 -0.3152069536203175 -1 -0.38609508464809017 -1 -0.6621322537294567 -1 -0.47374861536713353 -1 0.07638344670479219 1 -0.04977975591044145 1 -0.22599149531788798 1 0.18015646106518135 1 -0.5989044777818096 -1 0.6094235065437836 1 -0.08423613715373182 1 -0.8274347431629847 1 0.8055386904172352 -1 -0.19099561788679525 1 -0.6718371179800644 -1 0.08012093425748093 -1 -0.9572143964692976 -1 -0.5450604533594301 -1 0.16705270074401674 -1 0.14910761292966274 1 0.19785855264697588 1 0.7625796035195906 -1 -0.45594099811355315 1 -0.7871860349695845 -1 0.9997059839481146 1 0.4881245980954291 -1 -0.8858408901899204 1 0.6205203851674503 -1 -0.0643452444340264 -1 -0.11985013231762492 -1 0.9458956875065365 -1 0.44661102633994965 1 0.09463897408411376 1 -0.02317353784047644 1 -0.3926610355743969 -1 -0.2196187868624967 -1 0.40290133587144616 -1 0.4854288776655303 -1 0.1583662020059023 1 0.2937104528019864 -1 -0.0536091092102222 1 0.8923750612783063 1 -0.7046751940927714 1 0.12578667133575083 1 -0.026073313187435658 -1 0.7046772420288065 -1 -0.6641510375619135 -1 0.6548542211412143 1 -0.45206082134542114 -1 -0.15326975508215512 -1 0.9760886341798518 1 -0.24372601139043143 -1 -0.4284897716874043 1 -0.8205789326978219 -1 0.9829474351782805 -1 0.24425564238108816 -1 -0.4374989826406359 -1 -0.9743519888428334 1 -0.5840134930883552 1 -0.28357324366541126 1 -0.603780969884655 -1 -0.1265515281757595 -1 -0.6526387017397597 -1 0.25267119897676604 -1 0.8393264757314289 1 0.7389376300245434 1 0.8891798857295001 1 0.2878683389971064 -1 -0.6054031125553521 -1 -0.58964248857726 1 0.40450172883338653 -1 0.589291963430763 -1 0.8644844470398203 -1 0.8540857200528535 -1 0.5805455226715239 1 0.32884076066693935 1 0.9594302863442754 -1 -0.06458174108517206 1 -0.1429367740138312 1 0.30464514740317605 -1 -0.01850264235309307 -1 0.626156332256651 1 -0.4780710435605864
36 1 0.0 -1 0.7875573545637732 -1 0.06742103897871689 -1 0.3934103118311299 1 0.18960965050448883 -1 0.8492614187471844 1 -0.005393510065485047 1 -0.32586107569462164 -1 0.1748261256034864 -1 -0.3128611605143661 -1 0.7593249428752231 1 0.9229825960589093 -1 0.11844412963198742 -1 0.3741465144634594 -1 0.4390343392838387 -1 0.5350033280993377 -1 0.3119116065119622 1 -0.3152276162986424 -1 -0.38607313342857796 -1 -0.6620469799144544 -1 -0.47372049755765355 -1 0.07637705001818382 1 -0.04976387924224081 1 -0.22607437612782816 1 0.1802064840748454 1 -0.5989637046570971 -1 0.6093700781038388 1 -0.08421887990568765 1 -0.8274767588095563 1 0.8056063848488966 -1 -0.1909282916097589 1 -0.6719183420941923 -1 0.08009898303796874 -1 -0.957177811103444 -1 -0.5450012264841425 -1 0.16700912044028918 -1 0.14906366447131023 1 0.19788897142286174 1 0.7626564097782192 -1 -0.455928434836977 1 -0.7871326065296397 -1 0.9997814096268997 1 0.48816007899740793 -1 -0.8857988745433488 1 0.6206052908278277 -1 -0.06435605897613408 -1 -0.1198149275316148 -1 0.9458526594347464 -1 0.44666114138826996 1 0.09463791563956706 1 -0.0231752405556168 1 -0.3926235298219809 -1 -0.21953590605255652 -1 0.40287496679643464 -1 0.485351427136308 -1 0.15830669901464597 1 0.29372126734409404 -1 -0.053593508657990264 1 0.8922759816648687 1 -0.7046373201857304 1 0.12582012738729248 1 -0.026093975865760555 -1 0.7045913239432106 -1 -0.6641327678886507 -1 0.6547838575885222 1 -0.4520733846219973 -1 -0.1532704453720769 -1 0.9760456061080617 1 -0.24379333766746777 -1 -0.42849276294373195 1 -0.8206365028772973 -1 0.9828888525735866 -1 0.24418325397795884 -1 -0.43748641936405974 -1 -0.974289356537265 1 -0.5840727199636427 1 -0.28362501540954377 1 -0.6037931650066062 -1 -0.12650076885684555 -1 -0.6525689824576612 -1 0.2526630535556892 -1 0.8392405576458329 1 0.7390235481101394 1 0.8892229138012903 1 0.2878947080721179 -1 -0.6053489478061574 -1 -0.5895832617019724 1 0.40452809790839805 -1 0.5892303435504133 -1 0.8644049716601608 -1 0.8541378599516111 -1 0.5805309345445105 1 0.3288360206761432 1 0.9594733144160655 -1 -0.0645800383700317 1 -0.1429530188366568 1 0.3046404074123799 -1 -0.018477929973893803 -1 0.62611063506383 1 -0.4780273712182026
37 1 0.0 -1 0.7874805483051446 -1 0.06743019682501233 -1 0.39339949728902224 1 0.18957508998907235 -1 0.8493473368327804 1 -0.0054182224446843105 1 -0.32586618384004273 -1 0.17482166172865898 -1 -0.3128973777255948 -1 0.7592572484435618 1 0.923081675672347 -1 0.11841067358044577 -1 0.37415125445425557 -1 0.4390079702088272 -1 0.5349678471973589 -1 0.31191634650275835 1 -0.3152482789769673 -1 -0.38605118220906576 -1 -0.661961706099452 -1 -0.4736923797481736 -1 0.07637065333157544 1 -0.04974800257404016 1 -0.22615725693776834 1 0.18025650708450947 1 -0.5990229315323847 -1 0.609316649663894 1 -0.08420162265764347 1 -0.8275187744561279 1 0.8056740792805579 -1 -0.19086096533272257 1 -0.6719995662083202 -1 0.08007703181845655 -1 -0.9571412257375904 -1 -0.5449419996088549 -1 0.16696554013656162 -1 0.14901971601295771 1 0.1979193901987476 1 0.7627332160368478 -1 -0.4559158715604008 1 -0.7870791780896949 -1 0.9998568353056847 1 0.4881955598993868 -1 -0.8857568588967772 1 0.620690196488205 -1 -0.06436687351824177 -1 -0.11977972274560467 -1 0.9458096313629563 -1 0.44671125643659026 1 0.09463685719502035 1 -0.023176943270757158 1 -0.3925860240695649 -1 -0.21945302524261634 -1 0.4028485977214231 -1 0.48527397660708577 -1 0.15824719602338966 1 0.2937320818862017 -1 -0.053577908105758326 1 0.892176902051431 1 -0.7045994462786895 1 0.12585358343883413 1 -0.026114638544085453 -1 0.7045054058576146 -1 -0.6641144982153879 -1 0.6547134940358301 1 -0.4520859478985735 -1 -0.15327113566199868 -1 0.9760025780362716 1 -0.24386066394450412 -1 -0.4284957542000596 1 -0.8206940730567727 -1 0.9828302699688927 -1 0.24411086557482953 -1 -0.43747385608748357 -1 -0.9742267242316967 1 -0.5841319468389303 1 -0.2836767871536763 1 -0.6038053601285573 -1 -0.12645000953793162 -1 -0.6524992631755626 -1 0.25265490813461233 -1 0.839154639560237 1 0.7391094661957354 1 0.8892659418730804 1 0.28792107714712944 -1 -0.6052947830569628 -1 -0.5895240348266848 1 0.4045544669834096 -1 0.5891687236700636 -1 0.8643254962805014 -1 0.8541899998503686 -1 0.5805163464174972 1 0.32883128068534706 1 0.9595163424878557 -1 -0.06457833565489135 1 -0.14296926365948237 1 0.30463566742158377 -1 -0.018453217594694538 -1 0.626064937871009 1 -0.4779836988758188
38 1 0.0 -1 0.787403742046516 -1 0.06743935467130778 -1 0.3933886827469146 1 0.18954052947365588 -1 0.8494332549183764 1 -0.005442934823883574 1 -0.32587129198546383 -1 0.17481719785383157 -1 -0.3129335949368235 -1 0.7591895540119005 1 0.9231807552857847 -1 0.11837721752890412 -1 0.3741559944450517 -1 0.4389816011338157 -1 0.5349323662953801 -1 0.3119210864935545 1 -0.3152689416552922 -1 -0.38602923098955355 -1 -0.6618764322844497 -1 -0.4736642619386936 -1 0.07636425664496707 1 -0.04973212590583952 1 -0.22624013774770851 1 0.18030653009417352 1 -0.5990821584076723 -1 0.6092632212239492 1 -0.0841843654095993 1 -0.8275607901026995 1 0.8057417737122192 -1 -0.19079363905568622 1 -0.6720807903224482 -1 0.08005508059894435 -1 -0.9571046403717368 -1 -0.5448827727335673 -1 0.16692195983283406 -1 0.1489757675546052 1 0.19794980897463346 1 0.7628100222954765 -1 -0.45590330828382464 1 -0.78702574964975 -1 0.9999322609844697 1 0.48823104080136565 -1 -0.8857148432502057 1 0.6207751021485823 -1 -0.06437768806034946 -1 -0.11974451795959454 -1 0.9457666032911661 -1 0.4467613714849106 1 0.09463579875047365 1 -0.023178645985897518 1 -0.3925485183171489 -1 -0.21937014443267616 -1 0.4028222286464116 -1 0.4851965260778635 -1 0.15818769303213334 1 0.29374289642830936 -1 -0.05356230755352639 1 0.8920778224379933 1 -0.7045615723716486 1 0.12588703949037577 1 -0.02613530122241035 -1 0.7044194877720186 -1 -0.6640962285421251 -1 0.654643130483138 1 -0.45209851117514965 -1 -0.15327182595192046 -1 0.9759595499644814 1 -0.24392799022154046 -1 -0.4284987454563872 1 -0.820751643236248 -1 0.9827716873641987 -1 0.2440384771717002 -1 -0.4374612928109074 -1 -0.9741640919261283 1 -0.5841911737142179 1 -0.2837285588978088 1 -0.6038175552505085 -1 -0.12639925021901768 -1 -0.6524295438934641 -1 0.2526467627135355 -1 0.839068721474641 1 0.7391953842813314 1 0.8893089699448705 1 0.28794744622214097 -1 -0.6052406183077682 -1 -0.5894648079513972 1 0.4045808360584211 -1 0.5891071037897139 -1 0.8642460209008419 -1 0.8542421397491261 -1 0.5805017582904838 1 0.3288265406945509 1 0.9595593705596458 -1 -0.064576632939751 1 -0.14298550848230795 1 0.3046309274307876 -1 -0.018428505215495272 -1 0.626019240678188 1 -0.47794002653343504
39 1 0.0 -1 0.7873269357878874 -1 0.06744851251760323 -1 0.3933778682048069 1 0.1895059689582394 -1 0.8495191730039724 1 -0.005467647203082838 1 -0.3258764001308849 -1 0.17481273397900415 -1 -0.3129698121480522 -1 0.7591218595802391 1 0.9232798348992224 -1 0.11834376147736247 -1 0.37416073443584785 -1 0.43895523205880416 -1 0.5348968853934013 -1 0.31192582648435063 1 -0.3152896043336171 -1 -0.38600727977004134 -1 -0.6617911584694474 -1 -0.4736361441292136 -1 0.0763578599583587 1 -0.04971624923763887 1 -0.2263230185576487 1 0.18035655310383758 1 -0.5991413852829599 -1 0.6092097927840043 1 -0.08416710816155512 1 -0.827602805749271 1 0.8058094681438805 -1 -0.19072631277864988 1 -0.6721620144365761 -1 0.08003312937943216 -1 -0.9570680550058832 -1 -0.5448235458582797 -1 0.1668783795291065 -1 0.1489318190962527 1 0.19798022775051932 1 0.7628868285541051 -1 -0.45589074500724847 1 -0.7869723212098052 1 -0.9999923133367452 1 0.4882665217033445 -1 -0.8856728276036341 1 0.6208600078089597 -1 -0.06438850260245715 -1 -0.11970931317358441 -1 0.945723575219376 -1 0.4468114865332309 1 0.09463474030592695 1 -0.023180348701037877 1 -0.39251101256473286 -1 -0.21928726362273598 -1 0.40279585957140007 -1 0.48511907554864125 -1 0.15812819004087703 1 0.293753710970417 -1 -0.05354670700129445 1 0.8919787428245556 1 -0.7045236984646077 1 0.12592049554191742 1 -0.026155963900735248 -1 0.7043335696864226 -1 -0.6640779588688623 -1 0.654572766930446 1 -0.4521110744517258 -1 -0.15327251624184224 -1 0.9759165218926913 1 -0.2439953164985768 -1 -0.42850173671271485 1 -0.8208092134157234 -1 0.9827131047595048 -1 0.2439660887685709 -1 -0.4374487295343312 -1 -0.9741014596205599 1 -0.5842504005895055 1 -0.2837803306419413 1 -0.6038297503724597 -1 -0.12634849090010375 -1 -0.6523598246113655 -1 0.2526386172924586 -1 0.838982803389045 1 0.7392813023669274 1 0.8893519980166606 1 0.2879738152971525 -1 -0.6051864535585736 -1 -0.5894055810761096 1 0.4046072051334326 -1 0.5890454839093642 -1 0.8641665455211824 -1 0.8542942796478836 -1 0.5804871701634704 1 0.3288218007037548 1 0.9596023986314359 -1 -0.06457493022461064 1 -0.14300175330513354 1 0.3046261874399915 -1 -0.018403792836296007 -1 0.625973543485367 1 -0.47789635419105125
40 1 0.0 -1 0.7872501295292588 -1 0.06745767036389867 -1 0.39336705366269925 1 0.18947140844282293 -1 0.8496050910895684 1 -0.0054923595822821015 1 -0.325881508276306 -1 0.17480827010417674 -1 -0.3130060293592809 -1 0.7590541651485778 1 0.9233789145126601 -1 0.11831030542582083 -1 0.374165474426644 -1 0.43892886298379263 -1 0.5348614044914225 -1 0.3119305664751468 1 -0.315310267011942 -1 -0.38598532855052914 -1 -0.661705884654445 -1 -0.47360802631973364 -1 0.07635146327175032 1 -0.049700372569438225 1 -0.22640589936758887 1 0.18040657611350164 1 -0.5992006121582475 -1 0.6091563643440595 1 -0.08414985091351095 1 -0.8276448213958426 1 0.8058771625755419 -1 -0.19065898650161353 1 -0.672243238550704 -1 0.08001117815991997 -1 -0.9570314696400296 -1 -0.5447643189829922 -1 0.16683479922537894 -1 0.14888787063790018 1 0.19801064652640518 1 0.7629636348127337 -1 -0.4558781817306723 1 -0.7869188927698604 1 -0.9999168876579602 1 0.48830200260532336 -1 -0.8856308119570625 1 0.620944913469337 -1 -0.06439931714456484 -1 -0.11967410838757428 -1 0.9456805471475859 -1 0.4468616015815512 1 0.09463368186138024 1 -0.023182051416178236 1 -0.39247350681231685 -1 -0.2192043828127958 -1 0.40276949049638855 -1 0.485041625019419 -1 0.1580686870496207 1 0.2937645255125247 -1 -0.05353110644906251 1 0.8918796632111179 1 -0.7044858245575668 1 0.12595395159345907 1 -0.026176626579060145 -1 0.7042476516008266 -1 -0.6640596891955995 -1 0.6545024033777539 1 -0.452123637728302 -1 -0.15327320653176402 -1 0.9758734938209012 1 -0.24406264277561315 -1 -0.4285047279690425 1 -0.8208667835951988 -1 0.9826545221548109 -1 0.24389370036544158 -1 -0.43743616625775505 -1 -0.9740388273149916 1 -0.5843096274647931 1 -0.2838321023860738 1 -0.6038419454944108 -1 -0.12629773158118981 -1 -0.652290105329267 -1 0.25263047187138177 -1 0.838896885303449 1 0.7393672204525233 1 0.8893950260884508 1 0.288000184372164 -1 -0.605132288809379 -1 -0.589346354200822 1 0.40463357420844415 -1 0.5889838640290145 -1 0.864087070141523 -1 0.8543464195466411 -1 0.580472582036457 1 0.32881706071295863 1 0.9596454267032261 -1 -0.06457322750947028 1 -0.14301799812795912 1 0.30462144744919534 -1 -0.01837908045709674 -1 0.625927846292546 1 -0.47785268184866747
41 1 0.0 -1 0.7871733232706302 -1 0.06746682821019412 -1 0.3933562391205916 1 0.18943684792740645 -1 0.8496910091751644 1 -0.005517071961481365 1 -0.3258866164217271 -1 0.17480380622934932 -1 -0.3130422465705096 -1 0.7589864707169165 1 0.9234779941260978 -1 0.11827684937427918 -1 0.37417021441744014 -1 0.4389024939087811 -1 0.5348259235894437 -1 0.3119353064659429 1 -0.3153309296902669 -1 -0.38596337733101693 -1 -0.6616206108394427 -1 -0.47357990851025367 -1 0.07634506658514195 1 -0.04968449590123758 1 -0.22648878017752905 1 0.1804565991231657 1 -0.5992598390335351 -1 0.6091029359041147 1 -0.08413259366546677 1 -0.8276868370424142 1 0.8059448570072032 -1 -0.1905916602245772 1 -0.6723244626648319 -1 0.07998922694040778 -1 -0.956994884274176 -1 -0.5447050921077046 -1 0.16679121892165139 -1 0.14884392217954767 1 0.19804106530229104 1 0.7630404410713623 -1 -0.4558656184540961 1 -0.7868654643299156 1 -0.9998414619791751 1 0.4883374835073022 -1 -0.8855887963104909 1 0.6210298191297143 -1 -0.06441013168667253 -1 -0.11963890360156415 -1 0.9456375190757957 -1 0.4469117166298715 1 0.09463262341683354 1 -0.023183754131318596 1 -0.39243600105990084 -1 -0.21912150200285563 -1 0.402743121421377 -1 0.48496417449019674 -1 0.1580091840583644 1 0.29377534005463235 -1 -0.05351550589683057 1 0.8917805835976802 1 -0.7044479506505259 1 0.12598740764500072 1 -0.026197289257385042 -1 0.7041617335152306 -1 -0.6640414195223368 -1 0.6544320398250618 1 -0.45213620100487817 -1 -0.1532738968216858 -1 0.975830465749111 1 -0.2441299690526495 -1 -0.4285077192253701 1 -0.8209243537746742 -1 0.9825959395501169 -1 0.24382131196231227 -1 -0.4374236029811789 -1 -0.9739761950094232 1 -0.5843688543400807 1 -0.2838838741302063 1 -0.603854140616362 -1 -0.12624697226227588 -1 -0.6522203860471685 -1 0.2526223264503049 -1 0.838810967217853 1 0.7394531385381193 1 0.8894380541602409 1 0.28802655344717554 -1 -0.6050781240601844 -1 -0.5892871273255345 1 0.40465994328345567 -1 0.5889222441486648 -1 0.8640075947618635 -1 0.8543985594453987 -1 0.5804579939094436 1 0.3288123207221625 1 0.9596884547750162 -1 -0.06457152479432993 1 -0.1430342429507847 1 0.3046167074583992 -1 -0.018354368077897476 -1 0.6258821490997251 1 -0.4778090095062837
42 1 0.0 -1 0.7870965170120016 -1 0.06747598605648956 -1 0.3933454245784839 1 0.18940228741198997 -1 0.8497769272607604 1 -0.005541784340680629 1 -0.3258917245671482 -1 0.1747993423545219 -1 -0.3130784637817383 -1 0.7589187762852552 1 0.9235770737395355 -1 0.11824339332273753 -1 0.3741749544082363 -1 0.4388761248337696 -1 0.5347904426874649 -1 0.31194004645673906 1 -0.3153515923685918 -1 -0.3859414261115047 -1 -0.6615353370244403 -1 -0.4735517907007737 -1 0.07633866989853358 1 -0.049668619233036934 1 -0.22657166098746923 1 0.18050662213282975 1 -0.5993190659088227 -1 0.6090495074641699 1 -0.0841153364174226 1 -0.8277288526889858 1 0.8060125514388645 -1 -0.19052433394754084 1 -0.6724056867789598 -1 0.07996727572089558 -1 -0.9569582989083224 -1 -0.544645865232417 -1 0.16674763861792383 -1 0.14879997372119516 1 0.1980714840781769 1 0.7631172473299909 -1 -0.45585305517751995 1 -0.7868120358899707 1 -0.9997660363003901 1 0.4883729644092811 -1 -0.8855467806639193 1 0.6211147247900917 -1 -0.06442094622878022 -1 -0.11960369881555402 -1 0.9455944910040056 -1 0.4469618316781918 1 0.09463156497228684 1 -0.023185456846458955 1 -0.39239849530748483 -1 -0.21903862119291545 -1 0.4027167523463655 -1 0.4848867239609745 -1 0.15794968106710808 1 0.29378615459674 -1 -0.053499905344598635 1 0.8916815039842425 1 -0.704410076743485 1 0.12602086369654236 1 -0.02621795193570994 -1 0.7040758154296346 -1 -0.664023149849074 -1 0.6543616762723697 1 -0.45214876428145434 -1 -0.15327458711160757 -1 0.9757874376773209 1 -0.24419729532968584 -1 -0.42851071048169775 1 -0.8209819239541496 -1 0.982537356945423 -1 0.24374892355918296 -1 -0.4374110397046027 -1 -0.9739135627038549 1 -0.5844280812153683 1 -0.28393564587433884 1 -0.6038663357383132 -1 -0.12619621294336195 -1 -0.6521506667650699 -1 0.25261418102922806 -1 0.838725049132257 1 0.7395390566237153 1 0.889481082232031 1 0.28805292252218706 -1 -0.6050239593109897 -1 -0.5892279004502469 1 0.4046863123584672 -1 0.5888606242683151 -1 0.863928119382204 -1 0.8544506993441562 -1 0.5804434057824303 1 0.32880758073136634 1 0.9597314828468063 -1 -0.06456982207918957 1 -0.1430504877736103 1 0.30461196746760305 -1 -0.01832965569869821 -1 0.6258364519069041 1 -0.4777653371638999
43 1 0.0 -1 0.787019710753373 -1 0.06748514390278501 -1 0.39333461003637626 1 0.1893677268965735 -1 0.8498628453463564 1 -0.0055664967198798924 1 -0.3258968327125693 -1 0.1747948784796945 -1 -0.313114680992967 -1 0.7588510818535938 1 0.9236761533529732 -1 0.11820993727119589 -1 0.3741796943990324 -1 0.43884975575875806 -1 0.5347549617854861 -1 0.3119447864475352 1 -0.3153722550469167 -1 -0.3859194748919925 -1 -0.661450063209438 -1 -0.4735236728912937 -1 0.0763322732119252 1 -0.04965274256483629 1 -0.2266545417974094 1 0.1805566451424938 1 -0.5993782927841103 -1 0.608996079024225 1 -0.08409807916937842 1 -0.8277708683355574 1 0.8060802458705258 -1 -0.1904570076705045 1 -0.6724869108930878 -1 0.07994532450138339 -1 -0.9569217135424688 -1 -0.5445866383571294 -1 0.16670405831419627 -1 0.14875602526284265 1 0.19810190285406276 1 0.7631940535886195 -1 -0.4558404919009438 1 -0.7867586074500259 1 -0.999690610621605 1 0.48840844531125993 -1 -0.8855047650173478 1 0.621199630450469 -1 -0.06443176077088791 -1 -0.11956849402954389 -1 0.9455514629322155 -1 0.4470119467265121 1 0.09463050652774013 1 -0.023187159561599315 1 -0.3923609895550688 -1 -0.21895574038297527 -1 0.402690383271354 -1 0.48480927343175223 -1 0.15789017807585176 1 0.2937969691388477 -1 -0.053484304792366696 1 0.8915824243708048 1 -0.7043722028364441 1 0.126054319748084 1 -0.026238614614034837 -1 0.7039898973440386 -1 -0.6640048801758112 -1 0.6542913127196777 1 -0.4521613275580305 -1 -0.15327527740152935 -1 0.9757444096055308 1 -0.2442646216067222 -1 -0.4285137017380254 1 -0.821039494133625 -1 0.982478774340729 -1 0.24367653515605364 -1 -0.43739847642802654 -1 -0.9738509303982865 1 -0.5844873080906559 1 -0.28398741761847135 1 -0.6038785308602643 -1 -0.126145453624448 -1 -0.6520809474829714 -1 0.2526060356081512 -1 0.838639131046661 1 0.7396249747093113 1 0.8895241103038212 1 0.2880792915971986 -1 -0.6049697945617951 -1 -0.5891686735749593 1 0.4047126814334787 -1 0.5887990043879654 -1 0.8638486440025446 -1 0.8545028392429137 -1 0.5804288176554169 1 0.3288028407405702 1 0.9597745109185964 -1 -0.06456811936404921 1 -0.14306673259643587 1 0.3046072274768069 -1 -0.018304943319498945 -1 0.6257907547140831 1 -0.4777216648215161
44 1 0.0 -1 0.7869429044947444 -1 0.06749430174908046 -1 0.3933237954942686 1 0.18933316638115702 -1 0.8499487634319524 1 -0.005591209099079156 1 -0.3259019408579904 -1 0.17479041460486708 -1 -0.3131508982041957 -1 0.7587833874219325 1 0.9237752329664108 -1 0.11817648121965424 -1 0.37418443438982857 -1 0.43882338668374654 -1 0.5347194808835073 -1 0.31194952643833135 1 -0.3153929177252416 -1 -0.3858975236724803 -1 -0.6613647893944357 -1 -0.47349555508181373 -1 0.07632587652531683 1 -0.04963686589663564 1 -0.22673742260734958 1 0.18060666815215787 1 -0.5994375196593978 -1 0.6089426505842802 1 -0.08408082192133425 1 -0.8278128839821289 1 0.8061479403021872 -1 -0.19038968139346815 1 -0.6725681350072157 -1 0.0799233732818712 -1 -0.9568851281766152 -1 -0.5445274114818418 -1 0.1666604780104687 -1 0.14871207680449014 1 0.19813232162994862 1 0.7632708598472481 -1 -0.4558279286243676 1 -0.7867051790100811 1 -0.99961518494282 1 0.4884439262132388 -1 -0.8854627493707762 1 0.6212845361108463 -1 -0.0644425753129956 -1 -0.11953328924353376 -1 0.9455084348604254 -1 0.44706206177483243 1 0.09462944808319343 1 -0.023188862276739674 1 -0.3923234838026528 -1 -0.2188728595730351 -1 0.40266401419634246 -1 0.48473182290253 -1 0.15783067508459545 1 0.29380778368095534 -1 -0.05346870424013476 1 0.8914833447573671 1 -0.7043343289294032 1 0.12608777579962566 1 -0.026259277292359735 -1 0.7039039792584426 -1 -0.6639866105025484 -1 0.6542209491669856 1 -0.4521738908346067 -1 -0.15327596769145113 -1 0.9757013815337406 1 -0.24433194788375853 -1 -0.428516692994353 1 -0.8210970643131004 -1 0.9824201917360351 -1 0.24360414675292433 -1 -0.43738591315145037 -1 -0.9737882980927182 1 -0.5845465349659434 1 -0.28403918936260386 1 -0.6038907259822155 -1 -0.12609469430553408 -1 -0.6520112282008729 -1 0.25259789018707435 -1 0.838553212961065 1 0.7397108927949073 1 0.8895671383756113 1 0.2881056606722101 -1 -0.6049156298126005 -1 -0.5891094466996717 1 0.40473905050849024 -1 0.5887373845076157 -1 0.8637691686228851 -1 0.8545549791416712 -1 0.5804142295284035 1 0.32879810074977406 1 0.9598175389903866 -1 -0.06456641664890886 1 -0.14308297741926146 1 0.30460248748601076 -1 -0.01828023094029968 -1 0.6257450575212621 1 -0.47767799247913234
