1 1 0.0 1 0.9691902952444609 1 -0.2612727839274911 1 0.8896650555107033 1 -0.03757543956687237 -1 0.2691160491589262 -1 -0.34719190417924617 1 -0.17460311314394494 -1 -0.3300210229508804 -1 0.6006230562734727 1 0.34417892334411215 -1 0.8997652550373492 1 0.7667723089537035 1 0.16220605125433019 -1 -0.9907434077986932 1 0.005344039632839026 1 -0.7857844518058184 1 -0.4682341887548558 1 -0.005752109285323659 -1 0.6012835104458065 -1 0.09485934139385588 -1 -0.919114256051782 -1 -0.84782573951212 1 -0.10704370811646902 1 0.09549462543235943 1 0.2645007366579619 1 -0.5318500147679552 1 -0.27602396476755353 -1 -0.17725572207176898 1 0.18230493199833853 1 0.5054490892762371 -1 0.072747764418714 -1 0.537067097639327 -1 -0.9595018947312899 -1 -0.05616905014497231 1 -0.3403208518072296 -1 0.34748606171604535 -1 0.8925146810434696 1 -0.6742447590231155 1 -0.8433140954003688 -1 -0.611380205037992 1 0.9153172488342811 1 -0.45996435525659307 1 -0.7899745041040247 1 0.8307501714223795 -1 0.3584618645942259 1 0.9934296558662097 -1 -0.6045555296985057 1 0.20483718611655855 -1 -0.18107561563561725 1 0.9326104214442787 -1 -0.4874920472080062 1 -0.0018725637156096209 -1 -0.3822547914677956 -1 -0.32506105802970753 -1 0.9939567043018513 1 -0.4992842587130155 -1 -0.5792116503561044 1 -0.03014425539725729 1 -0.06400537387736382 -1 0.9850752093096056 1 -0.1300832569030279 -1 -0.8686878928457429 1 0.20319710339333974 1 -0.7237262055768148 -1 -0.6564967743918615 1 0.8792023639692603 1 -0.4088538225473799 -1 -0.8481050370459151 -1 -0.2866202978631802 -1 0.8636073053614746 1 0.30402524071487136 1 0.09300492247957415 -1 -0.4657458353395958 -1 -0.974539859845647 1 -0.9444900544044605 1 -0.9314699346979523 1 0.5495709420776917 -1 -0.45553035004688236 1 0.5445833923337009 -1 -0.9906831307087072 1 0.13310849887635 1 0.7088506656447968 1 -0.8037107673178712 1 -0.6913567441261079 -1 -0.998974552729722 1 0.7190834426547621 -1 -0.2102442570882701 1 0.753760093427372 -1 -0.932547460218681 1 0.26692062887798795 1 0.41614650544827114 -1 -0.14428140345371054 1 -0.693029724275342 1 0.9376042466555423 1 -0.1234483815730607 -1 -0.585726623301529 1 -0.7514568958458365 -1 0.877260860054822 -1 -0.6343406065218993
2 1 0.0 -1 3775.7240568555894 -1 14590.31748319693 -1 -15457.687644886018 -1 4177.811679212216 1 -3008.8134315319135 1 -13663.187800091308 -1 19839.799155525878 1 380.50613846668347 1 -5018.926275401994 -1 2081.688578710693 1 114.38645531351621 -1 -13790.720981013752 -1 11781.205608496763 1 -24875.651855582186 -1 11566.341097362336 -1 25586.905826393497 -1 9925.098872669298 -1 -440.5815054319862 1 5020.128181968712 1 -14006.100543104116 1 -28028.470374224165 1 -14841.623098466789 -1 14590.471712272745 -1 14006.290897070941 -1 1497.2255469886502 -1 15887.46075817237 -1 6128.277987731145 1 -19840.151014361098 -1 8043.952206048426 -1 11.66590416636188 1 -11566.263005558283 1 -10.623387979446317 1 -11319.168922415733 1 -13078.513423701927 -1 13662.500287335322 1 2794.7223845199837 1 15459.469824622574 -1 6900.649859440864 -1 36798.66880073714 1 -2451.6314844049325 -1 -3618.871494021768 -1 9925.107142502797 -1 29324.175137670278 -1 -10208.351557111935 1 -938.5401410062206 -1 -18696.53453206663 1 -8414.050161058669 -1 3009.287384767189 1 -11652.577332925586 -1 -7356.12770217824 1 -7700.9025989052725 -1 11566.333880758984 1 -9925.94936164952 1 -4831.465220547668 1 8939.083321935565 -1 12150.21982259934 1 -15888.57181983749 -1 440.545609067306 -1 6402.937249277909 1 18698.513036931807 -1 19839.84367538212 1 -31765.693449190043 -1 -3008.879350477681 -1 18112.420881981558 1 -6901.980600974279 -1 -14160.284255371278 -1 9925.158253035504 1 -35502.94636766332 1 -15888.279228484993 1 15089.765212834342 -1 3009.386572821787 -1 4246.849810876761 1 -9926.032852693392 1 -29540.64730115703 -1 30836.142123449063 -1 28026.619790033415 -1 1154.1558229356997 1 -9926.0226372081 -1 11.705038469419344 1 -3327.1071148159813 -1 -5105.454293946634 -1 -7828.353401327976 -1 33061.434902736146 -1 10637.906248784842 1 -21138.386585398035 -1 -11565.61666988005 1 -14590.789000237952 -1 441.3295134161295 1 -5552.200979145491 -1 -1496.6941256231164 -1 -4675.755957694447 1 -19840.11804004248 -1 14375.178077133778 -1 -11093.396209682112 -1 11652.272808928377 1 -12151.304833481354 -1 21849.66665262037 1 2923.899304453887 1 6900.6897635933665
3 1 0.0 1 18234.69826206557 1 27084.39138431336 1 39315.16147792102 1 36072.170807335584 -1 -40367.27521143625 -1 -72173.31042422744 1 28596.599555313223 -1 -14636.530510124472 -1 78354.69700583146 1 17683.1085808372 -1 42507.53558875322 1 44719.40164312238 1 42961.64701625859 -1 -64699.40697307288 1 47996.177507782326 1 23131.885722193605 1 65041.3027897347 1 -45857.97364152984 -1 -12248.38137677662 -1 -72516.22316724024 -1 -64114.95199038579 -1 -35456.43713355451 1 23347.27211206009 1 33974.91180084554 1 79836.16147468673 1 28381.5346592888 1 25171.230927656714 -1 -67138.45313450995 1 65600.01577223663 1 87706.94604026426 -1 -82800.32763501076 -1 -91443.1770254064 -1 -36195.90021853482 -1 -75325.90954916715 1 37368.39469243899 -1 -20939.563114682573 -1 2961.395923506143 1 71931.26042828725 1 15657.28118989184 -1 -43547.36676563837 1 34109.26599029512 1 61304.03755823911 1 19394.608030812222 1 15596.117886800883 -1 -28565.067196827596 1 32339.041089411316 -1 -89347.81379316932 1 38855.62766334245 -1 -45772.08846104896 1 31299.747929932386 -1 -46356.7782310159 1 51733.44379250804 -1 -87122.43949243109 -1 -32088.316571956497 -1 -7139.366209164909 1 39593.38772903209 -1 -66924.14744131544 1 37799.00738897166 1 35118.08531945336 -1 9937.712637144463 1 24859.370573840388 -1 -60377.628062693504 1 25175.710148724873 1 26869.2212817689 -1 -87835.74423308493 1 7751.943631922715 1 57566.81516744275 -1 -60377.6074798377 -1 -70661.12835129203 -1 6328.964813046998 1 77396.34135006797 1 28539.1977534605 -1 -79647.97598081679 -1 -61889.855415989565 1 17169.30151526192 1 21834.32618450444 1 24673.73367301545 -1 -83385.23926666057 1 83969.71167323823 -1 -18129.436114284326 1 -43976.03757518007 1 73105.41023078268 1 15657.320793219922 1 54542.28966186298 -1 -64699.41520421782 1 59668.447959572426 -1 -70661.05197525126 1 -36917.132266488225 -1 -22794.389627736637 1 -86382.43890818566 1 8829.159189567628 -1 -70875.69366152043 1 30606.52547957929 1 22098.376770647526 1 22093.315718019287 -1 -78135.97446027565 1 23131.920049749555 -1 -11165.399196343546 -1 68194.02683111066
4 1 0.0 -1 34315.21797711074 -1 118731.6526708631 -1 94431.36539498642 -1 68309.88472971735 1 -108294.36885949576 1 -134420.70654969267 -1 111471.89998699854 1 -28277.190576046843 1 72162.40340030249 -1 37500.90179721144 1 58997.06450316045 -1 87111.66355487145 -1 89091.18242933674 1 -153107.7176078417 -1 86651.16591820231 -1 137357.75607200764 -1 81272.65019218021 -1 -98835.97328427309 1 -29626.31494402806 1 -131026.34579137637 1 -156260.5361264837 1 -71478.15156630304 -1 130098.59545921594 -1 104126.27022721453 -1 69906.59436782867 -1 116291.52244450946 -1 57274.38289363226 1 -144334.9432652915 -1 78094.08967335305 -1 70302.83193074804 1 -126361.35625383054 1 -112580.56463625171 1 -68480.34114995429 1 -130098.75867197418 -1 99246.11511349166 1 -66660.97655008931 1 -130878.58008074705 -1 76950.78732674551 -1 153449.23834459693 1 -107737.18691236881 -1 73821.52691533505 -1 81272.6584620137 -1 144119.26838594262 -1 61970.82222704547 1 -72061.3286322343 -1 106227.6730171094 1 -114222.47490534371 -1 62106.67308173694 1 -102487.36160512124 -1 77773.52535895951 1 -95597.50437243009 -1 86651.15870159895 1 -119471.64760726363 1 -71847.30450603412 1 -50549.56714058438 -1 90972.3181447684 1 -147857.91107342608 -1 64787.326308695236 -1 71093.0727431642 1 -129151.65836976693 -1 126576.00656746086 1 -159997.75920144957 -1 53541.58861337135 -1 122253.75606964773 1 -116447.67884658839 -1 55054.386119961055 -1 85009.9830738755 1 -163735.01211992287 1 -140383.0714794154 1 -131248.2846925353 -1 74941.32124586808 -1 49275.56116015908 1 -126946.27810096565 1 -157772.71305341658 -1 147486.71166730885 -1 142821.71303830572 -1 61811.57299252635 1 -123208.99438415127 -1 70302.87106505109 1 -28032.822678877616 -1 -104428.58422058143 -1 74387.66362791187 -1 149712.00444659594 -1 85722.73106962482 1 -149370.45233765754 -1 83374.3423646761 1 -144120.2686047037 -1 -108581.49941587684 1 -30472.62419232993 -1 -122468.92052434728 -1 32727.580701529303 1 -136860.36328831472 -1 109744.55240993554 -1 82207.5686217905 -1 85939.78107049134 1 -129171.55008175361 -1 133620.5168982345 1 -32280.60626492405 1 76950.82723089801
5 1 0.0 1 52964.244486414274 1 134963.00007330862 1 136823.6273067355 1 130703.96817469344 -1 -167320.85450755534 -1 -200405.37617648696 1 135177.79439210222 -1 -47853.955233144094 -1 180399.52733863326 1 52412.654805185906 -1 130747.49215653627 1 140715.74597060776 1 138957.99134374398 -1 -192931.4727253324 1 143992.52183526772 1 134902.73596780776 1 164061.89011987828 1 -172811.55293764896 -1 -45465.80609979626 -1 -204485.56242082885 -1 -192347.01774264532 -1 -116426.79490920577 1 135118.1223576742 1 139043.98513630545 1 190867.66031147577 1 136260.14334828407 1 97901.36938167052 -1 -195370.51888676948 1 164620.60310238024 1 187526.62437306606 -1 -222244.21389125753 -1 -230887.06328165322 -1 -117166.25799418612 -1 -211032.5223040848 1 137901.10352391165 -1 -119084.16689565021 -1 -208075.0702115286 1 172463.96925975994 1 132307.85073375163 -1 -170500.94606175745 1 122692.5773523367 1 160324.62488838268 1 134189.70127908455 1 96050.99986021931 -1 -109535.42497247885 1 137408.11442487122 -1 -228791.70004941613 1 131975.30352937116 -1 -172725.667757168 1 116858.81628931573 -1 -173310.357527135 1 147729.78811999343 -1 -226566.3257486779 -1 -113058.67434760777 -1 -106710.0309874744 1 137101.85355784657 -1 -195156.21319357492 1 130918.68325500037 1 125213.51818282399 -1 -217559.96900453576 1 135332.8069672482 -1 -188609.69381495303 1 101643.12210406785 1 134747.82997076417 -1 -227279.63048933173 1 99418.64610932843 1 155075.28099625724 -1 -188609.67323209727 -1 -198893.19410355153 -1 -200970.22782065868 1 174191.7766802116 1 101114.36815218467 -1 -219091.86223706353 -1 -190121.9211682491 1 133819.8710591217 1 136629.41943277675 1 99629.02412702926 -1 -222829.12552290736 1 183789.39000604002 -1 -51346.860837303924 1 -170929.6168712991 1 177375.3925635845 1 132307.8903370797 1 152050.75549067746 -1 -192931.48095647732 1 157176.9137883869 -1 -198893.11772751075 1 -163870.71156260732 -1 -42574.84184676905 1 -225826.32516443246 1 55113.880712161896 -1 -199107.75941377995 1 137187.7203163683 1 113019.22154683039 1 108477.7959902149 -1 -213842.5872151933 1 134902.77029536368 -1 -40645.550418034094 -1 168726.73566258332
6 1 0.0 -1 72541.00914351155 -1 225939.8175023358 -1 205376.80372778815 -1 187135.6261183404 1 -239784.3126596021 1 -273864.5928059394 -1 218680.06481847123 1 -59028.434739789474 1 174207.23373310428 -1 75726.69296361224 1 183441.8765988542 -1 183108.00788235682 -1 188824.80025815123 1 -292551.6038640885 -1 182647.5102456877 -1 233354.10039949312 -1 180293.2375223238 -1 -230325.9170843794 1 -60377.55910777071 1 -270470.23204762314 1 -295704.4223827305 1 -160078.0243999022 -1 222357.66628537228 -1 185173.5205493836 -1 173463.54620195954 -1 212287.86677199492 -1 147300.31672457326 1 -283778.8295215383 -1 177114.67700349668 -1 173859.78376487893 1 -265805.2425100773 1 -252024.4508924985 1 -157080.2139835535 1 -269542.64492822095 -1 191505.18593964798 1 -155260.84938368847 1 -270322.46633699385 -1 177483.4961582182 -1 249445.5826720824 1 -239227.13071247513 -1 186598.7822986418 -1 180293.24579215728 -1 240115.6127134281 -1 149187.22070445117 1 -160661.2014658335 -1 194749.47034193663 1 -253666.36116159052 -1 177195.14096903097 1 -233977.30540522753 -1 184502.29473694993 1 -227087.4481725364 -1 182647.50302908436 1 -258915.53386351044 1 -160447.17733963332 1 -161573.08098215814 -1 201917.75647757013 1 -287301.79732967285 -1 179875.79419598923 -1 185382.44962780006 1 -268595.5446260137 -1 215097.80389228812 1 -299441.6454576964 -1 136092.97544165424 -1 236936.4679037786 1 -255891.5651028352 -1 145080.3199509021 -1 182518.44890268997 1 -303178.89837616973 1 -279826.9577356622 1 -270692.17094878206 -1 175474.03007734078 -1 139301.49499110013 1 -266390.1643572124 1 -297216.59930966335 -1 243483.05599479433 -1 208919.8693551585 -1 141553.4244672738 1 -262652.88064039807 -1 173859.82289918195 1 -58784.06684262023 -1 -235918.5280206877 -1 174920.37245938458 -1 245708.34877408142 -1 183231.1968984393 1 -288814.33859390434 -1 180882.80819349058 1 -283564.1548609505 -1 -240071.44321598316 1 -61223.86835607256 -1 -261912.80678059408 -1 70953.3718679301 1 -276304.2495445615 -1 198266.3497347628 -1 184399.97349579365 -1 183595.82144050725 1 -268615.43633800035 -1 229616.8612257199 1 -63031.8504286667 1 177483.53606237067
7 1 0.0 1 91190.03565281507 1 230959.34440079407 1 232819.9716342209 1 203625.15503274763 -1 -298810.79830766167 -1 -339849.26243273367 1 231174.13871958767 -1 -78605.19939688672 -1 290004.9651780804 1 90638.4459715867 -1 223867.16802256502 1 251034.2143087258 1 234954.33567122938 -1 -332375.3589815792 1 254310.99017338577 1 230899.08029529324 1 270643.08495666727 1 -304301.49673775525 -1 -76217.05026353891 -1 -343929.4486770756 -1 -331790.9039988922 -1 -208763.94124413404 1 231114.46668515963 1 239576.6939677781 1 300473.098150923 1 232256.48767576952 1 184190.02971128246 -1 -334814.40514301625 1 281700.5879444856 1 297132.0622125133 -1 -361688.1001475043 -1 -370330.94953790004 -1 -209503.40432911442 -1 -350476.40856033156 1 233897.44785139704 -1 -211421.3132305785 -1 -347518.9564677754 1 276820.0120965489 1 228304.19506123711 -1 -301990.88986186375 1 206825.5847143781 1 266905.81972517166 1 230186.04560657003 1 182339.66018983128 -1 -201872.57130740714 1 233404.45875235662 -1 -368235.58630566293 1 240216.19440869073 -1 -304215.6115572743 1 213715.76565667352 -1 -304800.3013272413 1 258048.25645811151 -1 -366010.21200492466 -1 -205395.82068253605 -1 -199047.17732240268 1 233098.19788533196 -1 -334600.0994498217 1 236135.33113166178 1 209346.52554486546 -1 -357003.8552607825 1 231329.15129473363 -1 -328053.58007119986 1 187931.78243367982 1 230744.17429824962 -1 -366723.5167455785 1 185707.30643894037 1 261656.4758330462 -1 -328053.5594883441 -1 -338337.0803597983 -1 -340414.1140769054 1 283797.21451965877 1 187403.02848179662 -1 -358535.7484933103 -1 -329565.80742449587 1 229816.2153866072 1 232625.76376026217 1 185917.68445664117 -1 -362273.0117791541 1 293394.8278454872 -1 -82098.10500104654 1 -302419.5606714054 1 286980.83040303166 1 228304.23466456519 1 247420.12982347916 -1 -332375.3672127241 1 263758.1086251759 -1 -338337.0039837575 1 -295360.6553627137 -1 -73326.08601051169 1 -365270.21142067923 1 93339.67187856269 -1 -338551.6456700267 1 233184.0646438537 1 217350.71791684633 1 220283.839362889 -1 -353286.47347144 1 230899.1146228491 -1 -71396.79458177675 -1 273082.7784993723
8 1 0.0 -1 110766.80030991235 -1 324960.40483247937 -1 304397.39105793176 -1 278743.18048304 1 -371274.25645970844 1 -413308.4790621861 -1 317700.6521486148 1 -89779.6789035321 1 283812.6715725515 -1 113952.48413001304 1 276561.55246488296 -1 289689.2027191458 -1 287845.3875882948 1 -431995.49012033525 -1 289228.70508247666 -1 332374.68772963673 -1 286874.4323591128 -1 -361815.8608844857 1 -91128.80327151336 1 -409914.1183038699 1 -435148.30863897735 1 -252415.1707348305 -1 321378.2536155159 -1 287218.35088218533 -1 283068.9840414068 -1 311308.4541021385 -1 233588.97705418523 1 -423222.71577778505 -1 286720.11484294385 -1 283465.22160432616 1 -405249.1287663241 1 -391468.33714874537 1 -249417.36031848178 1 -408986.5311844677 -1 290525.7732697915 1 -247597.99571861676 1 -409766.3525932406 -1 285576.8124963363 -1 348466.1700022261 1 -370717.07451258146 -1 278206.3366633414 -1 286874.44062894623 -1 339136.2000435717 -1 235475.88103406315 1 -252998.34780076178 -1 293770.0576720802 1 -393110.2474178373 -1 255193.60182176888 1 -365467.2492053338 -1 277621.9706029787 1 -358577.3919726427 -1 289228.69786587334 1 -398359.4201197572 1 -252784.3236745616 1 -253910.22731708642 -1 300938.3438077137 1 -426745.6835859196 -1 256362.1335473981 -1 276990.00399249967 1 -408039.4308822605 -1 314118.39122243173 1 -438885.53171394323 -1 222381.6357712662 -1 335957.0552339222 1 -395335.45135908196 -1 231368.98028051405 -1 289099.64373947895 1 -442622.78463241656 1 -419270.84399190894 1 -410136.05720502883 -1 285079.46791678795 -1 225590.15532071207 1 -405834.05061345914 1 -436660.4855659101 -1 342503.64332493796 -1 307940.4566853021 -1 227842.08479688573 1 -402096.76689664484 -1 283465.26073862915 1 -89535.31100636286 -1 -367408.471820794 -1 284525.8102988318 -1 344728.93610422505 -1 289812.39173522824 1 -428258.2248501511 -1 287464.0030302796 1 -423008.04111719725 -1 -371561.3870160895 1 -91975.1125198152 -1 -401356.6930368409 -1 109179.16303433088 1 -415748.13580080826 -1 297286.93706490635 -1 277519.6493618224 -1 276715.497306536 1 -408059.32259424706 -1 328637.4485558635 1 -93783.09459240935 1 285576.85240048874
9 1 0.0 1 129415.82681921587 1 329979.9317309376 1 331840.5589643645 1 322450.89642137074 -1 -430300.742107768 -1 -479293.1486889804 1 330194.72604973125 -1 -109356.44356062936 -1 386001.3095055659 1 128864.2371379875 -1 342692.9094111881 1 339556.011633553 1 352661.2905080184 -1 -471819.24523782596 1 342832.787498213 1 329919.66762543685 1 366639.4292841527 1 -435791.44053786155 -1 -106968.29442728157 -1 -483373.3349333224 -1 -471234.790255139 -1 -301101.0875790623 1 330135.05401530326 1 359508.80080456706 1 396469.44247840845 1 331277.0750059131 1 270478.69004089443 -1 -474258.291399263 1 370222.3852693128 1 393128.4065399988 -1 -501131.98640375107 -1 -509774.8357941469 -1 -301840.5506640427 -1 -489920.29481657833 1 332918.0351815406 -1 -303758.4595655068 -1 -486962.84272402216 1 376553.62992536346 1 327324.78239138075 -1 -433480.8336619701 1 325651.3261030012 1 362902.1640526571 1 329206.63293671363 1 268628.32051944325 -1 -294209.7176423354 1 332425.04608250014 -1 -507679.47256190976 1 328799.5057707322 -1 -435705.5553573806 1 328804.2335439676 -1 -436290.2451273476 1 346570.05378293875 -1 -505454.0982611714 -1 -297732.96701746434 -1 -291384.323657331 1 332118.78521547554 -1 -474043.98570606846 1 326230.7639950323 1 335646.8139361467 -1 -496447.7415170293 1 330349.73862487724 -1 -467497.4663274467 1 274220.4427632918 1 329764.76162839326 -1 -506167.40300182527 1 271995.9667685523 1 350178.2731578734 -1 -467497.44574459095 -1 -477780.9666160451 -1 -479858.00033315225 1 379793.5588471442 1 273691.6888114086 -1 -497979.634749557 -1 -469009.69368074264 1 328836.8027167508 1 331646.3510904058 1 272206.3447862531 -1 -501716.8980354009 1 389391.1721729727 -1 -112849.34916478916 1 -433909.5044715117 1 382977.17473051714 1 327324.82199470885 1 335941.9271483064 -1 -471819.2534689709 1 356017.17945133225 -1 -477780.8902400043 1 -426850.59916282 -1 -104077.33017425433 1 -504714.09767692606 1 131565.4630449635 -1 -477995.5319262735 1 332204.65197399724 1 332439.18580414035 1 339109.5807515121 -1 -492730.35972768674 1 329919.7019529927 -1 -102148.0387455194 -1 372816.39632818685
10 1 0.0 -1 148992.59147631313 -1 427005.2351652811 -1 406442.2213907335 -1 397568.92187166313 1 -502764.2002598148 1 -552752.3653184328 -1 419745.4824814166 1 -120530.92306727474 1 379809.01590003696 -1 152178.27529641383 1 357670.3168242662 -1 387197.66854796023 -1 383841.7319157802 1 -571439.3763765821 -1 385225.0494099621 -1 434419.5180624386 -1 382870.7766865982 -1 -493305.804684592 1 -121880.04743525601 1 -549358.0045601167 1 -574592.1948952242 1 -344752.3170697588 -1 423423.0839483177 -1 383214.6952096707 -1 379065.32836889225 -1 413353.28443494026 -1 319877.6373837972 1 -562666.6020340319 -1 382716.45917042927 -1 379461.56593181164 1 -544693.0150225708 1 -530912.2234049921 1 -341754.5066534101 1 -548430.4174407144 -1 391058.4821012642 1 -339935.14205354505 1 -549210.2388494874 -1 381573.1568238217 -1 453535.24333768606 1 -502207.01831268775 -1 397032.07805196446 -1 382870.78495643166 -1 441181.0303763735 -1 321764.54136367515 1 -345335.49413569004 -1 395814.88800488185 1 -532554.1336740842 -1 389681.4677143792 1 -496957.1930054401 -1 385948.92198628554 1 -490067.335772749 -1 385225.04219335876 1 -537803.306376004 1 -345121.4700094899 1 -346247.37365201476 -1 402983.17414051545 1 -566189.5698421664 -1 393874.24244266655 -1 361123.0113545412 1 -547483.3171385073 -1 416163.22155523347 1 -578329.41797019 -1 308670.2961008782 -1 438001.88556672406 1 -534779.3376153287 -1 317657.64061012596 -1 385095.9880669643 1 -582066.6708886634 1 -558714.7302481558 1 -549579.9434612757 -1 381075.8122442734 -1 311878.81565032405 1 -545277.9368697059 1 -576104.371822157 -1 444548.4736577398 -1 409985.2870181039 -1 314130.74512649764 1 -541540.6531528916 -1 379461.60506611463 1 -120286.55517010548 -1 -498898.4156209003 -1 380522.15462631726 -1 449798.00943968503 -1 388832.9790653718 1 -567702.1111063979 -1 383460.347357765 1 -562451.927373444 -1 -503051.33081619587 1 -122726.35668355784 -1 -540800.5792930877 -1 147404.95420073168 1 -555192.022057055 -1 399331.767397708 -1 363164.778225193 -1 359336.3831672484 1 -547503.2088504938 -1 430682.2788886653 1 -124534.338756152 1 381573.19672797417
11 1 0.0 1 167641.61798561667 1 432024.76206373936 1 433885.38929716626 1 409522.0862820831 -1 -561790.6859078744 -1 -618737.0349452271 1 432239.55638253305 -1 -140107.687724372 -1 489558.26133969676 1 167090.0283043883 -1 431276.2207732295 1 443112.9634676838 1 456218.24234214926 -1 -611263.1314940727 1 446389.7393323438 1 431964.4979582387 1 470196.3811182835 1 -567281.3843379678 -1 -137719.5385910242 -1 -622817.2211895692 -1 -610678.6765113858 -1 -393438.2339139906 1 432179.88434810506 1 463065.75263869786 1 500026.3943125393 1 433321.90533871483 1 356767.3503705064 -1 -613702.1776555098 1 473779.3371034437 1 496685.35837412963 -1 -640575.8726599978 -1 -649218.7220503937 -1 -394177.696998971 -1 -629364.1810728251 1 437987.1085170005 -1 -396095.60590043507 -1 -626406.7289802689 1 480110.58175949426 1 432393.85572684073 -1 -564970.7774620764 1 412722.5159637135 1 466459.1158867879 1 431251.4632695154 1 354916.9808490553 -1 -386546.8639772637 1 437494.11941796 -1 -647123.3588181566 1 415870.6956314446 -1 -567195.499157487 1 418899.6664073382 -1 -567780.188927454 1 450127.0056170696 -1 -644897.9845174183 -1 -390070.1133523927 -1 -383721.46999225934 1 434163.6155482773 -1 -613487.8719623153 1 414814.0753570738 1 427254.3683008463 -1 -635891.6277732761 1 432394.568957679 -1 -606941.3525836936 1 360509.1030929038 1 431809.5919611951 -1 -645611.289258072 1 358284.62709816423 1 453735.2249920042 -1 -606941.3320008378 -1 -617224.8528722919 -1 -619301.8865893991 1 483350.51068127505 1 359980.34914102056 -1 -637423.5210058038 -1 -608453.5799369895 1 430881.6330495527 1 433691.18142320757 1 358495.00511586503 -1 -641160.7842916476 1 492948.1240071035 -1 -143600.59332853177 1 -565399.448271618 1 486534.126564648 1 432393.89533016883 1 441011.00048376626 -1 -611263.1397252177 1 459574.1312854631 -1 -617224.776496251 1 -558340.5429629263 -1 -134828.57433799695 1 -644157.9839331729 1 169791.25421136426 -1 -617439.4181825202 1 434249.4823067989 1 425558.86167016905 1 429205.0136148826 -1 -632174.2459839334 1 431964.5322857945 -1 -132899.28290926205 -1 476373.34816231765
12 1 0.0 -1 187218.38264271396 -1 530476.1264954247 -1 502438.5657182189 -1 484640.1117323755 1 -634254.1440599211 1 -692196.2515746795 -1 523216.3738115602 1 -151282.16723101737 1 483365.9677341678 -1 190404.06646281463 1 473471.8152102312 -1 489242.49888076197 -1 487398.6837499111 1 -710883.2626328288 -1 488782.0012440929 -1 537890.4093925823 -1 486427.728520729 -1 -624795.7484846984 1 -152631.29159899865 1 -688801.8908163635 1 -714036.081151471 1 -437089.46340468706 -1 526893.9752784614 -1 486771.6470438015 -1 482622.2802030231 -1 509349.6287624257 -1 406166.2977134092 1 -702110.4882902786 -1 486273.4110045601 -1 483018.5177659425 1 -684136.9012788176 1 -670356.109661239 1 -434091.6529883384 1 -687874.3036969613 -1 491591.19093273685 1 -432272.28838847333 1 -688654.1251057342 -1 485130.1086579525 -1 519633.39965453884 1 -633696.962112794 -1 484103.2679126768 -1 486427.73679056246 -1 546164.0432078462 -1 408053.2016932871 1 -437672.6404706183 -1 494835.4753350254 1 -671998.019930331 -1 479776.9005777498 1 -628447.1368055465 -1 479068.59785231436 1 -621557.2795728553 -1 488781.99402748956 1 -677247.1926322508 1 -437458.61634441826 1 -438584.5199869431 -1 498979.51846800087 1 -705633.4560984132 -1 482457.55380470806 -1 479948.75274316425 1 -686927.203394754 -1 512159.5658827189 1 -717773.3042264369 -1 394958.9564304902 -1 541472.7768968677 1 -674223.2238715756 -1 403946.3009397379 -1 488652.9399010951 1 -721510.5571449102 1 -698158.6165044026 1 -689023.8297175225 -1 484632.76407840423 -1 398167.475979936 1 -684721.8231259527 1 -715548.2580784038 -1 549531.4864892126 -1 505981.6313455893 -1 400419.40545610955 1 -680984.5394091383 -1 483018.5569002454 1 -151037.7993338481 -1 -630388.3594210066 -1 484079.1064604481 -1 515896.16575653787 -1 490877.8093981735 1 -707145.9973626448 -1 487017.2991918959 1 -701895.8136296907 -1 -634541.2746163022 1 -153477.60084730046 -1 -680244.4655493345 -1 185630.74536713245 1 -694635.9083133017 -1 495328.1117251934 -1 481990.51961381605 -1 478162.1245558715 1 -686947.0951067405 -1 534153.1702188089 1 -155285.58291989466 1 485130.14856210497
13 1 0.0 1 205867.4091520175 1 528021.1063912248 1 529881.7336246517 1 519275.09866273176 -1 -693280.6297079807 -1 -758180.9212014738 1 528235.9007100185 -1 -170858.93188811463 -1 588578.8486698404 1 205315.8194707891 -1 547077.7191591945 1 539109.3077951692 1 552214.5866696347 -1 -750707.0177503194 1 542386.0836598292 1 527960.8422857242 1 566192.7254457689 1 -698771.3281380743 -1 -168470.78275476684 -1 -762261.107445816 -1 -750122.5627676327 -1 -485775.3802489189 1 528176.2286755906 1 559062.0969661833 1 599046.9816426829 1 529318.2496662003 1 443056.0107001184 -1 -753146.0639117565 1 569775.6814309291 1 595705.9457042733 -1 -780019.7589162446 -1 -788662.6083066405 -1 -486514.8433338993 -1 -768808.0673290719 1 533983.4528444859 -1 -488432.75223536335 -1 -765850.6152365158 1 576106.9260869797 1 528390.2000543262 -1 -696460.7212621827 1 523987.6498456912 1 562455.4602142733 1 528759.92909833 1 441205.64117866725 -1 -478884.01031219197 1 533490.4637454454 -1 -786567.2450744035 1 542170.9840227258 -1 -698685.4429575932 1 545199.9547986195 -1 -699270.1327275602 1 546123.349944555 -1 -784341.8707736651 -1 -482407.259687321 -1 -476058.6163271877 1 530159.9598757627 -1 -752931.7582185621 1 533639.8167456969 1 538605.5626868112 -1 -775335.5140295228 1 528390.9132851644 -1 -746385.2388399404 1 446797.76342251577 1 527805.9362886805 -1 -785055.1755143189 1 444573.28742777614 1 549731.5693194896 -1 -746385.2182570846 -1 -756668.7391285388 -1 -758745.7728456459 1 580858.9765100896 1 446269.00947063253 -1 -776867.4072620507 -1 -747897.4661932363 1 528390.0988783673 1 529687.5257506929 1 444783.66544547695 -1 -780604.6705478943 1 591968.711337247 -1 -174351.8374922744 1 -696889.3920717243 1 585554.7138947917 1 528390.2396576543 1 537007.3448112516 -1 -750707.0259814645 1 555570.4756129485 -1 -756668.6627524977 1 -689830.4867630327 -1 -165579.8185017396 1 -783601.8701894197 1 208017.04537776503 -1 -756883.3044387669 1 530245.8266342843 1 536910.0560561339 1 548030.7550035056 -1 -771618.1322401802 1 527960.8766132799 -1 -163650.5270730047 -1 572369.6924898031
14 1 0.0 -1 225444.17380911479 -1 644531.8683348718 -1 609019.760555008 -1 594393.1241130241 1 -765744.0878600274 1 -831640.1378309262 -1 637272.1156510074 1 -182033.41139476 1 582386.5550643114 -1 228629.85762921543 1 562768.1570709436 -1 591287.3292135637 -1 583395.0280773966 1 -850327.1488890755 -1 589314.7100755655 -1 651946.1512320295 -1 582424.0728482144 -1 -756285.6922848048 1 -183382.5357627413 1 -828245.7770726103 1 -853479.9674077178 1 -529426.6097396153 -1 640949.7171179086 -1 582767.9913712869 -1 581642.8675331667 -1 615930.8235992147 -1 492454.95804302115 1 -841554.3745465253 -1 582269.7553320455 -1 582039.1050960862 1 -823580.7875350644 1 -809799.9959174858 1 -526428.7993232666 1 -827318.1899532081 -1 596660.2642681967 1 -524609.4347234017 1 -828098.011361981 -1 581126.4529854379 -1 629951.867992657 1 -765186.9059129003 -1 595368.4017946546 -1 582424.0811180479 -1 619109.7765326735 -1 494341.8620228991 1 -530009.7868055466 -1 601416.6701718144 1 -811441.9061865779 -1 568360.2119397912 1 -759937.0806056528 -1 566139.7877130267 1 -753047.2233729616 -1 587802.5813576331 1 -816691.0788884977 1 -529795.7626793466 1 -530921.6663218715 -1 605560.7133047899 1 -845077.34235466 -1 575577.2296707368 -1 570044.1856065348 1 -826371.0896510007 -1 622478.0342208369 1 -857217.1904826837 -1 481247.61676010216 -1 655528.5187363148 1 -813667.1101278224 -1 490234.9612693498 -1 584649.2842285805 1 -860954.443401157 1 -837602.5027606494 1 -828467.7159737693 -1 582141.2299072187 -1 484456.136309548 1 -824165.7093821996 1 -854992.1443346506 -1 633689.0403180271 -1 612562.8261823782 -1 486708.06578572147 1 -820428.425665385 -1 582039.144230389 1 -181789.04349759073 -1 -761878.3032211129 -1 583099.6937905918 -1 626214.634094656 -1 594434.7612323043 1 -846589.8836188916 -1 583013.6435193813 1 -841339.6998859374 -1 -766031.2184164086 1 -184228.8450110431 -1 -819688.3518055814 -1 223856.53653353322 1 -834079.7945695485 -1 601909.3065619824 -1 573598.0739785157 -1 559983.9194139256 1 -826390.9813629872 -1 648208.9120582561 1 -186036.8270836373 1 581126.4928895904
15 1 0.0 1 244093.20031841833 1 634602.3012280138 1 636462.9284614407 1 614619.9265287605 -1 -824770.573508087 -1 -897624.8074577205 1 634817.0955468075 -1 -201610.17605185727 -1 672650.3419946677 1 243541.6106371899 -1 632636.7875185779 1 644178.3811306291 1 651235.1739997783 -1 -890150.9040065662 1 645943.03549396 1 634542.0371225133 1 668950.5862772416 1 -830261.2719381807 -1 -199222.02691850948 -1 -901704.9937020629 -1 -889566.4490238795 -1 -578112.5265838471 1 634757.4235123796 1 661819.957797656 1 690593.0219701683 1 635899.4445029893 1 529344.6710297304 -1 -892589.9501680032 1 676270.8157637308 1 687251.9860317587 -1 -919463.6451724914 -1 -928106.4945628874 -1 -578851.9896688275 -1 -908251.9535853188 1 639052.5261799457 -1 -580769.8985702917 -1 -905294.5014927626 1 697551.1544250977 1 634971.3948911153 -1 -827950.665062289 1 610345.8092077327 1 665213.321045746 1 635341.123935119 1 527494.3015082792 -1 -571221.1566471203 1 640071.6585822344 -1 -926011.1313306503 1 630754.2953847672 -1 -830175.3867576995 1 632271.1446593319 -1 -830760.0765276665 1 648168.1802773566 -1 -923785.757029912 -1 -574744.4060222494 -1 -568395.762662116 1 636741.1547125517 -1 -892375.6444748089 1 626759.4926117257 1 628700.9955501818 -1 -914779.4002857695 1 634972.1081219533 -1 -885829.1250961872 1 533086.4237521278 1 634387.1311254696 -1 -924499.0617705657 1 530861.947757388 1 648752.1566496332 -1 -885829.1045133314 -1 -896112.6253847856 -1 -898189.6591018927 1 679879.5638402331 1 532557.6698002445 -1 -916311.2935182975 -1 -887341.3524494831 1 634971.2937151564 1 636268.7205874819 1 531072.3257750889 -1 -920048.556804141 1 683514.7516647326 -1 -205103.08165601705 1 -828379.3358718306 1 654677.1132143026 1 634971.4344944434 1 642076.4181467115 -1 -890150.9122377114 1 658328.3364444212 -1 -896112.5490087444 1 -821320.4305631391 -1 -196331.06266548223 1 -923045.7564456665 1 246242.8365441658 -1 -896327.1906950136 1 636827.0214710733 1 628517.6104208336 1 633589.8233628889 -1 -911062.0184964269 1 634542.071450069 -1 -194401.77123674733 -1 693813.9208279212
16 1 0.0 -1 263669.9649755156 -1 740528.2126623574 -1 705016.1048824934 -1 686000.6784777237 1 -897234.0316601337 1 -971084.0240871729 -1 733268.4599784928 1 -212784.65555850265 1 681407.142394455 -1 266855.64879561623 1 681593.8984595668 -1 690307.9165437073 -1 682415.6154075402 1 -989771.0351453222 -1 688335.297405709 -1 747942.495559515 -1 681444.660178358 -1 -887775.6360849112 1 -214133.77992648393 1 -967689.6633288572 1 -992923.8536639647 1 -621763.7560745436 -1 736946.0614453941 -1 681788.5787014306 -1 680663.4548633103 -1 711927.1679267001 -1 578743.6183726331 1 -980998.260802772 -1 681290.342662189 -1 681059.6924262297 1 -963024.6737913112 1 -949243.8821737326 1 -618765.9456581948 1 -966762.0762094549 -1 696393.8820970111 1 -616946.58105833 1 -967541.8976182279 -1 680147.0403155815 -1 725948.2123201424 1 -896676.8497130066 -1 685463.8346580251 -1 681444.6684481915 -1 715106.1208601589 -1 580630.5223525111 1 -622346.9331404748 -1 693675.7409979707 1 -950885.7924428247 -1 687185.9533284142 1 -891427.0244057591 -1 684965.5291016499 1 -884537.1671730679 -1 686823.1686877767 1 -956134.9651447445 1 -622132.909014275 1 -623258.8126567997 -1 701557.0576322753 1 -984521.2286109069 -1 694402.97105936 -1 688869.926995158 1 -965814.9759072474 -1 718474.3785483224 1 -996661.0767389305 -1 567536.2770897142 -1 751524.8630638004 1 -953110.9963840692 -1 576523.6215989616 -1 683669.8715587241 1 -1.0003983296574039e6 1 -977046.3890168963 1 -967911.6022300161 -1 681161.8172373623 -1 570744.79663916 1 -963609.5956384464 1 -994436.0305908974 -1 729685.3846455127 -1 708559.1705098636 -1 572996.7261153334 1 -959872.3119216317 -1 681059.7315605327 1 -212540.28766133336 -1 -893368.2470212192 -1 682120.2811207353 -1 722210.9784221414 -1 691943.2270611188 1 -986033.7698751384 -1 682034.2308495248 1 -980783.5861421841 -1 -897521.162216515 1 -214980.08917478574 -1 -959132.2380618282 -1 262082.327699934 1 -973523.6808257952 -1 697905.6508894678 -1 692423.8153671387 -1 678809.6608025488 1 -965834.8676192339 -1 744205.2563857415 1 -216788.07124737994 1 680147.0802197341
17 1 0.0 1 282318.99148481915 1 730598.6455554994 1 732459.2727889261 1 721975.6659014346 -1 -956260.5173081933 -1 -1.0370686937139672e6 1 730813.4398742929 -1 -232361.4202155999 -1 780743.6583327857 1 281767.4018035907 -1 736341.3138939101 1 743198.9684607727 1 757816.3688365674 -1 -1.0295947902628129e6 1 746475.7443254326 1 730538.3814499987 1 777043.9026153596 1 -961751.2157382871 -1 -229973.27108225212 -1 -1.0411488799583097e6 -1 -1.0290103352801263e6 -1 -670449.6729187754 1 730753.7678398651 1 768401.152634445 1 798686.3383082865 1 731895.7888304747 1 615633.3313593423 -1 -1.0320338364242499e6 1 784364.1321018488 1 795345.3023698768 -1 -1.0589075314287383e6 -1 -1.0675503808191342e6 -1 -671189.1360037557 -1 -1.0476958398415656e6 1 735048.8705074311 -1 -673107.04490522 -1 -1.0447383877490094e6 1 805644.4707632158 1 730967.7392186007 -1 -959440.6088623953 1 725176.095583065 1 773306.637383864 1 731337.4682626044 1 613782.9618378911 -1 -663558.3029820485 1 737580.1244110488 -1 -1.0654550175868971e6 1 717911.5457494669 -1 -961665.3305578058 1 728415.0635280189 -1 -962250.0203277728 1 750213.0106101584 -1 -1.0632296432861588e6 -1 -667081.5523571777 -1 -660732.9089970442 1 732737.4990400372 -1 -1.0318195307310558e6 1 707868.2569711091 1 714346.1244135525 -1 -1.0542232865420163e6 1 730968.4524494387 -1 -1.025273011352434e6 1 619375.0840817398 1 730383.4754529551 -1 -1.0639429480268126e6 1 617150.6080869999 1 755333.3514864221 -1 -1.0252729907695783e6 -1 -1.0355565116410324e6 -1 -1.0376335453581396e6 1 787972.8801783512 1 618846.3301298565 -1 -1.0557551797745442e6 -1 -1.02678523870573e6 1 730967.6380426419 1 732265.0649149673 1 617360.9861047007 -1 -1.0594924430603879e6 1 791608.0680028507 -1 -235854.3258197597 1 -959869.2796719369 1 761258.3080510916 1 730967.7788219288 1 741097.0054768551 -1 -1.0295947984939582e6 1 764909.5312812101 -1 -1.0355564352649911e6 1 -952810.3743632456 -1 -227082.30682922486 1 -1.0624896427019134e6 1 284468.62771056656 -1 -1.0357710769512603e6 1 732823.3657985587 1 711138.496281546 1 752415.564751512 -1 -1.0505059047526736e6 1 730538.4157775544 -1 -225153.01540048997 -1 801907.2371660394
18 1 0.0 -1 301895.75614191644 -1 839548.799992501 -1 804036.6922126369 -1 782144.5973464107 1 -1.02872397546024e6 1 -1.1105279103434198e6 -1 832289.0473086365 1 -243535.8997222453 1 789500.4587325731 -1 305081.43996201706 1 759592.3593123046 -1 790840.6253751799 -1 788996.8102443293 1 -1.129214921401569e6 -1 790380.1277385107 -1 846963.0828896586 -1 789537.976516476 -1 -1.0192655798850176e6 1 -244885.02409022657 1 -1.107133549585104e6 1 -1.1323677399202115e6 1 -714100.9024094718 -1 835966.6487755376 -1 788369.7735382196 -1 788756.7712014285 -1 810947.7552568438 -1 665032.2787022451 1 -1.1204421470590187e6 -1 789383.6590003071 -1 789153.0087643478 1 -1.102468560047558e6 1 -1.0886877684299794e6 1 -711103.0919931231 1 -1.1062059624657016e6 -1 795414.4694271546 1 -709283.7273932584 1 -1.1069857838744747e6 -1 788240.3566536995 -1 824968.7996502861 1 -1.0281667935131129e6 -1 781607.753526712 -1 789537.9847863095 -1 814126.7081903026 -1 666919.182682123 1 -714684.0794754031 -1 792696.3283281142 1 -1.0903296786990715e6 -1 781817.750695772 1 -1.0229169682058654e6 -1 781109.4479703369 1 -1.0160271109731742e6 -1 790380.1205219075 1 -1.0955788514009914e6 1 -714470.0553492033 1 -715595.9589917279 -1 800577.6449624189 1 -1.1239651148671536e6 -1 782986.2824214015 -1 781989.6028611866 1 -1.1052588621634943e6 -1 817494.9658784659 1 -1.1361049629951774e6 -1 653824.9374193262 -1 850545.450393944 1 -1.0925548826403162e6 -1 662812.2819285735 -1 790251.066395513 1 -1.1398422159136506e6 1 -1.116490275273143e6 1 -1.107355488486263e6 -1 789255.1335754803 -1 657033.456968772 1 -1.103053481894693e6 1 -1.1338799168471443e6 -1 828705.9719756563 -1 807579.7578400072 -1 659285.3864449452 1 -1.0993161981778785e6 -1 789153.0478986509 1 -243291.531825076 -1 -1.0248581908213255e6 -1 788701.4759575244 -1 821231.5657522851 -1 792475.9358925914 1 -1.1254776561313851e6 -1 788615.4256863138 1 -1.1202274723984308e6 -1 -1.0290111060166215e6 1 -245731.33333852838 -1 -1.098576124318075e6 -1 300308.1188663348 1 -1.1129675670820419e6 -1 796926.2382196113 -1 782519.2482305092 -1 764368.729161932 1 -1.1052787538754807e6 -1 843225.8437158852 1 -247539.31541112257 1 788240.3965578523
19 1 0.0 1 320544.78265122 1 829619.232885643 1 831479.8601190697 1 833326.8602873996 -1 -1.0877504611082997e6 -1 -1.176512579970214e6 1 829834.0272044366 -1 -263112.6643793425 -1 861790.9086549549 1 319993.19296999153 -1 833198.2632612679 1 840707.4342895872 1 879973.6276733564 -1 -1.1690386765190596e6 1 843984.210154247 1 829558.9687801424 1 858091.1529375287 1 -1.0932411595383934e6 -1 -260724.51524599476 -1 -1.1805927662145565e6 -1 -1.168454221536373e6 -1 -762786.8192537036 1 829774.3551700086 1 894295.6849725632 1 883470.8621317848 1 830916.3761606184 1 701921.9916889543 -1 -1.1714777226804968e6 1 865411.3824240179 1 876392.5526920458 -1 -1.198351417684985e6 -1 -1.206994267075381e6 -1 -763526.282338684 -1 -1.1871397260978122e6 1 834069.4578375746 -1 -765444.1912401484 -1 -1.1841822740052561e6 1 901640.8150907012 1 829988.3265487443 -1 -1.0909305526625016e6 1 844001.836971688 1 854353.8877060331 1 830358.0555927481 1 700071.6221675031 -1 -755895.4493169767 1 835088.5902398633 -1 -1.204898903843144e6 1 840474.560639419 -1 -1.0931552743579121e6 1 847240.804916642 -1 -1.0937399641278791e6 1 847721.4764389729 -1 -1.2026735295424056e6 -1 -759418.6986921061 -1 -753070.0553319724 1 831758.0863701808 -1 -1.1712634169873025e6 1 826693.9983597322 1 836909.1393035045 -1 -1.1936671727982631e6 1 829989.0397795823 -1 -1.1647168976086809e6 1 705663.7444113517 1 829404.0627830988 -1 -1.2033868342830595e6 1 703439.2684166117 1 851329.6958139075 -1 -1.164716877025825e6 -1 -1.1750003978972791e6 -1 -1.1770774316143864e6 1 869020.1305005202 1 705134.9904594684 -1 -1.195199066030791e6 -1 -1.166229124961977e6 1 829988.2253727856 1 831285.6522451108 1 703649.6464343126 -1 -1.1989363293166347e6 1 872655.3183250199 -1 -266605.5699835023 1 -1.0913592234720432e6 1 887152.8403892097 1 829988.3661520724 1 838605.4713056695 -1 -1.169038684750205e6 1 890804.0636193282 -1 -1.175000321521238e6 1 -1.0843003181633519e6 -1 -257833.5509929675 1 -1.20193352895816e6 1 322694.4188769674 -1 -1.175214963207507e6 1 831843.9531287022 1 829964.237670169 1 834237.3596095662 -1 -1.1899497910089204e6 1 829559.003107698 -1 -255904.2595642326 -1 897903.5814935248
20 1 0.0 -1 340121.54730831727 -1 947642.1163306192 -1 910617.887049426 -1 873039.1212124395 1 -1.1602139192603463e6 1 -1.2499717965996666e6 -1 940382.3636467546 1 -274287.1438859879 1 885496.8030600585 -1 343307.2311284179 1 876647.7976876369 -1 889861.2127053235 -1 884993.1545718147 1 -1.2686588076578157e6 -1 889400.7150686543 -1 955056.3992277768 -1 885534.3208439614 -1 -1.1507555236851238e6 1 -275636.2682539692 1 -1.2465774358413508e6 1 -1.2718116261764583e6 1 -806438.0487444 -1 944059.9651136557 -1 884366.1178657052 -1 884753.115528914 -1 917528.9500936328 -1 751320.9390318571 1 -1.2598860333152656e6 -1 885380.0033277925 -1 885149.3530918332 1 -1.2419124463038049e6 1 -1.2281316546862263e6 1 -803440.2383280513 1 -1.2456498487219482e6 -1 898971.4212612854 1 -801620.8737281867 1 -1.2464296701307213e6 -1 884236.700981185 -1 931549.9944870751 1 -1.1596567373132193e6 -1 861204.3963847661 -1 885534.329113795 -1 920707.9030270916 -1 753207.843011735 1 -807021.2258103313 -1 894741.1586609159 1 -1.2297735649553183e6 -1 864438.6365564844 1 -1.1544069120059717e6 -1 860706.0908283911 1 -1.1475170547732806e6 -1 886376.4648493929 1 -1.2350227376572383e6 1 -806807.2016841316 1 -807933.1053266561 -1 907158.839799208 1 -1.2634090011234004e6 -1 901812.0238100246 -1 866122.6102232281 1 -1.2447027484197412e6 -1 924076.1607152548 1 -1.2755488492514242e6 -1 740113.5977489381 -1 958638.7667320622 1 -1.231998768896563e6 -1 749100.9422581854 -1 886247.4107229984 1 -1.2792861021698974e6 1 -1.2559341615293897e6 1 -1.2467993747425098e6 -1 885251.4779029657 -1 743322.117298384 1 -1.24249736815094e6 1 -1.273323803103391e6 -1 935287.1668124454 -1 914160.9526767961 -1 745574.0467745571 1 -1.2387600844341253e6 -1 885149.3922261363 1 -274042.7759888186 -1 -1.1563481346214318e6 -1 884697.8202850098 -1 927812.7605890741 -1 893008.644724064 1 -1.264921542387632e6 -1 884611.7700137992 1 -1.2596713586546776e6 -1 -1.1605010498167276e6 1 -276482.577502271 -1 -1.2380200105743215e6 -1 338533.9100327356 1 -1.2524114533382887e6 -1 903507.4330564003 -1 892272.2606111577 -1 868700.2255319479 1 -1.2447226401317276e6 -1 951319.1600540034 1 -278290.5595748652 1 884236.7408853377
21 1 0.0 1 358770.5738176208 1 937712.5492237612 1 938061.0549558587 1 927958.6576547574 -1 -1.2192404049084058e6 -1 -1.3159564662264609e6 1 937927.3435425548 -1 -293863.90854308516 -1 960811.4959850984 1 358218.98413639236 -1 927830.0606286258 1 942752.2646223889 1 978994.2150035 -1 -1.3084825627753064e6 1 946029.0404870488 1 937652.2851182605 1 957111.7402676722 1 -1.2247311033384996e6 -1 -291475.7594097374 -1 -1.3200366524708034e6 -1 -1.3078981077926198e6 -1 -855123.9655886318 1 937867.6715081267 1 993316.2723027068 1 982491.4494619285 1 937497.5709974074 1 788210.6520185663 -1 -1.3109216089367436e6 1 964431.9697541615 1 975413.1400221895 -1 -1.337795303941232e6 -1 -1.3464381533316278e6 -1 -855863.4286736122 -1 -1.3265836123540588e6 1 939138.5311730345 -1 -857781.3375750767 -1 -1.323626160261503e6 1 1.0006614024208448e6 1 936569.5213855334 -1 -1.222420496462608e6 1 931073.0268324004 1 953374.4750361767 1 936939.2504295371 1 786360.2824971151 -1 -848232.5956519049 1 938645.5420739941 -1 -1.3443427900993908e6 1 930569.9935027895 -1 -1.2246452181580183e6 1 934311.9947773544 -1 -1.2252299079279855e6 1 946742.0637691164 -1 -1.3421174157986525e6 -1 -851755.8450270344 -1 -845407.2016669007 1 938339.2812069699 -1 -1.3107073032435493e6 1 913765.1882204446 1 928516.6936682042 -1 -1.33311105905451e6 1 936570.2346163712 -1 -1.3041607838649277e6 1 791952.4047409637 1 937497.379121217 -1 -1.3428307205393063e6 1 789727.9287462236 1 950350.2831440511 -1 -1.3041607632820718e6 -1 -1.3144442841535257e6 -1 -1.3165213178706332e6 1 968040.7178306638 1 791423.6507890804 -1 -1.3346429522870379e6 -1 -1.3056730112182237e6 1 936569.4202095746 1 937866.8470818998 1 789938.3067639244 -1 -1.3383802155728815e6 1 971675.9056551635 -1 -297356.8141472449 1 -1.2228491672721496e6 1 986173.4277193533 1 936569.5609888615 1 940650.3016384713 -1 -1.3084825710064517e6 1 989824.6509494717 -1 -1.3144442077774848e6 1 -1.215790261963458e6 -1 -288584.7951567101 1 -1.3413774152144066e6 1 360920.2100433682 -1 -1.3146588494637539e6 1 938425.1479654912 1 912499.0630268941 1 927357.0354755949 -1 -1.3293936772651672e6 1 937652.3194458162 -1 -286655.50372797524 -1 996924.1688236685
22 1 0.0 -1 378347.3384747181 -1 1.0212148196501302e6 -1 1.0066142313769114e6 -1 988127.5890997334 1 -1.2917038630604525e6 1 -1.3894156828559134e6 -1 1.0102177934649365e6 1 -305038.38804973057 1 984517.390390202 -1 381533.0222948187 1 991736.2655749309 -1 988881.800035467 -1 984013.7419019582 1 -1.4081026939140626e6 -1 988421.3023987978 -1 1.0286291025472877e6 -1 984554.908174105 -1 -1.28224546748523e6 1 -306387.5124177119 1 -1.3860213220975976e6 1 -1.4112555124327051e6 1 -898775.1950793283 -1 1.0138953949318375e6 -1 983386.7051958488 -1 983773.7028590577 -1 1.0322116619277637e6 -1 837609.599361469 1 -1.3993299195715124e6 -1 984400.5906579362 -1 984169.9404219768 1 -1.3813563325600517e6 1 -1.367575540942473e6 1 -895777.3846629795 1 -1.3850937349781948e6 -1 992742.6135887707 1 -893958.020063115 1 -1.3858735563869681e6 -1 983257.2883113285 -1 1.049969979822535e6 1 -1.2911466811133258e6 -1 980030.1377733892 -1 984554.9164439386 -1 1.0391278883625516e6 -1 839496.503341347 1 -899358.3721452595 -1 995986.8979910595 1 -1.3692174512115652e6 -1 983264.3779451074 1 -1.2858968558060778e6 -1 979531.8322170142 1 -1.279006998573387e6 -1 985397.0521795364 1 -1.374466623913485e6 1 -899144.34801906 1 -900270.2516615844 -1 1.0031551841266934e6 1 -1.4028528873796472e6 -1 985145.9401694079 -1 984948.3516118512 1 -1.384146634675988e6 -1 1.0424961460507148e6 1 -1.414992735507671e6 -1 826402.2580785501 -1 1.0359487435529022e6 1 -1.3714426551528098e6 -1 835389.6025877972 -1 985267.998053142 1 -1.4187299884261442e6 1 -1.3953780477856363e6 1 -1.3862432609987566e6 -1 984272.0652331093 -1 829610.7776279959 1 -1.3819412544071868e6 1 -1.412767689359638e6 -1 1.0537071521479054e6 -1 1.0176318440069397e6 -1 831862.707104169 1 -1.3782039706903722e6 -1 984169.9795562798 1 -304794.0201525612 -1 -1.2878380784215382e6 -1 983718.4076151535 -1 1.046232745924534e6 -1 990517.1105528786 1 -1.4043654286438788e6 -1 983632.3573439427 1 -1.3991152449109245e6 -1 -1.2919909936168338e6 1 -307233.82166601357 -1 -1.377463896830568e6 -1 376759.70119913644 1 -1.3918553395945355e6 -1 999503.7773838857 -1 987617.0884771865 -1 995000.5139232291 1 -1.3841665263879744e6 -1 1.0248918633735143e6 1 -309041.80373860785 1 983257.3282154814
23 1 0.0 1 396996.36498402164 1 1.0337088935512466e6 1 1.0340573992833442e6 1 1.015115908019457e6 -1 -1.350730348708512e6 -1 -1.4554003524827077e6 1 1.0339236878700402e6 -1 -324615.1527068278 -1 1.0658805693205583e6 1 396444.7753027932 -1 1.0104509464893382e6 1 1.0417728519525324e6 1 1.08406328833896e6 -1 -1.4479264490315532e6 1 1.0450496278171923e6 1 1.033648629445746e6 1 1.062180813603132e6 1 -1.3562210471386057e6 -1 -322227.0035734801 -1 -1.4594805387270502e6 -1 -1.4473419940488667e6 -1 -947461.11192356 1 1.0338640158356121e6 1 1.0983853456381669e6 1 1.0875605227973885e6 1 1.033493915324893e6 1 874499.3123481782 -1 -1.4503654951929904e6 1 1.0695010430896215e6 1 1.0804822133576495e6 -1 -1.4772391901974787e6 -1 -1.4858820395878747e6 -1 -948200.5750085404 -1 -1.4660274986103054e6 1 1.0366469970018489e6 -1 -950118.4839100051 -1 -1.4630700465177498e6 1 1.1072425972576337e6 1 1.0325658657130188e6 -1 -1.3539104402627144e6 1 1.0498987682210235e6 1 1.0584435483716368e6 1 1.0329355947570226e6 1 872648.942826727 -1 -940569.7419868332 1 1.0346418864014795e6 -1 -1.4837866763556376e6 1 1.0463714918887544e6 -1 -1.3561351619581245e6 1 1.0531377361659775e6 -1 -1.356719851728092e6 1 1.0487868941019182e6 -1 -1.4815613020548993e6 -1 -944092.9913619627 -1 -937744.3480018289 1 1.0343356255344553e6 -1 -1.4501511894997961e6 1 1.0226330490944477e6 1 1.0261727340382203e6 -1 -1.4725549453107568e6 1 1.0325665789438568e6 -1 -1.4436046701211745e6 1 878241.0650705757 1 1.0334937234487024e6 -1 -1.4822746067955531e6 1 876016.5890758354 1 1.052395113476853e6 -1 -1.4436046495383186e6 -1 -1.4538881704097723e6 -1 -1.45596520412688e6 1 1.0731097911661237e6 1 877712.3111186924 -1 -1.4740868385432847e6 -1 -1.4451168974744705e6 1 1.0325657645370602e6 1 1.0338631914093852e6 1 876226.9670935363 -1 -1.4778241018291283e6 1 1.0767449789906233e6 -1 -328108.0583109875 1 -1.354339111072256e6 1 1.0912425010548134e6 1 1.0325659053163469e6 1 1.0396708889686149e6 -1 -1.4479264572626986e6 1 1.0948937242849318e6 -1 -1.4538880940337316e6 1 -1.3472802057635642e6 -1 -319336.03932045266 1 -1.4808213014706532e6 1 399146.00120976905 -1 -1.4541027357200007e6 1 1.0344214922929766e6 1 1.0183426808982391e6 1 1.0084657998349782e6 -1 -1.468837563521414e6 1 1.0336486637733016e6 -1 -317406.7478917179 -1 1.1035053636604575e6
24 1 0.0 -1 416573.1296411189 -1 1.121747528481603e6 -1 1.107146940208384e6 -1 1.0827593864670913e6 1 -1.4231938068605587e6 1 -1.5288595691121602e6 -1 1.110750502296409e6 1 -335789.6322134732 1 1.089586463725662e6 -1 419758.81346121954 1 1.0818316984383014e6 -1 1.092438751869598e6 -1 1.0890828152374183e6 1 -1.5475465801703094e6 -1 1.0919782542329286e6 -1 1.1291618113787603e6 -1 1.0896239815095647e6 -1 -1.4137354112853361e6 1 -337138.7565814546 1 -1.5254652083538445e6 1 -1.550699398688952e6 1 -991112.3414142565 -1 1.1144281037633102e6 -1 1.0884557785313088e6 -1 1.0888427761945177e6 -1 1.1327443707592364e6 -1 923898.259691081 1 -1.5387738058277592e6 -1 1.089469663993396e6 -1 1.0892390137574368e6 1 -1.5208002188162985e6 1 -1.50701942719872e6 1 -988114.5309979077 1 -1.5245376212344414e6 -1 1.0947874439215725e6 1 -986295.1663980434 1 -1.525317442643215e6 -1 1.0898384831481175e6 -1 1.1505026886540079e6 1 -1.4226366249134322e6 -1 1.0655892061327726e6 -1 1.0896239897793985e6 -1 1.1396605971940244e6 -1 925785.163670959 1 -991695.5184801877 -1 1.0965196068225321e6 1 -1.508661337467812e6 -1 1.0673113248031617e6 1 -1.417386799606184e6 -1 1.0635787790750684e6 1 -1.4104969423734935e6 -1 1.0904661255149962e6 1 -1.513910510169732e6 1 -991481.4943539883 1 -992607.3979965126 -1 1.103687892958166e6 1 -1.542296773635894e6 -1 1.0828019805394239e6 -1 1.0826043919818671e6 1 -1.5235905209322348e6 -1 1.1430288548821874e6 1 -1.5544366217639179e6 -1 912690.9184081621 -1 1.136481452384375e6 1 -1.5108865414090566e6 -1 921678.2629174091 -1 1.088824949887273e6 1 -1.558173874682391e6 1 -1.5348219340418829e6 1 -1.5256871472550035e6 -1 1.0893411385685692e6 -1 915899.4379576079 1 -1.5213851406634336e6 1 -1.5522115756158847e6 -1 1.1542398609793782e6 -1 1.1181645528384123e6 -1 918151.3674337808 1 -1.517647856946619e6 -1 1.0892390528917396e6 1 -335545.2643163038 -1 -1.4193280222216446e6 -1 1.0887874809506135e6 -1 1.1467654547560068e6 -1 1.0940740623870094e6 1 -1.5438093149001256e6 -1 1.0887014306794028e6 1 -1.5385591311671713e6 -1 -1.42348093741694e6 1 -337985.06582975615 -1 -1.5169077830868147e6 -1 414985.49236553727 1 -1.5312992258507824e6 -1 1.1000364862153584e6 -1 1.0822488858445443e6 -1 1.0835838252852706e6 1 -1.5236104126442212e6 -1 1.125424572204987e6 1 -339793.0479023505 1 1.0898385230522703e6
25 1 0.0 1 435222.15615042247 1 1.1342416023827193e6 1 1.1345901081148167e6 1 1.1339416494080801e6 -1 -1.4822202925086182e6 -1 -1.5948442387389545e6 1 1.1344563967015129e6 -1 -355366.39687057043 -1 1.1656141871493729e6 1 434670.566469194 -1 1.1442257818832775e6 1 1.142305560784005e6 1 1.1837969061677745e6 -1 -1.5873703352878e6 1 1.145582336648665e6 1 1.1341813382772186e6 1 1.1619144314319463e6 1 -1.487710990938712e6 -1 -352978.2477372228 -1 -1.598924424983297e6 -1 -1.5867858803051135e6 -1 -1.0397982582584883e6 1 1.1343967246670849e6 1 1.2018562369683105e6 1 1.187294140626203e6 1 1.1340266241563656e6 1 960787.9726777902 -1 -1.5898093814492372e6 1 1.169234660918436e6 1 1.1802158311864638e6 -1 -1.6166830764537256e6 -1 -1.6253259258441215e6 -1 -1.0405377213434686e6 -1 -1.605471384866552e6 1 1.1371797058333217e6 -1 -1.0424556302449334e6 -1 -1.6025139327739966e6 1 1.1546543860678412e6 1 1.1330985745444917e6 -1 -1.4854003840628208e6 1 1.1354578365804069e6 1 1.158177166200451e6 1 1.1334683035884954e6 1 958937.603156339 -1 -1.0329068883217614e6 1 1.1351745952329522e6 -1 -1.6232305626118844e6 1 1.1334426817494668e6 -1 -1.4876251057582307e6 1 1.1371846830240318e6 -1 -1.4882097955281984e6 1 1.1478074814320616e6 -1 -1.621005188311146e6 -1 -1.0364301376968911e6 -1 -1.0300814943367571e6 1 1.1348683343659278e6 -1 -1.589595075756043e6 1 1.1302469699790836e6 1 1.1375239284241851e6 -1 -1.6119988315670036e6 1 1.1330992877753293e6 -1 -1.5830485563774214e6 1 964529.7254001877 1 1.1340264322801752e6 -1 -1.6217184930518e6 1 962305.2494054473 1 1.1910135878202873e6 -1 -1.5830485357945655e6 -1 -1.593332056666019e6 -1 -1.5954090903831269e6 1 1.1728434089949382e6 1 964000.9714483044 -1 -1.6135307247995315e6 -1 -1.5845607837307174e6 1 1.133098473368533e6 1 1.1343959002408579e6 1 962515.6274231481 -1 -1.6172679880853752e6 1 1.1764785968194378e6 -1 -358859.30247473007 1 -1.4858290548723624e6 1 1.194713392384957e6 1 1.1330986141478196e6 1 1.1402035978000876e6 -1 -1.5873703435189454e6 1 1.1983646156150755e6 -1 -1.5933319802899784e6 1 -1.4787701495636704e6 -1 -350087.28348419524 1 -1.6202651877268997e6 1 437371.7923761699 -1 -1.5935466219762475e6 1 1.1349542011244493e6 1 1.1409056957881914e6 1 1.1272915412236012e6 -1 -1.608281449777661e6 1 1.1341813726047743e6 -1 -348157.9920554605 -1 1.1509171524706648e6
26 1 0.0 -1 454798.92080751975 -1 1.2253044803157337e6 -1 1.2107038920425149e6 -1 1.19028724684774e6 1 -1.5546837506606649e6 1 -1.668303455368407e6 -1 1.2143074541305401e6 1 -366540.87637721584 1 1.1855828080531475e6 -1 457984.60462762037 1 1.1592031892963557e6 -1 1.1899472176984122e6 -1 1.1850791595649037e6 1 -1.6869904664265562e6 -1 1.187974598560414e6 -1 1.2327187632128913e6 -1 1.18562032583705e6 -1 -1.5452253550854423e6 1 -367890.0007451973 1 -1.6649090946100913e6 1 -1.6901432849451988e6 1 -1.0834494877491847e6 -1 1.217985055597441e6 -1 1.1844521228587944e6 -1 1.1848391205220032e6 -1 1.2363013225933672e6 -1 1.010186920020693e6 1 -1.678217692084006e6 -1 1.1854660083208815e6 -1 1.1852353580849222e6 1 -1.6602441050725454e6 1 -1.6464633134549668e6 1 -1.080451677332836e6 1 -1.663981507490688e6 -1 1.1968322742543742e6 1 -1.0786323127329717e6 1 -1.6647613288994618e6 -1 1.185834827475603e6 -1 1.257083883490797e6 1 -1.5541265687135386e6 -1 1.1699207025027885e6 -1 1.1856203341068837e6 -1 1.2447296705294843e6 -1 1.0120738240005709e6 1 -1.084032664815116e6 -1 1.200076558656663e6 1 -1.6481052237240588e6 -1 1.1950376741917848e6 1 -1.5488767434062902e6 -1 1.1663981539437554e6 1 -1.5419868861735999e6 -1 1.1864624698424817e6 1 -1.6533543964259787e6 1 -1.0838186406889167e6 1 -1.084944544331441e6 -1 1.2072448447922969e6 1 -1.681740659892141e6 -1 1.201627721928047e6 -1 1.1630001258425796e6 1 -1.6630344071884817e6 -1 1.2496100497189765e6 1 -1.6938805080201647e6 -1 998979.578737774 -1 1.2400384042185058e6 1 -1.6503304276653035e6 -1 1.0079669232470209e6 -1 1.1848212942147583e6 1 -1.697617760938638e6 1 -1.6742658202981295e6 1 -1.6651310335112503e6 -1 1.1853374828960546e6 -1 1.0021880982872199e6 1 -1.6608290269196804e6 1 -1.6916554618721316e6 -1 1.2608210558161673e6 -1 1.2217215046725431e6 -1 1.0044400277633927e6 1 -1.6570917432028658e6 -1 1.185235397219225e6 1 -366296.50848004635 -1 -1.550817966021751e6 -1 1.184783825278099e6 -1 1.2533466495927959e6 -1 1.193094649717153e6 1 -1.6832532011563724e6 -1 1.1846977750068882e6 1 -1.6780030174234181e6 -1 -1.5549708812170462e6 1 -368736.3099934987 -1 -1.6563516693430613e6 -1 453211.2835319381 1 -1.6707431121070292e6 -1 1.2035934380494892e6 -1 1.1611324982039277e6 -1 1.2024095666738935e6 1 -1.663054298900468e6 -1 1.2289815240391179e6 1 -370544.2920660931 1 1.1858348673797557e6
27 1 0.0 1 473447.9473168233 1 1.23779855421685e6 1 1.2381470599489475e6 1 1.2179885962661344e6 -1 -1.6137102363087244e6 -1 -1.7342881249952014e6 1 1.238013348535644e6 -1 -386117.64103431307 -1 1.2676590174821746e6 1 472896.35763559485 -1 1.232809093245319e6 1 1.245862512618136e6 1 1.2858417365005764e6 -1 -1.726814221544047e6 1 1.2476271669814666e6 1 1.2377382901113497e6 1 1.2639592617647483e6 1 -1.619200934738818e6 -1 -383729.4919009655 -1 -1.7383683112395438e6 -1 -1.7262297665613603e6 -1 -1.1321354045934165e6 1 1.2379536765012157e6 1 1.3039010673011125e6 1 1.2893389709590047e6 1 1.2375835759904964e6 1 1.0470766330074022e6 -1 -1.729253267705484e6 1 1.2712794912512377e6 1 1.2822606615192657e6 -1 -1.7561269627099724e6 -1 -1.7647698121003683e6 -1 -1.1328748676783969e6 -1 -1.7449152711227986e6 1 1.2422487791687814e6 -1 -1.1347927765798618e6 -1 -1.7419578190302434e6 1 1.2566992164006429e6 1 1.2396797693812808e6 -1 -1.6168903278629272e6 1 1.2285775124464354e6 1 1.2602219965332528e6 1 1.2385373769239553e6 1 1.045226263485951e6 -1 -1.1252440346566895e6 1 1.2417557900697412e6 -1 -1.7626744488681313e6 1 1.217489628607521e6 -1 -1.6191150495583368e6 1 1.2287922373887314e6 -1 -1.6196997393283048e6 1 1.2498523117648633e6 -1 -1.760449074567393e6 -1 -1.1287672840318193e6 -1 -1.1224186406716856e6 1 1.2384252862000586e6 -1 -1.7290389620122898e6 1 1.2173181598397961e6 1 1.2291314827888848e6 -1 -1.7514427178232505e6 1 1.2396804826121184e6 -1 -1.7224924426336682e6 1 1.0508183857297997e6 1 1.237583384114306e6 -1 -1.7611623793080468e6 1 1.0485939097350591e6 1 1.293058418153089e6 -1 -1.7224924220508123e6 -1 -1.7327759429222655e6 -1 -1.7348529766393737e6 1 1.27488823932774e6 1 1.0502896317779163e6 -1 -1.7529746110557783e6 -1 -1.7240046699869642e6 1 1.239679668205322e6 1 1.2379528520749887e6 1 1.04880428775276e6 -1 -1.756711874341622e6 1 1.2785234271522395e6 -1 -389610.54663847265 1 -1.6173189986724688e6 1 1.2967582227177587e6 1 1.2396798089846086e6 1 1.2437605496342184e6 -1 -1.7268142297751922e6 1 1.3004094459478771e6 -1 -1.7327758665462253e6 1 -1.6102600933637766e6 -1 -380838.5276479378 1 -1.7597090739831463e6 1 475597.5835425707 -1 -1.7329905082324944e6 1 1.23851115295858e6 1 1.231001128651562e6 1 1.2143627310843135e6 -1 -1.7477253360339077e6 1 1.237738324438905e6 -1 -378909.23621920316 -1 1.2529619828034665e6
28 1 0.0 -1 493024.7119739206 -1 1.3399871921498645e6 -1 1.3253866038766457e6 -1 1.2818948012124395e6 1 -1.686173694460771e6 1 -1.807747341624654e6 -1 1.328990165964671e6 1 -397292.1205409585 1 1.2876276383859492e6 -1 496210.3957940212 1 1.2780289306849788e6 -1 1.2919920480312142e6 -1 1.2871239898977056e6 1 -1.826434352682803e6 -1 1.2900194288932157e6 -1 1.3474014750470223e6 -1 1.287665156169852e6 -1 -1.6767152988855485e6 1 -398641.24490894 1 -1.8043529808663381e6 1 -1.8295871712014456e6 1 -1.175786634084113e6 -1 1.3326677674315718e6 -1 1.2864969531915963e6 -1 1.2868839508548048e6 -1 1.350984034427498e6 -1 1.096475580350305e6 1 -1.8176615783402529e6 -1 1.2875108386536832e6 -1 1.287280188417724e6 1 -1.7996879913287922e6 1 -1.7859071997112136e6 1 -1.1727888236677642e6 1 -1.8034253937469346e6 -1 1.2958528615845176e6 1 -1.1709694590679e6 1 -1.8042052151557086e6 -1 1.2878796578084046e6 -1 1.3082329458023333e6 1 -1.685616512513645e6 -1 1.2887464438914114e6 -1 1.2876651644396854e6 -1 1.314565100347666e6 -1 1.098362484330183e6 1 -1.1763698111500442e6 -1 1.2990971459868066e6 1 -1.7875491099803057e6 -1 1.2851331070551553e6 1 -1.6803666872063964e6 -1 1.2852238953323786e6 1 -1.6734768299737063e6 -1 1.2885073001752833e6 1 -1.7927982826822256e6 1 -1.176155787023845e6 1 -1.1772816906663694e6 -1 1.3219275566264277e6 1 -1.8211845461483877e6 -1 1.2886989117887593e6 -1 1.2818258672312028e6 1 -1.8024782934447285e6 -1 1.300759112030513e6 1 -1.8333243942764115e6 -1 1.0852682390673861e6 -1 1.3547211160526366e6 1 -1.7897743139215503e6 -1 1.094255583576633e6 -1 1.28686612454756e6 1 -1.8370616471948847e6 1 -1.813709706554376e6 1 -1.804574919767497e6 -1 1.2873823132288563e6 -1 1.0884767586168319e6 1 -1.8002729131759272e6 1 -1.8310993481283784e6 -1 1.3119701181277037e6 -1 1.336404216506674e6 -1 1.0907286880930047e6 1 -1.7965356294591126e6 -1 1.2872802275520267e6 1 -397047.75264378893 -1 -1.6823079098218575e6 -1 1.2868286556109006e6 -1 1.3044957119043323e6 -1 1.2936273585486256e6 1 -1.8226970874126193e6 -1 1.2867426053396899e6 1 -1.817446903679665e6 -1 -1.6864608250171524e6 1 -399487.5541572413 -1 -1.7957955555993079e6 -1 491437.0746983389 1 -1.810186998363276e6 -1 1.31827614988362e6 -1 1.2799582395925508e6 -1 1.2894807565346058e6 1 -1.8024981851567149e6 -1 1.3436642358732487e6 1 -401295.53622983576 1 1.2878796977125574e6
29 1 0.0 1 511673.7384832241 1 1.3337948985443355e6 1 1.334143404276433e6 1 1.3442888846574156e6 -1 -1.7452001801088306e6 -1 -1.8737320112514482e6 1 1.3340096928631293e6 -1 -416868.8851980557 -1 1.3681917263136473e6 1 511122.1488019957 -1 1.3516348346339422e6 1 1.3418588569456213e6 1 1.3863744453320492e6 -1 -1.8662581078002937e6 1 1.343623511308952e6 1 1.333734634438835e6 1 1.364491970596221e6 1 -1.7506908785389243e6 -1 -414480.7360647082 -1 -1.8778121974957907e6 -1 -1.8656736528176072e6 -1 -1.2244725509283447e6 1 1.333950020828701e6 1 1.4044337761325852e6 1 1.3898716797904775e6 1 1.3335799203179819e6 1 1.133365293337014e6 -1 -1.868697153961731e6 1 1.3718122000827105e6 1 1.3827933703507385e6 -1 -1.8955708489662192e6 -1 -1.9042136983566151e6 -1 -1.225212014013325e6 -1 -1.8843591573790452e6 1 1.3382451234962668e6 -1 -1.22712992291479e6 -1 -1.8814017052864903e6 1 1.3572319252321154e6 1 1.335676113708766e6 -1 -1.7483802716630336e6 1 1.311997489309806e6 1 1.3607547053647253e6 1 1.3345337212514407e6 1 1.131514923815563e6 -1 -1.2175811809916177e6 1 1.3377521343972266e6 -1 -1.902118335124378e6 1 1.3437899169988022e6 -1 -1.750604993358443e6 1 1.3401434317746966e6 -1 -1.7511896831284112e6 1 1.3503850205963359e6 -1 -1.8998929608236398e6 -1 -1.2211044303667475e6 -1 -1.214755787006614e6 1 1.334421630527544e6 -1 -1.8684828482685366e6 1 1.315687230708483e6 1 1.347957224177508e6 -1 -1.8908866040794973e6 1 1.3356768269396038e6 -1 -1.861936328889915e6 1 1.1371070460594117e6 1 1.3335797284417914e6 -1 -1.9006062655642936e6 1 1.134882570064671e6 1 1.3935911269845618e6 -1 -1.861936308307059e6 -1 -1.872219829178512e6 -1 -1.8742968628956205e6 1 1.3754209481592125e6 1 1.1365782921075283e6 -1 -1.8924184973120252e6 -1 -1.863448556243211e6 1 1.3356760125328074e6 1 1.333949196402474e6 1 1.135092948082372e6 -1 -1.8961557605978688e6 1 1.379056135983712e6 -1 -420361.7908022152 1 -1.7488089424725752e6 1 1.3972909315492313e6 1 1.335676153312094e6 1 1.3397568939617039e6 -1 -1.866258116031439e6 1 1.4009421547793497e6 -1 -1.872219752802472e6 1 -1.7417500371638827e6 -1 -411589.7718116804 1 -1.899152960239393e6 1 513823.37470897153 -1 -1.8724343944887412e6 1 1.3345074972860655e6 1 1.349826870040185e6 1 1.3089945284516711e6 -1 -1.8871692222901545e6 1 1.3337346687663905e6 -1 -409660.4803829458 -1 1.353494691634939e6
30 1 0.0 -1 531250.5031403214 -1 1.4450562654853244e6 -1 1.4304556772121056e6 -1 1.3689659910731518e6 1 -1.8176636382608772e6 1 -1.9471912278809007e6 -1 1.4340592393001309e6 1 -428043.3647047011 1 1.388160347217422e6 -1 534436.186960422 1 1.3635879990443622e6 -1 1.395548999865345e6 -1 1.3876566987291784e6 1 -1.96587823893905e6 -1 1.3935763807273465e6 -1 1.4524705483824823e6 -1 1.3881978650013248e6 -1 -1.8082052426856547e6 1 -429392.4890726827 1 -1.943796867122585e6 1 -1.9690310574576925e6 1 -1.2681237804190412e6 -1 1.4377368407670318e6 -1 1.387029662023069e6 -1 1.3874166596862776e6 -1 1.4560531077629582e6 -1 1.1827642406799167e6 1 -1.9571054645964997e6 -1 1.388043547485156e6 -1 1.387812897249197e6 1 -1.939131877585039e6 1 -1.9253510859674604e6 1 -1.2651259700026924e6 1 -1.9428692800031812e6 -1 1.4009219349199776e6 1 -1.2633066054028282e6 1 -1.9436491014119554e6 -1 1.3884123666398772e6 -1 1.4133020191377932e6 1 -1.8171064563137514e6 -1 1.3833782412587693e6 -1 1.388197873271158e6 -1 1.419634173683126e6 -1 1.1846511446597949e6 1 -1.2687069574849724e6 -1 1.4041662193222665e6 1 -1.9269929962365525e6 -1 1.3722042969158676e6 1 -1.8118566310065025e6 -1 1.3753193281957493e6 1 -1.8049667737738127e6 -1 1.390552130508085e6 1 -1.9322421689384724e6 1 -1.2684929333587731e6 1 -1.2696188370012979e6 -1 1.4269966299618876e6 1 -1.9606284324046345e6 -1 1.3833307091561172e6 -1 1.368897057091915e6 1 -1.9419221797009753e6 -1 1.4058281853659728e6 1 -1.9727682805326583e6 -1 1.171556899396998e6 -1 1.4597901893880966e6 1 -1.929218200177797e6 -1 1.1805442439062449e6 -1 1.3873988333790328e6 1 -1.9765055334511315e6 1 -1.9531535928106226e6 1 -1.944018806023744e6 -1 1.3879150220603289e6 -1 1.1747654189464438e6 1 -1.939716799432174e6 1 -1.9705432343846252e6 -1 1.4170391914631636e6 -1 1.4414732898421339e6 -1 1.1770173484226167e6 1 -1.9359795157153595e6 -1 1.3878129363834993e6 1 -427798.9968075315 -1 -1.8137978536219639e6 -1 1.3873613644423732e6 -1 1.4095647852397922e6 -1 1.3986964318840855e6 1 -1.962140973668866e6 -1 1.3872753141711624e6 1 -1.9568907899359118e6 -1 -1.8179507688172585e6 1 -430238.7983209839 -1 -1.9352394418555545e6 -1 529662.8658647398 1 -1.9496308846195228e6 -1 1.42334522321908e6 -1 1.3670294294532633e6 -1 1.3841125539019634e6 1 -1.9419420714129617e6 -1 1.4487333092087086e6 1 -432046.7803935784 1 1.38841240654403e6
31 1 0.0 1 549899.5296496248 1 1.4388639718797954e6 1 1.4392124776118929e6 1 1.4313600745181278e6 -1 -1.8766901239089367e6 -1 -2.013175897507695e6 1 1.4390787661985892e6 -1 -447620.12936179835 -1 1.4641880706411328e6 1 549347.9399683964 -1 1.4371939029933256e6 1 1.445415808779752e6 1 1.4823707896595346e6 -1 -2.0057019940565405e6 1 1.4471804631430828e6 1 1.438803707774295e6 1 1.4604883149237065e6 1 -1.8821808223390304e6 -1 -445231.9802284509 -1 -2.0172560837520375e6 -1 -2.005117539073854e6 -1 -1.316809697263273e6 1 1.439019094164161e6 1 1.5004301204600707e6 1 1.485868024117963e6 1 1.438648993653442e6 1 1.2196539536666258e6 -1 -2.0081410402179777e6 1 1.467808544410196e6 1 1.478789714678224e6 -1 -2.035014735222466e6 -1 -2.043657584612862e6 -1 -1.3175491603482533e6 -1 -2.0238030436352917e6 1 1.4433141968317267e6 -1 -1.3194670692497182e6 -1 -2.020845591542737e6 1 1.4532282695596009e6 1 1.4407451870442259e6 -1 -1.87987021546314e6 1 1.430823230698429e6 1 1.4567510496922105e6 1 1.4396027945869006e6 1 1.217803584145175e6 -1 -1.309918327326546e6 1 1.4428212077326865e6 -1 -2.041562221380625e6 1 1.4308611068595145e6 -1 -1.8820949371585492e6 1 1.4302388646380673e6 -1 -1.8826796269285176e6 1 1.4478934864251504e6 -1 -2.0393368470798866e6 -1 -1.3134415767016758e6 -1 -1.3070929333415425e6 1 1.439490703863004e6 -1 -2.0079267345247834e6 1 1.434512972097106e6 1 1.4350284140382202e6 -1 -2.030330490335744e6 1 1.4407459002750637e6 -1 -2.0013802151461618e6 1 1.2233957063890237e6 1 1.4386488017772513e6 -1 -2.0400501518205404e6 1 1.221171230394283e6 1 1.4895874713120472e6 -1 -2.001380194563306e6 -1 -2.0116637154347587e6 -1 -2.0137407491518673e6 1 1.471417292486698e6 1 1.2228669524371403e6 -1 -2.031862383568272e6 -1 -2.0028924424994579e6 1 1.4407450858682673e6 1 1.439018269737934e6 1 1.221381608411984e6 -1 -2.0355996468541157e6 1 1.4750524803111975e6 -1 -451113.0349659578 1 -1.8802988862726816e6 1 1.4932872758767167e6 1 1.440745226647554e6 1 1.4448259672971638e6 -1 -2.0057020022876859e6 1 1.496938499106835e6 -1 -2.011663639058719e6 1 -1.873239980963989e6 -1 -442341.015975423 1 -2.0385968464956395e6 1 552049.1658753724 -1 -2.011878280744988e6 1 1.4395765706215254e6 1 1.4368980599008976e6 1 1.427820269840294e6 -1 -2.0266131085464014e6 1 1.4388037421018505e6 -1 -440411.72454668843 -1 1.4494910359624245e6
32 1 0.0 -1 569476.2943067221 -1 1.5410526098128099e6 -1 1.526452021539591e6 -1 1.4915290059631038e6 1 -1.9491535820609834e6 1 -2.0866351141371476e6 -1 1.5300555836276165e6 1 -458794.60886844376 1 1.4841566915449074e6 -1 572661.9781268227 1 1.4824137404329854e6 -1 1.4915453441928304e6 -1 1.4836530430566638e6 1 -2.1053221251952965e6 -1 1.489572725054832e6 -1 1.5484668927099677e6 -1 1.4841942093288102e6 -1 -1.9396951864857608e6 1 -460143.7332364254 1 -2.0832407533788318e6 1 -2.1084749437139393e6 1 -1.3604609267539694e6 -1 1.5337331850945172e6 -1 1.4830260063505545e6 -1 1.483413004013763e6 -1 1.5520494520904436e6 -1 1.2690529010095284e6 1 -2.0965493508527465e6 -1 1.4840398918126414e6 -1 1.4838092415766823e6 1 -2.0785757638412858e6 1 -2.0647949722237072e6 1 -1.3574631163376207e6 1 -2.0823131662594278e6 -1 1.496918279247463e6 1 -1.3556437517377564e6 1 -2.0830929876682023e6 -1 1.4844087109673626e6 -1 1.5092983634652784e6 1 -1.9485964001138578e6 -1 1.4984667091460633e6 -1 1.4841942175986432e6 -1 1.5156305180106114e6 -1 1.2709398049894068e6 1 -1.3610441038199007e6 -1 1.500162563649752e6 1 -2.0664368824927993e6 -1 1.4947673118058196e6 1 -1.9433465748066087e6 -1 1.5016196165870307e6 1 -1.936456717573919e6 -1 1.4865484748355704e6 1 -2.0716860551947192e6 1 -1.3608300796937014e6 1 -1.3619559833362263e6 -1 1.522992974289373e6 1 -2.1000723186608814e6 -1 1.4909446300407532e6 -1 1.4877227984805382e6 1 -2.0813660659572221e6 -1 1.5018245296934582e6 1 -2.1122121667889054e6 -1 1.25784555972661e6 -1 1.555786533715582e6 1 -2.068662086434044e6 -1 1.2668329042358568e6 -1 1.4833951777065182e6 1 -2.1159494197073784e6 1 -2.0925974790668692e6 1 -2.0834626922799908e6 -1 1.4839113663878143e6 -1 1.2610540792760558e6 1 -2.079160685688421e6 1 -2.109987120640872e6 -1 1.513035535790649e6 -1 1.5374696341696193e6 -1 1.2633060087522287e6 1 -2.0754234019716063e6 -1 1.4838092807109847e6 1 -458550.2409712741 -1 -1.9452877974220703e6 -1 1.4833577087698586e6 -1 1.5055611295672776e6 -1 1.494692776211571e6 1 -2.1015848599251127e6 -1 1.4832716584986479e6 1 -2.0963346761921586e6 -1 -1.9494407126173647e6 1 -460990.04248472647 -1 -2.074683328111801e6 -1 567888.6570311405 1 -2.0890747708757697e6 -1 1.5193415675465653e6 -1 1.4858551708418864e6 -1 1.5029382952905863e6 1 -2.0813859576692085e6 -1 1.544729653536194e6 1 -462798.02455732104 1 1.4844087508715154e6
33 1 0.0 1 588125.3208160256 1 1.5348603162072808e6 1 1.5352088219393783e6 1 1.5244797503841566e6 -1 -2.008180067709043e6 -1 -2.152619783763942e6 1 1.535075110526075e6 -1 -478371.373525541 -1 1.572281386979251e6 1 587573.7311347972 -1 1.5560196443819487e6 1 1.547460639112554e6 1 1.5904641059976527e6 -1 -2.1451458803127874e6 1 1.5522495364785427e6 1 1.5348000521017804e6 1 1.5685816312618246e6 1 -2.0136707661391366e6 -1 -475983.2243921936 -1 -2.1566999700082843e6 -1 -2.144561425330101e6 -1 -1.4091468435982012e6 1 1.5350154384916464e6 1 1.6085234367981888e6 1 1.593961340456081e6 1 1.5346453379809274e6 1 1.3059426139962375e6 -1 -2.1475849264742243e6 1 1.5759018607483138e6 1 1.586883031016342e6 -1 -2.1744586214787127e6 -1 -2.1831014708691086e6 -1 -1.4098863066831816e6 -1 -2.1632469298915383e6 1 1.5438469056631993e6 -1 -1.4118042155846464e6 -1 -2.160289477798984e6 1 1.5613215858977188e6 1 1.536741531371711e6 -1 -2.0113601592632465e6 1 1.5194065420604704e6 1 1.5648443660303284e6 1 1.535599138914386e6 1 1.304092244474787e6 -1 -1.4022554736614742e6 1 1.5418417950628302e6 -1 -2.1810061076368717e6 1 1.520956539722885e6 -1 -2.0135848809586554e6 1 1.5173100544987798e6 -1 -2.014169570728624e6 1 1.5544746812619395e6 -1 -2.1787807333361334e6 -1 -1.405778723036604e6 -1 -1.399430079676471e6 1 1.5354870481904894e6 -1 -2.14737062078103e6 1 1.527632647963135e6 1 1.529660211405578e6 -1 -2.169774376591991e6 1 1.5382543661038782e6 -1 -2.140824101402409e6 1 1.3096843667186357e6 1 1.5346451461047367e6 -1 -2.1794940380767873e6 1 1.307459890723895e6 1 1.5976807876501654e6 -1 -2.1408240808195528e6 -1 -2.1511076016910053e6 -1 -2.153184635408114e6 1 1.5795106088248158e6 1 1.3091556127667523e6 -1 -2.171306269824519e6 -1 -2.1423363287557047e6 1 1.5367414301957528e6 1 1.5350146140654194e6 1 1.307670268741596e6 -1 -2.1750435331103625e6 1 1.5831457966493154e6 -1 -481864.2791297004 1 -2.011788830072788e6 1 1.6013805922148346e6 1 1.5367415709750394e6 1 1.5468707976299655e6 -1 -2.1451458885439327e6 1 1.605031815444953e6 -1 -2.1511075253149658e6 1 -2.004729924764095e6 -1 -473092.26013916556 1 -2.1780407327518864e6 1 590274.9570417731 -1 -2.151322167001235e6 1 1.5355729149490108e6 1 1.5330419787695846e6 1 1.5133793381996772e6 -1 -2.166056994802648e6 1 1.5348000864293359e6 -1 -471162.9687104311 -1 1.5575843523005424e6
34 1 0.0 -1 607702.0854731229 -1 1.6385610756416244e6 -1 1.6239604873684053e6 -1 1.5846486818291326e6 1 -2.0806435258610896e6 1 -2.2260790003933944e6 -1 1.627564049456431e6 1 -489545.8530321864 1 1.5922500078830256e6 -1 610887.7692932235 1 1.5679728087923687e6 -1 1.5951022960269612e6 -1 1.591746359394782e6 1 -2.2447660114515433e6 -1 1.5961539198916208e6 -1 1.6459753585387822e6 -1 1.5922875256669284e6 -1 -2.071185130285867e6 1 -490894.9774001681 1 -2.2226846396350786e6 1 -2.247918829970186e6 1 -1.4527980730888976e6 -1 1.6312416509233317e6 -1 1.5911193226886727e6 -1 1.5915063203518812e6 -1 1.6495579179192581e6 -1 1.3553415613391402e6 1 -2.2359932371089933e6 -1 1.5921332081507593e6 -1 1.5919025579148005e6 1 -2.218019650097532e6 1 -2.204238858479954e6 1 -1.4498002626725489e6 1 -2.2217570525156744e6 -1 1.5989631095802647e6 1 -1.4479808980726846e6 1 -2.222536873924449e6 -1 1.5925020273054806e6 -1 1.6068068292940927e6 1 -2.0800863439139642e6 -1 1.5870500205081047e6 -1 1.592287533936761e6 -1 1.613138983839426e6 -1 1.3572284653190188e6 1 -1.453381250154829e6 -1 1.6006952724812247e6 1 -2.205880768749046e6 -1 1.5848627446691901e6 1 -2.074836518606715e6 -1 1.5886908064477432e6 1 -2.0679466613740255e6 -1 1.5946417911736886e6 1 -2.211129941450966e6 1 -1.4531672260286296e6 1 -1.4542931296711548e6 -1 1.6205014401181876e6 1 -2.2395162049171277e6 -1 1.5840643059067822e6 -1 1.582354595847896e6 1 -2.220809952213469e6 -1 1.600845117023602e6 1 -2.251656053045152e6 -1 1.344134220056222e6 -1 1.6532949995443965e6 1 -2.208105972690291e6 -1 1.3531215645654688e6 -1 1.5914884940446364e6 1 -2.255393305963625e6 1 -2.232041365323116e6 1 -2.2229065785362376e6 -1 1.5920046827259322e6 -1 1.3473427396056678e6 1 -2.2186045719446675e6 1 -2.249431006897119e6 -1 1.6105440016194636e6 -1 1.6349780999984338e6 -1 1.3495946690818407e6 1 -2.2148672882278534e6 -1 1.5919025970491027e6 1 -489301.4851350167 -1 -2.0767777412221767e6 -1 1.5914510251079765e6 -1 1.6030695953960922e6 -1 1.5982497280457017e6 1 -2.2410287461813595e6 -1 1.5913649748367658e6 1 -2.2357785624484057e6 -1 -2.080930656417471e6 1 -491741.28664846905 -1 -2.214127214368048e6 -1 606114.4481975413 1 -2.2285186571320165e6 -1 1.6168500333753799e6 -1 1.5819990897105734e6 -1 1.5884973636499695e6 1 -2.220829843925455e6 -1 1.6422381193650085e6 1 -493549.2687210637 1 1.5925020672096333e6
35 1 0.0 1 626351.1119824264 1 1.6323687820360954e6 1 1.6327172877681926e6 1 1.6433054917727795e6 -1 -2.1396700115091493e6 -1 -2.2920636700201887e6 1 1.6325835763548894e6 -1 -509122.6176892836 -1 1.6682777313067364e6 1 625799.522301198 -1 1.6415787127413321e6 1 1.6487063784426975e6 1 1.6864604503251382e6 -1 -2.284589766569034e6 1 1.646020728806028e6 1 1.632308517930595e6 1 1.66457797558931e6 1 -2.145160709939243e6 -1 -506734.4685559363 -1 -2.296143856264531e6 -1 -2.284005311586348e6 -1 -1.5014839899331294e6 1 1.632523904320461e6 1 1.7045197811256745e6 1 1.6899576847835665e6 1 1.632153803809742e6 1 1.3922312743258493e6 -1 -2.287028812730471e6 1 1.6718982050757993e6 1 1.6828793753438275e6 -1 -2.313902507734959e6 -1 -2.3225453571253554e6 -1 -1.5022234530181098e6 -1 -2.302690816147785e6 1 1.6413553714920138e6 -1 -1.5041413619195747e6 -1 -2.2997333640552307e6 1 1.6573179302252042e6 1 1.6342499972005254e6 -1 -2.142850103063353e6 1 1.6382322834490936e6 1 1.6608407103578136e6 1 1.6331076047432006e6 1 1.390380904804399e6 -1 -1.4945926199964024e6 1 1.6393502608916447e6 -1 -2.3204499938931186e6 1 1.6397822811115081e6 -1 -2.1450748247587616e6 1 1.6323985223860738e6 -1 -2.1456595145287304e6 1 1.651983147090754e6 -1 -2.3182246195923802e6 -1 -1.4981158693715322e6 -1 -1.4917672260113994e6 1 1.632995514019304e6 -1 -2.2868145070372764e6 1 1.6464583893517582e6 1 1.6484859527942012e6 -1 -2.309218262848238e6 1 1.6357628319326928e6 -1 -2.2802679876586557e6 1 1.3959730270482476e6 1 1.6321536119335513e6 -1 -2.318937924333034e6 1 1.393748551053507e6 1 1.6936771319776508e6 -1 -2.2802679670757996e6 -1 -2.290551487947252e6 -1 -2.292628521664361e6 1 1.6755069531523013e6 1 1.3954442730963642e6 -1 -2.310750156080765e6 -1 -2.2817802150119515e6 1 1.6342498960245673e6 1 1.632523079894234e6 1 1.393958929071208e6 -1 -2.3144874193666093e6 1 1.6791421409768008e6 -1 -512615.52329344297 1 -2.1432787738728942e6 1 1.69737693654232e6 1 1.634250036803854e6 1 1.64437926345878e6 -1 -2.2845897748001795e6 1 1.7010281597724385e6 -1 -2.2905514115712126e6 1 -2.1362198685642015e6 -1 -503843.50430290814 1 -2.317484619008133e6 1 628500.7482081739 -1 -2.2907660532574817e6 1 1.6330813807778254e6 1 1.6518677201582077e6 1 1.6359423530896292e6 -1 -2.305500881058895e6 1 1.6323085522581504e6 -1 -501914.2128741737 -1 1.6535806966280278e6
36 1 0.0 -1 645927.8766395237 -1 1.7481665134810715e6 -1 1.7320538037065233e6 -1 1.6725189626925031e6 1 -2.212133469661196e6 1 -2.365522886649641e6 -1 1.7356573657945492e6 1 -520297.09719592903 1 1.688246352210511e6 -1 649113.5604596243 1 1.6745294571623849e6 -1 1.6926107618557757e6 -1 1.6877427037222674e6 1 -2.38420989770779e6 -1 1.6966866287230933e6 -1 1.7555807963782293e6 -1 1.6882838699944138e6 -1 -2.202675074085973e6 1 -521646.2215639108 1 -2.3621285258913254e6 1 -2.387362716226433e6 1 -1.5451352194238259e6 -1 1.73933496726145e6 -1 1.6871156670161583e6 -1 1.6875026646793666e6 -1 1.7591633557587054e6 -1 1.441630221668752e6 1 -2.37543712336524e6 -1 1.6881295524782448e6 -1 1.687898902242286e6 1 -2.357463536353779e6 1 -2.3436827447362007e6 1 -1.542137409007477e6 1 -2.361200938771921e6 -1 1.7025200614143955e6 1 -1.5403180444076129e6 1 -2.361980760180696e6 -1 1.688498371632966e6 -1 1.7149001456322107e6 1 -2.2115762877140706e6 -1 1.6816818178754626e6 -1 1.6882838782642463e6 -1 1.7212323001775441e6 -1 1.4435171256486308e6 1 -1.545718396489757e6 -1 1.7057643458166847e6 1 -2.345324655005293e6 -1 1.677982420535219e6 1 -2.206326462406821e6 -1 1.6999559403297207e6 1 -2.1994366051741317e6 -1 1.690638135501174e6 1 -2.350573827707213e6 1 -1.5455043723635578e6 1 -1.5466302760060832e6 -1 1.7285947564563055e6 1 -2.378960091173374e6 -1 1.6689103437674944e6 -1 1.6672006337086083e6 1 -2.360253838469716e6 -1 1.7089384333617198e6 1 -2.391099939301399e6 -1 1.430422880385834e6 -1 1.7629004373838438e6 1 -2.3475498589465376e6 -1 1.4394102248950808e6 -1 1.6874848383721218e6 1 -2.394837192219872e6 1 -2.371485251579363e6 1 -2.3623504647924844e6 -1 1.6880010270534176e6 -1 1.4336313999352797e6 1 -2.358048458200914e6 1 -2.3888748931533657e6 -1 1.7186373179575817e6 -1 1.743071416336552e6 -1 1.4358833294114526e6 1 -2.3543111744841e6 -1 1.687898941376588e6 1 -520052.72929875925 -1 -2.208267685022283e6 -1 1.687447369435462e6 -1 1.71116291173421e6 -1 1.6987824368771745e6 1 -2.3804726324376063e6 -1 1.6873613191642512e6 1 -2.3752224487046525e6 -1 -2.2124206002175775e6 1 -522492.5308122116 -1 -2.353571100624295e6 -1 644340.2393639421 1 -2.3679625433882633e6 -1 1.724943349713498e6 -1 1.6653330060699568e6 -1 1.6831291610173273e6 1 -2.360273730181702e6 -1 1.7518435572044556e6 1 -524300.5128848063 1 1.6884984115371187e6
37 1 0.0 1 664576.9031488271 1 1.7419742198755424e6 1 1.7408106041063105e6 1 1.7349130461374791e6 -1 -2.271159955309256e6 -1 -2.4315075562764355e6 1 1.7406768926930076e6 -1 -539873.8618530263 -1 1.765786197135551e6 1 664025.3134675988 -1 1.7331862671060318e6 1 1.7477269657728411e6 1 1.7839689161539527e6 -1 -2.424033652825281e6 1 1.7480655591388296e6 1 1.741913955770042e6 1 1.7620864414181246e6 1 -2.276650653739349e6 -1 -537485.712719679 -1 -2.435587742520778e6 -1 -2.4234491978425947e6 -1 -1.5938211362680576e6 1 1.7406172206585791e6 1 1.802028246954489e6 1 1.787466150612381e6 1 1.7417592416491893e6 1 1.478519934655461e6 -1 -2.426472698986718e6 1 1.7694066709046138e6 1 1.780387841172642e6 -1 -2.453346393991206e6 -1 -2.461989243381602e6 -1 -1.594560599353038e6 -1 -2.442134702404032e6 1 1.7449123233261446e6 -1 -1.596478508254503e6 -1 -2.4391772503114776e6 1 1.7548263960540188e6 1 1.7423433135386433e6 -1 -2.274340046863459e6 1 1.7328640808164515e6 1 1.758349176186628e6 1 1.7412009210813188e6 1 1.476669565134011e6 -1 -1.5869297663313306e6 1 1.7444193342271047e6 -1 -2.4598938801493654e6 1 1.732901956977537e6 -1 -2.2765647685588677e6 1 1.714933347742799e6 -1 -2.2771494583288366e6 1 1.7494916129195685e6 -1 -2.457668505848627e6 -1 -1.5904530157064605e6 -1 -1.5841043723463279e6 1 1.741088830357422e6 -1 -2.4262583932935228e6 1 1.7350417007137996e6 1 1.7370692641562426e6 -1 -2.448662149104485e6 1 1.7438561482708107e6 -1 -2.4197118739149026e6 1 1.4822616873778596e6 1 1.7417590497729986e6 -1 -2.458381810589281e6 1 1.480037211383119e6 1 1.7911855978064653e6 -1 -2.4197118533320464e6 -1 -2.429995374203499e6 -1 -2.432072407920608e6 1 1.7730154189811158e6 1 1.4817329334259762e6 -1 -2.4501940423370115e6 -1 -2.4212241012681983e6 1 1.7423432123626855e6 1 1.7406163962323521e6 1 1.48024758940082e6 -1 -2.453931305622856e6 1 1.7766506068056151e6 -1 -543366.7674571855 1 -2.2747687176730004e6 1 1.7948854023711346e6 1 1.7423433531419719e6 1 1.7464240937915817e6 -1 -2.4240336610564264e6 1 1.798536625601253e6 -1 -2.4299952978274594e6 1 -2.267709812364308e6 -1 -534594.7484666507 1 -2.45692850526438e6 1 666726.5393745747 -1 -2.4302099395137285e6 1 1.7411746971159435e6 1 1.7389389100189202e6 1 1.730574150456987e6 -1 -2.444944767315142e6 1 1.7419139900975975e6 -1 -532665.4570379163 -1 1.7510891624568424e6
38 1 0.0 -1 684153.6678059244 -1 1.8180019432992532e6 -1 1.846736515540654e6 -1 1.7913447040811263e6 1 -2.343623413461303e6 1 -2.504966772905888e6 -1 1.8503400776286803e6 1 -551048.3413596717 1 1.7857548180393255e6 -1 687339.351626025 1 1.7933551985510078e6 -1 1.7938565011859194e6 -1 1.785251169551082e6 1 -2.523653783964037e6 -1 1.7904578210505787e6 -1 1.825416226196411e6 -1 1.7857923358232283e6 -1 -2.3341650178860794e6 1 -552397.4657276535 1 -2.5015724121475723e6 1 -2.5268066024826798e6 1 -1.637472365758754e6 -1 1.8540176790955807e6 -1 1.784624132844973e6 -1 1.7850111305081812e6 -1 1.8289987855768874e6 -1 1.5279188819983636e6 1 -2.514881009621487e6 -1 1.7856380183070593e6 -1 1.7854073680711004e6 1 -2.496907422610026e6 1 -2.4831266309924475e6 1 -1.6344745553424053e6 1 -2.500644825028168e6 -1 1.7985164057418809e6 1 -1.632655190742541e6 1 -2.5014246464369427e6 -1 1.7860068374617805e6 -1 1.8108964899596958e6 1 -2.343066231514177e6 -1 1.8005075592640857e6 -1 1.7857923440930606e6 -1 1.835915012011675e6 -1 1.5298057859782428e6 1 -1.6380555428246853e6 -1 1.80176069014417e6 1 -2.48476854126154e6 -1 1.796808161923842e6 1 -2.3378164062069273e6 -1 1.7900513731930912e6 1 -2.330926548974238e6 -1 1.7881466013299886e6 1 -2.4900177139634597e6 1 -1.637841518698486e6 1 -1.6389674223410117e6 -1 1.8432774682904363e6 1 -2.5184039774296205e6 -1 1.7877360851561176e6 -1 1.7860263750972315e6 1 -2.4996977247259626e6 -1 1.8049347776892052e6 1 -2.530543825557646e6 -1 1.516711540715446e6 -1 1.8327358672020258e6 1 -2.4869937452027844e6 -1 1.5256988852246928e6 -1 1.7849933042009363e6 1 -2.534281078476119e6 1 -2.5109291378356097e6 1 -2.5017943510487312e6 -1 1.7855094928822322e6 -1 1.5199200602648917e6 1 -2.49749234445716e6 1 -2.5283187794096125e6 -1 1.8146336622850671e6 -1 1.8577541281706828e6 -1 1.5221719897410646e6 1 -2.493755060740347e6 -1 1.7854074072054024e6 1 -550803.9734625019 -1 -2.339757628822389e6 -1 1.7849558352642765e6 -1 1.8071592560616955e6 -1 1.7962909027059888e6 1 -2.519916518693853e6 -1 1.7848697849930658e6 1 -2.5146663349608993e6 -1 -2.343910544017684e6 1 -553243.7749759542 -1 -2.493014986880542e6 -1 682566.0305303428 1 -2.50740642964451e6 -1 1.8396260615476288e6 -1 1.78415874745858e6 -1 1.8019549024059505e6 1 -2.499717616437949e6 -1 1.8216789870226374e6 1 -555051.7570485489 1 1.7860068773659333e6
39 1 0.0 1 702802.6943152279 1 1.8379705642030279e6 1 1.836806948433796e6 1 1.824295448502179e6 -1 -2.4026498991093626e6 -1 -2.5709514425326823e6 1 1.836673237020493e6 -1 -570625.106016769 -1 1.873879513473669e6 1 702251.1046339995 -1 1.8225686694707314e6 1 1.848259674604314e6 1 1.8920622324920709e6 -1 -2.563477539081528e6 1 1.8516225109729604e6 1 1.8379103000975274e6 1 1.8701797577562428e6 1 -2.408140597539455e6 -1 -568236.9568834216 -1 -2.575031628777025e6 -1 -2.5628930840988415e6 -1 -1.6861582826029859e6 1 1.8366135649860646e6 1 1.9101215632926072e6 1 1.8955594669504992e6 1 1.8377555859766747e6 1 1.5648085949850727e6 -1 -2.565916585242965e6 1 1.8774999872427317e6 1 1.8884811575107602e6 -1 -2.5927902802474527e6 -1 -2.601433129637849e6 -1 -1.6868977456879662e6 -1 -2.581578588660279e6 1 1.843932910656288e6 -1 -1.6888156545894311e6 -1 -2.5786211365677244e6 1 1.8629197123921367e6 1 1.8383396578661285e6 -1 -2.405829990663565e6 1 1.817710118677164e6 1 1.8664424925247459e6 1 1.8371972654088042e6 1 1.562958225463623e6 -1 -1.6792669126662589e6 1 1.8419278000559192e6 -1 -2.599337766405612e6 1 1.8192601163395783e6 -1 -2.408054712358974e6 1 1.828251512616802e6 -1 -2.408639402128943e6 1 1.8545606862550285e6 -1 -2.597112392104874e6 -1 -1.6827901620413887e6 -1 -1.6764415186812563e6 1 1.8370851746849073e6 -1 -2.565702279549769e6 1 1.8311856195824866e6 1 1.8332131830249296e6 -1 -2.5881060353607317e6 1 1.8398524925982961e6 -1 -2.5591557601711494e6 1 1.5685503477074716e6 1 1.8377553941004842e6 -1 -2.5978256968455277e6 1 1.566325871712731e6 1 1.8992789141445835e6 -1 -2.5591557395882932e6 -1 -2.569439260459746e6 -1 -2.5715162941768547e6 1 1.8811087353192337e6 1 1.5680215937555882e6 -1 -2.589637928593258e6 -1 -2.560667987524445e6 1 1.838339556690171e6 1 1.8366127405598375e6 1 1.566536249730432e6 -1 -2.593375191879103e6 1 1.884743923143733e6 -1 -574118.0116209282 1 -2.4062586614731066e6 1 1.9029787187092525e6 1 1.8383396974694573e6 1 1.8469568026230542e6 -1 -2.563477547312673e6 1 1.906629941939371e6 -1 -2.5694391840837062e6 1 -2.399199756164415e6 -1 -565345.9926303934 1 -2.596372391520627e6 1 704952.3305409754 -1 -2.5696538257699753e6 1 1.837171041443429e6 1 1.8577646514075433e6 1 1.8139080668163705e6 -1 -2.5843886535713887e6 1 1.837910334425083e6 -1 -563416.7012016589 -1 1.8591824787949603e6
40 1 0.0 -1 722379.4589723252 -1 1.9155104091280678e6 -1 1.9442449813694686e6 -1 1.884464379947155e6 1 -2.4751133572614095e6 1 -2.644410659162135e6 -1 1.9478485434574948e6 1 -581799.5855234143 1 1.8938481343774437e6 -1 725565.1427924258 1 1.8864748744170365e6 -1 1.895901331518721e6 -1 1.8933444858892001e6 1 -2.663097670220284e6 -1 1.8955268943860386e6 -1 1.9229246920252256e6 -1 1.8938856521613465e6 -1 -2.4656549616861856e6 1 -583148.7098913961 1 -2.641016298403819e6 1 -2.6662504887389266e6 1 -1.7298095120936823e6 -1 1.9515261449243953e6 -1 1.892717449183091e6 -1 1.8931044468462993e6 -1 1.9265072514057017e6 -1 1.6142075423279754e6 1 -2.654324895877734e6 -1 1.8937313346451772e6 -1 1.8935006844092186e6 1 -2.6363513088662727e6 1 -2.6225705172486943e6 1 -1.7268117016773336e6 1 -2.640088711284415e6 -1 1.8990491145733534e6 1 -1.7249923370774693e6 1 -2.6408685326931896e6 -1 1.8941001537998985e6 -1 1.9084049557885102e6 1 -2.474556175314283e6 -1 1.8890908706261273e6 -1 1.8938856604311785e6 -1 1.9334234778404895e6 -1 1.6160944463078547e6 1 -1.7303926891596136e6 -1 1.9007812774743137e6 1 -2.6242124275177866e6 -1 1.8869035947872126e6 1 -2.4693063500070334e6 -1 1.884683170560449e6 1 -2.462416492774344e6 -1 1.8947277961667776e6 1 -2.6294616002197065e6 1 -1.7301786650334143e6 1 -1.7313045686759402e6 -1 1.9407859341192509e6 1 -2.657847863685867e6 -1 1.8838800040248046e6 -1 1.8821702939659185e6 1 -2.6391416109822094e6 -1 1.9024432435180198e6 1 -2.6699877118138927e6 -1 1.603000201045058e6 -1 1.9302443330308404e6 1 -2.6264376314590313e6 -1 1.6119875455543047e6 -1 1.8930866205390545e6 1 -2.6737249647323657e6 1 -2.6503730240918566e6 1 -2.641238237304978e6 -1 1.89360280922035e6 -1 1.6062087205945037e6 1 -2.6369362307134066e6 1 -2.6677626656658594e6 -1 1.9121421281138817e6 -1 1.9552625939994974e6 -1 1.6084606500706766e6 1 -2.633198946996594e6 -1 1.8935007235435203e6 1 -581555.2176262445 -1 -2.4712475726224952e6 -1 1.8930491516023944e6 -1 1.9046677218905098e6 -1 1.8983357330387905e6 1 -2.6593604049501e6 -1 1.8929631013311837e6 1 -2.654110221217146e6 -1 -2.475400487817791e6 1 -583995.0191396968 -1 -2.6324588731367886e6 -1 720791.8216967436 1 -2.646850315900757e6 -1 1.9371345273764434e6 -1 1.8697178158179633e6 -1 1.8890260922666627e6 1 -2.6391615026941956e6 -1 1.919187452851452e6 1 -585803.0012122915 1 1.8941001937040512e6
41 1 0.0 1 741028.4854816287 1 1.9354790300318424e6 1 1.9343154142626105e6 1 1.946858463392131e6 -1 -2.5341398429094693e6 -1 -2.710395328788929e6 1 1.9341817028493076e6 -1 -601376.3501805116 -1 1.9698758578011545e6 1 740476.8958004003 -1 1.9413944108593545e6 1 1.9457681404331282e6 1 1.9880585768195563e6 -1 -2.7029214253377747e6 1 1.949130976801775e6 1 1.935418765926342e6 1 1.9661761020837282e6 1 -2.5396305413395613e6 -1 -598988.2010471643 -1 -2.7144755150332716e6 -1 -2.7023369703550884e6 -1 -1.778495428937914e6 1 1.934122030814879e6 1 2.0061179076200929e6 1 1.9915558112779846e6 1 1.935264051805489e6 1 1.6510972553146845e6 -1 -2.7053604714992116e6 1 1.9734963315702172e6 1 1.9844775018382457e6 -1 -2.7322341665036995e6 -1 -2.740877015894096e6 -1 -1.7792348920228945e6 -1 -2.7210224749165257e6 1 1.9414413764851026e6 -1 -1.7811528009243594e6 -1 -2.718065022823971e6 1 1.958916056719622e6 1 1.9358481236949428e6 -1 -2.5373199344636714e6 1 1.932798586564458e6 1 1.962438836852231e6 1 1.9347057312376187e6 1 1.649246885793235e6 -1 -1.771604059001187e6 1 1.9394362658847338e6 -1 -2.738781652661859e6 1 1.9380858577282014e6 -1 -2.53954465615908e6 1 1.9433399805040958e6 -1 -2.540129345929049e6 1 1.952069152083843e6 -1 -2.7365562783611207e6 -1 -1.775127308376317e6 -1 -1.7687786650161848e6 1 1.9345936405137219e6 -1 -2.7051461658060155e6 1 1.9500113609711097e6 1 1.9520389244135527e6 -1 -2.7275499216169785e6 1 1.9373609584271107e6 -1 -2.698599646427396e6 1 1.6548390080370835e6 1 1.9352638599292987e6 -1 -2.7372695831017746e6 1 1.652614532042343e6 1 1.995275258472069e6 -1 -2.69859962584454e6 -1 -2.7088831467159926e6 -1 -2.7109601804331015e6 1 1.9771050796467192e6 1 1.6543102540852001e6 -1 -2.7290818148495043e6 -1 -2.700111873780692e6 1 1.9358480225189854e6 1 1.934121206388652e6 1 1.652824910060044e6 -1 -2.73281907813535e6 1 1.9807402674712185e6 -1 -604869.2557846708 1 -2.537748605273213e6 1 1.998975063036738e6 1 1.9358481632982716e6 1 1.9444652684518688e6 -1 -2.70292143356892e6 1 2.0026262862668564e6 -1 -2.708883070339953e6 1 -2.5306896999645215e6 -1 -596097.236794136 1 -2.7358162777768737e6 1 743178.1217073762 -1 -2.709097712026222e6 1 1.9346795072722435e6 1 1.9433237197669267e6 1 1.9364710817063225e6 -1 -2.7238325398276355e6 1 1.9354188002538974e6 -1 -594167.9453654016 -1 1.9551788231224457e6
42 1 0.0 -1 760605.250138726 -1 2.023603725466186e6 -1 2.0523382977075865e6 -1 1.9693104178078673e6 1 -2.606603301061516e6 1 -2.7838545454183817e6 -1 2.0559418597956127e6 1 -612550.829687157 1 1.9898444787049291e6 -1 763790.9339588266 1 1.9795945502830653e6 -1 1.9964340403501936e6 -1 1.9893408302166855e6 1 -2.8025415564765306e6 -1 1.994547481716182e6 -1 2.0310180083633435e6 -1 1.989881996488832e6 -1 -2.5971449054862917e6 1 -613899.9540551387 1 -2.780460184660066e6 1 -2.8056943749951734e6 1 -1.8221466584286105e6 -1 2.0596194612625134e6 -1 1.9887137935105767e6 -1 1.9891007911737848e6 -1 2.0346005677438197e6 -1 1.7004962026575871e6 1 -2.7937687821339807e6 -1 1.9897276789726627e6 -1 1.989497028736704e6 1 -2.7757951951225195e6 1 -2.762014403504941e6 1 -1.8191488480122618e6 1 -2.7795325975406617e6 -1 2.0026060664074842e6 1 -1.8173294834123976e6 1 -2.7803124189494364e6 -1 1.9900964981273839e6 -1 2.016498272126628e6 1 -2.606046119114389e6 -1 2.0079166120147503e6 -1 1.9898820047586637e6 -1 2.0415167941786076e6 -1 1.7023831066374667e6 1 -1.8227298354945418e6 -1 2.0058503508097737e6 1 -2.7636563137740334e6 -1 1.9815353921545704e6 1 -2.6007962938071396e6 -1 1.9725534514238194e6 1 -2.59390643657445e6 -1 1.990724140494263e6 1 -2.7689054864759534e6 1 -1.8225158113683425e6 1 -1.8236417150108686e6 -1 2.048879250457369e6 1 -2.797291749942113e6 -1 1.967213920384188e6 -1 1.9655042103253019e6 1 -2.7785854972384563e6 -1 2.0090244383548088e6 1 -2.8094315980701395e6 -1 1.68928886137467e6 -1 2.0383376493689585e6 1 -2.765881517715278e6 -1 1.6982762058839167e6 -1 1.98908296486654e6 1 -2.8131688509886125e6 1 -2.7898169103481034e6 1 -2.780682123561225e6 -1 1.9895991535478355e6 -1 1.6924973809241157e6 1 -2.776380116969653e6 1 -2.807206551922106e6 -1 2.0202354444519999e6 -1 2.0633559103376155e6 -1 1.6947493104002886e6 1 -2.7726428332528407e6 -1 1.9894970678710057e6 1 -612306.4617899872 -1 -2.6027375164226014e6 -1 1.9890454959298798e6 -1 2.0127610382286278e6 -1 1.9988684418702633e6 1 -2.798804291206347e6 -1 1.988959445658669e6 1 -2.793554107473393e6 -1 -2.6068904316178975e6 1 -614746.2633034395 -1 -2.7719027593930354e6 -1 759017.6128631444 1 -2.786294202157004e6 -1 2.0452278437145615e6 -1 1.9762744641879795e6 -1 1.9851700111353495e6 1 -2.7786053889504424e6 -1 2.02728076918957e6 1 -616554.2453760342 1 1.9900965380315366e6
43 1 0.0 1 779254.2766480295 1 2.0435723463699606e6 1 2.0424087306007284e6 1 2.0354417747541724e6 -1 -2.665629786709576e6 -1 -2.849839215045176e6 1 2.0422750191874255e6 -1 -632127.5943442542 -1 2.067384323629969e6 1 778702.6869668011 -1 2.0345140867253833e6 1 2.04781297076593e6 1 2.0855670426483708e6 -1 -2.8423653115940215e6 1 2.0496636856332475e6 1 2.04351208226446e6 1 2.0636845679125427e6 1 -2.6711204851396675e6 -1 -629739.4452109069 -1 -2.8539194012895185e6 -1 -2.841780856611335e6 -1 -1.8708325752728423e6 1 2.0422153471529973e6 1 2.1036263734489074e6 1 2.0890642771067992e6 1 2.043357368143607e6 1 1.7373859156442962e6 -1 -2.8448043577554584e6 1 2.0710047973990317e6 1 2.0819859676670602e6 -1 -2.8716780527599463e6 -1 -2.8803209021503427e6 -1 -1.8715720383578227e6 -1 -2.8604663611727725e6 1 2.0465104498205623e6 -1 -1.8734899472592876e6 -1 -2.857508909080218e6 1 2.0564245225484367e6 1 2.0439414400330607e6 -1 -2.6688098782637776e6 1 2.0198697764251702e6 1 2.0599473026810454e6 1 2.042799047575737e6 1 1.735535546122847e6 -1 -1.8639412053361153e6 1 2.0460174607215228e6 -1 -2.878225538918106e6 1 2.0327176550955593e6 -1 -2.6710345999591863e6 1 2.0349475348687954e6 -1 -2.671619289729155e6 1 2.0495776179126576e6 -1 -2.8760001646173676e6 -1 -1.8674644547112451e6 -1 -1.8611158113511133e6 1 2.04268695685184e6 -1 -2.844590052062262e6 1 2.0370825508318222e6 1 2.0391101142742652e6 -1 -2.8669938078732253e6 1 2.0439421532638997e6 -1 -2.838043532683643e6 1 1.7411276683666955e6 1 2.043357176267417e6 -1 -2.8767134693580214e6 1 1.738903192371955e6 1 2.0927837243008835e6 -1 -2.838043512100787e6 -1 -2.8483270329722394e6 -1 -2.8504040666893483e6 1 2.0746135454755337e6 1 1.740598914414812e6 -1 -2.8685257011057506e6 -1 -2.839555760036939e6 1 2.0439413388571036e6 1 2.0422145227267703e6 1 1.739113570389656e6 -1 -2.8722629643915966e6 1 2.078248733300033e6 -1 -635620.4999484135 1 -2.669238549073319e6 1 2.0964835288655525e6 1 2.0439414796363895e6 1 2.0465100987846705e6 -1 -2.842365319825167e6 1 2.100134752095671e6 -1 -2.8483269565962e6 1 -2.662179643764628e6 -1 -626848.4809578786 1 -2.8752601640331205e6 1 781403.912873777 -1 -2.848541598282469e6 1 2.0427728236103617e6 1 2.0349312741316266e6 1 2.0326150005750093e6 -1 -2.8632764260838823e6 1 2.0435121165920156e6 -1 -624919.1895291442 -1 2.0526872889512603e6
44 1 0.0 -1 798831.0413051267 -1 2.1196000697936714e6 -1 2.1483346420350717e6 -1 2.0881361591964904e6 1 -2.738093244861623e6 1 -2.9232984316746285e6 -1 2.151938204123098e6 1 -643302.0738508996 1 2.0873529445337437e6 -1 802016.7251252274 1 2.0984202916716887e6 -1 2.0939425061790082e6 -1 2.0868492960455e6 1 -2.9419854427327774e6 -1 2.0883186740436675e6 -1 2.127014352690829e6 -1 2.0873904623176465e6 -1 -2.728634849286398e6 1 -644651.1982188814 1 -2.9199040709163127e6 1 -2.9451382612514202e6 1 -1.9144838047635388e6 -1 2.155615805589999e6 -1 2.0862222593393913e6 -1 2.0866092570025993e6 -1 2.130596912071305e6 -1 1.7867848629871989e6 1 -2.9332126683902275e6 -1 2.0872361448014772e6 -1 2.0870054945655186e6 1 -2.9152390813787663e6 1 -2.901458289761188e6 1 -1.91148599434719e6 1 -2.9189764837969085e6 -1 2.0963772587349694e6 1 -1.9096666297473258e6 1 -2.919756305205683e6 -1 2.0876049639561984e6 -1 2.1124946164541133e6 1 -2.7375360629144954e6 -1 2.0949878018754625e6 -1 2.087390470587478e6 -1 2.137513138506093e6 -1 1.7886717669670787e6 1 -1.91506698182947e6 -1 2.103358816638588e6 1 -2.9031002000302803e6 -1 2.1003611335431933e6 1 -2.732286237607246e6 -1 2.0913791928124423e6 1 -2.7253963803745564e6 -1 2.0919698798244067e6 1 -2.9083493727322e6 1 -1.9148529577032707e6 1 -1.915978861345797e6 -1 2.1448755947848544e6 1 -2.9367356361983595e6 -1 2.086039661772811e6 -1 2.084329951713925e6 1 -2.918029383494703e6 -1 2.105020782682294e6 1 -2.9488754843263864e6 -1 1.775577521704282e6 -1 2.134333993696444e6 1 -2.905325403971525e6 -1 1.7845648662135287e6 -1 2.0865914306953545e6 1 -2.9526127372448593e6 1 -2.92926079660435e6 1 -2.9201260098174717e6 -1 2.08710761937665e6 -1 1.7787860412537276e6 1 -2.9158240032258993e6 1 -2.946650438178353e6 -1 2.1162317887794855e6 -1 2.159352254665101e6 -1 1.7810379707299005e6 1 -2.9120867195090875e6 -1 2.0870055336998203e6 1 -643057.7059537298 -1 -2.7342274602227076e6 -1 2.0865539617586944e6 -1 2.108757382556113e6 -1 2.100114181200407e6 1 -2.9382481774625937e6 -1 2.0864679114874837e6 1 -2.93299799372964e6 -1 -2.738380375418004e6 1 -645497.5074671821 -1 -2.9113466456492823e6 -1 797243.4040295451 1 -2.9257380884132506e6 -1 2.141224188042047e6 -1 2.0951002055766026e6 -1 2.1039957525239727e6 1 -2.9180492752066893e6 -1 2.1232771135170558e6 1 -647305.4895397768 1 2.0876050038603512e6
