1 1 0.0 1 0.5428519857107084 1 0.846723041671922 -1 0.599763512807518 -1 0.8250471823548238 1 0.002654047882957089 1 0.4900388032534648 -1 0.04819557896713156 -1 0.705886464569963 1 0.009457879714424688 1 0.925248606285501 1 0.4643230054727723 -1 0.5479309791933231 1 0.36412626055506214 -1 0.4661592303273938 -1 0.4555543202638226 -1 -0.5407858104450436 -1 0.8860475493359932 -1 -0.768567413313185 1 0.6867421887310989 1 -0.7281362634382957 1 -0.6945926269814284 1 -0.16579742238421646 1 -0.12248129906704719 -1 0.9389908457731684 1 -0.5333376266489074 -1 0.9862215830847165 1 -0.19936305187715253 1 0.22679629855738992 -1 0.3757078023620335 -1 0.8978643998501132 1 0.5744394391018084 1 0.6412419442614872 -1 -0.9119830449007849 1 0.2914744541605585 1 0.6034952408775311 -1 0.20158784856507106 -1 0.20019566288588742 1 0.3436271065677532 1 0.6979587071673461 -1 0.18593578268507516 1 0.9710914309980729 1 0.9199509863208444 1 0.8894772336041219 1 -0.13354390509499092 -1 -0.00814193464141133 -1 0.237337790254605 1 -0.4872466154300621 -1 -0.17632787205595912 1 -0.5899685952366007 1 0.8302932967149785 1 -0.7137610909784369 -1 -0.7284366309367363 -1 -0.05147805738610023 -1 0.5401510823103386 1 -0.8140469821929288 1 0.4379241887421317 -1 0.9539333577547853 1 0.9867428493029076 -1 -0.24795954123686714 -1 0.9538951894111125 1 0.3973344460146724 -1 0.933412497494946 -1 -0.8258399984013818 -1 0.702556732640246 -1 -0.7008165366712316 1 0.7138973987321966 1 -0.8231191649613092 -1 0.255961609405162 1 -0.4821421084849038 1 0.8980010552319948 -1 -0.3881479890503672 1 0.08621112414322307 1 -0.5909145482297449 1 -0.6187011230394495 1 -0.8893848611608488 1 0.9310338138159886 -1 0.5744155741264203 -1 -0.8088288370491756 1 -0.1187177866658351 -1 -0.7683165694131828 -1 0.1623797687920181 -1 0.5638318356283492 1 0.1428506800764493 1 0.7074596779951301 1 0.7506987772023457 1 0.3357329307951631 -1 0.42901520609002497 -1 -0.08915041621024256 1 -0.19131000604536408 1 0.6869777895094276 -1 0.3117729466469996 1 0.15375756464467427 1 0.09618968056058241 1 -0.8287746294943994 -1 0.24617884862239858 1 -0.721994455790969 1 -0.5105524830945498 -1 -0.29273183101734523 -1 -0.9640119030681094
2 1 0.0 1 0.5438192052237334 1 0.8233585020610767 -1 0.6106188180621699 -1 0.8335486884643399 1 -0.007857902577436323 1 0.47377913494086515 -1 0.05719540792619588 -1 0.7092409019118024 1 0.022194982174818096 1 0.9196953378538157 1 0.47541933928670105 -1 0.5638209718015103 1 0.3426171972398043 -1 0.4824188986399935 -1 0.47706338357908046 -1 -0.5381180826917209 -1 0.9094120889468384 -1 -0.764602271707656 1 0.6824600132414658 1 -0.716567927684973 1 -0.6882736862307639 1 -0.1730704221928289 1 -0.1372288458783178 -1 0.9670203970331365 1 -0.5360053544022301 1 -0.9954485646579736 1 -0.20348316153797125 1 0.21032192259566743 -1 0.3972168656772913 -1 0.9212289394609585 1 0.5635841338471567 1 0.6266493655055063 -1 -0.9158884469124807 1 0.2802494732014942 1 0.5926399356228793 -1 0.21074264557942513 -1 0.21796745269981618 1 0.32585531675382445 1 0.6824383902635716 -1 0.200769390000333 1 0.961662186740763 1 0.89284917320867 1 0.8661126939932766 1 -0.14455417840493245 -1 0.0032380143729427366 -1 0.25381216621632746 1 -0.49738889018604293 -1 -0.16862545694910108 1 -0.5993117789899234 1 0.8217917906054624 1 -0.7163427582277724 -1 -0.740004966690059 -1 -0.03148111557217147 -1 0.5515310313246926 1 -0.8080713962365227 1 0.41641512542687387 -1 0.9744883620120952 1 0.9750884530455977 -1 -0.23429470062868002 -1 0.9781874671697516 1 0.37582538269941457 -1 0.9651793222562433 -1 -0.8331129982099942 -1 0.7180770495440205 -1 -0.7071354774218961 1 0.7077668447205007 1 -0.813406305503574 -1 0.2671865903642263 1 -0.4960216567422137 1 0.8746365156211495 -1 -0.37426844079305727 1 0.07965115483328156 1 -0.5920701544817385 1 -0.616119455790114 1 -0.8757200205526616 1 0.8992669890546914 -1 0.5779513004337037 -1 -0.8172442826547046 1 -0.13720260697843478 -1 -0.7705285609581057 -1 0.14754616147676025 -1 0.5759845547352072 1 0.1288161637638496 1 0.6928670992391492 1 0.7310715110928294 1 0.3216984144825634 -1 0.4505242694052828 -1 -0.09802159802417132 1 -0.18718989638454536 1 0.7024981064132021 -1 0.30614071548485183 1 0.1359857748307455 1 0.08589243774931181 1 -0.8210722143875413 -1 0.25669079908279197 1 -0.7141633935389754 1 -0.5169574843492016 -1 -0.29663723302904116 -1 -0.9479072028107994
3 1 0.0 1 0.5462985462380875 1 0.7984818409489024 -1 0.6252113968181507 -1 0.8472995895765143 1 -0.018954236391365085 1 0.4485327981242782 -1 0.0661952368852602 -1 0.7129386940479002 1 0.034932084635211504 1 0.912286593126543 1 0.48953991610328795 -1 0.5834482379110265 1 0.3211081339245465 -1 0.5024158404539223 -1 0.5007975988943383 -1 -0.5354503549383982 -1 0.947725722563 -1 -0.7619345439543334 1 0.6772500996040389 1 -0.7049995919316503 1 -0.6819547454800994 1 -0.17941568385364762 1 -0.1519763926895884 -1 0.9965620697944336 1 -0.5386730821555528 1 -0.9756065908993345 1 -0.20760327119878996 1 0.18881285928040958 -1 0.42246320249387825 -1 0.9567330377235848 1 0.5439568677376404 1 0.6120567867495255 -1 -0.9197938489241766 1 0.26902449224242986 1 0.5780473568668985 -1 0.22249227029819174 -1 0.23817910216286775 1 0.3080835269398957 1 0.6641085380062616 -1 0.21560299731559085 1 0.9461844564781368 1 0.8582728130938374 1 0.8390108808811022 1 -0.15556445171487399 -1 0.012392811387296804 -1 0.2702865421780499 1 -0.5075311649420238 -1 -0.16185077999003675 1 -0.607142841241917 1 0.8095530109946171 1 -0.7174123039757787 -1 -0.7515733024433817 -1 -0.011484173758242702 -1 0.5613988588377176 1 -0.8007983964279103 1 0.3911687886102869 1 -0.9997072387279367 1 0.9604098137856295 -1 -0.2206298600204929 1 -0.9982332855702802 1 0.3505790458828276 -1 0.9984582685188695 -1 -0.8394582598708129 -1 0.7377043156535368 -1 -0.7134544181725606 1 0.7018509983579275 1 -0.7999561725445097 -1 0.27841157132329064 1 -0.5099012049995236 1 0.8437974290076461 -1 -0.36038889253574735 1 0.07309118552334004 1 -0.5947378822350612 1 -0.6135377885407785 1 -0.8620551799444744 1 0.8609533554385298 -1 0.5827844405931933 -1 -0.8306944156137689 1 -0.15568742729103446 -1 -0.7714431386508224 -1 0.1327125541615024 -1 0.5918745473433943 1 0.11478164745124991 1 0.6698722353327164 1 0.7114442449833132 1 0.30766389816996376 -1 0.47577060622186973 -1 -0.10689277983810008 1 -0.18306978672372665 1 0.7254929703196349 -1 0.30050848432270405 1 0.11821398501681674 1 0.0755951949380412 1 -0.814297537428477 -1 0.26720274954318535 1 -0.7078444527883109 1 -0.5233624856038535 -1 -0.3005426350407371 -1 -0.9318025025534895
4 1 0.0 1 0.5478501491046478 1 0.7751173013380571 -1 0.6435412490754607 -1 0.8640747336913468 1 -0.03156269170662293 1 0.4195491878063622 -1 0.07519506584432453 -1 0.7184919624795855 1 0.047669187095604915 1 0.9039501102514765 1 0.5036604929198749 -1 0.6055153636696655 1 0.2995990706092887 -1 0.522412782267851 -1 0.5245318142095962 -1 -0.5290453536837464 -1 0.9884792158282845 -1 -0.7592668162010107 1 0.6711124478188183 1 -0.6949433776796566 1 -0.6756358047294349 1 -0.18576094551446634 1 -0.17046121300218808 1 -0.9686468624416111 1 -0.5450780834102046 1 -0.9557646171406955 1 -0.21172338085960868 1 0.16579167446382265 -1 0.4514468128117943 -1 0.9937492574875401 1 0.5239599259237117 1 0.5937269344922155 -1 -0.9236992509358725 1 0.2503249642807074 1 0.5546828172560532 -1 0.23424189501695836 -1 0.25839075162591935 1 0.290311737125967 1 0.6457786857489516 -1 0.23194872613217776 1 0.9276824832128523 1 0.8236964529790048 1 0.8103969462675987 1 -0.1678721388770218 -1 0.02154760840165087 -1 0.2889860701397724 1 -0.5214107131993337 -1 -0.1550761030309724 1 -0.6149739034939106 1 0.7958021098824427 1 -0.716969728222456 -1 -0.7631416381967044 -1 0.010024889557015141 -1 0.5725641002029488 1 -0.7922279827670916 1 0.3621851782923709 1 -0.9723907179666395 1 0.9411948100216742 -1 -0.20696501941230577 1 -0.9746540383103122 1 0.3253327090662407 1 -0.9704879372185042 -1 -0.8458035215316316 -1 0.7610688552643821 -1 -0.7272479059258833 1 0.6946377381431481 1 -0.7878034534376517 -1 0.29337382578368404 1 -0.5200434797555045 1 0.8114462208928136 -1 -0.34650934427843744 1 0.06653121621339853 1 -0.5974056099883839 1 -0.6109561212914429 1 -0.8483903393362873 1 0.8226397218223682 -1 0.5915098223093018 -1 -0.8456566700741623 1 -0.1691375602500988 -1 -0.772357716343539 -1 0.11787894684624456 -1 0.6102043996007043 1 0.10074713113865022 1 0.6478051095740774 1 0.6834146937233451 1 0.2936293818573641 -1 0.5047542165397857 -1 -0.11576396165202885 1 -0.17894967706290793 1 0.7525947834318093 -1 0.29487625316055627 1 0.10044219520288797 1 0.0652979521267706 1 -0.8060107389680836 -1 0.27922682150490785 1 -0.6940509650349882 1 -0.5297674868585053 -1 -0.304448037052433 -1 -0.9156978022961796
5 1 0.0 1 0.5494017519712081 1 0.7517527617272118 -1 0.6618711013327707 -1 0.8838741208088375 1 -0.044171147021880776 1 0.3868283039871171 -1 0.08922958215692421 -1 0.7240452309112707 1 0.06040628955599832 1 0.89561362737641 1 0.5192931912377909 -1 0.6313197629296337 1 0.2780900072940309 -1 0.5461469975831089 -1 0.548266029524854 -1 -0.5189030789277655 1 -0.9692551694051019 -1 -0.7550869669463589 1 0.6649747960335977 1 -0.681149889926334 1 -0.6693168639787703 1 -0.19361832867661413 1 -0.18542346746258148 1 -0.9450676151816431 1 -0.5514830846648564 1 -0.9359226433820564 1 -0.21491575237263366 1 0.1427704896472357 -1 0.48416769663103937 1 -0.9677224012471755 1 0.5002257106084538 1 0.5679225352322473 -1 -0.9289020667997746 1 0.22637604131632674 1 0.5300208637930016 -1 0.24599151973572497 -1 0.2823396745903 1 0.2716122091642445 1 0.6274488334916416 -1 0.24829445494876468 1 0.9091805099475678 1 0.7838706978615142 1 0.7817830116540953 1 -0.18054950174358214 -1 0.03070240541600494 -1 0.3076855981014949 1 -0.5315529879553146 -1 -0.14620492121704365 1 -0.6212928442445751 1 0.7820512087702683 1 -0.7150150309678042 -1 -0.7762220954513562 -1 0.02779667937094391 -1 0.5850267554203863 1 -0.7836575691062729 1 0.3332015679744549 1 -0.9413369237040132 1 0.9189555632550607 -1 -0.19422791695191235 1 -0.9398629705463568 1 0.30008637224965373 1 -0.943171416457207 -1 -0.8521487831924504 -1 0.7844333948752273 -1 -0.742553515180535 1 0.6861270640761624 1 -0.7756507343307937 -1 0.3120733537454065 1 -0.5339230280128144 1 0.7790950127779811 -1 -0.3326297960211275 1 0.05737641919904446 1 -0.6000733377417066 1 -0.6098865755434365 1 -0.8347254987281001 1 0.7865512402062066 -1 0.6002352040254103 -1 -0.8606189245345558 1 -0.18783708821182127 -1 -0.7732722940362556 -1 0.10304533953098671 -1 0.6322715253593433 1 0.08297534132472145 1 0.6257379838154384 1 0.6566825563155833 1 0.2749298538956416 -1 0.5322257053563726 -1 -0.12463514346595761 1 -0.17331744590076015 1 0.7796965965439837 -1 0.29109949829399595 1 0.08640767889028828 1 0.052560849666377196 1 -0.7977239405076902 -1 0.2927630149679594 1 -0.6839947507829945 1 -0.5399097616144861 -1 -0.30835343906412893 -1 -0.8982956881866634
6 1 0.0 1 0.5500256166899747 1 0.7209136751137084 -1 0.6914127740940679 -1 0.9036735079263283 1 -0.05677960233713862 1 0.354107420167872 -1 0.11073864547218205 -1 0.729598499342956 1 0.07817807936992709 1 0.8872771445013435 1 0.536438011057036 -1 0.6645987091922599 1 0.242929263825663 -1 0.577355759901025 -1 0.5757375183414409 -1 -0.5012862571691266 1 -0.9269895546384884 -1 -0.7509071176917071 1 0.6579094061005833 1 -0.6710936756743403 1 -0.6629979232281058 1 -0.20147571183876192 1 -0.20319525727651025 1 -0.9102765474176877 1 -0.5578880859195082 1 -0.9160806696234174 1 -0.21810812388565864 1 0.11974930483064879 -1 0.5168885804502845 1 -0.929194059981891 1 0.4675048267892087 1 0.5395233082678667 -1 -0.9341048826636767 1 0.19961758299841073 1 0.4950748279737565 -1 0.25811082015890413 -1 0.3175004180586679 1 0.24392601269853476 1 0.5941698872290153 -1 0.2670800434144744 1 0.8906785366822834 1 0.7440449427440234 1 0.7472066515392627 1 -0.19473898611147156 -1 0.03985720243035901 -1 0.34040648192073997 1 -0.5491698097139536 -1 -0.13733373940311489 1 -0.6276117849952396 1 0.7637639431541068 1 -0.7130603337131524 -1 -0.7921120880595434 -1 0.04556846918487267 -1 0.5987868244900301 1 -0.7750871554454543 1 0.30421795765653886 1 -0.914020402942716 1 0.8967163164884472 -1 -0.18149081449151894 1 -0.9162837232863887 1 0.26736548843040864 1 -0.9121176221945808 -1 -0.8610888725576816 -1 0.8242591499927181 -1 -0.7578591244351868 1 0.6776163900091767 1 -0.7597607417226065 -1 0.34105696406332253 1 -0.5478025762701244 1 0.7445186526631485 -1 -0.3187502477638176 1 0.04692420833248412 1 -0.6027410654950293 1 -0.6088170297954301 1 -0.8160259707663776 1 0.746725485088716 -1 0.6102579995937251 -1 -0.878021038644072 1 -0.20187160452442096 -1 -0.775114609876766 -1 0.08821173221572887 -1 0.6618131981206404 1 0.06520355151079268 1 0.5961963110541413 1 0.6271408835542861 1 0.2435063839286028 -1 0.5671717411756176 -1 -0.13350632527988637 1 -0.16802856953287074 1 0.8142729566588163 -1 0.2888085440186105 1 0.06489861557503043 1 0.036086473704654703 1 -0.7894371420472969 -1 0.3121329867872045 1 -0.6702012630296719 1 -0.550052036370467 -1 -0.31225884107582486 -1 -0.8808935740771472
7 1 0.0 1 0.5469385288175664 1 0.6891468503524112 -1 0.7231795988553651 -1 0.9296500281942709 1 -0.06938805765239647 1 0.3213865363486269 -1 0.13375983028876898 -1 0.736079505922435 1 0.10342441618651402 1 0.8802380754784833 1 0.5550949523776102 -1 0.6988053936026799 1 0.2124335320064179 -1 0.6094922603667347 -1 0.6116112923084798 -1 -0.4836694354104875 1 -0.8871637995209978 -1 -0.7452151469357263 1 0.6480608017241878 1 -0.6573001879210176 1 -0.6566789824774413 1 -0.21100018455752853 1 -0.21744448123823273 1 -0.8891371598068424 1 -0.56429308717416 1 -0.8837294615085849 1 -0.22130049539868363 1 0.09672812001406186 -1 0.5570840112721878 1 -0.8856310313630712 1 0.4310466694686345 1 0.5008399989472925 -1 -0.9483895954930228 1 0.17285912468049472 1 0.45487939715185327 -1 0.2741223621387021 -1 0.35769584888057115 1 0.20595573387663152 1 0.5620333867633056 -1 0.29040199638417136 1 0.8684392899156699 1 0.7094685826291909 1 0.701418470920443 1 -0.20800073233156724 -1 0.05160682714912562 -1 0.37686463924131414 1 -0.5630493579712635 -1 -0.12846255758918612 1 -0.6339307257459041 1 0.7409403130339579 1 -0.7111056364585006 -1 -0.8108116160212658 -1 0.06578011864792424 -1 0.6151417212640864 1 -0.7667314494337584 1 0.26251040533330655 1 -0.8854064683292125 1 0.8707397962205046 -1 -0.16758494532405482 1 -0.8801952416702271 1 0.22846747146071167 1 -0.8872409610824065 -1 -0.8700289619229129 -1 0.8678221786115379 -1 -0.7746768551911677 1 0.6678083020899848 1 -0.7429430109666256 -1 0.3737778478825676 1 -0.5654193980287634 1 0.706205019046987 -1 -0.3048706995065077 1 0.03647199746592378 1 -0.605408793248352 1 -0.6077474840474236 1 -0.7973264428046551 1 0.7046745779712252 -1 0.6228756228664524 -1 -0.8954231527535882 1 -0.21985810198747252 -1 -0.776372542363741 -1 0.07186600339914194 -1 0.6997571560323895 1 0.03995721469420575 1 0.5603225370871024 1 0.5901246637903308 1 0.20927337860802864 -1 0.6067827886439855 -1 -0.14237750709381514 1 -0.16273969316498132 1 0.8615732587789652 -1 0.2883730660388125 1 0.04338955225977259 1 0.014577410389396857 1 -0.7796382220855744 -1 0.3360393231104368 1 -0.6601450487776782 1 -0.5601943111264478 -1 -0.3161642430875208 -1 -0.863491459967631
8 1 0.0 1 0.5442211166495707 1 0.6461682050871268 -1 0.7736327911233077 -1 0.9556265484622135 1 -0.08199651296765433 1 0.27594171052406546 -1 0.160518288606685 -1 0.7462714650930888 1 0.1339201480057591 1 0.8757938341600356 1 0.5754787228486362 -1 0.7417840388679643 1 0.17446325318451467 -1 0.6565778548377608 -1 0.6549596132781768 -1 -0.46605261365184847 1 -0.847338044403507 -1 -0.7380110546784164 1 0.6382121973477922 1 -0.647243973669024 1 -0.6503600417267767 1 -0.22052465727629514 1 -0.23543097870128432 1 -0.8418368576866935 1 -0.5744353619301409 1 -0.8551155268950814 1 -0.2244928669117086 1 0.06623238819481678 -1 0.6004323322418847 1 -0.8495425497469096 1 0.39458851214806034 1 0.4569072946240601 -1 -0.9626743083223689 1 0.1461006663625787 1 0.41468396632995 -1 0.29272873182291265 -1 0.4016285532038035 1 0.17546000205738643 1 0.5149477922922795 -1 0.3180456062087328 1 0.8449026292968501 1 0.6590153903612482 1 0.6621770991564876 1 -0.22126247855166292 -1 0.06968855307363388 -1 0.4133227965618883 1 -0.5769289062285735 -1 -0.11585410227392827 1 -0.6402496664965687 1 0.718116682913809 1 -0.7091509392038488 -1 -0.8332484174843174 -1 0.09476372896584025 -1 0.632794031890349 1 -0.7570783295698562 1 0.21706557950874514 1 -0.85305526021438 1 0.8434658621003557 -1 -0.1536790761565907 1 -0.8553185805580528 1 0.18675991913747936 1 -0.8436779324635867 -1 -0.8802664651403505 -1 0.9113852072303577 -1 -0.7965292733006839 1 0.6554053864663802 1 -0.7239001282106448 -1 0.41397327870447087 1 -0.5718243992834152 1 0.6594891002803734 -1 -0.29191888939699145 1 0.020985099245828073 1 -0.6080765210016746 1 -0.6066779382994172 1 -0.7748896413416035 1 0.6616959327059408 -1 0.636790659991386 -1 -0.9427234548737371 1 -0.234107325949195 -1 -0.777630474850716 -1 0.05400815308122593 -1 0.7389985277963449 1 0.013413464025412547 1 0.5169742161174055 1 0.5393017958179757 1 0.17504037328745448 -1 0.6576056566163406 -1 -0.15498596240907297 1 -0.1574508167970919 1 0.9088735608991141 -1 0.287567912354602 1 0.013108528089650302 1 -0.0069316529258609885 1 -0.769839302123852 -1 0.36145778093499825 1 -0.6463515610243555 1 -0.5778111328850868 -1 -0.31914190695142297 -1 -0.8410546585045794
9 1 0.0 1 0.5387204900381938 1 0.5932751531700614 -1 0.8246703667447857 -1 0.9816030687301561 1 -0.09460496828291218 1 0.22675961119817498 -1 0.19101402042593008 -1 0.7560937485593302 1 0.1644158798250042 1 0.8694941165460006 1 0.6003988578236495 -1 0.797486626138565 1 0.14396752136526958 -1 0.7070310471057034 -1 0.7078526651952421 -1 -0.4484357918932094 1 -0.8136894224364682 -1 -0.7308069624211065 1 0.6255803785280155 1 -0.6371877594170303 1 -0.6365665539734541 1 -0.23378640349639085 1 -0.24838278881080053 1 -0.8156627827223129 1 -0.5883149101874509 1 -0.8102550844240554 1 -0.23028006612914614 1 0.030701969022036334 -1 0.654992473715569 1 -0.8121566542785417 1 0.3469185343234989 1 0.4129745903008277 -1 -0.976959021151715 1 0.11560493454333362 1 0.3744885355080468 -1 0.3141446368606585 -1 0.4492985310283649 1 0.1374897232354832 1 0.46727781446771804 -1 0.3472013375346233 1 0.8146044521740431 1 0.6122994715946347 1 0.6042493598858868 1 -0.23078695127042953 -1 0.08813995470255467 -1 0.4572555008851207 1 -0.5870711809845544 -1 -0.10324564695867042 1 -0.6465686072472332 1 0.6920541021418792 1 -0.707196241949197 -1 -0.855685218947369 -1 0.12899673428641442 -1 0.6543385840732304 1 -0.747425209705954 1 0.17162075368418372 1 -0.811932091244683 1 0.8169049584788778 -1 -0.1373333473400038 1 -0.8067208645856976 1 0.14505236681424705 1 -0.8137665839978769 -1 -0.8995858653232319 -1 0.9589002169996294 -1 -0.8227033482650645 1 0.6391102292861569 1 -0.7048572454546639 -1 0.4541687095263741 1 -0.5894412210420542 1 0.6090359080124308 -1 -0.2789670792874752 1 0.002903373321319822 1 -0.6070069752536682 1 -0.6093456660527399 1 -0.7477878282294291 1 0.6075054669366692 -1 0.6545979386729384 -1 -0.990023756993886 1 -0.2507964095600403 -1 -0.7794464697810722 -1 0.03556591940977458 -1 0.7984383885682748 1 -0.015570146292503462 1 0.46556696479151494 1 0.48415727099075606 1 0.14080736796688031 -1 0.7043215753829541 -1 -0.1713316912256599 1 -0.15086452657699623 1 0.9601258441697148 -1 0.28617837531685614 1 -0.012137808726936625 1 -0.032177989742447906 1 -0.7598256745130066 -1 0.3868762387595597 1 -0.640032620273691 1 -0.5842161341397386 -1 -0.32211957081532516 -1 -0.8186178570415278
10 1 0.0 1 0.5332198634268168 1 0.5334656166937191 -1 0.8787321853689217 1 -0.9924204110019013 1 -0.10721342359817003 1 0.1775775118722845 -1 0.24019611975182056 -1 0.767771508321159 1 0.21359797915089468 1 0.8631943989319655 1 0.6268311142999919 -1 0.8559987487627011 1 0.09852269554070817 -1 0.7739454548802914 -1 0.771029799468501 -1 -0.4308189701345704 1 -0.7688289799654422 -1 -0.7236028701637967 1 0.6104063738241347 1 -0.6286436666663657 1 -0.6317597347241186 1 -0.23957360271382838 1 -0.2650718724216458 1 -0.7633277932486286 1 -0.5984571849434317 1 -0.7766064624570166 1 -0.24354181234924183 1 -0.003316328649415029 -1 0.7278693069914861 1 -0.7710334853088446 1 0.2962243134962793 1 0.3578300654736081 -1 -0.9925411478332673 1 0.07763465572143037 1 0.3215691626808272 -1 0.3355605418984044 -1 0.5044430558555845 1 0.09951944441357996 1 0.4158705631418275 -1 0.37786919036184285 1 0.786531427051236 1 0.539052962614305 1 0.5422146714095444 1 -0.24031142398919614 -1 0.10659135633147547 -1 0.5049254787096821 1 -0.6009507292418643 -1 -0.09063719164341257 1 -0.6483511834939105 1 0.6614551568659621 1 -0.7037294231932161 -1 -0.9080202084210532 -1 0.16696701310831766 -1 0.6858927713693495 1 -0.7377720898420519 1 0.12243865435829324 1 -0.7745461957763151 1 0.7850946598547417 -1 -0.12098761852341687 1 -0.7768095161199878 1 0.09587026748835656 1 -0.7651688680255218 -1 -0.9189052655061134 1 -0.9898474997297699 -1 -0.8787756112400779 1 0.6075560419900379 1 -0.6873264842000121 -1 0.5055759608522646 1 -0.595846222296706 1 0.5395266725334302 -1 -0.266015269177959 1 -0.015178352603188429 1 -0.6096747030069909 1 -0.6082761203047334 1 -0.7221981366185838 1 0.5417335049589977 -1 0.6824148524677284 1 0.9639733547381715 1 -0.2637482196695565 -1 -0.7812624647114285 -1 0.015611564236994138 -1 0.8532132376910818 1 -0.044553756610419465 1 0.4178969869669535 1 0.42901274616353646 1 0.09909981564364799 -1 0.7749732566588712 -1 -0.18897483389445308 1 -0.14298082250469427 -1 -0.9923591460610135 -1 0.2847888382791103 1 -0.0448586925461817 1 -0.05742432655903482 1 -0.7482999254008322 -1 0.41531893958677923 1 -0.6277512540216974 1 -0.6018329558983776 -1 -0.32509723467922735 -1 -0.7625455940665145
11 1 0.0 1 0.5277192368154399 1 0.47365608021737665 -1 0.9337217421408516 1 -0.9628352643777651 1 -0.12355915241475696 1 0.12092086554373584 -1 0.2931154925790401 -1 0.782232482526369 1 0.27025462547944334 1 0.8559669431701367 1 0.6570867047816507 -1 0.9137978408881663 1 0.05178045586394048 -1 0.8399321245070857 -1 0.8407537425966244 -1 -0.41320214837593133 1 -0.7267780728479515 -1 -0.7148866564051576 1 0.5980419044737891 1 -0.6200995739157011 1 -0.619478368472125 1 -0.25283534893392406 1 -0.27802368253116205 1 -0.7287514331337961 1 -0.6123367332007417 1 -0.7233437348355386 1 -0.24932901156667936 1 -0.041071899822195466 -1 0.8022582617687323 1 -0.7252453046900249 1 0.24423267881685345 1 0.2996612976437304 1 0.9902096359285615 1 0.038366963047320846 1 0.26584025450007226 -1 0.3595712746405628 -1 0.5707994011867913 1 0.04530265773415412 1 0.35698876481327885 -1 0.4115612861917206 1 0.7516968854244418 1 0.47550615263663354 1 0.4674560409278857 1 -0.24983589670796275 -1 0.13152982722142761 -1 0.5675445505395598 1 -0.6110930039978452 -1 -0.07429146282682564 1 -0.6501337597405878 1 0.6311995663843034 1 -0.7002626044372352 -1 -0.9603551978947374 -1 0.2236236594368663 -1 0.7127819470163457 1 -0.7268215561259435 1 0.06578200802974458 1 -0.7250207416561663 1 0.7539973917292765 -1 -0.10464188970682994 1 -0.7198095149971808 1 0.05286530131291795 1 -0.7268552344093602 -1 -0.9382246656889949 1 -0.938809924108292 -1 -0.9348478742150912 1 0.5754174713403835 1 -0.6697957229453603 -1 0.5644577591808133 1 -0.613463044055345 1 0.4722425890544297 -1 -0.25306345906844274 1 -0.03455749237990296 1 -0.6086051572589845 1 -0.6109438480580561 1 -0.6994179803612739 1 0.4707121479786681 -1 0.7130413016160537 1 0.9089837979662416 1 -0.28043730328040184 -1 -0.7905003648241344 -1 -0.004342790935786302 -1 0.9147496033178761 1 -0.07727464042966455 1 0.35527791513707574 1 0.36265640083232964 1 0.04862030246555122 -1 0.8372226527843364 -1 -0.20661797656324626 1 -0.1350971184323923 -1 -0.9375842969382064 -1 0.2833993012413644 1 -0.07384230286409771 1 -0.08267066337562173 1 -0.7367741762886578 -1 0.44527376191532786 1 -0.6229444347723619 1 -0.6082379571530294 -1 -0.32807489854312955 -1 -0.731706507453011
12 1 0.0 1 0.5147967050217132 1 0.3923506408808535 -1 0.9924485724141104 1 -0.933250117753629 1 -0.14364215473267297 1 0.059229531861651835 -1 0.35258167426112413 -1 0.7950263671749602 1 0.33438581881065016 1 0.8468840111127204 1 0.6910795687646384 -1 0.9799992181640834 1 0.0013009426858437076 -1 0.9089430371365381 -1 0.9060273817247477 -1 -0.3955853266172923 1 -0.6837994275826671 -1 -0.7061704426465185 1 0.5856774351234436 1 -0.6115554811650366 1 -0.6146715492227895 1 -0.2586225481513616 1 -0.29845003964333644 1 -0.6770008270136473 1 -0.6150044609540644 1 -0.6915769100742414 1 -0.26259075778677504 1 -0.07753005714276963 -1 0.8787437214008429 1 -0.6860039329260695 1 0.18383875898697571 1 0.2401951159616464 1 0.9729604196903903 1 -0.0009007296267886794 1 0.20170906116886544 -1 0.38747424893934007 -1 0.6492953051697791 1 0.002297691558715516 1 0.2900480361285367 -1 0.44978974652558557 1 0.7158485451458666 1 0.3904634397987813 1 0.3973624220953498 1 -0.25936036942672935 -1 0.1590631258157923 -1 0.6497777280238767 1 -0.617498005252497 -1 -0.05492149100758055 1 -0.6519163359872652 1 0.5972067024013157 1 -0.6952836641799253 1 0.9811326794811264 -1 0.28401757926674404 -1 0.743408396164671 1 -0.7093839531488036 1 0.007827947848989665 1 -0.68951664339354 1 0.7144117779493722 -1 -0.08455888738891393 1 -0.6917799637372127 1 -0.001351485366507886 1 -0.6788419017905404 -1 -0.9601388935762889 1 -0.8802978014841559 -1 -0.9909201371901045 1 0.543278900690729 1 -0.6522649616907085 -1 0.6504282101664592 1 -0.6123934983073386 1 0.3946744232192356 -1 -0.23263710195626836 1 -0.055234046008823756 1 -0.6224847055162944 1 -0.621086122814037 1 -0.6781499456052931 1 0.39688125564480314 -1 0.73993047726305 1 0.8427824206903245 1 -0.29712638689124715 -1 -0.7997382649368404 -1 -0.025809267609895818 -1 0.9772137070924641 1 -0.10777037224890962 1 0.29207445995366266 1 0.2932758124984646 1 0.0018780627887835313 -1 0.9099708389151179 -1 -0.22426111923203945 1 -0.12721341436009034 -1 -0.8815120339631931 -1 0.2847929786469997 1 -0.10656318668334279 1 -0.10942912169353773 1 -0.7131514551658508 -1 0.47976494874786374 1 -0.6106630685203683 1 -0.6258547789116684 -1 -0.33105256240703174 -1 -0.6762186278315331
13 1 0.0 1 0.5018741732279864 1 0.3154955055443303 1 -0.9437899099590954 1 -0.9015684662746285 1 -0.16502257090279526 1 -0.0024618018204321662 -1 0.4269969499485245 -1 0.8078202518235514 1 0.4125383679993796 1 0.8331623883163355 1 0.7250724327476261 1 -0.9562392642091222 1 -0.04544129699092398 -1 0.9826189614151134 -1 0.983440579504652 -1 -0.37796850485865324 1 -0.6475822988213699 -1 -0.6853572568772468 1 0.5705297513297168 1 -0.6254350294223465 1 -0.6210765504774414 1 -0.27318170822366356 1 -0.31513912325418175 1 -0.6519955187563373 1 -0.617672188707387 1 -0.644147960808957 1 -0.26967537085641885 1 -0.11550033596467288 -1 0.9598941926820763 1 -0.6460495306634433 1 0.1197075656557689 1 0.16858937562778142 1 0.9518189618956002 1 -0.04764296930355637 1 0.13384059433632955 -1 0.4166746370903236 -1 0.739003029656754 1 -0.05191909512071032 1 0.21937003394246543 -1 0.4955788143660959 1 0.6781184076615497 1 0.3173455779635872 1 0.3092954662548394 1 -0.27018225599770224 -1 0.18659642441015697 -1 0.7357481790095226 1 -0.6164284595044907 -1 -0.033455014333471034 1 -0.6536989122339425 1 0.5586774739143406 1 -0.6782077519119827 1 0.9173711618543321 -1 0.355623319600609 -1 0.7684420955160799 1 -0.688054108615045 1 -0.050126112331765255 1 -0.6458249676295846 1 0.6804189139663844 -1 -0.059939520567010685 1 -0.6406137409705992 1 -0.04435645154194649 1 -0.6463620465305723 -1 -0.9837202110202017 1 -0.8204882650078136 1 0.9453183451831011 1 0.5072480884844558 1 -0.6347342004360567 -1 0.7326613876507762 1 -0.6225357730633194 1 0.3140820143813834 -1 -0.20831850328747514 1 -0.07498286148995083 1 -0.6139406127656298 1 -0.6162793035647015 1 -0.649407363846654 1 0.31255157330562183 -1 0.7687014501157878 1 0.7625596875568849 1 -0.31755274400342154 -1 -0.8089761650495464 -1 -0.047275744284005335 1 -0.9552875017794125 1 -0.13977822556948377 1 0.2176591842662623 1 0.2151232633097352 1 -0.04860145038931324 -1 0.979909489692364 -1 -0.24190426190083264 1 -0.1180322964355821 -1 -0.8179652239855216 -1 0.28804213234822246 1 -0.14230831350524603 1 -0.13769970151278282 1 -0.6895287340430437 -1 0.5218167430870451 1 -0.6282798902790073 1 -0.6135734126596748 -1 -0.3340302262709339 -1 -0.6549505930755523
14 1 0.0 1 0.490249055286466 1 0.2186565888489555 1 -0.8749937049787657 1 -0.869886814795628 1 -0.18640298707291755 1 -0.06789040900384526 -1 0.518801179290364 -1 0.8215418746199363 1 0.5093772846947544 1 0.8194407655199506 1 0.7710762082372593 1 -0.8799685122261344 1 -0.10490747867300798 1 -0.9349331534514469 1 -0.9378488088632373 -1 -0.3603516831000142 1 -0.6091400180600727 -1 -0.6645440711079751 1 0.5566794813881963 1 -0.6168909366716819 1 -0.620007004729435 1 -0.28026632129330736 1 -0.33556548036635614 1 -0.606078690992382 1 -0.6203399164607097 1 -0.6206547740529761 1 -0.2842345309287208 1 -0.1549827362879052 1 -0.9501833751818258 1 -0.6150817969048042 1 0.05427895847235581 1 0.09568622144171017 1 0.9228930209875725 1 -0.1018597559829822 1 0.06467471365158739 -1 0.4536595083545447 -1 0.8227483286424 1 -0.09492406129614893 1 0.13655247310461321 -1 0.5413678822066063 1 0.6358519056732457 1 0.21676938776688337 1 0.22366837006345183 1 -0.2810041425686751 -1 0.21802196456114048 -1 0.8232307514964976 1 -0.6228334607591425 -1 0.0008214648499420482 1 -0.6418723949686581 1 0.5188508315751593 1 -0.6611318396440401 1 0.8324834170717696 -1 0.45619950979731283 -1 0.798510482221024 1 -0.6667242640812864 1 -0.09686835200853294 1 -0.6185945073722747 1 0.6344151384767512 -1 -0.034735770391572086 1 -0.6208578277159474 1 -0.10755990672535959 1 -0.6116570392706042 1 0.9888062299792666 1 -0.7569414550301421 1 0.8566933268992095 1 0.4721450144259763 1 -0.6187155606827339 -1 0.8238812336390802 1 -0.617728953813984 1 0.22098037118733768 -1 -0.18248778311735286 1 -0.09380393882328418 1 -0.6278201610229398 1 -0.6264215783206823 1 -0.6072278095840277 1 0.22318720361290517 -1 0.795032563319403 1 0.6788143885712389 1 -0.33424182761426685 -1 -0.8182140651622524 -1 -0.07852798046476026 1 -0.8827540232977538 1 -0.17085834074226422 1 0.13857889692973913 1 0.13978024947454112 1 -0.09908096356741 1 -0.9339053516728673 -1 -0.2610595260709549 1 -0.11163439295445504 -1 -0.7581556875091793 -1 0.2950022386406201 1 -0.16965115517669738 1 -0.17251709018689235 1 -0.6659060129202367 -1 0.5616433854262264 1 -0.6159985240270137 1 -0.6311902344183138 -1 -0.3370078901348361 -1 -0.6037843703089387
15 1 0.0 1 0.47957799640289345 1 0.12836448100844514 1 -0.806197499998436 1 -0.8382051633166275 1 -0.2092955247443689 1 -0.13634325918991652 -1 0.6128305606322034 -1 0.8417839853610315 1 0.6071439395379229 1 0.7991986547788554 1 0.8185921052282216 1 -0.8074350337444757 1 -0.1518644259988985 1 -0.8511878544658009 1 -0.8503662363762623 -1 -0.34273486134137515 1 -0.6155450193147245 -1 -0.6437308853387034 1 0.5441266252988821 1 -0.6083468439210173 1 -0.5965138179734542 1 -0.2948254813656093 1 -0.35225456397720145 1 -0.619958239249692 1 -0.5931094562033998 1 -0.589687040294337 1 -0.2913191439983646 1 -0.19353739846334383 1 -0.8589635291935218 1 -0.6140122511567979 1 -0.01114964871105728 1 0.022783067255638917 1 0.8939670800795448 1 -0.15255397681020177 1 -0.004491167033154775 -1 0.4932392073231784 -1 0.9151106204276206 1 -0.15683010262735575 1 0.05991204541721287 -1 0.5886690715484457 1 0.5898481301836125 1 0.1289171395754958 1 0.12216444171895426 1 -0.291826029139648 -1 0.25463716012094906 -1 0.9118557697803892 1 -0.5843911799978453 -1 0.03509794403335513 1 -0.6285337562020447 1 0.47154964223331985 1 -0.6440559273760975 1 0.7475956722892072 -1 0.5554782861418104 -1 0.8287338369812579 1 -0.6463221576953214 1 -0.15503711983841068 1 -0.602575867618952 1 0.5921486364884472 -1 0.004790103794499165 1 -0.5861528204559794 1 -0.150779580549921 1 -0.6143247670239269 1 0.9561430155699099 1 -0.696204180406006 1 0.7680683086153179 1 0.4338627293095489 1 -0.5989596474280822 -1 0.9087689784216426 1 -0.6054475875619904 1 0.12695098984549824 -1 -0.15514494144590152 1 -0.12040949926985514 1 -0.5819033332589845 1 -0.584242024058056 1 -0.6173700843400085 1 0.12542054876973666 -1 0.828993191580966 1 0.5823451475802767 1 -0.35466818472644124 -1 -0.8293074415705458 -1 -0.11654173314950242 1 -0.8064832713147659 1 -0.20193845591504467 1 0.05820119574100971 1 0.055665274784482646 1 -0.15351245789595866 1 -0.8538973261885504 -1 -0.28021479024107715 1 -0.10616422762112171 -1 -0.6936811393837141 -1 0.3066010356719864 1 -0.2044685438508069 1 -0.1998599318583437 1 -0.6413555536496359 -1 0.6039098874145304 1 -0.6111917047776783 1 -0.5815361331530293 -1 -0.3399855539987383 -1 -0.6214011920675777
16 1 0.0 1 0.4707887347250625 1 0.02930041231307033 1 -0.7379856783716418 1 -0.8019871473336397 1 -0.23218806241582027 1 -0.20105883587465867 -1 0.7130370751244947 -1 0.8638815723977141 1 0.7110877275315433 1 0.7814227245970373 1 0.8678348313696357 1 -0.7317486651150232 1 -0.2091054556809825 1 -0.7674425554801549 1 -0.7703582108919454 -1 -0.31764349258007796 1 -0.5771027385534273 -1 -0.6229176995694317 1 0.530087968618393 1 -0.5848536571650365 1 -0.5879697252227896 1 -0.30191009443525313 1 -0.37734593273849865 1 -0.5740414114857366 1 -0.5883026369540644 1 -0.5886174945463307 1 -0.3058783040706666 1 -0.23582933414011154 1 -0.7677436832052178 1 -0.5830445173981589 1 -0.0833397723984576 1 -0.05163220843176142 1 0.8611488976148984 1 -0.2060577329909567 1 -0.08041856422188419 -1 0.5341163201440183 1 -0.9912296739349526 1 -0.20285931180545252 1 -0.02420292927284559 -1 0.6392092115420661 1 0.5393079901899921 1 0.026115797378791952 1 0.03431219352756669 1 -0.3026479157106209 -1 0.29644201108958274 1 -0.9907472510808548 1 -0.5907961812524971 -1 0.07391078772075546 1 -0.6151951174354312 1 0.4193424126830806 1 -0.6195054681054968 1 0.647389157796916 -1 0.6594220741354307 -1 0.8637771714459044 1 -0.6259200513093565 1 -0.20106632901650745 1 -0.5865572278656292 1 0.5378712229934977 -1 0.04582809948189949 1 -0.5888205482093021 1 -0.21175788373333407 1 -0.5796197597639587 1 0.9234798011605532 1 -0.6317296322805408 1 0.6641245206216976 1 0.3905457568395861 1 -0.5866782811760886 1 -0.9900967689382725 1 -0.5856916743073386 1 0.03162419465145251 -1 -0.10911573226780474 1 -0.14982459506996146 1 -0.5957828815162944 1 -0.5943842988140369 1 -0.5751905300773822 1 0.033831027077020015 -1 0.8602992525442833 1 0.4784013595866563 1 -0.37602227998640936 -1 -0.8431840324222204 -1 -0.15736502118777995 1 -0.7345341761866426 1 -0.2367558445891542 1 -0.022176505447719708 1 -0.020975152902917696 1 -0.2032789405753845 1 -0.7664147537015754 -1 -0.2993700544111994 1 -0.1043786939688091 -1 -0.632943864759578 -1 0.31819983270335267 1 -0.23554865902358735 1 -0.2384145940337823 1 -0.6242796413816933 -1 0.65818730090948 1 -0.5839612445203683 1 -0.5991529549116683 -1 -0.34110774156705304 -1 -0.5717470908022932
17 1 0.0 1 0.46199947304723155 1 -0.0653133523823045 1 -0.6622993097421893 1 -0.761018059197542 1 -0.26112908609258795 1 -0.26951168606072995 -1 0.820718136619444 -1 0.8831696240808614 1 0.8225060625278218 1 0.7636467944152192 1 0.9193027095110499 1 -0.663536843488229 1 -0.25887193836040834 1 -0.6842816398480444 1 -0.6797227482571767 -1 -0.2934798619665745 1 -0.5835077398080791 -1 -0.60210451380016 1 0.5166336952914393 1 -0.5763095644143719 1 -0.5644765384668087 1 -0.3164692545075551 1 -0.39870002799846677 1 -0.5879209597430466 1 -0.5610721766967544 1 -0.5576497607876917 1 -0.3129629171403104 1 -0.27287187481422104 1 -0.6808454940717782 1 -0.5819749716501526 1 -0.15552989608585793 1 -0.13129687912181992 1 0.8270333012980458 1 -0.2595614891717116 1 -0.1563459614106136 -1 0.5747787253157355 1 -0.8887980074426614 1 -0.2638376149888656 1 -0.10760487346423316 -1 0.6987360200396737 1 0.47978118169238443 1 -0.06476069381525378 1 -0.07151339167179531 1 -0.31346980228159377 -1 0.3382468620582164 1 -0.8920528580898927 1 -0.5523539004911999 -1 0.12482060341878844 1 -0.6018564786688178 1 0.3671351831328413 1 -0.6024295558375542 1 0.5344587012993084 -1 0.7708404091317091 -1 0.8978927677627571 1 -0.6055179449233915 1 -0.2657819057012496 1 -0.5705385881123065 1 0.48208168799721907 -1 0.10047518868126154 1 -0.554115540949334 1 -0.25778709291143087 1 -0.5822874875172814 1 0.8869243451945776 1 -0.5709923576564047 1 0.5527061856254192 1 0.3472287843696233 1 -0.5669223679214368 1 -0.8951396494486393 1 -0.573410308055345 1 -0.06672684354525137 -1 -0.03785334672819814 1 -0.17960936657448032 1 -0.5498660537523391 1 -0.5522047445514106 1 -0.585332804833363 1 -0.06825728462101292 -1 0.894414848861136 1 0.3703506223872943 1 -0.40111364874770655 -1 -0.8594741620128636 -1 -0.20062816887518028 1 -0.6625850810585192 1 -0.27006111176193465 1 -0.10931572314043635 1 -0.11185164409696342 1 -0.26051997025746854 1 -0.6869911115707938 -1 -0.31852531858132166 1 -0.10259316031649648 -1 -0.5684693166341128 -1 0.32979862973471896 1 -0.276328473199026 1 -0.26798258770523364 1 -0.5997291821110926 -1 0.7154889574070876 1 -0.5791544252710329 1 -0.5494988536463838 -1 -0.34130219098757403 -1 -0.5893639125609322
18 1 0.0 1 0.4522824732216069 1 -0.17487621108299556 1 -0.594087488115395 1 -0.7200489710614442 1 -0.29460647427334286 1 -0.3102915002361686 -1 0.9330642097635162 -1 0.8994334327613505 1 0.9311148621705649 1 0.7430876497900198 1 0.9698428495046703 1 -0.5878504748587765 1 -0.3235875150451505 1 -0.5973834507146047 1 -0.6002991061263951 -1 -0.26391186829512314 1 -0.5375909120441238 -1 -0.5782670850282301 1 0.5057742496688982 1 -0.5453418306557328 1 -0.5559324457161441 1 -0.32392354328161144 1 -0.42379139675976396 1 -0.5345295849764331 1 -0.5562653574474189 1 -0.5565802150396854 1 -0.3278917529170249 1 -0.30617714198700147 1 -0.5976845784396676 1 -0.5435326908888554 1 -0.2342668286281227 1 -0.21377108516541377 1 0.7891804314798639 1 -0.3205397923551247 1 -0.23134562045154927 -1 0.6161804818962777 1 -0.7938408879530282 1 -0.31582924966829146 1 -0.2012909000118142 -1 0.7612870715399396 1 0.4236219709916933 1 -0.1780608260172739 1 -0.1698644298684992 1 -0.3246613645569792 -1 0.3815638345281792 1 -0.7933584650989305 1 -0.5587589017458517 -1 0.1757304191168214 1 -0.581756323398217 1 0.31492795358260206 1 -0.5748548535642953 1 0.41871870944816547 -1 0.8869237557771104 -1 0.9372577590822679 1 -0.582521010833014 1 -0.3140362668793464 1 -0.5507826748576548 1 0.42218520379519886 -1 0.15512227788062358 1 -0.5567832687026567 1 -0.32623994309750215 1 -0.5401079332546551 1 0.8438220803737376 1 -0.5474991709004238 1 0.43322892027294724 1 0.3039118118996605 1 -0.5546410016694432 1 -0.792707982956348 1 -0.5461798477980351 1 -0.17255242874461335 -1 0.07544678547382198 1 -0.20939413807899918 1 -0.5637456020096491 1 -0.5623470193073914 1 -0.5356787035680786 1 -0.17034559631904586 -1 0.937517113681976 1 0.2632276233357261 1 -0.4224677440076747 -1 -0.8757642916035069 -1 -0.24389131656258062 1 -0.5906359859303958 1 -0.3071036524360442 1 -0.19926447618668836 1 -0.19806312364188633 1 -0.31776099993955254 1 -0.5963556489360251 -1 -0.3419759186961542 1 -0.10730179369873996 -1 -0.5524506768807901 -1 0.3398853052647562 1 -0.30589646687047733 1 -0.31249967538200135 1 -0.5833663003418209 -1 0.7743027354060243 1 -0.5444494180110648 1 -0.5671156754050228 -1 -0.341496640408095 -1 -0.5322352642929896
19 1 0.0 1 0.4433048248048074 1 -0.2760367846332348 1 -0.5184011194859426 1 -0.6790798829253464 1 -0.33564446996074315 1 -0.3697576819182526 1 -0.9566599010371217 -1 0.9160405962360979 -1 -0.954871975128744 1 0.725123332869233 -1 -0.9796170105017092 1 -0.5196386532319822 1 -0.36063005571926 1 -0.5142225350824942 1 -0.5096636434916264 -1 -0.19172174460772282 1 -0.5439959132987756 -1 -0.5581669297576294 1 0.49305932775076955 1 -0.5367977379050682 1 -0.524964711957505 1 -0.3401497929105322 1 -0.4451454920197321 1 -0.5484091332337431 1 -0.5215603501874508 1 -0.5181379342783882 1 -0.33534604169108123 1 -0.3731178706717436 1 -0.510786389306228 1 -0.542463145140849 1 -0.3079690738168521 1 -0.29494787735680134 1 0.7474353201050633 1 -0.36131960653056333 1 -0.30878513914160777 -1 0.65758223847682 1 -0.6904814833129432 1 -0.36408361084638824 1 -0.28750237955673713 -1 0.8225407091879992 1 0.36091595143613775 1 -0.27548412606618405 1 -0.2822368239227256 1 -0.3371503406845709 -1 0.4289877562038837 1 -0.6937363339601745 1 -0.5128420739818964 -1 0.2266402348148544 1 -0.5579188946262872 1 0.26343375453103374 1 -0.5584919717950236 1 0.30785843689526815 1 -0.9943980698730759 -1 0.980360023903108 1 -0.5585963385948428 1 -0.36602790155877224 1 -0.531026761603003 1 0.3632164577409724 -1 0.2097693670799856 1 -0.5146037144400304 1 -0.35695038256587003 1 -0.5427756610079778 1 0.7983396954976079 1 -0.531480531147101 1 0.3156071312160627 1 0.2570722735774914 1 -0.5274105414121333 1 -0.6968231253189212 1 -0.5338984815460415 1 -0.2774502757961816 -1 0.18500964417451304 1 -0.24307115114013686 1 -0.5103542272430356 1 -0.5126929180421069 1 -0.5458209783240594 1 -0.2789807168719432 -1 0.9768821050014869 1 0.15668900763769317 1 -0.44755911276897187 -1 -0.8948376356375313 -1 -0.2871544642499809 1 -0.5186868908022724 1 -0.3703071076194573 1 -0.28921322923294035 1 -0.2917491501894674 1 -0.36227808761632024 1 -0.5169320068052435 -1 -0.3641291049587804 1 -0.11664911781995208 -1 -0.5289574901248092 -1 0.34809018358905175 1 -0.37657446905654857 1 -0.3682285835627563 1 -0.5567193362163557 -1 0.8318190995527548 1 -0.5396425987617294 1 -0.5099870271370802 -1 -0.3429885036808223 -1 -0.5498520860516286
20 1 0.0 1 0.43432717638800783 1 -0.3871117648352549 1 -0.4986452062312908 1 -0.6381107947892486 1 -0.37761020379593724 1 -0.4097981446848661 1 -0.8467536875421724 -1 0.9335754978586391 -1 -0.8487030351351237 1 0.7071590159484462 -1 -0.9260526275054306 1 -0.49240819297467225 1 -0.42460628099517705 1 -0.5094157158331587 1 -0.5272804652502654 -1 -0.07561207705216737 1 -0.4719181710255167 -1 -0.523744650476396 1 0.48034440583264093 1 -0.4796690896371256 1 -0.49025970469753694 1 -0.3618756340588576 1 -0.4702368607810293 1 -0.468856843957826 1 -0.4905926164288118 1 -0.5021192945250654 1 -0.363618691694271 1 -0.40568378643569897 1 -0.5171913905608798 1 -0.47785994987024827 1 -0.3876337445069106 1 -0.3783498215481889 1 0.7075456850258501 1 -0.4215585583051513 1 -0.3847125363303372 -1 0.6989839950573622 1 -0.5945966256755164 1 -0.4168480156183181 1 -0.38211614425211193 -1 0.8819388705404713 1 0.3013628220283759 1 -0.39029637976953324 1 -0.38209998362075853 1 -0.36261345533422534 -1 0.47715102928841324 1 -0.5941142028214186 1 -0.5117725282338901 -1 0.27906217201421646 1 -0.5272338888463829 1 0.2119395554794654 1 -0.5203324190124612 1 0.19477301234237082 1 -0.8792424613754684 1 -0.9763827432207624 1 -0.5265175075390215 1 -0.41354291132804394 1 -0.48510993383904766 1 0.29992605483188145 -1 0.26592857778067674 1 -0.5060596216893658 1 -0.42466388134311617 1 -0.47443519223604796 1 0.7547127869170656 1 -0.4818264298818166 1 0.1987844331618363 1 0.2102327352553223 1 -0.4889682606508361 1 -0.5934637206788362 1 -0.480507106779428 1 -0.3847879824968726 -1 0.29830977637653316 1 -0.28842488887113105 1 -0.5204965019990164 1 -0.5153606457954296 1 -0.47000596254947136 1 -0.3825811500713052 1 -0.9761233886210543 1 0.04338887543567305 1 -0.46891320802894 -1 -0.9139109796715557 -1 -0.3410024624466848 1 -0.4951937040462915 1 -0.4066102968847417 1 -0.3800897204269861 1 -0.37888836788218405 1 -0.41877976588957916 1 -0.5046506405532499 -1 -0.3953550202293812 1 -0.1259964419411642 -1 -0.48677793586218293 -1 0.3581505382089348 1 -0.40540311131917484 1 -0.4120063198306989 1 -0.5297716039377804 -1 0.8874799874038978 1 -0.4787766769924577 1 -0.5238665753943902 -1 -0.33427524732781855 -1 -0.46656252327438247
21 1 0.0 1 0.42686164947253735 1 -0.4660370841164883 1 -0.4527283784673355 1 -0.5926053421491635 1 -0.43676733658913236 1 -0.46478770145679593 1 -0.7396570094007583 -1 0.9511103994811804 -1 -0.7378690834923806 1 0.6891946990276594 -1 -0.8709761230078229 1 -0.45396591221337507 1 -0.4571721967591324 1 -0.448549794063887 1 -0.4381571241168258 -1 0.04142532865118183 1 -0.47832317228016846 -1 -0.4960838876991498 1 0.4676294839145123 1 -0.4711249968864611 1 -0.4592919709388979 1 -0.40290771493498734 1 -0.4803791355370101 1 -0.49021093921779413 1 -0.4558876091688437 1 -0.452465193259781 1 -0.39717622556774257 1 -0.46814789021028697 1 -0.4451136482876209 1 -0.4767904041222419 1 -0.46282179028681497 1 -0.4871733288400549 1 0.667656049946637 1 -0.45786174757043574 1 -0.47111240261422876 -1 0.7403857516379044 1 -0.4927493425367605 1 -0.46062575188626065 1 -0.47599055753866165 -1 0.9413370318929434 1 0.23936983297149123 1 -0.46174715204810846 1 -0.4797116704086373 1 -0.39990826270902596 -1 0.5238021808716137 1 -0.49600419318399175 1 -0.4471693329632893 -1 0.3388300090711011 1 -0.4952514692142723 1 0.14843444492125168 1 -0.4979210512378732 1 0.07773560663902163 1 -0.7646712362313961 1 -0.9293882368433035 1 -0.493880614039819 1 -0.46105792109731564 1 -0.4653540205843959 1 0.24167033927632586 -1 0.3294336883388905 1 -0.4489309734214232 1 -0.45349252360574244 1 -0.47710291998937066 1 0.7110858783365233 1 -0.46580779012849394 1 0.07800975395715805 1 0.16135643167212183 1 -0.46173780039352613 1 -0.4990909845427384 1 -0.4682257405274344 1 -0.4674505752794351 -1 0.41886974793208864 1 -0.3337786266021252 1 -0.4431693647230993 1 -0.4470201770234998 1 -0.48388551080678127 1 -0.47271828985652586 1 -0.9328661557449246 1 -0.06991125676634707 1 -0.486530029787579 -1 -0.9357675381489613 -1 -0.4011136542978278 1 -0.4530141497836652 1 -0.46533712715800063 1 -0.4814386807161939 1 -0.48397460167272094 1 -0.45882022865619265 1 -0.4512592657866364 -1 -0.43414154300662733 1 -0.13627150421017004 -1 -0.4632847491062021 -1 0.36561606512440525 1 -0.4716044885950919 1 -0.4632586031012997 1 -0.4925397893030117 -1 0.9431408752550408 1 -0.4739698577431222 1 -0.441290043115815 -1 -0.3224880635574836 -1 -0.49165389203567966
22 1 0.0 1 0.4193961225570669 1 -0.46123026486715285 1 -0.5226670292445816 1 -0.5470998895090784 1 -0.4921871958809984 1 -0.47492997621277677 1 -0.6288230577580152 -1 0.9686453011037216 -1 -0.6307724053509665 1 0.6742546251095307 -1 -0.8171970323624215 1 -0.512692742486634 1 -0.5084244800297332 1 -0.5334375388464495 1 -0.5454685099073626 -1 0.158462734354531 1 -0.42866907101488405 -1 -0.45956510356305197 1 0.45642668349771276 1 -0.44763181013048026 1 -0.4993324337055114 1 -0.4364652488084589 1 -0.4232504872690675 1 -0.41065864994187706 1 -0.5108771659407735 1 -0.5261411175383562 1 -0.43728056829607853 1 -0.45586652395829336 1 -0.5412132135741706 1 -0.4346108498596156 1 -0.4841758855467831 1 -0.4113583130654669 1 0.6225170198647656 1 -0.5053767573397074 1 -0.45135648935957695 -1 0.7877499337197759 1 -0.4042103847568562 1 -0.49692894115154507 1 -0.43754827677736446 1 -0.9992648067545846 1 0.17212744891194842 1 -0.48683852080940565 1 -0.4263202956420238 1 -0.43627533193603285 -1 0.568941210953485 1 -0.40091842654922305 1 -0.5357943512471809 -1 0.4060723931306439 1 -0.46398208008083264 1 0.08400159621524422 1 -0.4576649936004463 1 -0.03930179906432757 1 -0.6501000110873238 1 -0.8876431254685029 1 -0.4577211546884102 1 -0.493623836861271 1 -0.4680217483377186 1 0.17069068171545398 -1 0.40041334589976235 1 -0.5300814447026566 1 -0.5159566273803304 1 -0.4311860922254153 1 0.6637216962546519 1 -0.46473824438048755 1 -0.04276492524752021 1 0.11340786623671507 1 -0.4905664426561524 1 -0.3972437014039825 1 -0.4522071007741117 1 -0.4589064825287706 -1 0.5415262243425085 1 -0.3776202428317903 1 -0.5430062035109781 1 -0.5393824688087204 1 -0.4192823155361805 1 -0.4417505560978868 1 -0.8873837708687948 1 -0.19068593597102534 1 -0.41445228751432006 -1 -0.9533024397715025 -1 -0.46308032244455827 1 -0.5192155270595823 1 -0.4717421284126524 1 -0.4205727589469222 1 -0.4156341329007911 1 -0.5025979649241352 1 -0.5286724635665407 -1 -0.49329867579982245 1 -0.14654656647917588 -1 -0.477164297363512 -1 0.37400933018766946 1 -0.44437402833778195 1 -0.4808754248599387 1 -0.46559205702443646 -1 0.9988017631061837 1 -0.4392648504831541 1 -0.5448641554050228 -1 -0.3122130012884778 -1 -0.4083643292584335
23 1 0.0 1 0.41100285749380266 1 -0.4790617942749147 1 -0.4581924811191165 1 -0.5015944368689933 1 -0.4859108417714822 1 -0.47327604711123505 1 -0.5217263796166011 -1 0.9835853750218503 -1 -0.5199384537082233 1 0.6608266726927312 -1 -0.76341794171702 1 -0.45943001486515606 1 -0.4626362994109134 1 -0.454013896715668 1 -0.4436212267686067 -1 0.28578422241407364 1 -0.4995617808500781 -1 -0.4833590584721429 1 0.4442961449331195 1 -0.48847136389975193 1 -0.46475607359067883 1 -0.4533711102523717 1 -0.5016177441069197 1 -0.5114495477877037 1 -0.4613517118206246 1 -0.45792929591156195 1 -0.4504491562386623 1 -0.48549425722357775 1 -0.4505777509394019 1 -0.4980290126921515 1 -0.4713101359412541 1 -0.5084119374099645 1 0.5773779897828942 1 -0.46332585022221673 1 -0.48845876962751955 -1 0.8351141158016473 1 -0.512475829605341 1 -0.4660898545380416 1 -0.49333692455195244 1 -0.9423065050512354 1 0.10114779135107653 1 -0.4702354977025476 1 -0.5009502789785469 1 -0.45691846688127474 -1 0.6140802410353564 1 -0.512921144899037 1 -0.4526334356150703 -1 0.474612191042393 1 -0.4787893664859363 1 0.01805662600790768 1 -0.48578060536440165 1 -0.16755102527166396 1 -0.5355287859432516 1 -0.8421607405923731 1 -0.4577008964598084 1 -0.4665220237490966 1 -0.473842366238835 1 0.10344829765591117 -1 0.47269041731284056 1 -0.4543950760732042 1 -0.4589566262575234 1 -0.49834152855928027 1 0.6148453926714514 1 -0.4758082572842621 1 -0.16727687795352753 1 0.06416188694910205 1 -0.47022614604796525 1 -0.5129836932551255 1 -0.4855721075407252 1 -0.48198740693919057 -1 0.6660381770485159 1 -0.4214618590614554 1 -0.4486334673748803 1 -0.45248427967528076 1 -0.5051241193766909 1 -0.49006465686981665 1 -0.8456386594939942 1 -0.3105328770279099 1 -0.5077686383574886 -1 -0.9708373413940438 -1 -0.481624882350991 1 -0.4584782524354462 1 -0.47382547281243975 1 -0.5026772892861036 1 -0.5052132102426306 1 -0.4642843313079736 1 -0.4567233684384174 -1 -0.48328504818897716 1 -0.15774936689597543 -1 -0.4717730947606412 -1 0.3798077675465211 1 -0.4889508556083827 1 -0.47174694875573886 1 -0.47514994842688196 1 -0.9405026616891379 1 -0.491316224756413 1 -0.4467541457675959 -1 -0.30193793901947197 -1 -0.5128925006055892
24 1 0.0 1 0.405204420134951 1 -0.474469682674702 1 -0.5313700825481436 1 -0.4727223207435281 1 -0.4758972141606369 1 -0.4866572725189969 1 -0.41089242797385794 -1 0.998525448939979 -1 -0.4128417755668093 1 0.6464709821281379 -1 -0.7096388510716186 1 -0.5213957957901959 1 -0.5171275333332951 1 -0.544735419854424 1 -0.5593612186197496 -1 0.41612995347627446 1 -0.44256177972727107 -1 -0.48384422086661394 1 0.43476043407293874 1 -0.45763227728624845 1 -0.5080354870090733 1 -0.48195369636614094 1 -0.43563107448012545 1 -0.42303923715293495 1 -0.5195802192443354 1 -0.5348441708419182 1 -0.4866612574103794 1 -0.4688912341167197 1 -0.5538085084343514 1 -0.44850355857200264 1 -0.49590318185300314 1 -0.42373890027652483 1 0.5272042723474875 1 -0.5140798106432694 1 -0.4613569565153452 -1 0.8824782978835187 1 -0.4203282454692432 1 -0.505631994455107 1 -0.44754874393313265 1 -0.8829083436987633 1 0.03239328579020463 1 -0.49856581711562575 1 -0.4402130043544108 1 -0.47787153793709614 -1 0.6642539584707632 1 -0.413299013760281 1 -0.5483896461073616 -1 0.5405571612497295 1 -0.4935105923870527 1 -0.04788834419942886 1 -0.47950425125488544 1 -0.29113523982987755 1 -0.4209575607991794 1 -0.8004156292175725 1 -0.4749166940143007 1 -0.5023268901648329 1 -0.4797490446439387 1 0.030956518593710194 -1 0.5423726610215062 1 -0.5413793257106311 1 -0.5246596806838923 1 -0.44507880093780233 1 0.5646716752360447 1 -0.47646554068670766 1 -0.29459836601307016 1 0.01491590766148903 1 -0.5022937389623725 1 -0.4096242886150405 1 -0.46523181093253807 1 -0.47214590033631976 -1 0.7927752817545232 1 -0.4653034752911205 1 -0.5568989122233651 1 -0.5519777636689012 1 -0.43166290274723845 1 -0.451751023253655 1 -0.8001562746178644 1 -0.43130755623258815 1 -0.426832874725378 -1 -0.9857774153121724 -1 -0.49109671324944926 1 -0.5279185803631442 1 -0.4834694247188725 1 -0.4329533461579802 1 -0.42801472011184905 1 -0.5113010182276971 1 -0.5399703445745152 -1 -0.4875074840847773 1 -0.17080764360836245 -1 -0.4888915936697321 -1 0.3856062049053728 1 -0.45437449549355013 1 -0.49260272116615883 1 -0.49512056933065657 1 -0.8848417738379949 1 -0.4492653176389223 1 -0.5587568641174098 -1 -0.2907351386026724 -1 -0.4170076429681624
25 1 0.0 1 0.3984782446283056 1 -0.4877911684886308 1 -0.45417159241736205 1 -0.49200623205878596 1 -0.4908594686210303 1 -0.4766010582670033 1 -0.5279298336772071 1 -0.9865344771418925 -1 -0.5261419077688294 1 0.6336274130648737 -1 -0.6558597604262172 1 -0.4554091261634016 1 -0.45861541070915895 1 -0.45258783571832617 1 -0.44478999347567744 -1 0.5464756845384753 1 -0.5035400829106842 -1 -0.4886510401159494 1 0.425224723212758 1 -0.49244966596035794 1 -0.46073518488892445 1 -0.47844429096901175 1 -0.5040839246661967 1 -0.5176530018483098 1 -0.4573308231188702 1 -0.4539084072098075 1 -0.47774748895530234 1 -0.4911993884346357 1 -0.4504491037942664 1 -0.4982700412514285 1 -0.46728924723949966 1 -0.5146153914705706 1 0.47888603120766815 1 -0.45930496152046235 1 -0.4924370716881256 -1 0.9298424799653902 1 -0.5224165571672761 1 -0.4620689658362872 1 -0.5010525001138876 1 -0.8272474558476203 1 -0.04009849327199634 1 -0.4662146090007932 1 -0.504928581039153 1 -0.47846908174570857 -1 0.7166528279061699 1 -0.522861872460972 1 -0.4525047884699348 -1 0.6093116668106014 1 -0.4834969647762074 1 -0.11534543590809448 1 -0.49014484886041443 1 -0.4193844660372139 1 -0.5193085989958832 1 -0.7549332443414427 1 -0.47962118702865475 1 -0.4625011350473422 1 -0.4799769127481386 1 -0.037797986967161704 -1 0.607389893081049 1 -0.45296901507586235 1 -0.454935737555769 1 -0.5023198306198864 1 0.5107606842993089 1 -0.48324021764577196 1 -0.41911031871907745 1 -0.03433007162612399 1 -0.4662052573462109 1 -0.5303989678197187 1 -0.4925746526039894 1 -0.4907167811529067 -1 0.9195123864605305 1 -0.47670974521562876 1 -0.449802234081951 1 -0.4523556325301452 1 -0.5075902999359678 1 -0.4940429589304227 1 -0.7584111632430638 1 -0.5109722269226467 1 -0.5139720924180947 1 0.999282510769699 -1 -0.4863324806412621 1 -0.4544573637336918 1 -0.47866260546953704 1 -0.5051434698453805 1 -0.5114166643032366 1 -0.4602634426062192 1 -0.45529730744107555 -1 -0.48799264647924834 1 -0.18386592032074947 -1 -0.47228857056287404 -1 0.3923323804120182 1 -0.4929291576689887 1 -0.4707503030566426 1 -0.4813696682184822 1 -0.8254436124855228 1 -0.4952945268170191 1 -0.44792291247466665 -1 -0.2776768618902854 -1 -0.5228332281675244
26 1 0.0 1 0.3917520691216602 1 -0.48542420888841814 1 -0.5413108101100788 1 -0.48127957394926973 1 -0.48538220551417227 1 -0.5002066264371255 1 -0.417095882034464 1 -0.9678571297224348 -1 -0.41904522962741536 1 0.6207838440016095 -1 -0.6020806697808158 1 -0.527599249850802 1 -0.5233309873939012 1 -0.55093887391503 1 -0.5655646726803557 -1 0.6803439814528823 1 -0.44876523378787714 -1 -0.4921604455130786 1 0.41476127420478354 1 -0.46757300484818354 1 -0.5142389410696794 1 -0.48107860003865555 1 -0.44557180204206054 1 -0.429242691213541 1 -0.5257836733049415 1 -0.5447848984038532 1 -0.4841190715262752 1 -0.47530939582644854 1 -0.5600119624949574 1 -0.4547070126326087 1 -0.5021066359136092 1 -0.4299423543371309 1 0.42927037621564257 1 -0.5202832647038754 1 -0.47129768407728034 -1 0.9772066620472616 1 -0.42653169952984926 1 -0.511835448515713 1 -0.4537521979937387 1 -0.7678492944951482 1 -0.11129285848199104 1 -0.5047692711762318 1 -0.44267918491368774 1 -0.4773661173140233 -1 0.7690516973415766 1 -0.41950246782088707 1 -0.5545931001679677 -1 0.6734011607223506 1 -0.49973031217865294 1 -0.1828025276167601 1 -0.48991698075621454 1 -0.5438964187432213 1 -0.4271610148597854 1 -0.7131881329666421 1 -0.4734835352434341 1 -0.508530344225439 1 -0.48962086465457133 1 -0.11272962567848549 -1 0.6752166604941271 1 -0.5475827797712371 1 -0.5346004082458276 1 -0.45128225499840846 1 0.4574077558059542 1 -0.48763477454954657 1 -0.5473595449264138 1 -0.08301798847035584 1 -0.5084971930229786 1 -0.41582774267564654 1 -0.46396071799048594 1 -0.4800761835473777 1 -0.9537505088334624 1 -0.48681860128793075 1 -0.5631023662839711 1 -0.5581812177295072 1 -0.43786635680784447 1 -0.4579544773142611 1 -0.712928778366934 1 -0.4375110102931942 1 -0.4330363287859841 1 0.9806051633502413 -1 -0.49882855454237857 1 -0.5378593079250794 1 -0.49334124472950514 1 -0.4391568002185862 1 -0.4342181741724551 1 -0.5175044722883032 1 -0.531224704629805 -1 -0.4952393253777066 1 -0.1969241970331365 -1 -0.4996314122343254 -1 0.39905855591866357 1 -0.46057794955415615 1 -0.5018304182294231 1 -0.5028524106235859 1 -0.7697827246343798 1 -0.4554687716995284 1 -0.5649603181780158 -1 -0.2646185851778984 -1 -0.42321109702876847
27 1 0.0 1 0.38128862011368575 1 -0.5008158786470571 1 -0.4678495934806263 1 -0.5054432045627733 1 -0.5067363007741403 1 -0.4880539073302675 1 -0.5416078347404714 1 -0.9482520441551834 -1 -0.5398199088320936 1 0.6096073644949641 -1 -0.5483015791354143 1 -0.46908712722666585 1 -0.47229341177242323 1 -0.45879128977893224 1 -0.4509934475362835 -1 0.8121157735124249 1 -0.5172180839739484 -1 -0.502431367414195 1 0.40429782519680907 1 -0.5061276670236221 1 -0.4744131859521887 1 -0.4850103229605056 1 -0.5177619257294609 1 -0.531331002911574 1 -0.47100882418213447 1 -0.4638491347717426 1 -0.4852412590945899 1 -0.5050920971470227 1 -0.45665255785487247 1 -0.5119480423146927 1 -0.48247936980409295 1 -0.5282933925338348 1 0.379654721223617 1 -0.4729829625837266 1 -0.5061150727513899 1 -0.9741317420186608 1 -0.5360945582305403 1 -0.4757469668995514 1 -0.5147305011771518 1 -0.7121884066440052 1 -0.18622449719331483 1 -0.4798926100640574 1 -0.5186065821024172 1 -0.4863325275894087 -1 0.8214505667769834 1 -0.5365398735242363 1 -0.4587082425305409 -1 0.7414426357845516 1 -0.49576517057312397 1 -0.25025961932542573 1 -0.5039251761586601 1 -0.46669792861243975 1 -0.5329866000591474 1 -0.6677057480905123 1 -0.48748463287235494 1 -0.4761791361106064 1 -0.49624057355834594 1 -0.1839239908884802 -1 0.739520862054999 1 -0.4591724691364684 1 -0.46861373861903327 1 -0.5159978316831506 1 0.40405482731259956 1 -0.49799175695465026 1 -0.46268650779297416 1 -0.1317059053145877 1 -0.4798832584094751 1 -0.544076968882983 1 -0.5062526536672536 1 -0.5048241975144165 1 -0.8283108179796613 1 -0.48383383965050386 1 -0.4560056881425571 1 -0.4585590865907513 1 -0.521268300999232 1 -0.5077209599936869 1 -0.6711836669921334 1 -0.5246502279859109 1 -0.5276500934813588 1 0.9610000777829899 -1 -0.5001128079395077 1 -0.46813536479695605 1 -0.4931994371292925 1 -0.5188214709086447 1 -0.5250946653665008 1 -0.47394144366948343 1 -0.46897530850433977 -1 -0.5002608522761649 1 -0.2099824737455235 -1 -0.4927280881301255 -1 0.40952200492663804 1 -0.5066071587322529 1 -0.48594042562123596 1 -0.4906136310127406 1 -0.7103845632819077 1 -0.5089725278802832 1 -0.4541263665352727 -1 -0.25156030846551136 -1 -0.5365112292307885
28 1 0.0 1 0.37233729260704035 1 -0.4969367975455154 1 -0.554988811173343 1 -0.4984538199545861 1 -0.4899611566593078 1 -0.5089096797406875 1 -0.43077388309772824 1 -0.928646958587932 -1 -0.4327232306906796 1 0.5984308849883188 -1 -0.49452248849001296 1 -0.5412772509140662 1 -0.5370089884571654 1 -0.5646168749782943 1 -0.5792426737436199 -1 0.9438875655719675 1 -0.46244323485114136 -1 -0.5059407728113242 1 0.39312134569016366 1 -0.4827631274127768 1 -0.5279169421329436 1 -0.4952741470880973 1 -0.45924980310532476 1 -0.44292069227680525 1 -0.5394616743682057 1 -0.5584628994671175 1 -0.49176780972085254 1 -0.4907142260401647 1 -0.5736899635582217 1 -0.46838501369587293 1 -0.5172967584782024 1 -0.4436203554003951 1 0.32852694473026234 1 -0.5339612657671396 1 -0.4864878066418737 1 -0.9269822675859123 1 -0.4402097005931135 1 -0.5255134495789773 1 -0.46743019905700295 1 -0.6527902452915331 1 -0.2574188624033095 1 -0.518447272239496 1 -0.45635718597695196 1 -0.48782439086213597 -1 0.8738494362123901 1 -0.4331804688841513 1 -0.5682711012312319 -1 0.8057468373454235 1 -0.5150227609782276 1 -0.31901412488629766 1 -0.5036973080544601 1 -0.5575744198064855 1 -0.44083901592304964 1 -0.6259606367157117 1 -0.48523922264375313 1 -0.5222083452887032 1 -0.5028602824621206 1 -0.25885562959980396 -1 0.8075623371172 1 -0.5612607808345014 1 -0.5482784093090918 1 -0.4649602560616727 1 0.3507018988192449 1 -0.5008741923570957 1 -0.561037545989678 1 -0.18039382215881955 1 -0.5221751940862428 1 -0.42950574373891076 1 -0.4791508405550792 1 -0.49418359990888755 1 -0.7028711271258603 1 -0.4978349372794247 1 -0.5767803673472354 1 -0.5718592187927714 1 -0.4515443578711087 1 -0.4716324783775253 1 -0.6257012821160036 1 -0.45118901135645845 1 -0.4467143298492482 1 0.9429071137170676 -1 -0.5126088818406241 1 -0.5515373089883436 1 -0.5050685410357252 1 -0.45283480128185044 1 -0.44789617523571934 1 -0.5311824733515674 1 -0.5449027056930692 -1 -0.5090196526759523 1 -0.22174333660570425 -1 -0.5083344655378873 -1 0.42069848443328345 1 -0.47576807211874944 1 -0.5131282992373976 1 -0.5166327379218315 1 -0.6547236754307647 1 -0.46914677276279254 1 -0.5786383192412801 -1 -0.23850203175312434 -1 -0.4368890980920326
29 1 0.0 1 0.364898086601724 1 -0.5123284673041544 1 -0.4800154730425614 1 -0.5154862583596898 1 -0.5162212921276756 1 -0.49978120363648754 1 -0.5552858358037356 1 -0.9105539945220097 -1 -0.5534979098953579 1 0.5872544054816734 -1 -0.5149488456021873 1 -0.481253006788601 1 -0.48445929133435833 1 -0.4709571693408674 1 -0.46315932709821866 1 -0.9247103180729024 1 -0.5308960850372126 -1 -0.5109622997097825 1 0.38194486618351825 1 -0.5213177895882154 1 -0.48657906551412383 1 -0.49732407280420576 1 -0.5314399267927251 1 -0.5450090039748382 1 -0.48317470374406957 1 -0.4760150143336778 1 -0.4979246846427026 1 -0.5176873920072035 1 -0.46881843741680757 1 -0.5256260433779569 1 -0.49464524936602805 1 -0.541971393597099 1 0.2773991682369077 1 -0.4851488421456617 1 -0.5200077814637769 1 -0.8783206716518346 1 -0.5497725592938045 1 -0.4879128464614866 1 -0.528408502240416 1 -0.5971293574403901 1 -0.3323505011146333 1 -0.4920584896259926 1 -0.5322845831656814 1 -0.49808821498972766 -1 0.9275457195000031 1 -0.5502178745875005 1 -0.47087412209247603 -1 0.8737883124076244 1 -0.5042961028687114 1 -0.3864712165949633 1 -0.5139682299555766 1 -0.4788638081743749 1 -0.5466646011224117 1 -0.5804782518395819 1 -0.5005377341248802 1 -0.48834501567254157 1 -0.5079678698645661 1 -0.3300499948097987 -1 0.871866538678072 1 -0.4713383486984036 1 -0.4807796181809684 1 -0.5296758327464148 1 0.2958368488245611 1 -0.5097190532608703 1 -0.4748523873549093 1 -0.2290817390030514 1 -0.49204913797141026 1 -0.5577549699462472 1 -0.5214427762318469 1 -0.516122078522391 1 -0.5774314362720593 1 -0.4948501756419978 1 -0.4681715677044922 1 -0.47072496615268633 1 -0.5349463020624963 1 -0.5213989610569512 1 -0.583956170741203 1 -0.5383282290491751 1 -0.541328094544623 1 0.9238864115033515 -1 -0.5071316187337661 1 -0.4803012443588912 1 -0.5049267334355125 1 -0.5324994719719089 1 -0.5387726664297651 1 -0.4861073232314186 1 -0.4811411880662749 -1 -0.5072796630704233 1 -0.23090937176147244 -1 -0.5029432629350165 -1 0.43187496393992886 1 -0.5217972812968462 1 -0.4972383066292104 1 -0.5021688063109863 1 -0.5953255140782926 1 -0.5226505289435475 1 -0.4662922460972079 -1 -0.22933599659735615 -1 -0.5501892302940528
30 1 0.0 1 0.3574588805964077 1 -0.5069372647012835 1 -0.5671546907352781 1 -0.5077838432528317 1 -0.5032694820181595 1 -0.5219343898991138 1 -0.4429397626596634 1 -0.8924610304560874 -1 -0.4448891102526147 1 0.576077925975028 -1 -0.5109837039966584 1 -0.5534431304760014 1 -0.5491748680191005 1 -0.5767827545402294 1 -0.5914085533055551 1 -0.7933082017177723 1 -0.4746091144130765 -1 -0.5159838266082407 1 0.37076838667687284 1 -0.4949290069747119 1 -0.5400828216948788 1 -0.5062904830795912 1 -0.4714156826672599 1 -0.4550865718387404 1 -0.5516275539301408 1 -0.5706287790290526 1 -0.503153821416759 1 -0.49877315639635816 1 -0.5858558431201568 1 -0.4805508932578081 1 -0.5294626380401376 1 -0.4557862349623303 1 0.226271391743553 1 -0.5461271453290748 1 -0.4973562723516025 1 -0.8296590757177569 1 -0.45237558015504864 1 -0.5376793291409124 1 -0.47959607861893805 1 -0.5362190745865889 1 -0.40354486632462805 1 -0.5306131518014312 1 -0.4685230655388871 1 -0.49958007826245493 -1 0.979729881286287 1 -0.4453463484460864 1 -0.5804369807931671 -1 0.9380925139684964 1 -0.5250658147751441 1 -0.45392830830362896 1 -0.5137403618513766 1 -0.5697402993684206 1 -0.4530048954849848 1 -0.537435726612575 1 -0.49699491004407215 1 -0.5343742248506383 1 -0.5115633357656826 1 -0.4049816335211225 -1 0.9399080137402729 1 -0.5734266603964365 1 -0.5604442888710269 1 -0.4771261356236078 1 0.24097179882987738 1 -0.5095772456606577 1 -0.5732034255516132 1 -0.27776965584728325 1 -0.534341073648178 1 -0.4416716233008459 1 -0.48757944661568525 1 -0.5024572379142038 1 -0.45761081612532895 1 -0.5088512732709186 1 -0.5889462469091704 1 -0.5840250983547064 1 -0.46371023743304385 1 -0.4912729049421186 1 -0.5371763720128669 1 -0.46335489091839355 1 -0.4588802094111834 1 0.9063778307909645 -1 -0.5226519356375408 1 -0.5637031885502788 1 -0.5152837158406162 1 -0.4650006808437856 1 -0.4600620547976545 1 -0.5433483529135026 1 -0.5570685852550044 -1 -0.5190627064728688 1 -0.2438126804185697 -1 -0.5185496403427783 -1 0.44305144344657427 1 -0.4841966781793555 1 -0.5270210079497846 1 -0.5281879132200772 1 -0.5381525047258204 1 -0.4813126523247277 1 -0.5908041988032152 -1 -0.21643268794025888 -1 -0.44905497765396774
31 1 0.0 1 0.35001967459109135 1 -0.5201037824599225 1 -0.4828250083960968 1 -0.5261136955101416 1 -0.5259209911303339 1 -0.5075565187922557 1 -0.5689638368669998 1 -0.8734403282423713 -1 -0.567175910958622 1 0.5649014464683827 -1 -0.5249918993991038 1 -0.48406254214213634 1 -0.48726882668789373 1 -0.47376670469440274 1 -0.46596886245175406 1 -0.6641312373626422 1 -0.5393246910978187 -1 -0.5194932320053699 1 0.35959190717022743 1 -0.5297463956488214 1 -0.4893886008676592 1 -0.5061152567956997 1 -0.5398685328533311 1 -0.5571748835367734 1 -0.4859842390976049 1 -0.47882454968721316 1 -0.5057881304864028 1 -0.5248185842156032 1 -0.47162797277034296 1 -0.534054649438563 1 -0.5030738554266342 1 -0.5541372731590342 1 0.17514361525019834 1 -0.48795837749919707 1 -0.5271389736721767 1 -0.7797000659314729 1 -0.5634505603570688 1 -0.492234503316351 1 -0.536837108301022 1 -0.5104572619677691 1 -0.47847650503595185 1 -0.5004870956865987 1 -0.5407131892262874 1 -0.5072490746856341 1 -0.9680859569274289 1 -0.5638958756507646 1 -0.4736836574460114 1 -0.9951634248215089 1 -0.5143391566656279 1 -0.510800549502991 1 -0.522499162251164 1 -0.48167334352791025 1 -0.5603426021856759 1 -0.5201267707805707 1 -0.5109960076729929 1 -0.49677362173314765 1 -0.512933649666799 1 -0.47617599873111716 1 -0.9970851985510616 1 -0.4741478840519389 1 -0.48358915353450377 1 -0.5381044388070209 1 0.18610674883519362 1 -0.5161969545644323 1 -0.47766192270844465 1 -0.3264575726915151 1 -0.5004777440320163 1 -0.5714329710095114 1 -0.5298713822924529 1 -0.5234679783799135 1 -0.5522245808207038 1 -0.5045690977812854 1 -0.4709811030580275 1 -0.4735345015062216 1 -0.5433749081231023 1 -0.5298275671175572 1 -0.5236046896821918 1 -0.5467568351097811 1 -0.5497567006052292 1 0.89146407778299 -1 -0.5156625510293537 1 -0.48311077971242655 1 -0.5114046347390744 1 -0.540928078032515 1 -0.5472012724903712 1 -0.48891685858495393 1 -0.48395072341981027 -1 -0.5173227168673398 1 -0.2552038675743379 -1 -0.5094211642385784 -1 0.4542279229532197 1 -0.5302258873574522 1 -0.5058816203389392 1 -0.5122118601079028 1 -0.50899677339993 1 -0.5310791350041535 1 -0.4691017814507432 -1 -0.20504150078449068 -1 -0.563867231357317
32 1 0.0 1 0.342580468585775 1 -0.5116883368543935 1 -0.5714763475901425 1 -0.5060306931922256 1 -0.509575262313747 1 -0.5312218265562111 1 -0.4472614195145278 1 -0.8544196260286552 -1 -0.44921076710747904 1 0.5537249669617373 -1 -0.512383444083846 1 -0.5577647873308658 1 -0.553496524873965 1 -0.584128654397752 1 -0.5987544531630776 1 -0.5349542730075121 1 -0.47741864976661186 -1 -0.51704021190117 1 0.348415427663582 1 -0.49773854232824727 1 -0.5444044785497432 1 -0.5104166554219624 1 -0.4742252180207952 1 -0.4578961071922758 1 -0.5559492107850053 1 -0.574950435883917 1 -0.5151242164662008 1 -0.5048216424016745 1 -0.5932017429776794 1 -0.4833604286113434 1 -0.5394033656020728 1 -0.4585957703158656 1 0.12401583875684366 1 -0.5504488021839392 1 -0.4988683938529316 1 -0.7297410561451889 1 -0.45669723700991305 1 -0.5435131074971059 1 -0.4824056139724734 1 -0.5340365092277372 1 -0.5360617767339848 1 -0.5405538793633663 1 -0.4713326008924224 1 -0.5078131998105676 1 -0.915901795141145 1 -0.44966800530095075 1 -0.5877828806506896 1 -0.9321566371128432 1 -0.5246100785667444 1 -0.5306425232616301 1 -0.5157244852920997 1 -0.574061956223285 1 -0.4573265523398492 1 -0.5128537709719583 1 -0.508011246035566 1 -0.5443149524125734 1 -0.5180412370692445 1 -0.5390106654318083 1 -0.9303411373410668 1 -0.5807725602539591 1 -0.5647659457258913 1 -0.4799356709771431 1 0.13124169884050987 1 -0.5145430254628905 1 -0.5790372039078067 1 -0.37514548953574695 1 -0.544281801210113 1 -0.4459932801557104 1 -0.4903889819692206 1 -0.5085057239195201 1 -0.46042035147886434 1 -0.5176424572624125 1 -0.596292146766693 1 -0.5913709982122289 1 -0.46651977278657913 1 -0.49408244029565396 1 -0.5122247406678377 1 -0.4661644262719289 1 -0.4616897447647188 1 0.8765503247750155 -1 -0.522196199429141 1 -0.5680248454051432 1 -0.521761617144178 1 -0.4678102161973209 1 -0.4628715901511899 1 -0.547670009768367 1 -0.5613902421098688 -1 -0.518606970264469 1 -0.2665950547301061 -1 -0.5278370769998756 -1 0.4654044024598651 1 -0.48700621353289086 1 -0.5358790293086362 1 -0.5277321770116774 1 -0.5378254156625563 1 -0.484122187678263 1 -0.5981500986607378 -1 -0.19365031362872248 -1 -0.4533766345088322
33 1 0.0 1 0.3351412625804587 1 -0.529176511467897 1 -0.48340939174963216 1 -0.5386229298663351 1 -0.5387735802807858 1 -0.5127370062436114 1 -0.5763097367245223 1 -0.8353989238149391 -1 -0.5745218108161445 1 0.542548487455092 -1 -0.5381878433438141 1 -0.4846469254956717 1 -0.487853210041429 1 -0.47737533105059626 1 -0.46957748880794753 1 -0.5112200576922542 1 -0.5466705909553413 -1 -0.5357134189527383 1 0.3372389481569366 1 -0.537092295506344 1 -0.4899729842211945 1 -0.5121232263438125 1 -0.5472144327108537 1 -0.564520783394296 1 -0.48656862245114024 1 -0.4794089330407485 1 -0.5039518773274447 1 -0.5367008485771131 1 -0.47523659912653643 1 -0.5414005492960855 1 -0.5036582387801696 1 -0.5614831730165567 1 0.07288806226348898 1 -0.4885427608527324 1 -0.5344848735296992 1 -0.6797820463589049 1 -0.5707964602145913 1 -0.5002934336725445 1 -0.5441830081585446 1 -0.5251653274138084 1 -0.5204290784160688 1 -0.5010714790401339 1 -0.54805908908381 1 -0.5173639934394884 1 -0.8637176333548611 1 -0.5712417755082871 1 -0.47729228380220484 1 -0.8654125759028486 1 -0.529974960259461 1 -0.5270207364503595 1 -0.5381349658449971 1 -0.4822577268814456 1 -0.5676885020431984 1 -0.5067161191867376 1 -0.5138247661631578 1 -0.49362073158535386 1 -0.5183288447672775 1 -0.5159034201112341 1 -0.8673343496324012 1 -0.4777565104081324 1 -0.4841735368880391 1 -0.5454503386645434 1 0.07637664884582612 1 -0.5241869773693233 1 -0.4797584275633091 1 -0.4238334063799788 1 -0.49732485388422254 1 -0.578778870867034 1 -0.5372172821499756 1 -0.532540707387888 1 -0.5595704806782263 1 -0.504588320917915 1 -0.47458972941422095 1 -0.4771431278624151 1 -0.550720807980625 1 -0.5371734669750798 1 -0.5088966242361525 1 -0.5541027349673038 1 -0.5571026004627517 1 0.861636571767041 -1 -0.5312983546231866 1 -0.4836951630659619 1 -0.5167998298395529 1 -0.5482739778900375 1 -0.5545471723478937 1 -0.48950124193848926 1 -0.4845351067733456 -1 -0.5329585204611729 1 -0.2779862418858743 -1 -0.5146016516899341 -1 0.4765808819665105 1 -0.5375717872149749 1 -0.5084075404920493 1 -0.5293597852030649 1 -0.5184554438433112 1 -0.538425034861676 1 -0.47271040780693674 -1 -0.18225912647295428 -1 -0.5712131312148395
34 1 0.0 1 0.32770205657514234 1 -0.5219895721632718 1 -0.5750849739463361 1 -0.5116923505404446 1 -0.5081057274535662 1 -0.5343918696566895 1 -0.4508700458707213 1 -0.816378221601223 -1 -0.4528193934636725 1 0.5313720079484466 -1 -0.5165066590205818 1 -0.5613734136870593 1 -0.5571051512301584 1 -0.5877372807539455 1 -0.6023630795192711 1 -0.5379096084588677 1 -0.4810272761228054 -1 -0.5290673891388095 1 0.3260624686502912 1 -0.507395654689757 1 -0.5480131049059367 1 -0.5057971878196232 1 -0.4778338443769887 1 -0.4615047335484693 1 -0.5595578371411988 1 -0.5822963357414396 1 -0.5151697605129844 1 -0.5107414812618553 1 -0.5968103693338729 1 -0.48696905496753684 1 -0.5430119919582663 1 -0.46220439667205915 1 0.021760285770134315 1 -0.5540574285401327 1 -0.5137749012170996 1 -0.629823036572621 1 -0.4603058633661065 1 -0.5471217338532994 1 -0.48601424032866686 1 -0.5454793031118413 1 -0.5459924491167599 1 -0.5441625057195598 1 -0.47494122724861587 1 -0.5005989045038158 1 -0.8115334715685771 1 -0.4532766316571442 1 -0.5913915070068831 1 -0.802405788194183 1 -0.5375649939521776 1 -0.5435974386470634 1 -0.5201910550230938 1 -0.5776705825794786 1 -0.4609351786960427 1 -0.5104594553696191 1 -0.5024640402854331 1 -0.547923578768767 1 -0.5246649384706268 1 -0.5510378426694479 1 -0.8005902884224065 1 -0.5843811866101525 1 -0.5683745720820849 1 -0.4835442973333366 1 0.021511598851142365 1 -0.5237615545686853 1 -0.5789085567626712 1 -0.47252132322421064 1 -0.5478904275663066 1 -0.44960190651190385 1 -0.5000460943307304 1 -0.5170801300779464 1 -0.4640289778350578 1 -0.5120689306021254 1 -0.5999007731228865 1 -0.5949796245684225 1 -0.4701283991427727 1 -0.5037395526571639 1 -0.5076052730654985 1 -0.46977305262812247 1 -0.46529837112091227 1 0.8467228187590665 -1 -0.5351511148145742 1 -0.5716334717613367 1 -0.5281706108964375 1 -0.47141884255351435 1 -0.46648021650738336 1 -0.5512786361245605 1 -0.5649988684660623 -1 -0.5315618856499023 1 -0.2893774290416425 -1 -0.5312218277494769 -1 0.4877573614731559 1 -0.4966633258944007 1 -0.5401317786121982 1 -0.5406870923971107 1 -0.5477560880453314 1 -0.49075505703711464 1 -0.6017587250169313 -1 -0.17086793931718608 -1 -0.45698526086502567
35 1 0.0 1 0.31652557706849693 1 -0.531263848365292 1 -0.4870180181058257 1 -0.5466981259535227 1 -0.5474331597215087 1 -0.5219555353494061 1 -0.5812157769329221 1 -0.8014644685932485 -1 -0.5794278510245443 1 0.5201955284418013 -1 -0.5481185157265892 1 -0.4882555518518652 1 -0.4914618363976224 1 -0.4809839574067898 1 -0.47318611516414105 1 -0.5187117576475971 1 -0.5502792173115347 -1 -0.5456440913355134 1 0.31862326264497487 1 -0.5428571663112349 1 -0.4950937320787171 1 -0.510837937854711 1 -0.5508230590670472 1 -0.5694268236026958 1 -0.49017724880733377 1 -0.483017559396942 1 -0.5032246512817243 1 -0.5383587701762624 1 -0.47884522548272995 1 -0.545009175652279 1 -0.5148274726430084 1 -0.5663892132249565 1 -0.03310476422454944 1 -0.49215138720892593 1 -0.5348453812766424 1 -0.579864026786337 1 -0.5757025004229911 1 -0.5069263030313962 1 -0.5477916345147381 1 -0.5305596352925963 1 -0.5273355077961858 1 -0.5107285914016438 1 -0.5516677154400035 1 -0.514411615393768 1 -0.7596926645765516 1 -0.5761478157166868 1 -0.48090091015839836 1 -0.7334365749841882 1 -0.5399056326422361 1 -0.5339271658304765 1 -0.5465535167264431 1 -0.4858663532376391 1 -0.5725945422515982 1 -0.5076559826976361 1 -0.5125394776740562 1 -0.4987414794428765 1 -0.5264646676699888 1 -0.5188578683408992 1 -0.735358348713741 1 -0.4813651367643258 1 -0.4877821632442326 1 -0.5490589650207369 1 -0.02961617764221231 1 -0.5292985572693765 1 -0.48336705391950263 1 -0.5017480322853484 1 -0.5024456017417451 1 -0.5836849110754337 1 -0.5468743945114853 1 -0.5316038012826247 1 -0.5644765208866261 1 -0.5051585087244008 1 -0.4781983557704145 1 -0.4807517542186086 1 -0.5556268481890247 1 -0.5442357516321772 1 -0.5076113357470509 1 -0.5590087751757036 1 -0.5620086406711515 1 0.831809065751092 -1 -0.5412290270059618 1 -0.4873037894221554 1 -0.5262330665944704 1 -0.5531800180984373 1 -0.5594532125562935 1 -0.4931098682946828 1 -0.4881437331295391 -1 -0.542889192843948 1 -0.3007686161974107 -1 -0.5240348884448517 -1 0.4989338409798013 1 -0.5472288995764847 1 -0.5171966542995985 1 -0.5362662145831819 1 -0.523849751722099 1 -0.5450579042205277 1 -0.47631903416313026 -1 -0.15947675216141788 -1 -0.5761191714232393
36 1 0.0 1 0.3090863710631806 1 -0.5255890305619958 1 -0.5799910141547359 1 -0.5250169416302904 1 -0.5189904588942892 1 -0.5395034495567426 1 -0.45447867222691485 1 -0.786550715585274 -1 -0.4577254336720723 1 0.5090190489351559 -1 -0.5144264198967115 1 -0.5662794538954591 1 -0.5620111914385582 1 -0.5926433209623453 1 -0.607269119727671 1 -0.5415090668575918 1 -0.4846359024789988 -1 -0.5314374540149392 1 0.30744678313832946 1 -0.5161847684973062 1 -0.5544312666156656 1 -0.5084041408871406 1 -0.48144247073318225 1 -0.4664107737568691 1 -0.5644638773495986 1 -0.5872023759498394 1 -0.5183347760238828 1 -0.5184478888663209 1 -0.6017164095422727 1 -0.509350109334363 1 -0.5450993288556613 1 -0.46711043688045895 1 -0.08552995457011038 1 -0.5589634687485325 1 -0.520183894969359 1 -0.5324998447044655 1 -0.4652119035745063 1 -0.5511597755077385 1 -0.49113498818618945 1 -0.5508736109906293 1 -0.5528988784968769 1 -0.5486299626722446 1 -0.4785498536048094 1 -0.5045032714235395 1 -0.7078518575845261 1 -0.4581826718655439 1 -0.5962975472152829 1 -0.6682046352755227 1 -0.5429593018309655 1 -0.5474796250245222 1 -0.5286096059045399 1 -0.5825766227878784 1 -0.4658412189044425 1 -0.510256873083601 1 -0.5063684072051566 1 -0.5543417404784958 1 -0.531288639872009 1 -0.5579442720495648 1 -0.6663891355037462 1 -0.5892872268185522 1 -0.5732806122904847 1 -0.4871529236895301 1 -0.08577864148910236 1 -0.5288731344687385 1 -0.583814596971071 1 -0.5218928443810421 1 -0.5530111754238292 1 -0.45321053286809737 1 -0.49920441668692395 1 -0.5221917099779996 1 -0.4689350180434576 1 -0.5165313599652301 1 -0.6048068133312863 1 -0.5998856647768223 1 -0.4750344393511725 1 -0.5123139588155903 1 -0.5139494996343449 1 -0.47467909283652227 1 -0.47020441132931207 1 0.8168953127431176 -1 -0.540545422693362 1 -0.5765395119697365 1 -0.5347943122978197 1 -0.47632488276191415 1 -0.47138625671578316 1 -0.5561846763329603 1 -0.5699049086744621 -1 -0.5369561935286902 1 -0.3121598033531789 -1 -0.5363334076495301 -1 0.5101103204864467 1 -0.4958216482505942 1 -0.5437312370109223 1 -0.5445692787745695 1 -0.5576867604281065 1 -0.5056615644012826 1 -0.6066647652253311 -1 -0.14808556500564968 -1 -0.46189130107342546
37 1 0.0 1 0.2979098915565352 1 -0.5363754282653451 1 -0.4906266444620192 1 -0.5551166768349688 1 -0.5549239724551611 1 -0.5257697013972529 1 -0.5848244032891157 1 -0.7716369625772995 -1 -0.5843338912329441 1 0.49410529592718144 -1 -0.5552659736659831 1 -0.4918641782080587 1 -0.495070462753816 1 -0.4845925837629833 1 -0.4767947415203346 1 -0.522525923695444 1 -0.5551852575199345 -1 -0.5495262777129722 1 0.3000075771330131 1 -0.5488367447652488 1 -0.5017266014375688 1 -0.5197769921279699 1 -0.555729099275447 1 -0.5743328638110956 1 -0.49378587516352734 1 -0.48662618575313554 1 -0.5117940298505708 1 -0.5447677639285218 1 -0.4824538518389235 1 -0.5535835818107053 1 -0.5156173956881971 1 -0.5712952534333563 1 -0.14169241841700042 1 -0.49576001356511945 1 -0.5412543750289018 1 -0.5144110210064325 1 -0.5806085406313909 1 -0.5111790523349581 1 -0.554209796224467 1 -0.5368816813191779 1 -0.5336575538227674 1 -0.5138986345021224 1 -0.5565737556484033 1 -0.5246480835192332 1 -0.6560110505925005 1 -0.5810538559250866 1 -0.4845095365145919 1 -0.5992354220655279 1 -0.5447155571674887 1 -0.538737090355729 1 -0.5534599461065601 1 -0.4894749795938327 1 -0.577500582459998 1 -0.516595036970895 1 -0.5214785319473151 1 -0.5053743488017282 1 -0.533088369071371 1 -0.5251799143674808 1 -0.6011571957950806 1 -0.4849737631205192 1 -0.49139078960042615 1 -0.5539650052291367 1 -0.1382038318346633 1 -0.5344101371694296 1 -0.4869756802756962 1 -0.5099477351497821 1 -0.5077810572483905 1 -0.5872935374316273 1 -0.5548046777225433 1 -0.538227502684007 1 -0.5693825610950259 1 -0.5137278872932471 1 -0.48180698212660805 1 -0.48436038057480213 1 -0.5605328883974245 1 -0.5515127439383973 1 -0.5152529761681035 1 -0.5639148153841034 1 -0.5669146808795513 1 0.8019815597351431 -1 -0.5475510730325434 1 -0.49091241577834893 1 -0.5300472326423173 1 -0.5580860583068371 1 -0.5643592527646933 1 -0.49974273765353444 1 -0.49175235948573265 -1 -0.5492112388705296 1 -0.3235509905089471 -1 -0.5278490544926986 -1 0.5250240734944212 1 -0.5551591827875426 1 -0.5194986988461163 1 -0.5410761391084344 1 -0.5286596762473516 1 -0.5562271380833667 1 -0.4799276605193238 -1 -0.13669437784988148 -1 -0.5810252116316391
38 1 0.0 1 0.29047068555121885 1 -0.5309153181111718 1 -0.5835996405109294 1 -0.5276017141555429 1 -0.5311462832770644 1 -0.5420202017523831 1 -0.45808729858310837 1 -0.756723209569325 -1 -0.4613340600282658 1 0.47919154291920696 -1 -0.5209894944825699 1 -0.5698880802516526 1 -0.5656198177947517 1 -0.5962519473185388 1 -0.6108777460838645 1 -0.5453232329054387 1 -0.4934939238378505 -1 -0.5407837430441791 1 0.2888310976263677 1 -0.5208669330991138 1 -0.5610641359745172 1 -0.5110110939546578 1 -0.48878837059070485 1 -0.47001940011306265 1 -0.5680725037057921 1 -0.5908110023060329 1 -0.5256067407405229 1 -0.5220473472650449 1 -0.6053250358984661 1 -0.5136028586379249 1 -0.5497814934574687 1 -0.47071906323665247 1 -0.19260548726123228 1 -0.562572095104726 1 -0.5237833533680831 1 -0.5194517710415203 1 -0.46882052993069984 1 -0.558007352515713 1 -0.5067545260490284 1 -0.5566112736636755 1 -0.5601486626712522 1 -0.5543948334771357 1 -0.4821584799610029 1 -0.5071102244910567 1 -0.604170243600475 1 -0.4617912982217374 1 -0.5999061735714765 1 -0.5340034823568623 1 -0.5502090860053409 1 -0.5532172876975685 1 -0.5394680164351088 1 -0.5861852491440719 1 -0.46944984526063605 1 -0.5128638261511184 1 -0.508975360272674 1 -0.5609746098373475 1 -0.536614927421185 1 -0.5651940562239401 1 -0.5321879825850859 1 -0.5928958531747456 1 -0.5768892386466782 1 -0.5102470085550272 1 -0.19285417418022427 1 -0.5326873005165854 1 -0.5874232233272645 1 -0.5287951333932696 1 -0.5596440447826808 1 -0.4568191592242909 1 -0.5036121340457755 1 -0.5275179975271755 1 -0.4725436443996512 1 -0.5238033246818702 1 -0.6084154396874798 1 -0.6034942911330158 1 -0.47864306570736603 1 -0.5167814157682751 1 -0.5165564527018621 1 -0.4782877191927158 1 -0.47381303768550564 1 0.7870678067271686 -1 -0.5477952068677374 1 -0.58014813832593 1 -0.5373110644934603 1 -0.4799335091181077 1 -0.4749948830719767 1 -0.562817545691812 1 -0.5735135350306556 -1 -0.5442059777030654 1 -0.3349421776647153 -1 -0.5403622813464998 -1 0.5399378265023956 1 -0.4972051226067877 1 -0.5486281092618527 1 -0.5518190629489448 1 -0.5619123015998236 1 -0.4855491358972954 1 -0.6102733915815246 -1 -0.12832743369677144 -1 -0.465499927429619
39 1 0.0 1 0.27929420604457345 1 -0.5419164234636439 1 -0.4912110278155546 1 -0.5614387228615504 1 -0.5606616351282073 1 -0.5267743320915643 1 -0.5884330296453092 1 -0.7418094565613506 -1 -0.5879425175891375 1 0.4642777899112325 -1 -0.5612446648983063 1 -0.4924485615615941 1 -0.49565484610735133 1 -0.4851769671165187 1 -0.4760817110216637 1 -0.5248279682419619 1 -0.5603060053774571 -1 -0.5493015148846895 1 0.2813918916210514 1 -0.5537336170161792 1 -0.5053352277937623 1 -0.5223839451954871 1 -0.5593377256316405 1 -0.5779414901672891 1 -0.4943702585170627 1 -0.4872105691066709 1 -0.5127338933614692 1 -0.549664636179452 1 -0.4817408213402525 1 -0.556538917262061 1 -0.5202995602900046 1 -0.5749038797895498 1 -0.24725582960679324 1 -0.5015937919213129 1 -0.5476633687811613 1 -0.5170179740739499 1 -0.5842171669875844 1 -0.5150023863402744 1 -0.5623547870846477 1 -0.535144796989566 1 -0.5319206694931554 1 -0.5166392623043552 1 -0.5601823820045968 1 -0.5272550365867504 1 -0.5575190920172746 1 -0.58466248228128 1 -0.4850939198681273 1 -0.5545321657040181 1 -0.5414665513365478 1 -0.5370002060261172 1 -0.5532351832782773 1 -0.490059362947368 1 -0.5811092088161915 1 -0.5204994038906187 1 -0.5253828988670387 1 -0.5089829751579217 1 -0.5356051212670117 1 -0.5234430300378689 1 -0.5579660609348999 1 -0.4855581464740545 1 -0.49197517295396154 1 -0.559515168384905 1 -0.24376724302445613 1 -0.5369268893650703 1 -0.48756006362923154 1 -0.5118153368084742 1 -0.5129018051059131 1 -0.5909021637878208 1 -0.562949668582724 1 -0.545065911734512 1 -0.5729911874512195 1 -0.5146677508041456 1 -0.4810939516279371 1 -0.4849447639283375 1 -0.5641415147536181 1 -0.5546827870388759 1 -0.519157343087827 1 -0.5675234417402969 1 -0.5705233072357448 1 0.7721540537191941 -1 -0.5458141887029314 1 -0.4914967991318843 1 -0.532563984837958 1 -0.5616946846630306 1 -0.5679678791208869 1 -0.4981019690070698 1 -0.49233674283926804 -1 -0.5474743545409176 1 -0.3463333648204835 -1 -0.5303658066883392 -1 0.5548515795103701 1 -0.5602799306450652 1 -0.5228834495957176 1 -0.5393392547788225 1 -0.5269227919177396 1 -0.5598357644395602 1 -0.4792146300206529 -1 -0.1199604895436614 -1 -0.5846338379878326
40 1 0.0 1 0.2718550000392571 1 -0.5304078273041543 1 -0.5841840238644648 1 -0.5191033133219438 1 -0.5258007725912589 1 -0.5443222462989008 1 -0.4573742680844375 1 -0.7268957035533761 -1 -0.4606210295295948 1 0.449364036903258 -1 -0.5226465288600287 1 -0.570472463605188 1 -0.5662042011482871 1 -0.5968363306720742 1 -0.6101647155851936 1 -0.5474105698028338 1 -0.49357998434183775 -1 -0.5435832232185545 1 0.270215412114406 1 -0.5212274408460569 1 -0.5646727623307107 1 -0.5149154608743813 1 -0.5112980721026665 1 -0.46930636961439176 1 -0.5686568870593275 1 -0.5913953856595683 1 -0.529141431955834 1 -0.5224078550119879 1 -0.6046120053997952 1 -0.5150460725879514 1 -0.5544636580592762 1 -0.4700060327379815 1 -0.2981688984510251 1 -0.5646685999595904 1 -0.5256559826163554 1 -0.5220587241090376 1 -0.46810749943202895 1 -0.5592358588166167 1 -0.48361785454238293 1 -0.5594107538380508 1 -0.5614360213442984 1 -0.5571354612793685 1 -0.5009309079716356 1 -0.5102752400019551 1 -0.5318078510348184 1 -0.4610782677230664 1 -0.6004905569250119 1 -0.5383150840325668 1 -0.5514964446783872 1 -0.5545046463706148 1 -0.542267496609484 1 -0.5867696324976073 1 -0.46873681476196516 1 -0.516768193070842 1 -0.512510051487985 1 -0.564583236193541 1 -0.5361074366141674 1 -0.5631138171000698 1 -0.535915200907255 1 -0.5934802365282809 1 -0.5774736220002136 1 -0.507738241354602 1 -0.29841758537001706 1 -0.533691931210897 1 -0.5880076066807999 1 -0.531960148904168 1 -0.5621699649357909 1 -0.45610612872562 1 -0.48047546253913015 1 -0.5298200420736933 1 -0.47183061390098024 1 -0.5260406020449749 1 -0.6077024091888088 1 -0.6040786744865512 1 -0.47793003520869515 1 -0.5169272158660955 1 -0.5204608196215856 1 -0.4775746886940449 1 -0.4731000071868347 1 0.7572403007112196 -1 -0.5490825655407836 1 -0.5807325216794654 1 -0.5383156951877719 1 -0.48669502562209493 1 -0.4742818525733058 1 -0.5649140505466764 1 -0.574097918384191 -1 -0.5470054578774408 1 -0.3577245519762517 -1 -0.5413669120408113 -1 0.5697653325183446 1 -0.4972911831107749 1 -0.5507154461592477 1 -0.553106421621991 1 -0.5607598006237471 1 -0.504321563907928 1 -0.6095603610828537 -1 -0.11159354539055136 -1 -0.4647868969309481
41 1 0.0 1 0.2606785205326117 1 -0.5411942250075036 1 -0.4904979973168837 1 -0.5590151289434218 1 -0.555557153001679 1 -0.5277789627858758 1 -0.5877199991466383 1 -0.7119819505454016 -1 -0.5872294870904666 1 0.4344502838952835 -1 -0.5576523042731069 1 -0.4917355310629232 1 -0.49494181560868045 1 -0.4844639366178478 1 -0.4753686805229928 1 -0.5256178912871506 1 -0.5641293393827734 -1 -0.5530287332068585 1 0.26277620610908964 1 -0.5538794171139995 1 -0.5008849237937623 1 -0.5262883121152107 1 -0.5618636457847506 1 -0.5772284596686182 1 -0.4936572280183918 1 -0.486497538608 1 -0.5181240608723677 1 -0.5500251439263951 1 -0.4810277908415816 1 -0.5592795450642938 1 -0.5206600680369476 1 -0.5741908492908789 1 -0.3528192407965861 1 -0.5046180349239711 1 -0.5480238765281045 1 -0.5192552514370546 1 -0.5835041364889135 1 -0.516445600290301 1 -0.5616417565859768 1 -0.5373598938104059 1 -0.5319106143139953 1 -0.5180824762543819 1 -0.5640057160099131 1 -0.530420052097649 1 -0.5144583787456105 1 -0.5839494517826092 1 -0.4843808893694564 1 -0.5582593840261872 1 -0.5451937696587168 1 -0.5392153028469572 1 -0.5554502800991172 1 -0.48934633244869713 1 -0.5803961783175207 1 -0.523106356958136 1 -0.5276201762301435 1 -0.5082699446592507 1 -0.5353123381091168 1 -0.5283390150671086 1 -0.5611088959035335 1 -0.4848451159753835 1 -0.49126214245529065 1 -0.5633385023902213 1 -0.3493306542142489 1 -0.5381462277085046 1 -0.48684703313056066 1 -0.510873403113631 1 -0.5111060684041587 1 -0.5901891332891499 1 -0.5622366380840531 1 -0.5443437132783716 1 -0.5722781569525486 1 -0.5187605044628377 1 -0.4803809211292661 1 -0.48423173342966663 1 -0.5634284842549472 1 -0.5561260009889025 1 -0.522692034303138 1 -0.566810411241626 1 -0.569810276737074 1 0.7423265477032451 -1 -0.5480292855237714 1 -0.49078376863321344 1 -0.5322712016800633 1 -0.5609816541643597 1 -0.567254848622216 1 -0.4973889385083989 1 -0.49162371234059715 -1 -0.5512015728630868 1 -0.3691157391320199 -1 -0.5315851450317736 -1 0.5846790855263191 1 -0.5641032646503815 1 -0.5236733726409064 1 -0.5430664731009915 1 -0.5349716670947732 1 -0.5636590984448765 1 -0.478501599521982 -1 -0.10322660123744132 -1 -0.5839208074891618
42 1 0.0 1 0.25323931452729537 1 -0.5314124579984658 1 -0.5834709933657939 1 -0.5310018434144478 1 -0.5402678094780213 1 -0.5455415846423352 1 -0.4566612375857666 1 -0.6970681975374271 -1 -0.45990799903092394 1 0.419536530887309 -1 -0.537113565746791 1 -0.5697594331065171 1 -0.5654911706496162 1 -0.5961233001734033 1 -0.6094516850865227 1 -0.5497126143493516 1 -0.4779178598378505 -1 -0.5467260581871881 1 0.25159972660244423 1 -0.521587948593 1 -0.5639597318320397 1 -0.5124877265883633 1 -0.5018130807491312 1 -0.4685933391157209 1 -0.5679438565606566 1 -0.5906823551608974 1 -0.5269020844087845 1 -0.5244951919093829 1 -0.6038989749011243 1 -0.5119529220339908 1 -0.5548241658062193 1 -0.46929300223931064 1 -0.40373230964081797 1 -0.5639555694609195 1 -0.5277433195137504 1 -0.5205587279708133 1 -0.46739446893335806 1 -0.5619764866188496 1 -0.5053284650516865 1 -0.5610414673053554 1 -0.5660909778142611 1 -0.5598760890816015 1 -0.48526878346764835 1 -0.5087752438637309 1 -0.529568503487769 1 -0.46036523722439554 1 -0.599777526426341 1 -0.5339833719985424 1 -0.5531271581456918 1 -0.5576474813392485 1 -0.5438982100767886 1 -0.5860566019989364 1 -0.4680237842632943 1 -0.5156378726370302 1 -0.510082317201967 1 -0.56387020569487 1 -0.5360293611053955 1 -0.5668410354222388 1 -0.5263340938705723 1 -0.5927672060296099 1 -0.5767605915015427 1 -0.4958133903519438 1 -0.4039809965598099 1 -0.533613855702125 1 -0.587294576182129 1 -0.5310182152093248 1 -0.5616716420862428 1 -0.4553930982269491 1 -0.49844879954710464 1 -0.5293125512666756 1 -0.47111758340230936 1 -0.5238012544979255 1 -0.6069893786901379 1 -0.6033656439878803 1 -0.49216609871534056 1 -0.5170730159639159 1 -0.5189608234833614 1 -0.476861658195374 1 -0.4723869766881638 1 0.7274127946952706 -1 -0.5507132790080882 1 -0.5800194911807945 1 -0.538237619679 1 -0.5099177576327276 1 -0.4735688220746349 1 -0.5642010200480054 1 -0.5733848878855201 -1 -0.5486361713447455 1 -0.3805069262877881 -1 -0.5428009580333685 -1 0.5995928385342936 1 -0.4816290586067877 1 -0.5515053692044365 1 -0.5562492565906247 1 -0.5639026355923809 1 -0.4886594394039408 1 -0.6088473305841828 -1 -0.09485965708433128 -1 -0.4640738664322772
43 1 0.0 1 0.24206283502064999 1 -0.5411161494987317 1 -0.4897849668182128 1 -0.5657665902682489 1 -0.5586999879703126 1 -0.5305104226306392 1 -0.5870069686479674 1 -0.6821544445294526 -1 -0.5865164565917957 1 0.40462277787933454 -1 -0.5607951392417405 1 -0.49102250056425234 1 -0.49725302811266775 1 -0.4837509061191769 1 -0.4746556500243219 1 -0.5279199358336685 1 -0.5634163088841025 -1 -0.5546594466741631 1 0.24416052059712792 1 -0.5544546325100653 1 -0.5031961362977495 1 -0.5225631639769863 1 -0.5611506152860797 1 -0.5765154291699474 1 -0.4929441975197209 1 -0.4857845081093291 1 -0.5153266508819371 1 -0.552327188472913 1 -0.4803147603429107 1 -0.5574838083625394 1 -0.5225326972852198 1 -0.573477818792208 1 -0.459894773487708 1 -0.5069292474279583 1 -0.549028507222416 1 -0.5181249310032429 1 -0.5827911059902426 1 -0.5139368330898756 1 -0.5609287260873058 1 -0.5405027287790396 1 -0.5274928417759835 1 -0.5208231040566147 1 -0.5632926855112422 1 -0.5289200559594246 1 -0.51166096875518 1 -0.5832364212839383 1 -0.4836678588707855 1 -0.5629143404961501 1 -0.5468244831260214 1 -0.5423581378155908 1 -0.5570809935664218 1 -0.48863330195002624 1 -0.5796831478188498 1 -0.5219760365243242 1 -0.5251924419441254 1 -0.512093278664567 1 -0.5367463841016741 1 -0.5245056258826323 1 -0.5660048809327732 1 -0.4841320854767125 1 -0.49054911195661977 1 -0.5626254718915504 1 -0.4564061869053708 1 -0.5395802737010618 1 -0.48613400263188977 1 -0.5103011451232004 1 -0.5173692620585979 1 -0.589476102790479 1 -0.5615236075853821 1 -0.5468604654740121 1 -0.5715651264538777 1 -0.5163327701768197 1 -0.47966789063059523 1 -0.48351870293099575 1 -0.5627154537562762 1 -0.5562718010867229 1 -0.52026430001712 1 -0.5660973807429551 1 -0.5690972462384031 1 0.7124990416872962 -1 -0.549659998991076 1 -0.49007073813454255 1 -0.5337052476726204 1 -0.5604833313148117 1 -0.5665418181235451 1 -0.4997001510123861 1 -0.49091068184192627 -1 -0.5528322863303915 1 -0.3888738704408981 -1 -0.5330191910243307 -1 0.614506591542268 1 -0.5633902341517106 1 -0.5244632956860952 1 -0.5446971865682961 1 -0.5350902590607487 1 -0.5629460679462056 1 -0.4777885690233111 -1 -0.08649271293122124 -1 -0.5832077769904909
44 1 0.0 1 0.23462362901533368 1 -0.532846503991023 1 -0.582757962867123 1 -0.5211199682246551 1 -0.5403864014439969 1 -0.543951387632234 1 -0.4559482070870957 1 -0.6672406915214781 -1 -0.45919496853225306 1 0.38970902487136005 -1 -0.5372321577127666 1 -0.5690464026078462 1 -0.5678023831536034 1 -0.5954102696747324 1 -0.6087386545878518 1 -0.5463955881887987 1 -0.48022907234183776 -1 -0.5468446501531636 1 0.23298404109048254 1 -0.5236752854903949 1 -0.566270944336027 1 -0.5113574061545515 1 -0.5056364147544475 1 -0.46788030861705 1 -0.5672308260619857 1 -0.5899693246622265 1 -0.5266995021227664 1 -0.5267972364559007 1 -0.6031859444024534 1 -0.5162056713375527 1 -0.5541019673500789 1 -0.46857997174063976 1 -0.5123199638332689 1 -0.5662667819649068 1 -0.528747950208062 1 -0.5207258213892078 1 -0.4666814384346872 1 -0.5632049929197533 1 -0.5091517990570028 1 -0.56267218077266 1 -0.5652818316324428 1 -0.5574270614750092 1 -0.4875799959716356 1 -0.5095003997255064 1 -0.529365921201751 1 -0.45965220672572465 1 -0.5990644959276701 1 -0.5280534779592017 1 -0.5562699931143255 1 -0.559278194806553 1 -0.5440168020427641 1 -0.5853435715002655 1 -0.4673107537646234 1 -0.5158049660554247 1 -0.509879734915949 1 -0.5650987119957738 1 -0.5374634070979527 1 -0.5651041510926269 1 -0.5176209853878503 1 -0.5920541755309389 1 -0.5760475610028718 1 -0.49963672435726014 1 -0.5125686507522609 1 -0.5365600231960113 1 -0.5865815456834581 1 -0.5317433710711004 1 -0.560305320682734 1 -0.45468006772827824 1 -0.502272133552421 1 -0.5303171819609871 1 -0.4704045529036385 1 -0.52396834791632 1 -0.606276348191467 1 -0.6026526134892094 1 -0.4959894327206568 1 -0.5202430590643944 1 -0.5191279169017559 1 -0.47614862769670313 1 -0.47167394618949293 1 0.6975852886793217 -1 -0.5523439924753928 1 -0.5793064606821237 1 -0.5396716656715571 1 -0.5139557992871668 1 -0.472855791575964 1 -0.5665122325519927 1 -0.5726718573868492 -1 -0.5502668848120502 1 -0.3972408145940081 -1 -0.5427228825245966 -1 0.6294203445502425 1 -0.483940271110775 1 -0.550997878397419 1 -0.5578799700579293 1 -0.5640212275583564 1 -0.4909706519079281 1 -0.608134300085512 -1 -0.0781257687781112 -1 -0.46336083593360633
45 1 0.0 1 0.2234471495086883 1 -0.5410380739899597 1 -0.48907193631954193 1 -0.5591499866403914 1 -0.5588185799362881 1 -0.5304323471218673 1 -0.5888887658537091 1 -0.6523269385135037 -1 -0.5883982537975373 1 0.37479527186338557 -1 -0.5624258527090451 1 -0.49030947006558145 1 -0.49280272411266773 1 -0.48303787562050604 1 -0.47394261952565103 1 -0.5276271526757738 1 -0.5683223490925023 -1 -0.5532659171388096 1 0.22554483508516623 1 -0.5535177264048021 1 -0.5024831057990785 1 -0.5315022182502452 1 -0.5675687769958085 1 -0.5783972263756889 1 -0.4959684405223791 1 -0.4850714776106582 1 -0.5173492205959189 1 -0.5503075761645663 1 -0.4796017298442398 1 -0.5591417299616888 1 -0.5233226203304084 1 -0.5753596159979497 1 -0.5287275024276337 1 -0.5062162169292874 1 -0.5470088949140695 1 -0.519219762569431 1 -0.5846729031959843 1 -0.5151653393907794 1 -0.5673468877970347 1 -0.5406213207450151 1 -0.5289949080981525 1 -0.5213983194526807 1 -0.568198725719642 1 -0.5371197588238583 1 -0.5146112766169556 1 -0.5851182184896799 1 -0.4829548283721146 1 -0.5611774561665381 1 -0.548455196593326 1 -0.5424767297815664 1 -0.5556874640310683 1 -0.48792027145135536 1 -0.5815649450245914 1 -0.523440543794925 1 -0.5337618205129718 1 -0.5118096634641417 1 -0.5366683085929022 1 -0.5325545010596657 1 -0.5590449225106573 1 -0.4834190549780415 1 -0.4898360814579489 1 -0.5690436336012793 1 -0.5252389158452965 1 -0.5410143196936189 1 -0.4854209721332189 1 -0.5119540391327697 1 -0.5175150621564182 1 -0.5913578999962207 1 -0.5679417692951111 1 -0.5435434393134592 1 -0.5734469236596194 1 -0.5183553398908016 1 -0.47895486013192434 1 -0.48280567243232486 1 -0.569133615466005 1 -0.556632308833666 1 -0.5226565454355145 1 -0.5679791779486968 1 -0.5709790434441447 1 0.6826715356713472 -1 -0.5497785909570515 1 -0.48935770763587166 1 -0.5351392936651775 1 -0.5619265452648383 1 -0.5684236153292868 1 -0.49898712051371513 1 -0.4901976513432554 -1 -0.552950878296367 1 -0.40560775874711813 -1 -0.5329411155155588 -1 0.644334097558217 1 -0.5682962743601105 1 -0.5254679263804067 1 -0.5448157785342717 1 -0.5367209725280533 1 -0.5678521081546054 1 -0.47707553852464024 -1 -0.06975882462500116 -1 -0.5850895741962325
